{"learner":{"attributes":{"scikit_learn":"{\"_estimator_type\": \"regressor\"}"},"feature_names":["temperature_2m_mean","precipitation_sum","wind_speed_10m_max","wind_direction_10m_dominant","pm25_roll3","pm25_lag1","pm25_lag2","pm25_lag3"],"feature_types":["float","float","float","float","float","float","float","float"],"gradient_booster":{"model":{"gbtree_model_param":{"num_parallel_tree":"1","num_trees":"100"},"iteration_indptr":[0,1,2,3,4,5,6,7,8,9,10,11,12,13,14,15,16,17,18,19,20,21,22,23,24,25,26,27,28,29,30,31,32,33,34,35,36,37,38,39,40,41,42,43,44,45,46,47,48,49,50,51,52,53,54,55,56,57,58,59,60,61,62,63,64,65,66,67,68,69,70,71,72,73,74,75,76,77,78,79,80,81,82,83,84,85,86,87,88,89,90,91,92,93,94,95,96,97,98,99,100],"tree_info":[0,0,0,0,0,0,0,0,0,0,0,0,0,0,0,0,0,0,0,0,0,0,0,0,0,0,0,0,0,0,0,0,0,0,0,0,0,0,0,0,0,0,0,0,0,0,0,0,0,0,0,0,0,0,0,0,0,0,0,0,0,0,0,0,0,0,0,0,0,0,0,0,0,0,0,0,0,0,0,0,0,0,0,0,0,0,0,0,0,0,0,0,0,0,0,0,0,0,0,0],"trees":[{"base_weights":[3.929041E-8,-1.1328193E0,4.462795E0,-1.8833835E0,2.4277523E-1,6.4373245E0,8.716504E-1,-2.8104103E0,-1.3738279E0,1.0943468E0,-1.2194443E0,4.0487213E0,9.889431E0,2.6988046E0,-7.505994E-1,-9.9963117E-1,-2.3768356E0,-8.2679635E-1,-2.180883E0,-2.8477612E-1,1.7276312E0,-1.3300717E0,8.424781E-1,1.3189192E0,5.2466626E0,3.4943304E0,1.1012467E1,1.6483349E0,6.230544E0,1.17351666E-1,-1.4194305E0,-2.481067E0,-1.3199103E0,-1.6664896E0,-4.3665224E-1,-1.9566797E0,-2.3806276E0,-8.146914E-1,1.6701124E0,2.832939E0,4.6031243E-1,-7.75673E-1,-1.6098735E0,3.1233647E-1,4.2485425E-1,-8.0742556E-1,2.5110252E0,6.6973205E0,3.5509079E0,1.2034533E0,5.9211354E0,1.2311527E1,5.9800897E0,3.22313E0,8.151502E-1,9.246135E0,2.4361353E0,-4.252991E-1,2.7206051E0,-7.4391043E-1,-1.923221E0,-7.948908E-1,-6.6113925E-1,2.3719091E0,-6.6648847E-1,-6.3557184E-1,-3.8262886E-1,-2.6957074E-1,1.13554336E-1,-5.9349334E-1,-1.1445484E-1,-5.825827E-1,-7.5616026E-1,-3.2219273E-1,3.2937983E-1,-1.4564008E-2,8.1136334E-1,1.1851295E0,2.051996E-1,1.8394182E-2,6.937769E-1,2.4572693E-1,-3.0173847E-1,-2.5593376E-1,-5.988348E-1,1.9088746E-3,1.0868148E-1,1.918146E-2,-3.4424517E-1,5.517388E-1,1.184727E0,1.5437645E0,2.6098692E0,1.6454625E0,6.0429054E-1,7.639867E-1,-4.343867E-1,2.2266545E0,7.693633E-1,5.8897157E0,3.3504984E0,2.6759255E0,6.44536E-1,2.0772694E-1,1.553536E0,4.3823195E-1,-3.0286402E-1,-6.859113E-2,3.189701E0,1.3278543E0,-1.9813667E-1,7.8954524E-1,-2.2476809E-1,1.1268543E0,-3.685911E-1,-3.08061E-1,3.6054522E-1,9.49089E-2,-6.103048E-1],"categories":[],"categories_nodes":[],"categories_segments":[],"categories_sizes":[],"default_left":[0,0,0,0,0,0,0,0,0,0,0,0,0,0,0,0,0,0,0,0,0,0,0,0,0,0,0,0,0,0,0,0,0,0,0,0,0,0,0,0,0,0,0,0,0,0,0,0,0,0,0,0,0,0,0,0,0,0,0,0,0,0,0,0,0,0,0,0,0,0,0,0,0,0,0,0,0,0,0,0,0,0,0,0,0,0,0,0,0,0,0,0,0,0,0,0,0,0,0,0,0,0,0,0,0,0,0,0,0,0,0,0,0,0,0,0,0,0,0],"id":0,"left_children":[1,3,5,7,9,11,13,15,17,19,21,23,25,27,29,-1,31,33,35,37,39,41,43,45,47,49,51,53,55,57,59,61,63,65,67,69,71,73,75,77,79,81,83,85,-1,87,89,91,93,95,97,99,101,103,105,107,109,111,113,115,117,-1,-1,-1,-1,-1,-1,-1,-1,-1,-1,-1,-1,-1,-1,-1,-1,-1,-1,-1,-1,-1,-1,-1,-1,-1,-1,-1,-1,-1,-1,-1,-1,-1,-1,-1,-1,-1,-1,-1,-1,-1,-1,-1,-1,-1,-1,-1,-1,-1,-1,-1,-1,-1,-1,-1,-1,-1,-1],"loss_changes":[9.913914E3,1.6152438E3,2.8094453E3,4.741787E2,6.899215E2,2.0708623E3,4.22928E2,7.305737E1,2.873694E2,3.0617398E2,4.765396E1,4.9341187E2,7.084404E2,2.3829901E2,4.4285538E1,0E0,1.864795E1,1.2769208E2,7.164673E0,1.1634833E2,3.3488245E2,2.884488E1,2.9032545E0,1.23699234E2,2.3697412E2,8.738591E1,5.016631E2,6.691371E1,1.491109E2,4.9187428E1,1.3203087E1,2.5738525E0,1.839549E2,1.9220093E1,1.0162915E2,3.6747131E0,3.390808E0,4.481953E1,4.2799355E1,3.046803E2,8.3371506E1,2.5412151E1,3.5710632E1,1.0464662E-1,0E0,5.4070272E0,2.2690247E1,1.2918896E2,1.405108E2,3.9300297E1,2.1272675E1,3.5821387E2,2.061106E2,8.5484604E1,4.38851E1,1.075025E2,5.222215E1,3.0690092E1,2.915342E1,1.2245358E1,6.6167297E0,0E0,0E0,0E0,0E0,0E0,0E0,0E0,0E0,0E0,0E0,0E0,0E0,0E0,0E0,0E0,0E0,0E0,0E0,0E0,0E0,0E0,0E0,0E0,0E0,0E0,0E0,0E0,0E0,0E0,0E0,0E0,0E0,0E0,0E0,0E0,0E0,0E0,0E0,0E0,0E0,0E0,0E0,0E0,0E0,0E0,0E0,0E0,0E0,0E0,0E0,0E0,0E0,0E0,0E0,0E0,0E0,0E0,0E0],"parents":[2147483647,0,0,1,1,2,2,3,3,4,4,5,5,6,6,7,7,8,8,9,9,10,10,11,11,12,12,13,13,14,14,16,16,17,17,18,18,19,19,20,20,21,21,22,22,23,23,24,24,25,25,26,26,27,27,28,28,29,29,30,30,31,31,32,32,33,33,34,34,35,35,36,36,37,37,38,38,39,39,40,40,41,41,42,42,43,43,45,45,46,46,47,47,48,48,49,49,50,50,51,51,52,52,53,53,54,54,55,55,56,56,57,57,58,58,59,59,60,60],"right_children":[2,4,6,8,10,12,14,16,18,20,22,24,26,28,30,-1,32,34,36,38,40,42,44,46,48,50,52,54,56,58,60,62,64,66,68,70,72,74,76,78,80,82,84,86,-1,88,90,92,94,96,98,100,102,104,106,108,110,112,114,116,118,-1,-1,-1,-1,-1,-1,-1,-1,-1,-1,-1,-1,-1,-1,-1,-1,-1,-1,-1,-1,-1,-1,-1,-1,-1,-1,-1,-1,-1,-1,-1,-1,-1,-1,-1,-1,-1,-1,-1,-1,-1,-1,-1,-1,-1,-1,-1,-1,-1,-1,-1,-1,-1,-1,-1,-1,-1,-1],"split_conditions":[4.9E0,2.06E0,2.2231172E2,9E-1,2.32942E2,1.09E1,1.8772715E1,4.8666668E-1,2.4387288E2,1.0468629E2,1.8871418E1,9.865243E1,9.865243E1,1.142E1,2.4251284E1,-9.9963117E-1,4.5E0,1.0116793E2,2.8861023E2,3.9E0,1.1771419E1,2.549599E2,1.984225E1,3.0851723E1,1.7525357E2,1.1771419E1,2.3507751E1,2.48596E2,3.75E0,2.2862123E1,2.4332971E2,1.55E0,1.7727943E1,4.1684948E1,9.000001E-1,2.8611917E2,1.6311613E1,1.7165167E1,4.917194E1,2.0958061E2,2.0383919E1,1.43E0,1.6641972E1,2.9433334E0,4.2485425E-1,1.4917212E1,8.07E0,1.3982552E2,3.51E0,1.9602652E1,8.07E0,3E0,1.9423825E2,6.1E0,1.484318E1,1.1983188E1,2.419845E2,2.74E0,2.6713766E2,5.4E0,2.49E0,-7.948908E-1,-6.6113925E-1,2.3719091E0,-6.6648847E-1,-6.3557184E-1,-3.8262886E-1,-2.6957074E-1,1.13554336E-1,-5.9349334E-1,-1.1445484E-1,-5.825827E-1,-7.5616026E-1,-3.2219273E-1,3.2937983E-1,-1.4564008E-2,8.1136334E-1,1.1851295E0,2.051996E-1,1.8394182E-2,6.937769E-1,2.4572693E-1,-3.0173847E-1,-2.5593376E-1,-5.988348E-1,1.9088746E-3,1.0868148E-1,1.918146E-2,-3.4424517E-1,5.517388E-1,1.184727E0,1.5437645E0,2.6098692E0,1.6454625E0,6.0429054E-1,7.639867E-1,-4.343867E-1,2.2266545E0,7.693633E-1,5.8897157E0,3.3504984E0,2.6759255E0,6.44536E-1,2.0772694E-1,1.553536E0,4.3823195E-1,-3.0286402E-1,-6.859113E-2,3.189701E0,1.3278543E0,-1.9813667E-1,7.8954524E-1,-2.2476809E-1,1.1268543E0,-3.685911E-1,-3.08061E-1,3.6054522E-1,9.49089E-2,-6.103048E-1],"split_indices":[5,5,3,5,3,5,2,4,3,3,0,3,3,5,2,0,1,3,3,5,0,3,0,3,3,0,2,3,7,2,3,7,2,3,1,3,2,0,3,3,0,6,2,4,0,2,5,3,6,2,7,6,3,5,2,2,3,4,3,7,4,0,0,0,0,0,0,0,0,0,0,0,0,0,0,0,0,0,0,0,0,0,0,0,0,0,0,0,0,0,0,0,0,0,0,0,0,0,0,0,0,0,0,0,0,0,0,0,0,0,0,0,0,0,0,0,0,0,0],"split_type":[0,0,0,0,0,0,0,0,0,0,0,0,0,0,0,0,0,0,0,0,0,0,0,0,0,0,0,0,0,0,0,0,0,0,0,0,0,0,0,0,0,0,0,0,0,0,0,0,0,0,0,0,0,0,0,0,0,0,0,0,0,0,0,0,0,0,0,0,0,0,0,0,0,0,0,0,0,0,0,0,0,0,0,0,0,0,0,0,0,0,0,0,0,0,0,0,0,0,0,0,0,0,0,0,0,0,0,0,0,0,0,0,0,0,0,0,0,0,0],"sum_hessian":[1.959E3,1.563E3,3.96E2,1.011E3,5.52E2,2.55E2,1.41E2,3.57E2,6.54E2,3.49E2,2.03E2,1.52E2,1.03E2,6.6E1,7.5E1,1.59E2,1.98E2,3.91E2,2.63E2,1.1E2,2.39E2,1.93E2,1E1,4.7E1,1.05E2,1.6E1,8.7E1,5.2E1,1.4E1,3.3E1,4.2E1,1.79E2,1.9E1,1.23E2,2.68E2,1.29E2,1.34E2,8.7E1,2.3E1,1.27E2,1.12E2,6.6E1,1.27E2,6E0,4E0,1.7E1,3E1,5.5E1,5E1,9E0,7E0,6.8E1,1.9E1,1.7E1,3.5E1,7E0,7E0,2.8E1,5E0,1.9E1,2.3E1,1.06E2,7.3E1,1E0,1.8E1,5.5E1,6.8E1,1.71E2,9.7E1,1.27E2,2E0,3.6E1,9.8E1,7.7E1,1E1,9E0,1.4E1,8.3E1,4.4E1,9.3E1,1.9E1,8E0,5.8E1,4.4E1,8.3E1,1E0,5E0,5E0,1.2E1,2.2E1,8E0,3.3E1,2.2E1,2.1E1,2.9E1,6E0,3E0,4E0,3E0,7E0,6.1E1,1E1,9E0,8E0,9E0,2.6E1,9E0,1E0,6E0,4E0,3E0,2E0,2.6E1,4E0,1E0,1.7E1,2E0,1E0,2.2E1],"tree_param":{"num_deleted":"0","num_feature":"8","num_nodes":"119","size_leaf_vector":"1"}},{"base_weights":[1.4933006E-2,-6.282892E-1,4.0433545E0,-1.3222924E0,4.0547493E-1,5.934748E0,1.2805948E0,-2.1178007E0,-1.0225874E0,1.1470755E0,-6.079088E-1,1.7261626E0,7.2769685E0,3.2528183E0,-4.500086E-1,-2.2980804E0,-1.6997443E0,-6.2617373E-1,-1.5665954E0,9.895936E-1,5.3396506E0,-8.6829424E-1,4.567318E-2,-1.0763972E0,2.5745316E0,4.5574E0,8.61378E0,4.7182295E-1,4.1677184E0,6.302541E-1,-1.0058963E0,-1.037326E0,-6.9382775E-1,-1.4202057E0,-5.896307E-1,-1.1531178E0,-2.606565E-1,-1.7496359E0,-1.3794323E0,-4.199075E-1,1.3728361E0,1.1781757E1,1.5846323E0,-1.4143145E0,-6.4475715E-1,1.2085557E0,-2.721686E-1,-1.2501048E0,7.304567E-2,4.824059E0,1.9563893E0,5.140582E0,-7.862623E-1,9.508842E0,5.0025187E0,3.0022383E0,-1.2675453E0,5.717758E0,9.9137974E-1,2.1431296E0,-9.3991727E-1,9.721804E-2,-1.3292913E0,-3.758518E-1,-5.8617856E-2,-4.7836992E-1,-6.629181E-2,-4.662837E-1,-2.1302196E-1,-2.1852957E-1,1.4741954E-1,-5.4003537E-1,-3.495585E-1,-3.287222E-1,-4.7131202E-1,-2.2012474E-1,3.4706295E-1,6.248129E-1,2.615334E-1,4.1583335E-1,5.475045E0,-2.5781134E-1,2.2721293E0,5.24799E-1,-4.497063E-1,5.035851E-1,-2.1628572E-1,5.304337E-1,-3.5757613E-1,2.9480237E-1,-2.0801158E-1,-4.5563394E-1,-6.1948467E-2,3.3531655E-2,1.7232487E0,1.9583912E-1,8.191004E-1,2.13372E0,1.1492224E0,-4.9026036E-1,9.71292E-2,2.2366555E0,3.4977305E0,1.9737244E0,4.7555837E-1,-1.643259E-1,1.1465362E0,3.6965508E-2,-5.950391E-1,2.4110694E0,7.027062E-1,2.0108292E-2,9.8565096E-1,8.6105496E-1,4.5972098E-2,1.646241E-1,-3.4309754E-1,-6.217713E-2,4.2562413E-1,-4.7324827E-1,-1.6418889E-1],"categories":[],"categories_nodes":[],"categories_segments":[],"categories_sizes":[],"default_left":[0,0,0,0,0,0,0,0,0,0,0,0,0,0,0,0,0,0,0,0,0,0,0,0,0,0,0,0,0,0,0,0,0,0,0,0,0,0,0,0,0,0,0,0,0,0,0,0,0,0,0,0,0,0,0,0,0,0,0,0,0,0,0,0,0,0,0,0,0,0,0,0,0,0,0,0,0,0,0,0,0,0,0,0,0,0,0,0,0,0,0,0,0,0,0,0,0,0,0,0,0,0,0,0,0,0,0,0,0,0,0,0,0,0,0,0,0,0,0,0,0],"id":1,"left_children":[1,3,5,7,9,11,13,15,17,19,21,23,25,27,29,31,33,35,37,39,41,43,45,47,49,51,53,55,57,59,61,63,-1,65,-1,67,69,71,73,75,77,79,81,83,85,87,89,91,-1,93,95,97,99,101,103,105,107,109,111,113,115,117,119,-1,-1,-1,-1,-1,-1,-1,-1,-1,-1,-1,-1,-1,-1,-1,-1,-1,-1,-1,-1,-1,-1,-1,-1,-1,-1,-1,-1,-1,-1,-1,-1,-1,-1,-1,-1,-1,-1,-1,-1,-1,-1,-1,-1,-1,-1,-1,-1,-1,-1,-1,-1,-1,-1,-1,-1,-1,-1],"loss_changes":[5.081234E3,1.2137197E3,1.4032754E3,2.3911316E2,5.1173502E2,8.912549E2,3.8032196E2,1.6895264E1,1.5795477E2,2.5419604E2,4.905242E1,9.78754E1,4.0064502E2,1.3033893E2,3.6664253E1,1.1171265E0,3.6702576E0,8.213527E1,8.206604E0,2.0584515E2,3.199934E2,2.4231598E1,3.1006783E1,2.5971193E0,3.3668625E1,1.3492767E2,2.1101611E2,6.542401E1,1.8634607E2,5.189931E1,1.4398899E1,4.8099566E-1,0E0,9.266197E0,0E0,2.9999512E1,8.971332E1,2.416565E0,6.867035E0,4.142741E1,1.0453497E2,3.10919E2,1.5288327E2,1.8433174E1,2.7410652E1,2.6285088E1,3.5565266E1,2.2099066E0,0E0,2.537268E1,2.4449287E1,7.089935E1,5.2352676E0,1.9123145E2,8.6548096E1,1.9549747E1,9.205459E0,1.8470361E2,2.9467869E1,1.5474495E1,3.9639025E0,4.3177724E0,5.1535378E0,0E0,0E0,0E0,0E0,0E0,0E0,0E0,0E0,0E0,0E0,0E0,0E0,0E0,0E0,0E0,0E0,0E0,0E0,0E0,0E0,0E0,0E0,0E0,0E0,0E0,0E0,0E0,0E0,0E0,0E0,0E0,0E0,0E0,0E0,0E0,0E0,0E0,0E0,0E0,0E0,0E0,0E0,0E0,0E0,0E0,0E0,0E0,0E0,0E0,0E0,0E0,0E0,0E0,0E0,0E0,0E0,0E0,0E0],"parents":[2147483647,0,0,1,1,2,2,3,3,4,4,5,5,6,6,7,7,8,8,9,9,10,10,11,11,12,12,13,13,14,14,15,15,16,16,17,17,18,18,19,19,20,20,21,21,22,22,23,23,24,24,25,25,26,26,27,27,28,28,29,29,30,30,31,31,33,33,35,35,36,36,37,37,38,38,39,39,40,40,41,41,42,42,43,43,44,44,45,45,46,46,47,47,49,49,50,50,51,51,52,52,53,53,54,54,55,55,56,56,57,57,58,58,59,59,60,60,61,61,62,62],"right_children":[2,4,6,8,10,12,14,16,18,20,22,24,26,28,30,32,34,36,38,40,42,44,46,48,50,52,54,56,58,60,62,64,-1,66,-1,68,70,72,74,76,78,80,82,84,86,88,90,92,-1,94,96,98,100,102,104,106,108,110,112,114,116,118,120,-1,-1,-1,-1,-1,-1,-1,-1,-1,-1,-1,-1,-1,-1,-1,-1,-1,-1,-1,-1,-1,-1,-1,-1,-1,-1,-1,-1,-1,-1,-1,-1,-1,-1,-1,-1,-1,-1,-1,-1,-1,-1,-1,-1,-1,-1,-1,-1,-1,-1,-1,-1,-1,-1,-1,-1,-1,-1],"split_conditions":[6.75E0,2.06E0,2.1564656E2,7.2E-1,2.2379921E2,9.865243E1,1.8772715E1,5.6E-1,2.4114339E2,1.364E1,4.09E0,2.4843752E1,1.047E1,3.7214167E0,2E-1,-1.7369167E0,2.5878458E2,1.3201328E2,1.27E0,6.5213486E1,4E-1,4.433916E0,2.9333334E0,3.7E0,2.17E0,2.5233406E1,2.3507751E1,2.29E0,2.7030246E2,2.4332971E2,2.012461E1,-2.0348337E0,-6.9382775E-1,5.4E0,-5.896307E-1,1.39E0,9.000001E-1,3.8E0,1.9008545E1,1.6069334E1,9.325584E0,8.2799126E1,5E0,1.0009036E1,4.688083E0,1.2319333E1,1.4264361E1,3.26E0,7.304567E-2,3.0851723E1,7.756667E0,2.38E0,2.3E0,1.2596666E1,1.2173333E1,1.1193334E0,8.033333E0,1.4529915E1,3.3250424E2,1.0775582E1,1.9228851E1,1.9976755E1,1.282E1,-3.758518E-1,-5.8617856E-2,-4.7836992E-1,-6.629181E-2,-4.662837E-1,-2.1302196E-1,-2.1852957E-1,1.4741954E-1,-5.4003537E-1,-3.495585E-1,-3.287222E-1,-4.7131202E-1,-2.2012474E-1,3.4706295E-1,6.248129E-1,2.615334E-1,4.1583335E-1,5.475045E0,-2.5781134E-1,2.2721293E0,5.24799E-1,-4.497063E-1,5.035851E-1,-2.1628572E-1,5.304337E-1,-3.5757613E-1,2.9480237E-1,-2.0801158E-1,-4.5563394E-1,-6.1948467E-2,3.3531655E-2,1.7232487E0,1.9583912E-1,8.191004E-1,2.13372E0,1.1492224E0,-4.9026036E-1,9.71292E-2,2.2366555E0,3.4977305E0,1.9737244E0,4.7555837E-1,-1.643259E-1,1.1465362E0,3.6965508E-2,-5.950391E-1,2.4110694E0,7.027062E-1,2.0108292E-2,9.8565096E-1,8.6105496E-1,4.5972098E-2,1.646241E-1,-3.4309754E-1,-6.217713E-2,4.2562413E-1,-4.7324827E-1,-1.6418889E-1],"split_indices":[5,5,3,5,3,3,2,5,3,7,5,3,5,0,1,0,3,3,5,3,1,0,4,1,7,2,2,7,3,3,2,0,0,7,0,5,1,6,2,0,0,3,5,2,0,0,2,7,0,3,4,7,1,4,4,0,4,2,3,0,2,2,6,0,0,0,0,0,0,0,0,0,0,0,0,0,0,0,0,0,0,0,0,0,0,0,0,0,0,0,0,0,0,0,0,0,0,0,0,0,0,0,0,0,0,0,0,0,0,0,0,0,0,0,0,0,0,0,0,0,0],"split_type":[0,0,0,0,0,0,0,0,0,0,0,0,0,0,0,0,0,0,0,0,0,0,0,0,0,0,0,0,0,0,0,0,0,0,0,0,0,0,0,0,0,0,0,0,0,0,0,0,0,0,0,0,0,0,0,0,0,0,0,0,0,0,0,0,0,0,0,0,0,0,0,0,0,0,0,0,0,0,0,0,0,0,0,0,0,0,0,0,0,0,0,0,0,0,0,0,0,0,0,0,0,0,0,0,0,0,0,0,0,0,0,0,0,0,0,0,0,0,0,0,0],"sum_hessian":[1.959E3,1.69E3,2.69E2,1.011E3,6.79E2,1.59E2,1.1E2,2.75E2,7.36E2,3.92E2,2.87E2,3.9E1,1.2E2,5.1E1,5.9E1,1.89E2,8.6E1,4.27E2,3.09E2,3.79E2,1.3E1,2.05E2,8.2E1,9E0,3E1,4.1E1,7.9E1,1.3E1,3.8E1,2E1,3.9E1,3E0,1.86E2,4.5E1,4.1E1,1.74E2,2.53E2,1.52E2,1.57E2,8.1E1,2.98E2,4E0,9E0,5.8E1,1.47E2,1.7E1,6.5E1,8E0,1E0,5E0,2.5E1,3.7E1,4E0,6.2E1,1.7E1,5E0,8E0,2.5E1,1.3E1,1E1,1E1,9E0,3E1,2E0,1E0,3.9E1,6E0,9E1,8.4E1,1.56E2,9.7E1,1.38E2,1.4E1,6.6E1,9.1E1,6.8E1,1.3E1,1.22E2,1.76E2,2E0,2E0,7E0,2E0,1E0,5.7E1,4E0,1.43E2,1.4E1,3E0,1.6E1,4.9E1,6E0,2E0,1E0,4E0,1E1,1.5E1,1.3E1,2.4E1,2E0,2E0,3.4E1,2.8E1,1.1E1,6E0,1E0,4E0,3E0,5E0,1.4E1,1.1E1,1E1,3E0,7E0,3E0,1E0,9E0,8E0,1E0,2.2E1,8E0],"tree_param":{"num_deleted":"0","num_feature":"8","num_nodes":"121","size_leaf_vector":"1"}},{"base_weights":[2.230859E-2,-6.703833E-1,2.0194116E0,-1.1564691E0,-2.7365783E-1,1.1948764E0,4.1605577E0,-1.186091E0,2.240377E0,7.374571E-2,-8.1775206E-1,1.8006854E0,-2.3137593E-1,5.453683E0,1.4857845E0,-1.5913255E0,-9.913514E-1,-3.683431E-1,1.8353504E0,-5.710713E-1,4.0786767E-1,-8.631841E-1,6.451582E-1,1.5753379E0,4.3922853E0,9.182082E-1,-5.628669E-1,2.1415782E0,6.319906E0,3.4471323E0,-9.473733E-2,-1.6109893E0,-8.959013E-1,-6.0437506E-1,-1.258422E0,-9.178888E-1,-1.2877919E-1,1.2601349E0,-2.6401186E-1,-8.8758105E-1,5.641501E-1,1.0282269E0,-5.914108E-1,1.9215271E0,2.0082188E-1,5.266937E0,-4.230547E-1,3.0878143E0,2.2141597E-1,-8.4406453E-1,5.4632753E-1,5.364263E-1,4.2221775E0,1.1241712E1,5.5529947E0,4.6261816E0,-2.715206E-1,1.3705105E0,-4.9004412E-1,-4.859105E-1,2.1029735E-2,9.24579E-3,-3.098078E-1,-2.7931854E-1,1.7359184E-1,-4.0819478E-1,-3.0841005E-1,-3.008895E-1,2.3911783E-1,1.8585415E-1,-2.194422E-1,5.633868E-1,-1.8849958E-1,6.41105E-1,-1.16005704E-1,-2.0494942E-1,-3.2705057E-1,1.4843889E-1,3.7479776E-1,-3.0758787E-2,-2.3537607E-1,8.3699864E-1,3.5757303E-1,-2.220247E-2,1.3318659E0,2.4354224E0,1.1295589E0,-1.8948427E-1,3.0393578E-2,2.9740053E-1,1.4561546E0,2.2687012E-1,-1.1670755E-1,1.9415595E-1,-3.235616E-1,3.328802E-2,8.058535E-1,-3.533532E-1,5.2652276E-1,1.8053905E0,4.7458547E-1,1.4096031E0,4.119035E0,7.0083386E-1,1.8893892E0,-4.199629E-1,1.5363733E0,3.3715904E-1,-6.1245775E-1,7.298105E-1,-1.5077436E-1,9.61946E-2,-2.2420347E-1],"categories":[],"categories_nodes":[],"categories_segments":[],"categories_sizes":[],"default_left":[0,0,0,0,0,0,0,0,0,0,0,0,0,0,0,0,0,0,0,0,0,0,0,0,0,0,0,0,0,0,0,0,0,0,0,0,0,0,0,0,0,0,0,0,0,0,0,0,0,0,0,0,0,0,0,0,0,0,0,0,0,0,0,0,0,0,0,0,0,0,0,0,0,0,0,0,0,0,0,0,0,0,0,0,0,0,0,0,0,0,0,0,0,0,0,0,0,0,0,0,0,0,0,0,0,0,0,0,0,0,0,0,0],"id":2,"left_children":[1,3,5,7,9,11,13,15,17,19,21,23,25,27,29,31,33,-1,-1,35,37,39,41,43,45,47,49,51,53,55,57,59,61,63,65,67,69,71,73,75,-1,77,79,81,83,85,87,89,91,93,95,97,99,101,103,105,107,109,111,-1,-1,-1,-1,-1,-1,-1,-1,-1,-1,-1,-1,-1,-1,-1,-1,-1,-1,-1,-1,-1,-1,-1,-1,-1,-1,-1,-1,-1,-1,-1,-1,-1,-1,-1,-1,-1,-1,-1,-1,-1,-1,-1,-1,-1,-1,-1,-1,-1,-1,-1,-1,-1,-1],"loss_changes":[2.7127727E3,2.8046234E2,8.8658105E2,6.846338E1,1.5184357E2,3.16654E2,4.7613135E2,4.9638428E1,8.819803E1,1.0601767E2,2.1359833E1,1.4317139E2,4.2435276E1,2.5615332E2,1.4602437E2,1.4147339E0,4.4816803E1,0E0,0E0,2.5652092E1,1.8586185E2,2.2018066E1,5.345012E0,1.12864685E2,8.646307E1,3.7110424E1,2.7284779E1,6.786835E1,2.1689478E2,9.333009E1,1.6310616E1,3.0720825E0,1.0459661E0,7.087722E1,4.724701E0,1.451413E1,3.427758E1,1.6802301E2,5.443324E1,1.1761719E1,0E0,3.2536602E-1,2.0287752E-1,1.1706793E2,5.7410175E1,4.222226E1,5.0143665E-1,1.7402939E1,6.823688E0,2.4824528E1,1.6471127E1,2.9225433E1,3.315149E1,8.2022095E1,1.4345471E2,5.490149E1,1.7113419E1,1.3160117E1,4.8286557E0,0E0,0E0,0E0,0E0,0E0,0E0,0E0,0E0,0E0,0E0,0E0,0E0,0E0,0E0,0E0,0E0,0E0,0E0,0E0,0E0,0E0,0E0,0E0,0E0,0E0,0E0,0E0,0E0,0E0,0E0,0E0,0E0,0E0,0E0,0E0,0E0,0E0,0E0,0E0,0E0,0E0,0E0,0E0,0E0,0E0,0E0,0E0,0E0,0E0,0E0,0E0,0E0,0E0,0E0],"parents":[2147483647,0,0,1,1,2,2,3,3,4,4,5,5,6,6,7,7,8,8,9,9,10,10,11,11,12,12,13,13,14,14,15,15,16,16,19,19,20,20,21,21,22,22,23,23,24,24,25,25,26,26,27,27,28,28,29,29,30,30,31,31,32,32,33,33,34,34,35,35,36,36,37,37,38,38,39,39,41,41,42,42,43,43,44,44,45,45,46,46,47,47,48,48,49,49,50,50,51,51,52,52,53,53,54,54,55,55,56,56,57,57,58,58],"right_children":[2,4,6,8,10,12,14,16,18,20,22,24,26,28,30,32,34,-1,-1,36,38,40,42,44,46,48,50,52,54,56,58,60,62,64,66,68,70,72,74,76,-1,78,80,82,84,86,88,90,92,94,96,98,100,102,104,106,108,110,112,-1,-1,-1,-1,-1,-1,-1,-1,-1,-1,-1,-1,-1,-1,-1,-1,-1,-1,-1,-1,-1,-1,-1,-1,-1,-1,-1,-1,-1,-1,-1,-1,-1,-1,-1,-1,-1,-1,-1,-1,-1,-1,-1,-1,-1,-1,-1,-1,-1,-1,-1,-1,-1,-1],"split_conditions":[3.9E0,1.33E0,1.09E1,1.579E1,2.3728137E2,2.3829118E2,2.1564656E2,6.3E-1,6E-1,1.1029597E2,1.8871418E1,1.0353333E1,1.3746156E1,1.11773506E2,1.8772715E1,8.9666665E-1,2.2422061E2,-3.683431E-1,1.8353504E0,2E-1,9.5651655E0,1.5599999E1,1.530741E1,2.2007162E1,2.1564656E2,2.647197E2,1.7240168E1,1.1771419E1,3E0,1.2596666E1,1E-1,1.3E0,9.166667E-1,1.9927916E2,1.1E0,1.9571417E1,1.6808569E1,2.4858253E1,9E-1,2.7566714E2,5.641501E-1,1.929225E1,1.8950583E1,3.58E0,3.626006E1,5.15E0,2.0583847E1,9.3669195E0,2.9652008E2,2.77E0,3.3428397E2,6.5213486E1,7.57E0,1.6596371E2,2.35E0,1.1983188E1,2E-1,2.3507751E1,1.282E1,-4.859105E-1,2.1029735E-2,9.24579E-3,-3.098078E-1,-2.7931854E-1,1.7359184E-1,-4.0819478E-1,-3.0841005E-1,-3.008895E-1,2.3911783E-1,1.8585415E-1,-2.194422E-1,5.633868E-1,-1.8849958E-1,6.41105E-1,-1.16005704E-1,-2.0494942E-1,-3.2705057E-1,1.4843889E-1,3.7479776E-1,-3.0758787E-2,-2.3537607E-1,8.3699864E-1,3.5757303E-1,-2.220247E-2,1.3318659E0,2.4354224E0,1.1295589E0,-1.8948427E-1,3.0393578E-2,2.9740053E-1,1.4561546E0,2.2687012E-1,-1.1670755E-1,1.9415595E-1,-3.235616E-1,3.328802E-2,8.058535E-1,-3.533532E-1,5.2652276E-1,1.8053905E0,4.7458547E-1,1.4096031E0,4.119035E0,7.0083386E-1,1.8893892E0,-4.199629E-1,1.5363733E0,3.3715904E-1,-6.1245775E-1,7.298105E-1,-1.5077436E-1,9.61946E-2,-2.2420347E-1],"split_indices":[5,5,5,7,3,3,3,7,1,3,0,4,2,3,2,4,3,0,0,1,0,1,2,2,3,3,0,0,6,4,1,5,4,3,5,0,2,2,6,3,0,0,0,6,2,5,2,2,3,4,3,3,7,3,7,2,1,2,5,0,0,0,0,0,0,0,0,0,0,0,0,0,0,0,0,0,0,0,0,0,0,0,0,0,0,0,0,0,0,0,0,0,0,0,0,0,0,0,0,0,0,0,0,0,0,0,0,0,0,0,0,0,0],"split_type":[0,0,0,0,0,0,0,0,0,0,0,0,0,0,0,0,0,0,0,0,0,0,0,0,0,0,0,0,0,0,0,0,0,0,0,0,0,0,0,0,0,0,0,0,0,0,0,0,0,0,0,0,0,0,0,0,0,0,0,0,0,0,0,0,0,0,0,0,0,0,0,0,0,0,0,0,0,0,0,0,0,0,0,0,0,0,0,0,0,0,0,0,0,0,0,0,0,0,0,0,0,0,0,0,0,0,0,0,0,0,0,0,0],"sum_hessian":[1.959E3,1.455E3,5.04E2,6.53E2,8.02E2,3.65E2,1.39E2,6.48E2,5E0,4.9E2,3.12E2,2.56E2,1.09E2,9.3E1,4.6E1,2.08E2,4.4E2,3E0,2E0,1.67E2,3.23E2,3.03E2,9E0,2.37E2,1.9E1,2.4E1,8.5E1,2E1,7.3E1,2E1,2.6E1,2.01E2,7E0,1.81E2,2.59E2,9.3E1,7.4E1,1.42E2,1.81E2,3.01E2,2E0,7E0,2E0,1.89E2,4.8E1,1.6E1,3E0,5E0,1.9E1,6.8E1,1.7E1,1.2E1,8E0,8E0,6.5E1,1.5E1,5E0,5E0,2.1E1,2E2,1E0,1E0,6E0,1.42E2,3.9E1,1.76E2,8.3E1,8.9E1,4E0,3.3E1,4.1E1,1.07E2,3.5E1,8E0,1.73E2,1.52E2,1.49E2,3E0,4E0,1E0,1E0,8.5E1,1.04E2,4.6E1,2E0,4E0,1.2E1,2E0,1E0,3E0,2E0,1E1,9E0,9E0,5.9E1,1.5E1,2E0,5E0,7E0,4E0,4E0,3E0,5E0,1.3E1,5.2E1,1E0,1.4E1,3E0,2E0,3E0,2E0,5E0,1.6E1],"tree_param":{"num_deleted":"0","num_feature":"8","num_nodes":"113","size_leaf_vector":"1"}},{"base_weights":[2.649399E-2,-3.5708144E-1,1.9084756E0,-6.7404413E-1,1.625356E-1,2.769318E0,6.629748E-1,-1.1005212E0,-5.3930813E-1,6.824129E-1,-2.8155896E-1,2.0784414E0,5.3304753E0,1.5781606E0,-1.6099861E-1,-1.1134967E0,3.0398482E-1,-2.365567E-1,-7.3695326E-1,-1.5637597E-1,1.5164298E0,-7.8654334E-2,-9.3550867E-1,3.0909033E0,9.7202253E-1,-3.1555452E0,6.083465E0,6.9259E-1,2.7236435E0,4.3662038E-1,-4.626206E-1,-3.6371875E-1,-9.73852E-1,-3.7758964E-1,2.1832144E0,-9.623417E-1,-6.352017E-1,-2.6736742E-1,1.1302255E0,1.234328E0,5.579464E0,3.3257884E-1,-2.9980603E-1,-1.0184206E0,4.5132005E-1,2.9313153E-1,5.1085863E0,-1.0928857E0,1.26571E0,-1.1420155E0,-1.8030396E-1,9.309718E0,3.0284162E0,2.225841E0,-1.9373426E-1,4.785912E0,1.3120551E0,1.142847E0,-1.9990386E-1,6.0780954E-1,-5.712768E-1,-4.8580937E-2,-2.9641354E-1,-1.859634E-1,9.128817E-3,1.4143424E0,-1.8034596E-2,-2.7412227E-1,-5.759313E-1,3.4409743E-2,-2.1968353E-1,-1.9958775E-1,8.706378E-2,6.4663386E-1,6.2758215E-2,4.0801554E0,4.03441E-1,4.2098835E-2,1.0718259E0,-1.0237144E-1,6.236681E-1,-1.9173653E-1,-3.504415E-1,-3.4015864E-1,2.9832438E-1,1.873345E0,7.552519E-1,5.0545977E-3,-5.50655E-1,-8.741127E-2,5.2797574E-1,1.2095687E0,3.9386363E0,2.0572784E0,4.2095956E-1,1.2296795E0,-6.984323E-2,1.3493629E-1,-4.1632488E-1,2.387969E0,5.505236E-1,2.3261312E-1,1.5653373E0,4.8349494E-1,-2.4023342E-1,2.2775139E-1,-2.4512273E-1,4.0289333E-1,-9.898857E-2,7.373115E-2,-2.3470968E-1],"categories":[],"categories_nodes":[],"categories_segments":[],"categories_sizes":[],"default_left":[0,0,0,0,0,0,0,0,0,0,0,0,0,0,0,0,0,0,0,0,0,0,0,0,0,0,0,0,0,0,0,0,0,0,0,0,0,0,0,0,0,0,0,0,0,0,0,0,0,0,0,0,0,0,0,0,0,0,0,0,0,0,0,0,0,0,0,0,0,0,0,0,0,0,0,0,0,0,0,0,0,0,0,0,0,0,0,0,0,0,0,0,0,0,0,0,0,0,0,0,0,0,0,0,0,0,0,0,0,0,0],"id":3,"left_children":[1,3,5,7,9,11,13,15,17,19,21,23,25,27,29,31,-1,33,35,37,39,41,43,45,47,49,51,53,55,57,59,-1,61,63,65,67,69,71,-1,73,75,77,79,81,-1,83,85,87,89,-1,-1,91,93,95,97,99,101,103,105,107,109,-1,-1,-1,-1,-1,-1,-1,-1,-1,-1,-1,-1,-1,-1,-1,-1,-1,-1,-1,-1,-1,-1,-1,-1,-1,-1,-1,-1,-1,-1,-1,-1,-1,-1,-1,-1,-1,-1,-1,-1,-1,-1,-1,-1,-1,-1,-1,-1,-1,-1],"loss_changes":[1.4155702E3,2.6840454E2,3.541278E2,5.755786E1,1.428727E2,3.3573193E2,1.0356424E2,7.7657776E0,4.596025E1,1.9961292E2,4.4244694E1,1.717478E2,2.811819E2,6.405003E1,1.3360606E1,2.147705E0,0E0,1.052522E2,1.0075806E1,6.3284874E1,1.5701813E2,2.3381605E1,1.751361E1,4.557489E2,4.747254E1,4.365883E0,3.4634814E2,5.207161E1,7.523071E1,1.1466719E1,6.046363E0,0E0,1.0499802E0,2.8687763E1,9.681707E1,4.899887E0,2.3670517E1,3.1255583E1,0E0,1.2702547E2,2.8740793E2,5.5561577E1,1.7167992E1,3.6260757E0,0E0,3.615295E1,1.2260986E2,8.272159E0,5.207087E1,0E0,0E0,3.098806E2,1.2106563E2,6.542816E1,1.9833565E1,8.841786E1,3.368445E1,1.2224697E1,8.907099E0,3.8902304E0,7.953411E0,0E0,0E0,0E0,0E0,0E0,0E0,0E0,0E0,0E0,0E0,0E0,0E0,0E0,0E0,0E0,0E0,0E0,0E0,0E0,0E0,0E0,0E0,0E0,0E0,0E0,0E0,0E0,0E0,0E0,0E0,0E0,0E0,0E0,0E0,0E0,0E0,0E0,0E0,0E0,0E0,0E0,0E0,0E0,0E0,0E0,0E0,0E0,0E0,0E0,0E0],"parents":[2147483647,0,0,1,1,2,2,3,3,4,4,5,5,6,6,7,7,8,8,9,9,10,10,11,11,12,12,13,13,14,14,15,15,17,17,18,18,19,19,20,20,21,21,22,22,23,23,24,24,25,25,26,26,27,27,28,28,29,29,30,30,32,32,33,33,34,34,35,35,36,36,37,37,39,39,40,40,41,41,42,42,43,43,45,45,46,46,47,47,48,48,51,51,52,52,53,53,54,54,55,55,56,56,57,57,58,58,59,59,60,60],"right_children":[2,4,6,8,10,12,14,16,18,20,22,24,26,28,30,32,-1,34,36,38,40,42,44,46,48,50,52,54,56,58,60,-1,62,64,66,68,70,72,-1,74,76,78,80,82,-1,84,86,88,90,-1,-1,92,94,96,98,100,102,104,106,108,110,-1,-1,-1,-1,-1,-1,-1,-1,-1,-1,-1,-1,-1,-1,-1,-1,-1,-1,-1,-1,-1,-1,-1,-1,-1,-1,-1,-1,-1,-1,-1,-1,-1,-1,-1,-1,-1,-1,-1,-1,-1,-1,-1,-1,-1,-1,-1,-1,-1,-1],"split_conditions":[5.7E0,2.06E0,2.1564656E2,7E-1,2.0462938E2,1.579E1,1.8772715E1,9.25E0,2.1025636E2,1.2070504E2,2.627753E1,7.0068345E0,2.4339168E0,9.6484995E0,2E-1,3E-1,3.0398482E-1,2.0351215E2,1.03E0,2.0988085E1,1.282E1,2.32942E2,1.5099999E1,1.1767799E2,3.8166666E0,1E-1,5E-1,1E-1,2.4387288E2,8.479751E0,6.39E0,-3.6371875E-1,2.3333333E-1,1.2942024E2,1.17E0,7.8999996E0,1.1133333E0,2E-1,1.1302255E0,2.7E0,4E-1,2.3143109E2,2.6089443E1,2E-1,4.5132005E-1,3.766683E1,1.8E2,6.47E0,1.2319333E1,-1.1420155E0,-1.8030396E-1,1.977E1,1.5135187E2,7.03E0,6.9E0,5E0,1.161E1,2.6713766E2,2.0583847E1,2.32942E2,2.012461E1,-4.8580937E-2,-2.9641354E-1,-1.859634E-1,9.128817E-3,1.4143424E0,-1.8034596E-2,-2.7412227E-1,-5.759313E-1,3.4409743E-2,-2.1968353E-1,-1.9958775E-1,8.706378E-2,6.4663386E-1,6.2758215E-2,4.0801554E0,4.03441E-1,4.2098835E-2,1.0718259E0,-1.0237144E-1,6.236681E-1,-1.9173653E-1,-3.504415E-1,-3.4015864E-1,2.9832438E-1,1.873345E0,7.552519E-1,5.0545977E-3,-5.50655E-1,-8.741127E-2,5.2797574E-1,1.2095687E0,3.9386363E0,2.0572784E0,4.2095956E-1,1.2296795E0,-6.984323E-2,1.3493629E-1,-4.1632488E-1,2.387969E0,5.505236E-1,2.3261312E-1,1.5653373E0,4.8349494E-1,-2.4023342E-1,2.2775139E-1,-2.4512273E-1,4.0289333E-1,-9.898857E-2,7.373115E-2,-2.3470968E-1],"split_indices":[5,5,3,5,3,5,2,7,3,3,2,0,0,0,1,5,0,3,5,0,7,3,1,3,4,1,1,1,3,0,5,0,4,3,5,1,4,1,0,6,1,3,2,1,0,3,3,5,0,0,0,5,3,7,6,6,4,3,2,3,2,0,0,0,0,0,0,0,0,0,0,0,0,0,0,0,0,0,0,0,0,0,0,0,0,0,0,0,0,0,0,0,0,0,0,0,0,0,0,0,0,0,0,0,0,0,0,0,0,0,0],"split_type":[0,0,0,0,0,0,0,0,0,0,0,0,0,0,0,0,0,0,0,0,0,0,0,0,0,0,0,0,0,0,0,0,0,0,0,0,0,0,0,0,0,0,0,0,0,0,0,0,0,0,0,0,0,0,0,0,0,0,0,0,0,0,0,0,0,0,0,0,0,0,0,0,0,0,0,0,0,0,0,0,0,0,0,0,0,0,0,0,0,0,0,0,0,0,0,0,0,0,0,0,0,0,0,0,0,0,0,0,0,0,0],"sum_hessian":[1.959E3,1.628E3,3.31E2,1.011E3,6.17E2,1.95E2,1.36E2,2.41E2,7.7E2,2.84E2,3.33E2,1.55E2,4E1,6.4E1,7.2E1,2.4E2,1E0,3.05E2,4.65E2,1.42E2,1.42E2,2.55E2,7.8E1,8E1,7.5E1,3E0,3.7E1,3.7E1,2.7E1,2.4E1,4.8E1,1.36E2,1.04E2,2.89E2,1.6E1,1.42E2,3.23E2,1.39E2,3E0,1.34E2,8E0,8.9E1,1.66E2,7.6E1,2E0,3.4E1,4.6E1,9E0,6.6E1,2E0,1E0,1.7E1,2E1,1.3E1,2.4E1,1E1,1.7E1,1.1E1,1.3E1,4E0,4.4E1,2E0,1.02E2,1.81E2,1.08E2,7E0,9E0,1.37E2,5E0,3.7E1,2.86E2,8.1E1,5.8E1,7E1,6.4E1,2E0,6E0,8.5E1,4E0,1.64E2,2E0,2.3E1,5.3E1,1.1E1,2.3E1,3.1E1,1.5E1,4E0,5E0,1.6E1,5E1,8E0,9E0,5E0,1.5E1,7E0,6E0,1.6E1,8E0,4E0,6E0,1.6E1,1E0,9E0,2E0,5E0,8E0,2E0,2E0,9E0,3.5E1],"tree_param":{"num_deleted":"0","num_feature":"8","num_nodes":"111","size_leaf_vector":"1"}},{"base_weights":[2.9925378E-2,-1.8376341E-1,1.8210872E0,-3.816724E-1,4.7329855E-1,2.620361E0,5.761613E-1,-5.649912E-1,-1.5725577E-1,1.0839803E0,7.5799026E-2,1.25481E0,3.4341793E0,1.3605037E0,-5.3558365E-2,-5.7907367E-1,2.1744752E0,5.0863776E0,-2.0047453E-1,5.646058E-1,4.691372E0,3.6483403E-2,1.4621165E0,9.914421E-1,2.0844707E0,5.0014133E0,1.4232769E0,-1.2521677E0,1.8078638E0,1.3553782E0,-2.535598E-1,-8.1899834E-1,-4.8017278E-1,-2.0341574E-1,1.6098088E0,2.5385475E0,1.5471618E-2,-3.8499724E-2,-5.170895E-1,2.4656934E-1,1.8982941E0,3.849351E0,2.5001628E0,2.3753503E-1,-5.041998E-1,-1.0953773E0,1.3156395E0,3.0158684E0,8.287625E0,2.7590537E0,-1.478198E0,-1.3673763E-1,-4.6092227E-1,2.6245341E0,7.073352E-1,1.7644941E0,-1.035302E-1,-1.1699306E0,-1.2631209E-1,-2.3685692E-1,-3.2398617E-1,3.8653418E-1,-1.4989696E-1,-4.473424E-3,1.1435652E-2,-5.0343815E-2,2.5490916E-1,-1.6691883E-1,6.9057524E-1,-1.058001E-1,2.4052413E-1,8.729939E-1,-1.3452241E-1,-4.619557E-1,1.293547E0,-3.181553E-1,1.0859016E-1,-1.8550567E-1,6.411507E-1,-5.0862694E-1,3.757346E-1,-2.1515475E-1,4.829186E-1,1.3902519E0,-1.566982E-1,1.5928184E0,3.4074888E0,1.273644E0,-1.0656038E-1,-7.866777E-1,1.6659709E0,4.4074625E-1,1.4071307E0,6.0361165E-1,-3.2135662E-1,7.0072263E-1,-7.8074746E-2,-3.3830404E-3,-5.8158225E-1,1.0689777E-1,-1.6019608E-1],"categories":[],"categories_nodes":[],"categories_segments":[],"categories_sizes":[],"default_left":[0,0,0,0,0,0,0,0,0,0,0,0,0,0,0,0,0,0,0,0,0,0,0,0,0,0,0,0,0,0,0,0,0,0,0,0,0,0,0,0,0,0,0,0,0,0,0,0,0,0,0,0,0,0,0,0,0,0,0,0,0,0,0,0,0,0,0,0,0,0,0,0,0,0,0,0,0,0,0,0,0,0,0,0,0,0,0,0,0,0,0,0,0,0,0,0,0,0,0,0,0],"id":4,"left_children":[1,3,5,7,9,11,13,15,17,19,21,23,25,27,29,31,33,35,37,39,41,43,-1,45,-1,47,49,51,53,55,57,59,61,-1,-1,-1,63,65,67,69,71,-1,73,75,77,79,81,83,85,87,89,-1,-1,91,93,95,-1,97,99,-1,-1,-1,-1,-1,-1,-1,-1,-1,-1,-1,-1,-1,-1,-1,-1,-1,-1,-1,-1,-1,-1,-1,-1,-1,-1,-1,-1,-1,-1,-1,-1,-1,-1,-1,-1,-1,-1,-1,-1,-1,-1],"loss_changes":[7.5052704E2,2.2800803E2,2.0645288E2,5.532643E1,9.847262E1,1.3682727E2,4.1067883E1,2.9845856E1,1.3858005E2,2.9712524E2,4.6414623E1,6.658505E1,2.4185443E2,4.5509537E1,1.3587769E1,1.711856E1,4.0054432E1,8.545195E1,3.0904127E1,5.933871E1,3.2464E2,2.6861256E1,0E0,3.391511E1,0E0,2.6210217E2,1.4360446E2,6.5788746E-1,2.6904175E1,4.783086E0,4.7496796E0,7.9338074E-1,1.873494E1,0E0,0E0,0E0,2.6326794E-3,4.6084743E1,2.3885109E1,3.8541252E1,6.540623E1,0E0,1.3106488E2,2.9457382E1,2.1523264E1,1.1985049E1,2.6263367E1,1.6847101E2,8.601697E1,1.1723572E2,1.1109469E2,0E0,0E0,3.6073235E1,3.6961967E1,6.3910284E0,0E0,4.431291E0,7.6671286E0,0E0,0E0,0E0,0E0,0E0,0E0,0E0,0E0,0E0,0E0,0E0,0E0,0E0,0E0,0E0,0E0,0E0,0E0,0E0,0E0,0E0,0E0,0E0,0E0,0E0,0E0,0E0,0E0,0E0,0E0,0E0,0E0,0E0,0E0,0E0,0E0,0E0,0E0,0E0,0E0,0E0,0E0],"parents":[2147483647,0,0,1,1,2,2,3,3,4,4,5,5,6,6,7,7,8,8,9,9,10,10,11,11,12,12,13,13,14,14,15,15,16,16,17,17,18,18,19,19,20,20,21,21,23,23,25,25,26,26,27,27,28,28,29,29,30,30,31,31,32,32,36,36,37,37,38,38,39,39,40,40,42,42,43,43,44,44,45,45,46,46,47,47,48,48,49,49,50,50,53,53,54,54,55,55,57,57,58,58],"right_children":[2,4,6,8,10,12,14,16,18,20,22,24,26,28,30,32,34,36,38,40,42,44,-1,46,-1,48,50,52,54,56,58,60,62,-1,-1,-1,64,66,68,70,72,-1,74,76,78,80,82,84,86,88,90,-1,-1,92,94,96,-1,98,100,-1,-1,-1,-1,-1,-1,-1,-1,-1,-1,-1,-1,-1,-1,-1,-1,-1,-1,-1,-1,-1,-1,-1,-1,-1,-1,-1,-1,-1,-1,-1,-1,-1,-1,-1,-1,-1,-1,-1,-1,-1,-1],"split_conditions":[8.15E0,3.2E0,2.1564656E2,1.5E0,1.8E2,1.3355737E2,1.8772715E1,1.977E1,1.0433333E0,1.6471834E2,1.701E1,2.16E1,2.0633371E1,1.83E0,5.0633335E0,6.3E-1,6E-1,1.3344333E1,2.1897945E1,3.1000001E0,2.3401666E0,2.4535524E1,1.4621165E0,3.15E0,2.0844707E0,1.2173333E1,1.2173333E1,2.8526661E0,3.75E0,2.6457552E1,2.1861227E2,1.03E0,6.7E-1,-2.0341574E-1,1.6098088E0,2.5385475E0,1.395475E1,2.0304129E1,2.16E1,4.35E0,1.0400002E1,3.849351E0,1E-1,1.9325208E2,3.8600662E1,3E-1,1.224E1,1.0736667E1,8.046417E0,2.5570139E1,3.5546665E1,-1.3673763E-1,-4.6092227E-1,2.9E0,3E-1,2E-1,-1.035302E-1,2.1673509E2,2.4332971E2,-2.3685692E-1,-3.2398617E-1,3.8653418E-1,-1.4989696E-1,-4.473424E-3,1.1435652E-2,-5.0343815E-2,2.5490916E-1,-1.6691883E-1,6.9057524E-1,-1.058001E-1,2.4052413E-1,8.729939E-1,-1.3452241E-1,-4.619557E-1,1.293547E0,-3.181553E-1,1.0859016E-1,-1.8550567E-1,6.411507E-1,-5.0862694E-1,3.757346E-1,-2.1515475E-1,4.829186E-1,1.3902519E0,-1.566982E-1,1.5928184E0,3.4074888E0,1.273644E0,-1.0656038E-1,-7.866777E-1,1.6659709E0,4.4074625E-1,1.4071307E0,6.0361165E-1,-3.2135662E-1,7.0072263E-1,-7.8074746E-2,-3.3830404E-3,-5.8158225E-1,1.0689777E-1,-1.6019608E-1],"split_indices":[5,5,3,5,3,3,2,7,4,3,4,5,2,7,4,7,1,0,2,1,0,2,0,6,0,4,4,0,7,2,3,5,7,0,0,0,0,2,6,4,1,0,1,3,2,1,2,4,0,2,4,0,0,7,1,1,0,3,3,0,0,0,0,0,0,0,0,0,0,0,0,0,0,0,0,0,0,0,0,0,0,0,0,0,0,0,0,0,0,0,0,0,0,0,0,0,0,0,0,0,0],"split_type":[0,0,0,0,0,0,0,0,0,0,0,0,0,0,0,0,0,0,0,0,0,0,0,0,0,0,0,0,0,0,0,0,0,0,0,0,0,0,0,0,0,0,0,0,0,0,0,0,0,0,0,0,0,0,0,0,0,0,0,0,0,0,0,0,0,0,0,0,0,0,0,0,0,0,0,0,0,0,0,0,0,0,0,0,0,0,0,0,0,0,0,0,0,0,0,0,0,0,0,0,0],"sum_hessian":[1.959E3,1.751E3,2.08E2,1.346E3,4.05E2,1.26E2,8.2E1,7.4E2,6.06E2,1.59E2,2.46E2,4.8E1,7.8E1,3.6E1,4.6E1,7.37E2,3E0,4E0,6.02E2,1.4E2,1.9E1,2.45E2,1E0,4.7E1,1E0,4.3E1,3.5E1,5E0,3.1E1,5E0,4.1E1,2.13E2,5.24E2,2E0,1E0,2E0,2E0,3.99E2,2.03E2,1.14E2,2.6E1,3E0,1.6E1,1.79E2,6.6E1,6E0,4.1E1,2.8E1,1.5E1,2.4E1,1.1E1,2E0,3E0,1.7E1,1.4E1,4E0,1E0,4E0,3.7E1,1.95E2,1.8E1,5E0,5.19E2,1E0,1E0,3.49E2,5E1,2.01E2,2E0,5.5E1,5.9E1,1.8E1,8E0,5E0,1.1E1,1.5E1,1.64E2,6.4E1,2E0,5E0,1E0,5E0,3.6E1,1.9E1,9E0,9E0,6E0,1.6E1,8E0,1E1,1E0,1.2E1,5E0,8E0,6E0,3E0,1E0,2E0,2E0,1.7E1,2E1],"tree_param":{"num_deleted":"0","num_feature":"8","num_nodes":"101","size_leaf_vector":"1"}},{"base_weights":[3.2953437E-2,-1.9572851E-1,9.3377364E-1,-3.940334E-1,-1.7160982E-2,1.4957255E0,3.1366956E-1,-4.3452445E-1,3.6648574E-1,4.0695662E0,-4.2059124E-2,2.0407106E-1,2.0555198E0,8.605648E-1,-1.5662606E-1,-5.2127326E-1,-2.6356426E-1,1.4334604E0,-4.7465304E-1,2.030838E0,1.315093E-2,1.1884962E-1,-3.478077E-1,-1.0720321E0,4.8914966E-1,1.8874841E0,6.3830223E0,1.5840832E0,1.0104451E-1,-2.7245107E0,-5.234441E-2,-4.9995503E-1,-1.2256745E0,-2.9677024E-1,1.7614797E0,-2.584283E-1,3.3691385E0,-5.317434E-1,1.0863677E-1,-3.8024068E-3,9.7203255E-3,3.6321443E-1,-1.860834E-1,-3.7405628E-1,1.1864241E0,-3.3666373E-3,-1.1674491E0,-9.0046704E-2,1.0502294E0,2.1095173E0,-4.6096003E-1,5.5341486E-2,2.3659627E0,2.1193132E0,-6.440856E-2,-2.617572E-1,3.7945008E0,-4.3122053E-2,-1.0610564E0,-2.58201E-1,9.6790844E-1,-1.6254702E-1,-5.5910308E-2,-1.814368E-1,-5.0143903E-1,-2.7338915E-2,-1.5370424E-1,-2.6477286E-1,1.4540472E0,-2.5642553E-1,4.2537308E-1,1.9119924E-1,1.4642271E0,-1.728057E-1,5.3065237E-2,4.784731E-2,4.818031E-1,-4.5128855E-1,-3.4858268E-2,-8.5569754E-2,-2.6929423E-1,1.3884978E0,-2.4933983E-1,-1.084627E-1,-3.919105E-1,1.101401E-1,-2.3652364E-1,-2.8416458E-1,4.018132E-1,1.0113037E0,4.6966073E-1,5.5318244E-2,-8.020816E-1,1.623366E0,4.8785582E-1,-4.7336978E-1,5.136196E-1,-1.5856357E-1,3.328731E-1,1.9741775E-1,1.3861885E0,7.261791E-1,-1.0591711E-1,1.1446898E0,2.5541013E-2],"categories":[],"categories_nodes":[],"categories_segments":[],"categories_sizes":[],"default_left":[0,0,0,0,0,0,0,0,0,0,0,0,0,0,0,0,0,0,0,0,0,0,0,0,0,0,0,0,0,0,0,0,0,0,0,0,0,0,0,0,0,0,0,0,0,0,0,0,0,0,0,0,0,0,0,0,0,0,0,0,0,0,0,0,0,0,0,0,0,0,0,0,0,0,0,0,0,0,0,0,0,0,0,0,0,0,0,0,0,0,0,0,0,0,0,0,0,0,0,0,0,0,0,0,0],"id":5,"left_children":[1,3,5,7,9,11,13,15,17,19,21,23,25,27,29,31,33,35,37,-1,39,41,43,45,47,49,51,53,55,57,59,61,63,65,67,69,71,73,-1,-1,-1,75,77,79,81,-1,83,85,87,89,91,-1,-1,93,95,97,99,-1,-1,101,103,-1,-1,-1,-1,-1,-1,-1,-1,-1,-1,-1,-1,-1,-1,-1,-1,-1,-1,-1,-1,-1,-1,-1,-1,-1,-1,-1,-1,-1,-1,-1,-1,-1,-1,-1,-1,-1,-1,-1,-1,-1,-1,-1,-1],"loss_changes":[4.0394534E2,5.537575E1,1.3787292E2,2.2977753E1,8.401473E1,1.4997717E2,4.900325E1,1.030336E1,3.4784397E1,5.4670418E1,4.038339E1,2.3806927E1,9.339252E1,4.8198303E1,2.7439062E1,6.384964E0,1.659397E1,5.6544865E1,1.2435365E0,0E0,1.9021153E-3,4.0156605E1,1.1840591E1,1.2015305E0,1.7318264E1,7.4494415E1,4.514337E1,3.984098E1,5.9952896E1,7.8775005E0,2.1252491E1,5.8597565E0,2.587305E0,1.0415522E1,3.6908978E1,1.120836E1,2.9924957E1,7.6076174E-1,0E0,0E0,0E0,7.544664E1,2.193611E1,1.2719505E1,3.8567917E1,0E0,7.592077E-1,8.909984E0,1.6862715E1,8.3246216E1,1.9056217E1,0E0,0E0,4.6393524E1,3.4965584E1,1.5586539E1,7.323757E0,0E0,0E0,2.2199018E1,4.2411285E1,0E0,0E0,0E0,0E0,0E0,0E0,0E0,0E0,0E0,0E0,0E0,0E0,0E0,0E0,0E0,0E0,0E0,0E0,0E0,0E0,0E0,0E0,0E0,0E0,0E0,0E0,0E0,0E0,0E0,0E0,0E0,0E0,0E0,0E0,0E0,0E0,0E0,0E0,0E0,0E0,0E0,0E0,0E0,0E0],"parents":[2147483647,0,0,1,1,2,2,3,3,4,4,5,5,6,6,7,7,8,8,9,9,10,10,11,11,12,12,13,13,14,14,15,15,16,16,17,17,18,18,20,20,21,21,22,22,23,23,24,24,25,25,26,26,27,27,28,28,29,29,30,30,31,31,32,32,33,33,34,34,35,35,36,36,37,37,41,41,42,42,43,43,44,44,46,46,47,47,48,48,49,49,50,50,53,53,54,54,55,55,56,56,59,59,60,60],"right_children":[2,4,6,8,10,12,14,16,18,20,22,24,26,28,30,32,34,36,38,-1,40,42,44,46,48,50,52,54,56,58,60,62,64,66,68,70,72,74,-1,-1,-1,76,78,80,82,-1,84,86,88,90,92,-1,-1,94,96,98,100,-1,-1,102,104,-1,-1,-1,-1,-1,-1,-1,-1,-1,-1,-1,-1,-1,-1,-1,-1,-1,-1,-1,-1,-1,-1,-1,-1,-1,-1,-1,-1,-1,-1,-1,-1,-1,-1,-1,-1,-1,-1,-1,-1,-1,-1,-1,-1],"split_conditions":[4.9E0,1.5E0,2.0351215E2,7.87E0,1.0433333E0,9.865243E1,1.8772715E1,1.1E0,2.2331288E2,1.3344333E1,2.1626984E1,1.8323994E1,2.99E1,2.48596E2,2.0550523E2,1.13E1,1.4400001E1,8E-1,9.3E0,2.030838E0,1.395475E1,2.1025636E2,2.16E1,2.9666667E0,1.6700275E1,2.067975E1,3.2776663E0,1E0,1.613E1,2.9755833E0,1.579E1,3.6E0,9.3E-1,1.62E0,4.8068337E0,2.0418695E1,4.5133333E0,3.7107944E1,1.0863677E-1,-3.8024068E-3,9.7203255E-3,1.948661E1,2.1365216E2,5.5E0,2.334455E1,-3.3666373E-3,8.916666E-3,6.3E0,3.93E0,3.83E0,1.315E1,5.5341486E-2,2.3659627E0,1.23E0,2.6E0,3.3917548E2,4.1297507E0,-4.3122053E-2,-1.0610564E0,2.0735385E2,2.1284506E2,-1.6254702E-1,-5.5910308E-2,-1.814368E-1,-5.0143903E-1,-2.7338915E-2,-1.5370424E-1,-2.6477286E-1,1.4540472E0,-2.5642553E-1,4.2537308E-1,1.9119924E-1,1.4642271E0,-1.728057E-1,5.3065237E-2,4.784731E-2,4.818031E-1,-4.5128855E-1,-3.4858268E-2,-8.5569754E-2,-2.6929423E-1,1.3884978E0,-2.4933983E-1,-1.084627E-1,-3.919105E-1,1.101401E-1,-2.3652364E-1,-2.8416458E-1,4.018132E-1,1.0113037E0,4.6966073E-1,5.5318244E-2,-8.020816E-1,1.623366E0,4.8785582E-1,-4.7336978E-1,5.136196E-1,-1.5856357E-1,3.328731E-1,1.9741775E-1,1.3861885E0,7.261791E-1,-1.0591711E-1,1.1446898E0,2.5541013E-2],"split_indices":[5,5,3,7,4,3,2,5,3,0,2,3,7,3,3,1,1,1,1,0,0,3,6,4,2,0,0,1,5,0,5,1,5,7,0,2,4,2,0,0,0,2,3,6,2,0,0,6,6,6,5,0,0,7,1,3,0,0,0,3,3,0,0,0,0,0,0,0,0,0,0,0,0,0,0,0,0,0,0,0,0,0,0,0,0,0,0,0,0,0,0,0,0,0,0,0,0,0,0,0,0,0,0,0,0],"split_type":[0,0,0,0,0,0,0,0,0,0,0,0,0,0,0,0,0,0,0,0,0,0,0,0,0,0,0,0,0,0,0,0,0,0,0,0,0,0,0,0,0,0,0,0,0,0,0,0,0,0,0,0,0,0,0,0,0,0,0,0,0,0,0,0,0,0,0,0,0,0,0,0,0,0,0,0,0,0,0,0,0,0,0,0,0,0,0,0,0,0,0,0,0,0,0,0,0,0,0,0,0,0,0,0,0],"sum_hessian":[1.959E3,1.563E3,3.96E2,7.4E2,8.23E2,2.07E2,1.89E2,7.03E2,3.7E1,4E0,8.19E2,6.3E1,1.44E2,8.7E1,1.02E2,4.65E2,2.38E2,1.6E1,2.1E1,2E0,2E0,5.37E2,2.82E2,1.1E1,5.2E1,1.4E2,4E0,4.4E1,4.3E1,3E0,9.9E1,4.53E2,1.2E1,2.35E2,3E0,9E0,7E0,2E1,1E0,1E0,1E0,2.98E2,2.39E2,2.78E2,4E0,1E0,1E1,2.6E1,2.6E1,1.28E2,1.2E1,1E0,3E0,3.3E1,1.1E1,4E1,3E0,1E0,2E0,8.3E1,1.6E1,3.99E2,5.4E1,6E0,6E0,1.21E2,1.14E2,2E0,1E0,7E0,2E0,3E0,4E0,1.9E1,1E0,2.57E2,4.1E1,1.1E1,2.28E2,2.39E2,3.9E1,1E0,3E0,2E0,8E0,1.6E1,1E1,3E0,2.3E1,3.7E1,9.1E1,1E1,2E0,3E0,3E1,6E0,5E0,3.4E1,6E0,1E0,2E0,2E0,8.1E1,3E0,1.3E1],"tree_param":{"num_deleted":"0","num_feature":"8","num_nodes":"105","size_leaf_vector":"1"}},{"base_weights":[2.9201828E-2,-6.9319926E-2,1.3104798E0,-1.9346932E-1,2.8288755E-1,2.1591144E0,5.674307E-1,-2.075142E-1,1.0675502E0,6.893172E-1,1.659701E-2,3.4549692E0,5.321182E-1,1.9585254E0,-1.9510908E-1,-5.118128E-1,-1.5492189E-1,2.695032E0,-8.413127E-1,5.977784E-1,2.671062E0,-9.6544766E-1,8.954979E-2,2.2428355E0,7.417083E0,-1.3800896E0,1.1740984E0,6.3400745E-1,3.561339E0,-4.3285373E-1,1.7181568E0,-3.6853105E-1,-1.1603795E0,1.3578335E0,-1.6953659E-1,-1.0910045E0,1.0639844E-1,3.7973627E-1,2.303267E0,-1.8182639E0,-2.4538158E-1,-1.1594659E0,1.5238112E-1,-1.7867633E0,2.9590418E0,2.7407957E-2,2.5351691E0,-4.724145E-3,-1.1012373E0,-8.3532673E-1,2.10543E0,1.1154027E0,-5.471519E-1,6.5170846E0,5.190797E-1,-1.5800521E0,1.19735375E-1,1.375317E-1,-1.4252578E-1,-4.713052E-1,6.9949925E-3,-1.4729059E-2,2.3140707E0,-2.442474E-2,-1.1154654E-1,-7.505397E-2,-3.7501702E-1,-1.821149E-1,1.7745098E-1,2.972481E0,1.4559208E-1,-1.0747122E-1,-7.465713E-1,7.526173E-2,-1.907063E-1,-1.540403E-1,-7.4537855E-1,2.893377E-1,-2.2051118E-2,-7.661654E-1,1.9225818E-1,6.377865E-1,1.5728475E0,3.3086544E-1,-2.5027496E-1,7.9694396E-1,-5.14096E-1,9.0351796E-1,2.7894313E-2,8.437934E-2,5.117546E-1,4.610613E-1,2.5868924E0,6.82409E-1,-1.9143195E-1,-6.123708E-1,3.296467E-1,5.0254005E-1,-8.201712E-2],"categories":[],"categories_nodes":[],"categories_segments":[],"categories_sizes":[],"default_left":[0,0,0,0,0,0,0,0,0,0,0,0,0,0,0,0,0,0,0,0,0,0,0,0,0,0,0,0,0,0,0,0,0,0,0,0,0,0,0,0,0,0,0,0,0,0,0,0,0,0,0,0,0,0,0,0,0,0,0,0,0,0,0,0,0,0,0,0,0,0,0,0,0,0,0,0,0,0,0,0,0,0,0,0,0,0,0,0,0,0,0,0,0,0,0,0,0,0,0],"id":6,"left_children":[1,3,5,7,9,11,13,15,17,19,21,23,25,27,29,31,33,-1,35,37,-1,39,41,43,45,47,49,51,53,55,-1,57,59,61,63,65,-1,67,69,71,73,75,77,79,81,-1,-1,83,-1,85,87,89,-1,91,93,95,97,-1,-1,-1,-1,-1,-1,-1,-1,-1,-1,-1,-1,-1,-1,-1,-1,-1,-1,-1,-1,-1,-1,-1,-1,-1,-1,-1,-1,-1,-1,-1,-1,-1,-1,-1,-1,-1,-1,-1,-1,-1,-1],"loss_changes":[2.47509E2,7.968039E1,8.7055664E1,2.4078068E1,5.1397045E1,1.3520438E2,8.1000275E1,2.125373E1,2.3421309E2,1.3603868E2,2.0719606E1,1.5625876E2,3.8448345E1,5.5061874E1,7.287876E1,1.7786205E1,2.5389643E1,0E0,4.269063E0,6.866476E1,0E0,1.1835512E1,2.1287083E1,8.89818E1,5.979593E1,2.5187069E1,4.480186E1,2.0965454E1,1.0452284E2,3.1251724E1,0E0,1.4492865E1,1.7049099E1,9.8741554E1,2.0076935E1,1.1583452E0,0E0,3.5256836E1,2.8552887E2,7.9164944E0,2.4837677E0,9.852644E0,4.7213966E1,1.09480915E1,3.641873E1,0E0,0E0,6.4328213E0,0E0,2.9087858E1,2.8901978E1,6.415392E0,0E0,4.967427E1,1.5672527E1,2.2010204E1,2.1247847E1,0E0,0E0,0E0,0E0,0E0,0E0,0E0,0E0,0E0,0E0,0E0,0E0,0E0,0E0,0E0,0E0,0E0,0E0,0E0,0E0,0E0,0E0,0E0,0E0,0E0,0E0,0E0,0E0,0E0,0E0,0E0,0E0,0E0,0E0,0E0,0E0,0E0,0E0,0E0,0E0,0E0,0E0],"parents":[2147483647,0,0,1,1,2,2,3,3,4,4,5,5,6,6,7,7,8,8,9,9,10,10,11,11,12,12,13,13,14,14,15,15,16,16,18,18,19,19,21,21,22,22,23,23,24,24,25,25,26,26,27,27,28,28,29,29,31,31,32,32,33,33,34,34,35,35,37,37,38,38,39,39,40,40,41,41,42,42,43,43,44,44,47,47,49,49,50,50,51,51,53,53,54,54,55,55,56,56],"right_children":[2,4,6,8,10,12,14,16,18,20,22,24,26,28,30,32,34,-1,36,38,-1,40,42,44,46,48,50,52,54,56,-1,58,60,62,64,66,-1,68,70,72,74,76,78,80,82,-1,-1,84,-1,86,88,90,-1,92,94,96,98,-1,-1,-1,-1,-1,-1,-1,-1,-1,-1,-1,-1,-1,-1,-1,-1,-1,-1,-1,-1,-1,-1,-1,-1,-1,-1,-1,-1,-1,-1,-1,-1,-1,-1,-1,-1,-1,-1,-1,-1,-1,-1],"split_conditions":[1.09E1,3.2E0,5E-1,1.717E1,1.8E2,8.47E0,1.315E1,3.5474995E-1,7.756667E0,1.7768913E2,1.1693333E0,2.16E1,3.4443338E0,4.1000004E0,2.99E1,2.1E0,5.0891674E-1,2.695032E0,4.899999E0,1.6471834E2,2.671062E0,2.9433334E0,8.5E-1,1.1983188E1,1.1856667E1,1.7238699E1,1.4495483E2,1.142E1,9.75E0,1.6E0,1.7181568E0,1.2387348E1,2.992408E2,2.535637E1,2.5878458E2,3.0339165E0,1.0639844E-1,3.0851723E1,2.3401666E0,2.1516667E-1,6E-1,6.3E0,1.8E0,1E-1,3E-1,2.7407957E-2,2.5351691E0,2.2797499E0,-1.1012373E0,3.8047502E0,2.32942E2,4.05E0,-5.471519E-1,1.87E0,3.58E0,1.701E1,2.4E0,1.375317E-1,-1.4252578E-1,-4.713052E-1,6.9949925E-3,-1.4729059E-2,2.3140707E0,-2.442474E-2,-1.1154654E-1,-7.505397E-2,-3.7501702E-1,-1.821149E-1,1.7745098E-1,2.972481E0,1.4559208E-1,-1.0747122E-1,-7.465713E-1,7.526173E-2,-1.907063E-1,-1.540403E-1,-7.4537855E-1,2.893377E-1,-2.2051118E-2,-7.661654E-1,1.9225818E-1,6.377865E-1,1.5728475E0,3.3086544E-1,-2.5027496E-1,7.9694396E-1,-5.14096E-1,9.0351796E-1,2.7894313E-2,8.437934E-2,5.117546E-1,4.610613E-1,2.5868924E0,6.82409E-1,-1.9143195E-1,-6.123708E-1,3.296467E-1,5.0254005E-1,-8.201712E-2],"split_indices":[5,5,1,7,3,7,5,0,4,3,0,5,0,1,7,5,0,0,1,3,0,4,7,2,4,2,3,7,6,1,0,2,3,2,3,0,0,3,0,0,1,5,7,1,1,0,0,0,0,0,3,7,0,7,7,4,1,0,0,0,0,0,0,0,0,0,0,0,0,0,0,0,0,0,0,0,0,0,0,0,0,0,0,0,0,0,0,0,0,0,0,0,0,0,0,0,0,0,0],"split_type":[0,0,0,0,0,0,0,0,0,0,0,0,0,0,0,0,0,0,0,0,0,0,0,0,0,0,0,0,0,0,0,0,0,0,0,0,0,0,0,0,0,0,0,0,0,0,0,0,0,0,0,0,0,0,0,0,0,0,0,0,0,0,0,0,0,0,0,0,0,0,0,0,0,0,0,0,0,0,0,0,0,0,0,0,0,0,0,0,0,0,0,0,0,0,0,0,0,0,0],"sum_hessian":[1.959E3,1.82E3,1.39E2,1.346E3,4.74E2,6.4E1,7.5E1,1.332E3,1.4E1,1.87E2,2.87E2,3.5E1,2.9E1,2.6E1,4.9E1,1.95E2,1.137E3,2E0,1.2E1,1.86E2,1E0,1.9E1,2.68E2,2.8E1,7E0,7E0,2.2E1,1.5E1,1.1E1,4.8E1,1E0,1.61E2,3.4E1,1E1,1.127E3,1E1,2E0,1.66E2,2E1,8E0,1.1E1,1.2E1,2.56E2,4E0,2.4E1,1E0,6E0,5E0,2E0,7E0,1.5E1,1.3E1,2E0,5E0,6E0,1.5E1,3.3E1,1.8E1,1.43E2,2.5E1,9E0,9E0,1E0,7.86E2,3.41E2,2E0,8E0,2.9E1,1.37E2,3E0,1.7E1,3E0,5E0,5E0,6E0,9E0,3E0,5.5E1,2.01E2,3E0,1E0,1.9E1,5E0,2E0,3E0,1E0,6E0,1E1,5E0,6E0,7E0,2E0,3E0,2E0,4E0,1.3E1,2E0,6E0,2.7E1],"tree_param":{"num_deleted":"0","num_feature":"8","num_nodes":"99","size_leaf_vector":"1"}},{"base_weights":[2.9658144E-2,-6.224393E-2,7.9991066E-1,-1.8348524E-1,1.08545326E-1,1.3604195E0,3.1168702E-1,-1.451097E-1,-6.061663E-1,4.0042275E-1,-9.010073E-2,9.9161404E-1,4.1536617E0,8.614911E-1,-3.735942E-1,-1.5755075E-1,1.7324208E0,-2.1417277E0,-4.409015E-1,2.6422262E-1,3.5904574E0,-1.0403032E-1,8.912123E-1,2.7401702E0,5.589792E-1,2.8537738E0,9.5499516E-1,6.3511825E-1,4.041711E0,-1.5561153E0,7.1902886E-2,-3.150763E-1,-2.06535E-2,-1.8306841E-1,-8.815746E-1,8.929985E-1,-5.6446254E-1,6.8068665E-1,-1.1767893E-1,5.780565E0,-1.8954171E-1,-1.7011847E-1,5.6799144E-1,3.8942842E0,-8.085599E-1,2.8830713E-1,4.074189E0,6.355108E-1,-1.6670322E-1,-1.8640351E0,7.99355E-1,2.3296738E-2,1.6011533E0,-2.6402342E0,-4.1299662E-1,9.266701E-1,-9.3121365E-2,-8.9249834E-2,-2.5964013E-1,4.3870717E-2,-9.813783E-2,-9.299134E-2,5.618156E-1,-2.7149168E-1,-5.9644427E-2,-2.9203552E-1,3.3556524E-1,3.5175953E-2,-1.3755587E-1,2.1425564E0,3.3933926E-1,-6.4842425E-2,9.283075E-2,3.276829E-1,-1.0310488E-1,1.5363533E0,-4.3956257E-2,-5.2922383E-2,-5.005752E-1,1.5931714E-1,-6.804481E-1,1.5732494E-1,1.4491585E0,-1.1792043E-1,1.1081343E-1,-2.8721096E-2,-7.2646666E-1,6.6326374E-1,1.2412622E-1,-8.6629845E-2,-8.952054E-1,-5.83185E-1,1.2639387E-1,-1.5593159E-1,1.1583248E-1],"categories":[],"categories_nodes":[],"categories_segments":[],"categories_sizes":[],"default_left":[0,0,0,0,0,0,0,0,0,0,0,0,0,0,0,0,0,0,0,0,0,0,0,0,0,0,0,0,0,0,0,0,0,0,0,0,0,0,0,0,0,0,0,0,0,0,0,0,0,0,0,0,0,0,0,0,0,0,0,0,0,0,0,0,0,0,0,0,0,0,0,0,0,0,0,0,0,0,0,0,0,0,0,0,0,0,0,0,0,0,0,0,0,0,0],"id":7,"left_children":[1,3,5,7,9,11,13,15,17,19,21,23,25,27,29,31,-1,33,35,37,39,41,-1,43,45,-1,47,49,51,53,55,57,59,-1,-1,61,63,65,67,69,-1,71,73,75,77,79,81,-1,83,85,87,-1,-1,89,91,-1,93,-1,-1,-1,-1,-1,-1,-1,-1,-1,-1,-1,-1,-1,-1,-1,-1,-1,-1,-1,-1,-1,-1,-1,-1,-1,-1,-1,-1,-1,-1,-1,-1,-1,-1,-1,-1,-1,-1],"loss_changes":[1.3879388E2,3.6298077E1,5.6769592E1,1.6538166E1,4.2245735E1,9.580698E1,4.28969E1,7.021359E1,2.062652E1,1.2722385E2,1.8812992E1,6.42826E1,1.7947081E2,4.27877E1,2.6979181E1,2.0264412E1,0E0,7.9698524E0,1.33598795E1,4.524981E1,1.146187E2,1.932731E1,0E0,7.277463E1,6.637969E1,0E0,1.079278E1,2.61172E1,2.012674E1,1.6259464E1,1.9206995E1,3.9701195E0,2.5825909E1,0E0,0E0,8.830503E0,8.784557E0,9.959201E1,1.1984849E1,4.255545E1,0E0,8.784729E0,1.9016506E1,6.5199646E1,2.4239776E0,4.2783543E1,1.0890953E1,0E0,7.5194055E-1,3.7116165E0,3.0109486E1,0E0,0E0,4.7970886E0,1.1037324E1,0E0,7.765842E0,0E0,0E0,0E0,0E0,0E0,0E0,0E0,0E0,0E0,0E0,0E0,0E0,0E0,0E0,0E0,0E0,0E0,0E0,0E0,0E0,0E0,0E0,0E0,0E0,0E0,0E0,0E0,0E0,0E0,0E0,0E0,0E0,0E0,0E0,0E0,0E0,0E0,0E0],"parents":[2147483647,0,0,1,1,2,2,3,3,4,4,5,5,6,6,7,7,8,8,9,9,10,10,11,11,12,12,13,13,14,14,15,15,17,17,18,18,19,19,20,20,21,21,23,23,24,24,26,26,27,27,28,28,29,29,30,30,31,31,32,32,35,35,36,36,37,37,38,38,39,39,41,41,42,42,43,43,44,44,45,45,46,46,48,48,49,49,50,50,53,53,54,54,56,56],"right_children":[2,4,6,8,10,12,14,16,18,20,22,24,26,28,30,32,-1,34,36,38,40,42,-1,44,46,-1,48,50,52,54,56,58,60,-1,-1,62,64,66,68,70,-1,72,74,76,78,80,82,-1,84,86,88,-1,-1,90,92,-1,94,-1,-1,-1,-1,-1,-1,-1,-1,-1,-1,-1,-1,-1,-1,-1,-1,-1,-1,-1,-1,-1,-1,-1,-1,-1,-1,-1,-1,-1,-1,-1,-1,-1,-1,-1,-1,-1,-1],"split_conditions":[8.15E0,2.4533334E0,1.863401E2,2.2233334E0,3.15E0,1.7248738E2,7E-1,4.37E0,3.985E-1,3.1E0,1.701E1,1.457889E1,8.136001E0,2.99E1,2.0958061E2,1.1E0,1.7324208E0,1.8E0,1.2387348E1,2.0958061E2,2.3243446E2,1.929225E1,8.912123E-1,2.1E0,2.1596666E1,2.8537738E0,1.7000002E0,1.904646E2,2.552667E0,2.8000002E0,2.109824E2,1.13E1,2.463536E2,-1.8306841E-1,-8.815746E-1,1.5332227E2,2.2920425E2,1.288981E1,4.59E0,4.59E0,-1.8954171E-1,1.0353333E1,2.067975E1,1.315E1,9.6962616E1,1.5943334E1,7.0068345E0,6.355108E-1,2.4251284E1,1.1183201E1,2.1797388E2,2.3296738E-2,1.6011533E0,3.4443338E0,7.173333E0,9.266701E-1,7.281833E0,-8.9249834E-2,-2.5964013E-1,4.3870717E-2,-9.813783E-2,-9.299134E-2,5.618156E-1,-2.7149168E-1,-5.9644427E-2,-2.9203552E-1,3.3556524E-1,3.5175953E-2,-1.3755587E-1,2.1425564E0,3.3933926E-1,-6.4842425E-2,9.283075E-2,3.276829E-1,-1.0310488E-1,1.5363533E0,-4.3956257E-2,-5.2922383E-2,-5.005752E-1,1.5931714E-1,-6.804481E-1,1.5732494E-1,1.4491585E0,-1.1792043E-1,1.1081343E-1,-2.8721096E-2,-7.2646666E-1,6.6326374E-1,1.2412622E-1,-8.6629845E-2,-8.952054E-1,-5.83185E-1,1.2639387E-1,-1.5593159E-1,1.1583248E-1],"split_indices":[5,4,3,4,6,3,1,5,0,6,4,2,0,5,3,5,0,5,2,3,3,0,0,1,4,0,1,3,0,1,3,1,3,0,0,3,3,2,7,7,0,4,0,6,3,4,0,0,2,2,3,0,0,0,4,0,0,0,0,0,0,0,0,0,0,0,0,0,0,0,0,0,0,0,0,0,0,0,0,0,0,0,0,0,0,0,0,0,0,0,0,0,0,0,0],"split_type":[0,0,0,0,0,0,0,0,0,0,0,0,0,0,0,0,0,0,0,0,0,0,0,0,0,0,0,0,0,0,0,0,0,0,0,0,0,0,0,0,0,0,0,0,0,0,0,0,0,0,0,0,0,0,0,0,0,0,0,0,0,0,0,0,0,0,0,0,0,0,0,0,0,0,0,0,0,0,0,0,0,0,0,0,0,0,0,0,0,0,0,0,0,0,0],"sum_hessian":[1.959E3,1.751E3,2.08E2,1.024E3,7.27E2,9.6E1,1.12E2,9.4E2,8.4E1,2.94E2,4.33E2,8.6E1,1E1,6.2E1,5E1,9.39E2,1E0,7E0,7.7E1,2.83E2,1.1E1,4.32E2,1E0,1.6E1,7E1,3E0,7E0,5.9E1,3E0,1.3E1,3.7E1,4.36E2,5.03E2,3E0,4E0,6E0,7.1E1,1.35E2,1.48E2,7E0,4E0,3.94E2,3.8E1,1.2E1,4E0,6.6E1,4E0,3E0,4E0,3E0,5.6E1,1E0,2E0,6E0,7E0,1E0,3.6E1,4.24E2,1.2E1,3.26E2,1.77E2,3E0,3E0,3.6E1,3.5E1,2.8E1,1.07E2,8.8E1,6E1,5E0,2E0,3.6E2,3.4E1,2.4E1,1.4E1,9E0,3E0,3E0,1E0,6.1E1,5E0,1E0,3E0,3E0,1E0,1E0,2E0,1.1E1,4.5E1,1E0,5E0,2E0,5E0,1.9E1,1.7E1],"tree_param":{"num_deleted":"0","num_feature":"8","num_nodes":"95","size_leaf_vector":"1"}},{"base_weights":[2.6062042E-2,-3.0543521E-2,7.621525E-1,-5.0392693E-1,3.446669E-3,-1.454387E0,8.550198E-1,2.1830593E-1,-5.305179E-1,1.5774707E-1,-1.3650006E-1,-4.1856813E-1,-5.602963E-1,1.3589488E0,3.5330585E-1,-2.7105412E-1,-5.9940094E-1,1.1515052E-1,1.3872048E0,1.4329226E-1,-1.8313655E-1,-2.5108603E-1,6.2730365E-2,9.133387E-1,2.842841E0,1.335252E0,2.2759448E-1,-4.7391647E-1,2.2016823E-2,-4.2473245E-1,-7.1034145E-1,-6.0592484E-1,1.7152761E-1,4.262588E0,5.399546E-1,-9.976758E-2,6.805181E-1,-1.9805168E-1,6.3110024E-1,1.7867234E0,1.2892653E-1,6.534974E-1,6.01794E0,6.681725E-1,-5.0980747E-1,-7.705542E-2,-1.9766255E-1,8.1302896E-2,-1.6311637E-1,-1.458071E-1,2.6775738E-2,-2.4322328E-1,-1.14557266E-1,-2.1472044E-1,8.315149E-1,-1.001945E-2,1.1590825E-1,3.5148033E-1,2.0889122E0,-2.2106582E-1,5.651355E-1,-1.5518877E-1,2.7120827E-2,1.1559648E-1,6.051339E-1,-3.7854694E-2,-9.402093E-2,4.943098E-1,6.121652E-2,3.1989872E-1,1.3365107E0,2.0659672E-1,-2.548797E-1,1.0906225E0,-2.4528092E-2,5.126444E-1,1.9614009E0,8.3364815E-2,7.0228654E-1,-5.7906663E-1,3.8484158E-3],"categories":[],"categories_nodes":[],"categories_segments":[],"categories_sizes":[],"default_left":[0,0,0,0,0,0,0,0,0,0,0,0,0,0,0,0,0,0,0,0,0,0,0,0,0,0,0,0,0,0,0,0,0,0,0,0,0,0,0,0,0,0,0,0,0,0,0,0,0,0,0,0,0,0,0,0,0,0,0,0,0,0,0,0,0,0,0,0,0,0,0,0,0,0,0,0,0,0,0,0,0],"id":8,"left_children":[1,3,5,7,9,11,13,-1,15,17,19,21,-1,23,25,27,29,31,33,35,37,-1,-1,39,41,-1,43,45,47,49,51,53,55,57,59,61,63,65,67,69,71,73,75,77,79,-1,-1,-1,-1,-1,-1,-1,-1,-1,-1,-1,-1,-1,-1,-1,-1,-1,-1,-1,-1,-1,-1,-1,-1,-1,-1,-1,-1,-1,-1,-1,-1,-1,-1,-1,-1],"loss_changes":[8.169024E1,2.9302341E1,3.0061691E1,4.381523E0,3.6731056E1,1.7866793E0,3.3651672E1,0E0,1.9822464E0,4.220813E1,1.1665531E1,9.628307E-1,0E0,4.1706436E1,3.4529377E1,1.6156667E0,1.5198097E0,3.193455E1,6.347496E1,1.6781883E1,9.415493E0,0E0,0E0,3.6079605E1,1.0033803E2,0E0,2.243269E1,4.731362E-1,1.8377302E0,1.2719874E0,1.5373287E0,2.3125032E1,3.201898E1,4.192449E1,3.9136993E1,7.1134987E0,1.5005089E1,6.19471E0,5.741651E0,4.330538E1,1.6468649E1,2.2221962E1,2.2738342E0,2.7422897E1,1.93261E1,0E0,0E0,0E0,0E0,0E0,0E0,0E0,0E0,0E0,0E0,0E0,0E0,0E0,0E0,0E0,0E0,0E0,0E0,0E0,0E0,0E0,0E0,0E0,0E0,0E0,0E0,0E0,0E0,0E0,0E0,0E0,0E0,0E0,0E0,0E0,0E0],"parents":[2147483647,0,0,1,1,2,2,3,3,4,4,5,5,6,6,8,8,9,9,10,10,11,11,13,13,14,14,15,15,16,16,17,17,18,18,19,19,20,20,23,23,24,24,26,26,27,27,28,28,29,29,30,30,31,31,32,32,33,33,34,34,35,35,36,36,37,37,38,38,39,39,40,40,41,41,42,42,43,43,44,44],"right_children":[2,4,6,8,10,12,14,-1,16,18,20,22,-1,24,26,28,30,32,34,36,38,-1,-1,40,42,-1,44,46,48,50,52,54,56,58,60,62,64,66,68,70,72,74,76,78,80,-1,-1,-1,-1,-1,-1,-1,-1,-1,-1,-1,-1,-1,-1,-1,-1,-1,-1,-1,-1,-1,-1,-1,-1,-1,-1,-1,-1,-1,-1,-1,-1,-1,-1,-1,-1],"split_conditions":[1.09E1,3.0851723E1,1.4797502E0,1.0308831E1,2.2422061E2,8.63E0,1.9829433E1,2.1830593E-1,1.4917212E1,1.364E1,1.3746156E1,-5.7749983E-2,-5.602963E-1,1.977E1,1.9235001E0,2.52E0,1.34E0,1.1183201E1,2E0,3.37E0,1.941725E1,-2.5108603E-1,6.2730365E-2,1.315E1,7.344333E0,1.335252E0,7.57E0,1.39E0,2.813496E1,1.23E0,5.4693336E0,8.47E0,4E-1,3.9964163E0,1.173E1,2.549599E2,1.3276144E1,2.8531567E2,1.4264361E1,1.8374111E1,1.315E1,1E-1,1.4458382E1,1.203E1,4.544334E0,-7.705542E-2,-1.9766255E-1,8.1302896E-2,-1.6311637E-1,-1.458071E-1,2.6775738E-2,-2.4322328E-1,-1.14557266E-1,-2.1472044E-1,8.315149E-1,-1.001945E-2,1.1590825E-1,3.5148033E-1,2.0889122E0,-2.2106582E-1,5.651355E-1,-1.5518877E-1,2.7120827E-2,1.1559648E-1,6.051339E-1,-3.7854694E-2,-9.402093E-2,4.943098E-1,6.121652E-2,3.1989872E-1,1.3365107E0,2.0659672E-1,-2.548797E-1,1.0906225E0,-2.4528092E-2,5.126444E-1,1.9614009E0,8.3364815E-2,7.0228654E-1,-5.7906663E-1,3.8484158E-3],"split_indices":[5,3,0,2,3,6,2,0,2,7,2,0,0,5,0,5,6,2,6,7,0,0,0,5,0,0,7,5,3,6,0,5,1,0,6,3,2,3,2,2,6,1,2,6,0,0,0,0,0,0,0,0,0,0,0,0,0,0,0,0,0,0,0,0,0,0,0,0,0,0,0,0,0,0,0,0,0,0,0,0,0],"split_type":[0,0,0,0,0,0,0,0,0,0,0,0,0,0,0,0,0,0,0,0,0,0,0,0,0,0,0,0,0,0,0,0,0,0,0,0,0,0,0,0,0,0,0,0,0,0,0,0,0,0,0,0,0,0,0,0,0,0,0,0,0,0,0,0,0,0,0,0,0,0,0,0,0,0,0,0,0,0,0,0,0],"sum_hessian":[1.959E3,1.82E3,1.39E2,1.21E2,1.699E3,5E0,1.34E2,2E0,1.19E2,8.08E2,8.91E2,2E0,3E0,6.6E1,6.8E1,2.6E1,9.3E1,7.82E2,2.6E1,1.27E2,7.64E2,1E0,1E0,5.2E1,1.4E1,1E0,6.7E1,1.5E1,1.1E1,3.8E1,5.5E1,5.6E1,7.26E2,5E0,2.1E1,8.8E1,3.9E1,7.51E2,1.3E1,2.4E1,2.8E1,9E0,5E0,4.2E1,2.5E1,8E0,7E0,8E0,3E0,3.4E1,4E0,4.1E1,1.4E1,5.5E1,1E0,3.72E2,3.54E2,3E0,2E0,1.1E1,1E1,2.7E1,6.1E1,3.3E1,6E0,4.64E2,2.87E2,3E0,1E1,2E1,4E0,1.8E1,1E1,1E0,8E0,1E0,4E0,3.5E1,7E0,6E0,1.9E1],"tree_param":{"num_deleted":"0","num_feature":"8","num_nodes":"81","size_leaf_vector":"1"}},{"base_weights":[2.327085E-2,-1.9234156E-2,5.759733E-1,-1.0571149E-1,8.883288E-2,6.7782706E-1,-1.1893418E0,-3.215865E-1,-6.923691E-2,-7.456391E-1,1.3201062E-1,1.1160569E0,2.5517818E-1,4.904302E-2,-1.6103106E0,-2.790238E-1,-1.4660496E0,2.183408E-1,-1.10012114E-1,-1.4185181E0,-1.8661906E-1,-7.94198E-1,1.6669051E-1,-4.807588E-1,1.4866711E0,6.7711824E-1,-4.2625147E-1,-1.4763022E-2,3.683238E-2,-6.149432E-1,-1.4626208E-1,-2.5564045E-1,-6.387398E-1,-8.276135E-2,-5.083879E-1,-1.764066E-1,9.5014936E-1,-1.3484474E-1,2.8754708E-1,-5.959354E-1,-2.3722544E0,-4.160323E-1,4.4444403E-1,-9.771768E-1,1.0563512E0,2.197663E0,1.4162876E-1,-1.3109057E0,7.0623016E-1,1.2036893E0,3.9625578E0,1.9601746E0,2.798335E-1,-6.241078E-1,7.077018E-1,-8.274576E-2,1.7252503E-2,-2.049507E-1,-4.916034E-2,-6.4095445E-2,3.6461002E-1,5.652197E-1,-9.4301805E-2,-3.1772733E-2,-1.4628385E-1,-4.9458135E-2,5.6623787E-1,2.1320029E-1,-2.3929876E-1,-8.263143E-1,-2.4517514E-1,-2.3763181E-1,-5.1424935E-2,-3.9598945E-1,-8.901586E-2,3.7892878E-1,9.642928E-2,3.5900243E-2,9.6501493E-1,-2.9963076E-1,5.246352E-2,-7.5976186E-2,-5.684538E-1,9.2702925E-1,-1.1656883E-1,7.2398174E-1,1.7972133E-1,3.1450206E-1,1.666777E0,-3.9537355E-1,8.833306E-1,3.512849E-1,-1.2074857E-1,3.996744E-2,-4.1750652E-1],"categories":[],"categories_nodes":[],"categories_segments":[],"categories_sizes":[],"default_left":[0,0,0,0,0,0,0,0,0,0,0,0,0,0,0,0,0,0,0,0,0,0,0,0,0,0,0,0,0,0,0,0,0,0,0,0,0,0,0,0,0,0,0,0,0,0,0,0,0,0,0,0,0,0,0,0,0,0,0,0,0,0,0,0,0,0,0,0,0,0,0,0,0,0,0,0,0,0,0,0,0,0,0,0,0,0,0,0,0,0,0,0,0,0,0],"id":9,"left_children":[1,3,5,7,9,11,13,15,17,19,21,23,25,27,29,31,33,35,37,39,41,43,45,47,49,51,53,-1,-1,-1,-1,55,57,-1,-1,59,61,63,65,67,69,71,-1,73,75,77,79,81,83,85,87,89,91,93,-1,-1,-1,-1,-1,-1,-1,-1,-1,-1,-1,-1,-1,-1,-1,-1,-1,-1,-1,-1,-1,-1,-1,-1,-1,-1,-1,-1,-1,-1,-1,-1,-1,-1,-1,-1,-1,-1,-1,-1,-1],"loss_changes":[4.605661E1,1.7027271E1,2.5978725E1,7.9461718E0,2.9283234E1,2.434911E1,4.249545E0,6.7028055E0,1.0190496E1,1.4781387E1,2.4897524E1,3.9181885E1,2.0127674E1,2.7774815E-2,1.961381E0,1.031126E0,8.9273834E-1,3.13666E1,7.5418234E0,1.2707775E1,9.418076E0,1.0513357E1,3.755814E1,1.3735678E1,3.236374E1,2.1370243E1,1.6351452E1,0E0,0E0,0E0,0E0,8.689194E-1,5.683589E-2,0E0,0E0,3.9400494E0,4.546745E1,7.256975E0,3.288273E1,3.466222E0,2.5026436E0,1.7960851E0,0E0,5.672909E0,4.9824715E-2,1.8673359E1,2.8082163E1,4.460967E0,1.6859745E1,3.4389748E1,1.7392563E1,3.6145424E1,2.1144459E1,1.5299564E1,0E0,0E0,0E0,0E0,0E0,0E0,0E0,0E0,0E0,0E0,0E0,0E0,0E0,0E0,0E0,0E0,0E0,0E0,0E0,0E0,0E0,0E0,0E0,0E0,0E0,0E0,0E0,0E0,0E0,0E0,0E0,0E0,0E0,0E0,0E0,0E0,0E0,0E0,0E0,0E0,0E0],"parents":[2147483647,0,0,1,1,2,2,3,3,4,4,5,5,6,6,7,7,8,8,9,9,10,10,11,11,12,12,13,13,14,14,15,15,16,16,17,17,18,18,19,19,20,20,21,21,22,22,23,23,24,24,25,25,26,26,31,31,32,32,35,35,36,36,37,37,38,38,39,39,40,40,41,41,43,43,44,44,45,45,46,46,47,47,48,48,49,49,50,50,51,51,52,52,53,53],"right_children":[2,4,6,8,10,12,14,16,18,20,22,24,26,28,30,32,34,36,38,40,42,44,46,48,50,52,54,-1,-1,-1,-1,56,58,-1,-1,60,62,64,66,68,70,72,-1,74,76,78,80,82,84,86,88,90,92,94,-1,-1,-1,-1,-1,-1,-1,-1,-1,-1,-1,-1,-1,-1,-1,-1,-1,-1,-1,-1,-1,-1,-1,-1,-1,-1,-1,-1,-1,-1,-1,-1,-1,-1,-1,-1,-1,-1,-1,-1,-1],"split_conditions":[1.09E1,2.06E0,1.9131834E1,3.3E-1,8.5E-1,1.9829433E1,1.3608762E1,6E-1,7.3E-1,1.9325208E2,-1.0348333E0,1.1983188E1,7.57E0,2.2000586E1,1.948661E1,7.6000004E0,1.5547498E0,8E-1,7.4E0,1.4495483E2,1.7000584E1,5.8766665E0,9.3E-1,1.3466666E1,1.859E1,3.25475E0,3.5546665E1,-1.4763022E-2,3.683238E-2,-6.149432E-1,-1.4626208E-1,3E-1,1.13E1,-8.276135E-2,-5.083879E-1,1.2766666E0,2.3243446E2,1.93E0,1.0844334E1,1.0783487E1,3E-1,1.7782688E1,4.4444403E-1,2.3086388E2,-2.2223332E0,2.93E0,1.03E0,1.315E1,9.3669195E0,1.5517629E1,1E-1,1.503201E2,1.9423825E2,1.5943334E1,7.077018E-1,-8.274576E-2,1.7252503E-2,-2.049507E-1,-4.916034E-2,-6.4095445E-2,3.6461002E-1,5.652197E-1,-9.4301805E-2,-3.1772733E-2,-1.4628385E-1,-4.9458135E-2,5.6623787E-1,2.1320029E-1,-2.3929876E-1,-8.263143E-1,-2.4517514E-1,-2.3763181E-1,-5.1424935E-2,-3.9598945E-1,-8.901586E-2,3.7892878E-1,9.642928E-2,3.5900243E-2,9.6501493E-1,-2.9963076E-1,5.246352E-2,-7.5976186E-2,-5.684538E-1,9.2702925E-1,-1.1656883E-1,7.2398174E-1,1.7972133E-1,3.1450206E-1,1.666777E0,-3.9537355E-1,8.833306E-1,3.512849E-1,-1.2074857E-1,3.996744E-2,-4.1750652E-1],"split_indices":[5,5,0,7,7,2,2,4,7,3,0,2,7,0,2,1,0,1,1,3,0,4,7,4,7,0,4,0,0,0,0,7,1,0,0,4,3,5,0,2,1,2,0,3,0,5,7,5,2,2,1,3,3,4,0,0,0,0,0,0,0,0,0,0,0,0,0,0,0,0,0,0,0,0,0,0,0,0,0,0,0,0,0,0,0,0,0,0,0,0,0,0,0,0,0],"split_type":[0,0,0,0,0,0,0,0,0,0,0,0,0,0,0,0,0,0,0,0,0,0,0,0,0,0,0,0,0,0,0,0,0,0,0,0,0,0,0,0,0,0,0,0,0,0,0,0,0,0,0,0,0,0,0,0,0,0,0,0,0,0,0,0,0,0,0,0,0,0,0,0,0,0,0,0,0,0,0,0,0,0,0,0,0,0,0,0,0,0,0,0,0,0,0],"sum_hessian":[1.959E3,1.82E3,1.39E2,1.011E3,8.09E2,1.32E2,7E0,1.45E2,8.66E2,3.9E1,7.7E2,6.4E1,6.8E1,2E0,5E0,1.41E2,4E0,1.07E2,7.59E2,1.7E1,2.2E1,2.7E1,7.43E2,1.2E1,5.2E1,4.2E1,2.6E1,1E0,1E0,3E0,2E0,1.34E2,7E0,1E0,3E0,7E1,3.7E1,7.15E2,4.4E1,1E1,7E0,2E1,2E0,2.5E1,2E0,8E0,7.35E2,7E0,5E0,4.8E1,4E0,9E0,3.3E1,2.5E1,1E0,1.26E2,8E0,6E0,1E0,6.9E1,1E0,2.1E1,1.6E1,6.62E2,5.3E1,3.5E1,9E0,1E0,9E0,5E0,2E0,7E0,1.3E1,1.6E1,9E0,1E0,1E0,3E0,5E0,2E1,7.15E2,3E0,4E0,1E0,4E0,1.5E1,3.3E1,2E0,2E0,2E0,7E0,1.4E1,1.9E1,1.3E1,1.2E1],"tree_param":{"num_deleted":"0","num_feature":"8","num_nodes":"95","size_leaf_vector":"1"}},{"base_weights":[1.8004816E-2,-7.2102863E-3,7.6511484E-1,7.765459E-3,-9.08904E-1,1.4652144E0,1.0428548E-1,-5.5210865E-3,1.453979E0,-4.4104168E-1,-1.6129326E0,-1.2288033E0,1.6933812E0,-9.677402E-1,5.2892435E-1,-2.1269314E-1,4.2079877E-2,2.5515656E0,-9.975159E-2,-9.5761895E-1,9.239085E-1,-2.8946142E0,-6.10265E-1,-1.1472402E-1,-4.382375E-1,8.2084495E-1,2.8610706E0,-1.5972872E0,3.7590206E-1,6.7949736E-1,9.038824E-2,1.3298488E-1,-2.9928073E-1,3.7125534E-1,-5.3132597E-2,3.4446652E0,3.507499E-1,-3.5704026E-1,2.5519037E-1,-1.2312114E0,5.471546E-1,-8.7315716E-2,4.3540487E-1,7.229519E-3,-1.0890951E0,-3.528379E-1,-3.5522986E-2,-6.257585E-1,1.5962932E0,2.6874137E-1,3.6953201E0,-1.6118097E-1,-6.418481E-1,-7.182083E-2,6.6080457E-1,-6.806114E-1,7.2535557E-1,6.9123775E-2,-2.833938E-1,-1.3133088E-1,5.342711E-2,5.7037156E-2,4.8284405E-1,-7.469524E-3,-1.2962086E-1,1.1751366E0,9.148865E-2,-1.2152482E-2,2.2867867E-1,-5.6483604E-2,-2.0544149E-1,-4.7262678E-1,1.3238993E-1,2.378892E-1,8.330369E-3,2.6362611E-2,-6.565469E-2,-1.9081014E-1,8.208395E-2,-4.3006533E-1,2.787446E-1,7.9512393E-1,1.3941604E-1,7.8797495E-1,-4.178201E-1,1.3328595E0,2.1578251E-1,-1.1846073E-1,4.592929E-2,5.3383473E-2,2.439786E-1,-4.4715455E-1,1.2821865E-1,5.0347996E-1,-5.8514256E-2],"categories":[],"categories_nodes":[],"categories_segments":[],"categories_sizes":[],"default_left":[0,0,0,0,0,0,0,0,0,0,0,0,0,0,0,0,0,0,0,0,0,0,0,0,0,0,0,0,0,0,0,0,0,0,0,0,0,0,0,0,0,0,0,0,0,0,0,0,0,0,0,0,0,0,0,0,0,0,0,0,0,0,0,0,0,0,0,0,0,0,0,0,0,0,0,0,0,0,0,0,0,0,0,0,0,0,0,0,0,0,0,0,0,0,0],"id":10,"left_children":[1,3,5,7,9,11,13,15,17,19,21,23,25,27,29,31,33,35,37,39,41,43,45,-1,-1,47,49,51,53,-1,55,57,59,61,63,65,67,69,-1,71,73,75,-1,-1,-1,-1,77,79,81,83,85,87,-1,-1,89,91,93,-1,-1,-1,-1,-1,-1,-1,-1,-1,-1,-1,-1,-1,-1,-1,-1,-1,-1,-1,-1,-1,-1,-1,-1,-1,-1,-1,-1,-1,-1,-1,-1,-1,-1,-1,-1,-1,-1],"loss_changes":[3.692889E1,2.5623266E1,2.945657E1,3.5882774E1,9.499672E0,2.1136086E1,1.5989469E1,1.826275E1,2.9245537E1,1.4986796E1,1.3654726E1,3.043127E-2,2.7198196E1,9.059283E0,1.8828468E1,1.0396078E1,4.722019E1,1.8447258E1,2.2598996E0,6.849084E0,3.326892E0,1.0824005E1,2.5600142E0,0E0,0E0,2.1190685E1,2.495871E1,5.105814E0,8.5940605E-1,0E0,1.0774436E1,7.567034E0,1.839059E1,7.5501144E1,1.2496344E1,9.189041E0,6.7490816E-1,2.5826448E-1,0E0,8.179291E0,3.6099142E-1,8.836178E-2,0E0,0E0,0E0,0E0,1.1022252E0,1.0124279E1,1.3082064E1,1.932811E1,1.6826897E1,2.8078306E-1,0E0,0E0,7.613075E-2,9.610828E0,1.0852087E1,0E0,0E0,0E0,0E0,0E0,0E0,0E0,0E0,0E0,0E0,0E0,0E0,0E0,0E0,0E0,0E0,0E0,0E0,0E0,0E0,0E0,0E0,0E0,0E0,0E0,0E0,0E0,0E0,0E0,0E0,0E0,0E0,0E0,0E0,0E0,0E0,0E0,0E0],"parents":[2147483647,0,0,1,1,2,2,3,3,4,4,5,5,6,6,7,7,8,8,9,9,10,10,11,11,12,12,13,13,14,14,15,15,16,16,17,17,18,18,19,19,20,20,21,21,22,22,25,25,26,26,27,27,28,28,30,30,31,31,32,32,33,33,34,34,35,35,36,36,37,37,39,39,40,40,41,41,46,46,47,47,48,48,49,49,50,50,51,51,54,54,55,55,56,56],"right_children":[2,4,6,8,10,12,14,16,18,20,22,24,26,28,30,32,34,36,38,40,42,44,46,-1,-1,48,50,52,54,-1,56,58,60,62,64,66,68,70,-1,72,74,76,-1,-1,-1,-1,78,80,82,84,86,88,-1,-1,90,92,94,-1,-1,-1,-1,-1,-1,-1,-1,-1,-1,-1,-1,-1,-1,-1,-1,-1,-1,-1,-1,-1,-1,-1,-1,-1,-1,-1,-1,-1,-1,-1,-1,-1,-1,-1,-1,-1,-1],"split_conditions":[1.579E1,1.315E1,5E-1,1.203E1,1.282E1,2.4339168E0,1.6E0,9.865243E1,9.75E0,1.0353333E1,1.429E1,3.5474995E-1,1.977E1,1.5943334E1,2.3999999E0,1.3746156E1,1.916018E2,2.0418695E1,1.9825655E2,6.0999994E0,8.63E0,3.4443338E0,4.611001E0,-1.1472402E-1,-4.382375E-1,2.9E0,1.5135187E2,1.613E1,1.9235001E0,6.7949736E-1,4.299999E0,9.35856E1,2E0,5.9566665E0,1.017E1,1.4166667E1,2.706472E1,7.6000004E0,2.5519037E-1,1.5552669E1,8.479751E0,5.0891674E-1,4.3540487E-1,7.229519E-3,-1.0890951E0,-3.528379E-1,1E-1,1E-1,1.282E1,2.552667E0,2.0958061E2,5.4693336E0,-6.418481E-1,-7.182083E-2,5.8047504E0,2.0462938E2,3.37E0,6.9123775E-2,-2.833938E-1,-1.3133088E-1,5.342711E-2,5.7037156E-2,4.8284405E-1,-7.469524E-3,-1.2962086E-1,1.1751366E0,9.148865E-2,-1.2152482E-2,2.2867867E-1,-5.6483604E-2,-2.0544149E-1,-4.7262678E-1,1.3238993E-1,2.378892E-1,8.330369E-3,2.6362611E-2,-6.565469E-2,-1.9081014E-1,8.208395E-2,-4.3006533E-1,2.787446E-1,7.9512393E-1,1.3941604E-1,7.8797495E-1,-4.178201E-1,1.3328595E0,2.1578251E-1,-1.1846073E-1,4.592929E-2,5.3383473E-2,2.439786E-1,-4.4715455E-1,1.2821865E-1,5.0347996E-1,-5.8514256E-2],"split_indices":[5,5,1,5,6,0,1,3,6,4,5,0,5,4,1,2,3,2,3,1,6,0,0,0,0,7,3,5,0,0,1,3,1,4,7,4,2,1,0,0,0,0,0,0,0,0,1,1,7,0,3,0,0,0,0,3,7,0,0,0,0,0,0,0,0,0,0,0,0,0,0,0,0,0,0,0,0,0,0,0,0,0,0,0,0,0,0,0,0,0,0,0,0,0,0],"split_type":[0,0,0,0,0,0,0,0,0,0,0,0,0,0,0,0,0,0,0,0,0,0,0,0,0,0,0,0,0,0,0,0,0,0,0,0,0,0,0,0,0,0,0,0,0,0,0,0,0,0,0,0,0,0,0,0,0,0,0,0,0,0,0,0,0,0,0,0,0,0,0,0,0,0,0,0,0,0,0,0,0,0,0,0,0,0,0,0,0,0,0,0,0,0,0],"sum_hessian":[1.959E3,1.896E3,6.3E1,1.866E3,3E1,3E1,3.3E1,1.85E3,1.6E1,1.9E1,1.1E1,2E0,2.8E1,9E0,2.4E1,3.45E2,1.505E3,9E0,7E0,1.4E1,5E0,4E0,7E0,1E0,1E0,1.7E1,1.1E1,6E0,3E0,4E0,2E1,6.9E1,2.76E2,3.37E2,1.168E3,6E0,3E0,6E0,1E0,1.2E1,2E0,2E0,3E0,1E0,3E0,3E0,4E0,6E0,1.1E1,3E0,8E0,2E0,4E0,1E0,2E0,9E0,1.1E1,6.4E1,5E0,2.14E2,6.2E1,2.95E2,4.2E1,1.088E3,8E1,5E0,1E0,2E0,1E0,5E0,1E0,1E1,2E0,1E0,1E0,1E0,1E0,1E0,3E0,4E0,2E0,5E0,6E0,1E0,2E0,6E0,2E0,1E0,1E0,1E0,1E0,5E0,4E0,5E0,6E0],"tree_param":{"num_deleted":"0","num_feature":"8","num_nodes":"95","size_leaf_vector":"1"}},{"base_weights":[1.4037759E-2,-1.1161532E-2,4.379455E-1,-1.8217314E-2,9.159589E-1,1.7012348E0,2.359946E-1,-6.576482E-1,-9.751991E-3,2.0456219E0,-6.261948E-2,4.9486914E-1,3.4283051E0,6.569907E-1,-1.328673E-1,-1.3499126E0,-4.0442535E-1,1.140566E-2,-2.7103952E-1,-3.1390193E-1,4.908495E-1,-4.7483206E-1,1.5595367E0,4.149034E0,-2.6300812E-2,1.003732E0,-3.8019207E-1,1.0113337E0,-4.6451473E-1,-1.6574031E0,2.813101E-2,-1.2204739E-1,-5.2536535E-1,3.56052E-3,1.8858855E0,-6.3972265E-1,2.511656E-1,4.0498596E-1,2.147174E-1,-7.901826E-1,1.03912674E-1,7.5566256E-1,2.0699503E-1,1.4084961E0,2.9478323E-1,5.146442E-1,1.8575059E0,2.8011063E-1,-1.0871799E0,1.7309487E0,-5.1734823E-1,-1.5168176E0,-2.032519E-1,-5.48616E-1,-1.4582044E-1,-6.897179E-2,4.896909E-3,1.6081883E-2,-1.7342407E-1,3.225063E-2,-2.723879E-2,-6.379632E-2,1.426447E0,-1.5241711E-1,-4.8659036E-1,4.0312356E-1,-4.0742353E-2,-6.455651E-2,1.5470958E-1,-2.7033472E-1,-6.860748E-2,-3.5844184E-2,8.2604885E-2,2.964601E-1,-2.1268234E-1,-1.3777791E-1,7.1003556E-1,-1.5359955E-1,2.098062E-1,9.165173E-2,-4.2804545E-1,1.0889798E-1,9.0789175E-1,6.856435E-2,-5.3964156E-1,-8.5696906E-2,3.7741414E-1],"categories":[],"categories_nodes":[],"categories_segments":[],"categories_sizes":[],"default_left":[0,0,0,0,0,0,0,0,0,0,0,0,0,0,0,0,0,0,0,0,0,0,0,0,0,0,0,0,0,0,0,0,0,0,0,0,0,0,0,0,0,0,0,0,0,0,0,0,0,0,0,0,0,0,0,0,0,0,0,0,0,0,0,0,0,0,0,0,0,0,0,0,0,0,0,0,0,0,0,0,0,0,0,0,0,0,0],"id":11,"left_children":[1,3,5,7,9,11,13,15,17,-1,19,21,23,25,27,29,31,33,35,-1,37,39,41,43,-1,45,47,49,51,53,-1,55,57,59,61,63,65,-1,67,69,71,-1,-1,-1,-1,73,75,77,79,81,-1,83,85,-1,-1,-1,-1,-1,-1,-1,-1,-1,-1,-1,-1,-1,-1,-1,-1,-1,-1,-1,-1,-1,-1,-1,-1,-1,-1,-1,-1,-1,-1,-1,-1,-1,-1],"loss_changes":[2.094195E1,1.212511E1,2.7661983E1,9.94266E0,8.129565E1,2.9555607E1,1.4995079E1,3.6611938E0,1.0036829E1,0E0,7.5915575E0,1.1064612E1,1.5568123E1,1.656514E1,2.0202291E1,2.8189268E0,5.8474565E-1,2.469862E1,2.6344515E1,0E0,1.8451765E0,1.1771547E0,2.4329977E0,4.0302505E0,0E0,1.324144E1,5.906442E0,2.6609924E1,1.0963737E1,1.14463806E-1,0E0,1.082238E-1,4.277537E-1,1.642762E1,4.3155197E1,9.522186E0,2.428205E1,0E0,1.1461205E0,4.307437E-2,1.4779253E-1,0E0,0E0,0E0,0E0,1.402761E1,1.5245533E1,2.6826735E0,3.2739573E0,1.6621376E1,0E0,4.348482E0,4.453564E0,0E0,0E0,0E0,0E0,0E0,0E0,0E0,0E0,0E0,0E0,0E0,0E0,0E0,0E0,0E0,0E0,0E0,0E0,0E0,0E0,0E0,0E0,0E0,0E0,0E0,0E0,0E0,0E0,0E0,0E0,0E0,0E0,0E0,0E0],"parents":[2147483647,0,0,1,1,2,2,3,3,4,4,5,5,6,6,7,7,8,8,10,10,11,11,12,12,13,13,14,14,15,15,16,16,17,17,18,18,20,20,21,21,22,22,23,23,25,25,26,26,27,27,28,28,29,29,31,31,32,32,33,33,34,34,35,35,36,36,38,38,39,39,40,40,45,45,46,46,47,47,48,48,49,49,51,51,52,52],"right_children":[2,4,6,8,10,12,14,16,18,-1,20,22,24,26,28,30,32,34,36,-1,38,40,42,44,-1,46,48,50,52,54,-1,56,58,60,62,64,66,-1,68,70,72,-1,-1,-1,-1,74,76,78,80,82,-1,84,86,-1,-1,-1,-1,-1,-1,-1,-1,-1,-1,-1,-1,-1,-1,-1,-1,-1,-1,-1,-1,-1,-1,-1,-1,-1,-1,-1,-1,-1,-1,-1,-1,-1,-1],"split_conditions":[1.1213333E1,1.717E1,3.3E0,-4.3098335E0,1E-1,2.43E0,1.904646E2,1E-1,7.57E0,2.0456219E0,1.7238699E1,1.717E1,1.3466666E1,9.456833E0,1.2173333E1,2.0735385E2,1.1966667E0,7.43E0,8.136001E0,-3.1390193E-1,1.8772715E1,2.585E1,3.25475E0,1.0363086E1,-2.6300812E-2,4.611001E0,1.2246412E2,2.6713766E2,2.0263152E2,1.6997377E1,2.813101E-2,5E-1,1.2432768E0,7.12975E0,5.73E0,6.938084E0,1.6596371E2,4.0498596E-1,2.23E0,2.9755833E0,2.552667E0,7.5566256E-1,2.0699503E-1,1.4084961E0,2.9478323E-1,2.0304129E1,9E0,3.941122E1,8.47E0,2.1564656E2,-5.1734823E-1,5E0,1.6521418E1,-5.48616E-1,-1.4582044E-1,-6.897179E-2,4.896909E-3,1.6081883E-2,-1.7342407E-1,3.225063E-2,-2.723879E-2,-6.379632E-2,1.426447E0,-1.5241711E-1,-4.8659036E-1,4.0312356E-1,-4.0742353E-2,-6.455651E-2,1.5470958E-1,-2.7033472E-1,-6.860748E-2,-3.5844184E-2,8.2604885E-2,2.964601E-1,-2.1268234E-1,-1.3777791E-1,7.1003556E-1,-1.5359955E-1,2.098062E-1,9.165173E-2,-4.2804545E-1,1.0889798E-1,9.0789175E-1,6.856435E-2,-5.3964156E-1,-8.5696906E-2,3.7741414E-1],"split_indices":[4,7,7,0,1,7,3,1,6,0,2,6,4,0,4,3,4,6,0,0,2,5,0,0,0,0,3,3,3,2,0,1,3,0,4,0,3,0,5,0,0,0,0,0,0,2,6,3,5,3,0,6,0,0,0,0,0,0,0,0,0,0,0,0,0,0,0,0,0,0,0,0,0,0,0,0,0,0,0,0,0,0,0,0,0,0,0],"split_type":[0,0,0,0,0,0,0,0,0,0,0,0,0,0,0,0,0,0,0,0,0,0,0,0,0,0,0,0,0,0,0,0,0,0,0,0,0,0,0,0,0,0,0,0,0,0,0,0,0,0,0,0,0,0,0,0,0,0,0,0,0,0,0,0,0,0,0,0,0,0,0,0,0,0,0,0,0,0,0,0,0,0,0,0,0,0,0],"sum_hessian":[1.959E3,1.85E3,1.09E2,1.837E3,1.3E1,1.4E1,9.5E1,2.3E1,1.814E3,1E0,1.2E1,9E0,5E0,4.4E1,5.1E1,5E0,1.8E1,1.679E3,1.35E2,4E0,8E0,5E0,4E0,4E0,1E0,3.3E1,1.1E1,1.1E1,4E1,4E0,1E0,6E0,1.2E1,1.673E3,6E0,7.9E1,5.6E1,1E0,7E0,3E0,2E0,1E0,3E0,3E0,1E0,2.2E1,1.1E1,6E0,5E0,9E0,2E0,7E0,3.3E1,3E0,1E0,3E0,3E0,1E0,1.1E1,7.96E2,8.77E2,4E0,2E0,7.1E1,8E0,1.4E1,4.2E1,3E0,4E0,2E0,1E0,1E0,1E0,1.6E1,6E0,2E0,9E0,2E0,4E0,1E0,4E0,5E0,4E0,1E0,6E0,3.2E1,1E0],"tree_param":{"num_deleted":"0","num_feature":"8","num_nodes":"87","size_leaf_vector":"1"}},{"base_weights":[1.2619091E-2,-2.402128E-2,1.923617E-1,3.1180998E-2,-1.3031936E-1,4.787351E-1,9.6159487E-4,-3.3457845E-2,3.9754176E-1,-2.8321874E-1,2.7501902E-2,1.2692497E0,1.6083625E-1,-1.1903353E-1,7.742279E-1,-1.0913848E-2,-7.728307E-1,1.0586662E0,-1.2264916E-1,5.048703E-2,-6.102767E-1,-1.6827252E-2,2.4246416E0,3.5897212E0,5.3079987E-1,-7.7224064E-1,3.860622E-1,-5.524553E-1,1.5095064E-1,1.659949E0,-3.073139E-1,-2.2113302E-1,6.1723858E-2,-9.81976E-1,1.22840375E-1,8.794586E0,5.880434E-1,-6.2208295E-1,-9.115228E-3,-1.4297886E-1,1.3804471E0,-5.608475E-1,-8.190074E-1,1.8606959E-2,-8.5605466E-1,1.0426047E0,5.657206E-1,1.3236356E-2,6.4482617E0,2.6865032E-1,1.2199706E0,-1.7019398E0,-3.1863812E-1,1.2532274E0,1.238485E-1,7.934755E-1,-7.749872E-1,7.534534E-1,-3.9603837E-2,1.1414591E0,5.3408325E-1,2.9922077E-1,-7.2380066E-1,1.154753E-2,-1.1448002E-1,2.5451386E-1,-1.587147E-2,-1.777625E-1,-3.618013E-1,9.1930136E-2,-4.886928E-2,9.641174E-1,3.830576E0,-1.5500118E-2,5.525692E-1,-1.428216E-1,4.9840797E-2,-1.1722088E-1,9.491085E-2,-2.080173E-1,8.289594E-1,-1.9693173E-1,6.511594E-1,-1.4510193E-2,1.5512192E-1,-4.321217E-1,-1.3706173E-1,2.0879063E-1,4.5783646E-2,-7.818177E-2,1.6629082E-1,4.683502E-1,2.1839232E0,-1.8561313E-1,1.9084647E-1,-5.8412594E-1,-7.143109E-2,1.8642448E-2,-3.0494094E-1,-3.723558E-2,6.423012E-1,4.0501773E-1,-2.9228365E-3,3.9921716E-2,6.870177E-1,-4.5249584E-1,-9.5401905E-2,6.265288E-1,4.551085E-2,1.3913555E-1,-1.1950775E-1,-3.438804E-2,5.0939476E-1,1.4322816E-1,-1.1438418E-2,-4.4029355E-3,-3.43902E-1],"categories":[],"categories_nodes":[],"categories_segments":[],"categories_sizes":[],"default_left":[0,0,0,0,0,0,0,0,0,0,0,0,0,0,0,0,0,0,0,0,0,0,0,0,0,0,0,0,0,0,0,0,0,0,0,0,0,0,0,0,0,0,0,0,0,0,0,0,0,0,0,0,0,0,0,0,0,0,0,0,0,0,0,0,0,0,0,0,0,0,0,0,0,0,0,0,0,0,0,0,0,0,0,0,0,0,0,0,0,0,0,0,0,0,0,0,0,0,0,0,0,0,0,0,0,0,0,0,0,0,0,0,0,0,0,0,0],"id":12,"left_children":[1,3,5,7,9,11,13,15,17,19,21,23,25,27,29,31,33,35,37,39,41,43,45,47,49,51,53,55,57,59,61,63,65,67,69,71,73,-1,75,77,79,81,-1,83,85,-1,87,89,91,93,-1,95,97,99,101,103,105,107,109,-1,111,113,115,-1,-1,-1,-1,-1,-1,-1,-1,-1,-1,-1,-1,-1,-1,-1,-1,-1,-1,-1,-1,-1,-1,-1,-1,-1,-1,-1,-1,-1,-1,-1,-1,-1,-1,-1,-1,-1,-1,-1,-1,-1,-1,-1,-1,-1,-1,-1,-1,-1,-1,-1,-1,-1,-1],"loss_changes":[1.291286E1,9.562865E0,1.819709E1,2.5423159E1,1.344863E1,3.3219246E1,1.8649797E1,1.5209833E1,5.5499504E1,3.0917751E1,2.9263172E1,6.3209538E1,2.0472836E1,2.0444357E1,2.6374624E1,1.3557997E1,5.1784096E0,2.5331812E2,2.013762E1,3.6476944E1,1.3452053E1,8.074754E0,7.799835E0,9.192641E1,2.671452E1,7.4702606E0,1.7580635E1,2.0682281E1,1.2429276E1,3.4191177E1,3.5005538E0,9.513445E0,5.95593E1,1.2047691E0,3.646749E-1,4.767865E1,5.46382E1,0E0,7.1987143E0,1.4235681E1,5.3532795E1,3.823947E1,0E0,8.738337E0,1.9078054E0,0E0,5.5206478E-2,8.852887E-1,8.952728E0,9.8507595E0,0E0,1.689518E0,3.783245E0,2.2275698E1,1.0005629E1,9.578739E0,1.895723E1,2.0569563E1,1.5174012E1,0E0,8.499999E0,3.7890977E-1,2.380238E0,0E0,0E0,0E0,0E0,0E0,0E0,0E0,0E0,0E0,0E0,0E0,0E0,0E0,0E0,0E0,0E0,0E0,0E0,0E0,0E0,0E0,0E0,0E0,0E0,0E0,0E0,0E0,0E0,0E0,0E0,0E0,0E0,0E0,0E0,0E0,0E0,0E0,0E0,0E0,0E0,0E0,0E0,0E0,0E0,0E0,0E0,0E0,0E0,0E0,0E0,0E0,0E0,0E0,0E0],"parents":[2147483647,0,0,1,1,2,2,3,3,4,4,5,5,6,6,7,7,8,8,9,9,10,10,11,11,12,12,13,13,14,14,15,15,16,16,17,17,18,18,19,19,20,20,21,21,22,22,23,23,24,24,25,25,26,26,27,27,28,28,29,29,30,30,31,31,32,32,33,33,34,34,35,35,36,36,38,38,39,39,40,40,41,41,43,43,44,44,46,46,47,47,48,48,49,49,51,51,52,52,53,53,54,54,55,55,56,56,57,57,58,58,60,60,61,61,62,62],"right_children":[2,4,6,8,10,12,14,16,18,20,22,24,26,28,30,32,34,36,38,40,42,44,46,48,50,52,54,56,58,60,62,64,66,68,70,72,74,-1,76,78,80,82,-1,84,86,-1,88,90,92,94,-1,96,98,100,102,104,106,108,110,-1,112,114,116,-1,-1,-1,-1,-1,-1,-1,-1,-1,-1,-1,-1,-1,-1,-1,-1,-1,-1,-1,-1,-1,-1,-1,-1,-1,-1,-1,-1,-1,-1,-1,-1,-1,-1,-1,-1,-1,-1,-1,-1,-1,-1,-1,-1,-1,-1,-1,-1,-1,-1,-1,-1,-1,-1],"split_conditions":[5.7E0,1.1771419E1,2E-1,9.113084E0,2.2106972E2,3.58E0,7.2999997E0,1.09000025E1,2.0958061E2,1.4153703E2,1.4400001E1,1.3004921E1,2.4339168E0,6.1433334E0,1.09000025E1,1.378422E2,2.427395E2,9.325584E0,2.1284506E2,1.984225E1,5.4E0,5E0,2.903752E1,2.7E0,1.859E1,7.23E0,7.03E0,1.71725E0,7E-1,4.05E0,3.58E0,1.5683774E1,1.916018E2,1.1592841E2,1.23E0,9.242251E0,8.000001E-1,-6.2208295E-1,2.3520813E2,3E-1,1.5463246E1,5E0,-8.190074E-1,3.5E0,2.4387288E2,1.0426047E0,1.2002666E1,1.1334285E1,8.916666E-3,1.5332227E2,1.2199706E0,1E-1,1.7727943E1,5.92E0,2.9339168E0,9E0,2.0462938E2,8.396667E0,1.9803272E1,1.1414591E0,1.3438085E1,4.5133333E0,1.3400002E1,1.154753E-2,-1.1448002E-1,2.5451386E-1,-1.587147E-2,-1.777625E-1,-3.618013E-1,9.1930136E-2,-4.886928E-2,9.641174E-1,3.830576E0,-1.5500118E-2,5.525692E-1,-1.428216E-1,4.9840797E-2,-1.1722088E-1,9.491085E-2,-2.080173E-1,8.289594E-1,-1.9693173E-1,6.511594E-1,-1.4510193E-2,1.5512192E-1,-4.321217E-1,-1.3706173E-1,2.0879063E-1,4.5783646E-2,-7.818177E-2,1.6629082E-1,4.683502E-1,2.1839232E0,-1.8561313E-1,1.9084647E-1,-5.8412594E-1,-7.143109E-2,1.8642448E-2,-3.0494094E-1,-3.723558E-2,6.423012E-1,4.0501773E-1,-2.9228365E-3,3.9921716E-2,6.870177E-1,-4.5249584E-1,-9.5401905E-2,6.265288E-1,4.551085E-2,1.3913555E-1,-1.1950775E-1,-3.438804E-2,5.0939476E-1,1.4322816E-1,-1.1438418E-2,-4.4029355E-3,-3.43902E-1],"split_indices":[5,0,1,0,3,6,1,1,3,3,1,2,0,4,1,3,3,0,3,0,5,5,2,6,5,5,5,0,1,6,7,2,3,3,5,0,1,0,3,1,2,5,0,5,3,0,0,2,0,3,0,1,2,6,0,5,3,4,2,0,0,4,1,0,0,0,0,0,0,0,0,0,0,0,0,0,0,0,0,0,0,0,0,0,0,0,0,0,0,0,0,0,0,0,0,0,0,0,0,0,0,0,0,0,0,0,0,0,0,0,0,0,0,0,0,0,0],"split_type":[0,0,0,0,0,0,0,0,0,0,0,0,0,0,0,0,0,0,0,0,0,0,0,0,0,0,0,0,0,0,0,0,0,0,0,0,0,0,0,0,0,0,0,0,0,0,0,0,0,0,0,0,0,0,0,0,0,0,0,0,0,0,0,0,0,0,0,0,0,0,0,0,0,0,0,0,0,0,0,0,0,0,0,0,0,0,0,0,0,0,0,0,0,0,0,0,0,0,0,0,0,0,0,0,0,0,0,0,0,0,0,0,0,0,0,0,0],"sum_hessian":[1.959E3,1.628E3,3.31E2,1.072E3,5.56E2,1.32E2,1.99E2,9.12E2,1.6E2,2.82E2,2.74E2,3.7E1,9.5E1,1.73E2,2.6E1,8.86E2,2.6E1,7E1,9E1,1.4E2,1.42E2,2.7E2,4E0,8E0,2.9E1,1.8E1,7.7E1,6.6E1,1.07E2,1.4E1,1.2E1,2.27E2,6.59E2,2.1E1,5E0,3E0,6.7E1,4E0,8.6E1,1.23E2,1.7E1,1.4E2,2E0,2.6E2,1E1,2E0,2E0,4E0,4E0,2.8E1,1E0,5E0,1.3E1,1.7E1,6E1,9E0,5.7E1,2.5E1,8.2E1,4E0,1E1,5E0,7E0,8.7E1,1.4E2,8.3E1,5.76E2,9E0,1.2E1,3E0,2E0,2E0,1E0,4.5E1,2.2E1,2.3E1,6.3E1,8E1,4.3E1,7E0,1E1,1.36E2,4E0,2.3E2,3E1,3E0,7E0,1E0,1E0,3E0,1E0,1E0,3E0,8E0,2E1,4E0,1E0,9E0,4E0,7E0,1E1,5E0,5.5E1,7E0,2E0,2.1E1,3.6E1,7E0,1.8E1,3.4E1,4.8E1,7E0,3E0,3E0,2E0,3E0,4E0],"tree_param":{"num_deleted":"0","num_feature":"8","num_nodes":"117","size_leaf_vector":"1"}},{"base_weights":[1.4782315E-2,5.1390547E-2,-1.3511212E-1,-2.211312E-1,7.894939E-2,-1.0386985E-1,-6.7169863E-1,3.9756358E-1,-3.471332E-1,6.510836E-1,5.0829377E-2,2.4098997E-1,-1.482533E-1,-1.0469702E0,6.898908E-2,1.7198075E-1,8.717327E-1,-1.4012994E-1,-5.9298927E-1,-3.0856842E-1,1.591586E0,-2.4930614E-1,9.085507E-2,1.0322848E-1,5.9924394E-1,-1.6540796E-1,5.500311E-1,-1.2754539E0,2.1595447E-1,5.589452E-1,-5.607033E-1,-1.16104886E-1,1.0555885E0,-2.989474E-1,1.2638692E0,-3.3634844E-1,-9.9248636E-1,2.0600958E-1,-1.7608416E0,1.24601446E-1,3.2341561E0,-1.7735744E-1,-6.732872E-1,1.9142818E-1,-4.5842525E-2,-1.236287E-2,9.148405E-1,-7.9936616E-2,-3.7679902E-1,8.619715E-1,2.259785E-2,-5.775698E-1,-4.6565995E-1,9.8690845E-2,-1.5113355E-3,4.245429E-2,2.370183E-1,-2.604238E-1,-5.066545E-2,2.6546651E-2,-2.7163607E-1,1.5441942E-1,4.2746055E-1,-4.764179E-2,-4.6713284E-1,5.8081263E-1,8.271873E-2,-1.7128362E-1,-4.582879E-2,-3.7155727E-1,-5.129129E-2,3.1777093E-1,-1.18037835E-1,-8.788091E-1,-7.204546E-2,-1.2935589E-1,3.4169355E-1,1.939716E0,6.913643E-4,-3.066823E-2,-1.4146298E-1,-2.9367673E-1,6.643224E-3,4.978476E-2,9.2688227E-1,1.4116652E-2,-1.0491047E-1,-8.0281824E-2,9.7024955E-2,4.810091E-1,-2.358882E-2,-2.914541E-2,4.1529283E-2,1.359268E-1,-1.2909505E-1,2.9097822E-1,6.452222E-2,8.267248E-2,-4.6075847E-2,-1.9865277E-1,-3.5871793E-2],"categories":[],"categories_nodes":[],"categories_segments":[],"categories_sizes":[],"default_left":[0,0,0,0,0,0,0,0,0,0,0,0,0,0,0,0,0,0,0,0,0,0,0,0,0,0,0,0,0,0,0,0,0,0,0,0,0,0,0,0,0,0,0,0,0,0,0,0,0,0,0,0,0,0,0,0,0,0,0,0,0,0,0,0,0,0,0,0,0,0,0,0,0,0,0,0,0,0,0,0,0,0,0,0,0,0,0,0,0,0,0,0,0,0,0,0,0,0,0,0,0],"id":13,"left_children":[1,3,5,7,9,11,13,15,17,19,21,23,25,27,29,31,-1,33,35,37,39,41,43,45,-1,47,49,51,53,55,57,59,61,63,65,67,69,71,73,75,77,79,81,83,85,87,89,91,93,95,97,99,-1,-1,-1,-1,-1,-1,-1,-1,-1,-1,-1,-1,-1,-1,-1,-1,-1,-1,-1,-1,-1,-1,-1,-1,-1,-1,-1,-1,-1,-1,-1,-1,-1,-1,-1,-1,-1,-1,-1,-1,-1,-1,-1,-1,-1,-1,-1,-1,-1],"loss_changes":[1.0762188E1,1.1853825E1,6.3844395E0,1.1441736E1,2.3005524E1,5.6224446E0,5.9093704E0,1.3645502E1,6.0749598E0,6.0962303E1,1.643259E1,9.956822E0,3.972117E0,4.3152475E0,2.7815754E0,6.2318716E0,0E0,1.531746E1,5.3051777E0,2.5771217E1,8.152426E1,4.791875E0,1.6588987E1,3.7639236E0,0E0,5.697397E0,1.2967432E0,1.421135E0,7.658361E-2,3.7056935E-1,3.3513713E-1,3.1485424E0,4.6494198E-1,1.050828E1,4.1155825E0,1.4201837E0,4.0328503E0,1.3715324E1,1.52891445E1,1.12029E1,1.6708803E2,3.0239983E0,4.910287E0,5.0807945E1,1.4469142E1,3.1719427E0,3.5462055E0,8.667742E-1,4.2366276E0,1.4057565E-1,2.2060654E-1,1.1456859E-1,0E0,0E0,0E0,0E0,0E0,0E0,0E0,0E0,0E0,0E0,0E0,0E0,0E0,0E0,0E0,0E0,0E0,0E0,0E0,0E0,0E0,0E0,0E0,0E0,0E0,0E0,0E0,0E0,0E0,0E0,0E0,0E0,0E0,0E0,0E0,0E0,0E0,0E0,0E0,0E0,0E0,0E0,0E0,0E0,0E0,0E0,0E0,0E0,0E0],"parents":[2147483647,0,0,1,1,2,2,3,3,4,4,5,5,6,6,7,7,8,8,9,9,10,10,11,11,12,12,13,13,14,14,15,15,17,17,18,18,19,19,20,20,21,21,22,22,23,23,25,25,26,26,27,27,28,28,29,29,30,30,31,31,32,32,33,33,34,34,35,35,36,36,37,37,38,38,39,39,40,40,41,41,42,42,43,43,44,44,45,45,46,46,47,47,48,48,49,49,50,50,51,51],"right_children":[2,4,6,8,10,12,14,16,18,20,22,24,26,28,30,32,-1,34,36,38,40,42,44,46,-1,48,50,52,54,56,58,60,62,64,66,68,70,72,74,76,78,80,82,84,86,88,90,92,94,96,98,100,-1,-1,-1,-1,-1,-1,-1,-1,-1,-1,-1,-1,-1,-1,-1,-1,-1,-1,-1,-1,-1,-1,-1,-1,-1,-1,-1,-1,-1,-1,-1,-1,-1,-1,-1,-1,-1,-1,-1,-1,-1,-1,-1,-1,-1,-1,-1,-1,-1],"split_conditions":[2.7884952E2,2.1516667E-1,6.9E0,1.2387348E1,9.9850005E-1,1.3004921E1,3.3428397E2,1.2144331E1,1.83E0,5E-1,6.3E-1,1.2964998E1,1.8871418E1,1.2173333E1,1.9228851E1,2.73E0,8.717327E-1,2.5433333E0,1.0214304E2,3.5E0,1.363971E2,1.12E0,1.1594334E1,4.37E0,5.9924394E-1,1.83E0,1.4264361E1,3.0229474E2,4.1297507E0,1.484318E1,4.3464174E0,2.29E0,3.93E0,2.0433333E0,3.2466667E0,2.7E0,2.3086388E2,2.0462938E2,7.87E0,4.3E0,1.8977994E2,2.5E0,1.0269333E1,1.1375584E1,4.59E0,1.4733914E1,3.4440988E2,3.5555106E2,1.03E0,2.0044334E1,1.8950583E1,1.5552669E1,-4.6565995E-1,9.8690845E-2,-1.5113355E-3,4.245429E-2,2.370183E-1,-2.604238E-1,-5.066545E-2,2.6546651E-2,-2.7163607E-1,1.5441942E-1,4.2746055E-1,-4.764179E-2,-4.6713284E-1,5.8081263E-1,8.271873E-2,-1.7128362E-1,-4.582879E-2,-3.7155727E-1,-5.129129E-2,3.1777093E-1,-1.18037835E-1,-8.788091E-1,-7.204546E-2,-1.2935589E-1,3.4169355E-1,1.939716E0,6.913643E-4,-3.066823E-2,-1.4146298E-1,-2.9367673E-1,6.643224E-3,4.978476E-2,9.2688227E-1,1.4116652E-2,-1.0491047E-1,-8.0281824E-2,9.7024955E-2,4.810091E-1,-2.358882E-2,-2.914541E-2,4.1529283E-2,1.359268E-1,-1.2909505E-1,2.9097822E-1,6.452222E-2,8.267248E-2,-4.6075847E-2,-1.9865277E-1,-3.5871793E-2],"split_indices":[3,0,5,2,0,2,3,2,7,1,7,2,0,4,2,6,0,4,3,5,3,5,0,6,0,5,2,3,0,2,0,5,5,4,4,7,3,3,6,5,3,1,0,0,7,0,3,3,6,0,0,0,0,0,0,0,0,0,0,0,0,0,0,0,0,0,0,0,0,0,0,0,0,0,0,0,0,0,0,0,0,0,0,0,0,0,0,0,0,0,0,0,0,0,0,0,0,0,0,0,0],"split_type":[0,0,0,0,0,0,0,0,0,0,0,0,0,0,0,0,0,0,0,0,0,0,0,0,0,0,0,0,0,0,0,0,0,0,0,0,0,0,0,0,0,0,0,0,0,0,0,0,0,0,0,0,0,0,0,0,0,0,0,0,0,0,0,0,0,0,0,0,0,0,0,0,0,0,0,0,0,0,0,0,0,0,0,0,0,0,0,0,0,0,0,0,0,0,0,0,0,0,0,0,0],"sum_hessian":[1.959E3,1.575E3,3.84E2,1.44E2,1.431E3,3.64E2,2E1,2.4E1,1.2E2,6.6E1,1.365E3,4.1E1,3.23E2,1.3E1,7E0,2.3E1,1E0,6.6E1,5.4E1,3.3E1,3.3E1,1.6E2,1.205E3,3.9E1,2E0,3.16E2,7E0,1.1E1,2E0,4E0,3E0,1.8E1,5E0,6E1,6E0,3.4E1,2E1,2.5E1,8E0,1.8E1,1.5E1,1.38E2,2.2E1,6.94E2,5.11E2,3.5E1,4E0,2.26E2,9E1,4E0,3E0,4E0,7E0,1E0,1E0,2E0,2E0,1E0,2E0,1.5E1,3E0,3E0,2E0,5.5E1,5E0,3E0,3E0,1.4E1,2E1,1.5E1,5E0,1E1,1.5E1,4E0,4E0,1.2E1,6E0,7E0,8E0,1.11E2,2.7E1,1.5E1,7E0,6.89E2,5E0,3.92E2,1.19E2,2E1,1.5E1,2E0,2E0,2.1E2,1.6E1,5E0,8.5E1,3E0,1E0,1E0,2E0,3E0,1E0],"tree_param":{"num_deleted":"0","num_feature":"8","num_nodes":"101","size_leaf_vector":"1"}},{"base_weights":[1.2080142E-2,1.9876692E-3,4.8440865E-1,-2.708222E-1,1.7760273E-2,-7.915469E-3,1.2541598E0,3.5429787E-2,-5.6071633E-1,5.328547E-2,-1.175268E-1,3.1856877E-1,-1.149291E0,-8.1303006E-1,1.7937443E0,-4.431036E-1,3.4836015E-1,-8.525067E-2,-1.0694773E0,-3.0545272E-2,1.5566303E-1,-9.935366E-2,-1.453372E0,9.73485E-1,-2.5374213E-1,-3.7812808E-1,-8.90418E-2,-4.5520473E-1,-7.2474085E-2,9.9438137E-1,1.2158967E0,1.2133234E-1,-9.6725744E-1,-4.627847E-1,5.939921E-1,-1.9966984E-1,5.038953E-1,-7.3193E-1,-7.0943534E-1,-1.285714E-1,2.3652375E-1,2.4740078E-1,-7.7020206E-2,1.980228E-2,-2.409236E-1,-5.1860386E-1,-5.2821316E-2,2.292664E-1,7.900719E-1,-4.626172E-1,3.065825E-1,9.894348E-3,-4.2507686E-2,5.0008684E-1,5.6218785E-1,9.62727E-2,-9.2446215E-2,-1.858076E-1,-6.669368E-1,-2.0574409E-1,-2.0490723E-2,2.3140459E-1,-8.091107E-2,-1.0930129E-2,-1.0426401E-1,2.391577E-1,-1.0039393E-1,-7.5163394E-2,-4.033318E-1,-2.5125463E-2,-2.1020953E-1,1.1118649E0,1.9584402E-2,1.296013E-1,1.2489101E-2,1.7607075E-1,-3.6788236E-2,-2.0112192E-2,1.9328377E-1,-1.4100079E-1,-1.1731712E-2,4.03742E-1,-2.1294571E-1,-3.2179677E-1,-2.9931191E-2,2.4572212E-1,9.683227E-3],"categories":[],"categories_nodes":[],"categories_segments":[],"categories_sizes":[],"default_left":[0,0,0,0,0,0,0,0,0,0,0,0,0,0,0,0,0,0,0,0,0,0,0,0,0,0,0,0,0,0,0,0,0,0,0,0,0,0,0,0,0,0,0,0,0,0,0,0,0,0,0,0,0,0,0,0,0,0,0,0,0,0,0,0,0,0,0,0,0,0,0,0,0,0,0,0,0,0,0,0,0,0,0,0,0,0,0],"id":14,"left_children":[1,3,5,7,9,11,13,15,17,19,21,23,25,27,29,31,33,35,37,39,41,43,45,47,49,-1,-1,-1,51,-1,53,55,57,59,61,63,65,-1,67,69,71,73,75,77,79,-1,-1,81,-1,83,-1,-1,-1,-1,85,-1,-1,-1,-1,-1,-1,-1,-1,-1,-1,-1,-1,-1,-1,-1,-1,-1,-1,-1,-1,-1,-1,-1,-1,-1,-1,-1,-1,-1,-1,-1,-1],"loss_changes":[9.342284E0,8.26642E0,1.5547576E1,9.341832E0,8.734139E0,1.0054798E1,1.930515E1,7.9412374E0,1.2971338E1,1.2354809E1,9.032118E0,8.118144E0,1.9434786E-1,1.9763818E0,7.394516E0,6.3302355E0,6.6506705E0,2.055491E0,1.1096548E1,2.0764765E1,1.3851156E1,6.313739E0,1.4538822E0,1.1750895E1,3.6702702E0,0E0,0E0,0E0,2.6571443E-2,0E0,2.3063354E0,1.0417594E0,3.429144E0,6.570047E-1,4.0375853E0,5.908086E-1,1.4964864E0,0E0,6.0738993E0,1.4814055E1,1.26313805E2,1.7645483E1,5.6434317E0,1.1106398E1,7.887336E0,0E0,0E0,9.343492E0,0E0,2.3278356E0,0E0,0E0,0E0,0E0,7.9032123E-1,0E0,0E0,0E0,0E0,0E0,0E0,0E0,0E0,0E0,0E0,0E0,0E0,0E0,0E0,0E0,0E0,0E0,0E0,0E0,0E0,0E0,0E0,0E0,0E0,0E0,0E0,0E0,0E0,0E0,0E0,0E0,0E0],"parents":[2147483647,0,0,1,1,2,2,3,3,4,4,5,5,6,6,7,7,8,8,9,9,10,10,11,11,12,12,13,13,14,14,15,15,16,16,17,17,18,18,19,19,20,20,21,21,22,22,23,23,24,24,28,28,30,30,31,31,32,32,33,33,34,34,35,35,36,36,38,38,39,39,40,40,41,41,42,42,43,43,44,44,47,47,49,49,54,54],"right_children":[2,4,6,8,10,12,14,16,18,20,22,24,26,28,30,32,34,36,38,40,42,44,46,48,50,-1,-1,-1,52,-1,54,56,58,60,62,64,66,-1,68,70,72,74,76,78,80,-1,-1,82,-1,84,-1,-1,-1,-1,86,-1,-1,-1,-1,-1,-1,-1,-1,-1,-1,-1,-1,-1,-1,-1,-1,-1,-1,-1,-1,-1,-1,-1,-1,-1,-1,-1,-1,-1,-1,-1,-1],"split_conditions":[1.859E1,1.1183201E1,8.046417E0,1.0009036E1,2.5570139E1,1.282E1,2.18E0,1.5332227E2,2.13E0,3E-1,1.8485998E1,3.3234997E0,2.7999997E0,1.0363086E1,8.75475E0,2E-1,1.83E0,1.8E0,1.93E0,3.6766667E0,2.48596E2,1.93E0,2.9888672E1,1.3466666E1,1.142E1,-3.7812808E-1,-8.90418E-2,-4.5520473E-1,1.2492251E1,9.9438137E-1,7.57E0,1.4471417E1,1.4794414E2,2.1365216E2,3.2572626E2,1.12E0,1.5694332E1,-7.3193E-1,2E-1,3.58E0,3.8166666E0,2.1000001E0,1.3441071E1,7.4E0,5.169333E0,-5.1860386E-1,-5.2821316E-2,1.0353333E1,7.900719E-1,6E-1,3.065825E-1,9.894348E-3,-4.2507686E-2,5.0008684E-1,4.5E0,9.62727E-2,-9.2446215E-2,-1.858076E-1,-6.669368E-1,-2.0574409E-1,-2.0490723E-2,2.3140459E-1,-8.091107E-2,-1.0930129E-2,-1.0426401E-1,2.391577E-1,-1.0039393E-1,-7.5163394E-2,-4.033318E-1,-2.5125463E-2,-2.1020953E-1,1.1118649E0,1.9584402E-2,1.296013E-1,1.2489101E-2,1.7607075E-1,-3.6788236E-2,-2.0112192E-2,1.9328377E-1,-1.4100079E-1,-1.1731712E-2,4.03742E-1,-2.1294571E-1,-3.2179677E-1,-2.9931191E-2,2.4572212E-1,9.683227E-3],"split_indices":[5,2,0,2,2,7,7,3,5,1,0,0,1,0,0,1,7,5,6,4,3,6,2,4,7,0,0,0,0,0,7,0,3,3,3,6,0,0,1,5,4,1,2,1,0,0,0,4,0,1,0,0,0,0,1,0,0,0,0,0,0,0,0,0,0,0,0,0,0,0,0,0,0,0,0,0,0,0,0,0,0,0,0,0,0,0,0],"split_type":[0,0,0,0,0,0,0,0,0,0,0,0,0,0,0,0,0,0,0,0,0,0,0,0,0,0,0,0,0,0,0,0,0,0,0,0,0,0,0,0,0,0,0,0,0,0,0,0,0,0,0,0,0,0,0,0,0,0,0,0,0,0,0,0,0,0,0,0,0,0,0,0,0,0,0,0,0,0,0,0,0,0,0,0,0,0,0],"sum_hessian":[1.959E3,1.919E3,4E1,1.04E2,1.815E3,2.5E1,1.5E1,5.1E1,5.3E1,1.438E3,3.77E2,2E1,5E0,3E0,1.2E1,2E1,3.1E1,2.8E1,2.5E1,7.91E2,6.47E2,3.73E2,4E0,9E0,1.1E1,4E0,1E0,1E0,2E0,2E0,1E1,1E1,1E1,7E0,2.4E1,2.4E1,4E0,4E0,2.1E1,5.79E2,2.12E2,4.64E2,1.83E2,2.03E2,1.7E2,3E0,1E0,7E0,2E0,1E1,1E0,1E0,1E0,5E0,5E0,7E0,3E0,9E0,1E0,4E0,3E0,2E1,4E0,1.2E1,1.2E1,3E0,1E0,1.3E1,8E0,5.38E2,4.1E1,9E0,2.03E2,2.44E2,2.2E2,1.1E1,1.72E2,1.79E2,2.4E1,7.9E1,9.1E1,3E0,4E0,3E0,7E0,3E0,2E0],"tree_param":{"num_deleted":"0","num_feature":"8","num_nodes":"87","size_leaf_vector":"1"}},{"base_weights":[8.581396E-3,-9.868696E-2,4.1449394E-2,-1.9634062E-1,1.7046446E-1,2.8659058E-1,4.6508692E-4,1.807212E-2,-3.2225454E-1,1.8269286E0,9.943265E-2,2.392194E-1,1.5636035E0,-4.0133557E-1,1.3010932E-2,-5.0536893E-2,2.1232812E0,-2.4923827E-1,-7.769358E-1,4.082378E-2,1.3457022E0,-1.183168E-1,3.8226974E-1,1.5122856E-1,2.4860797E0,-1.0199369E0,1.2303536E-1,9.2623377E-1,4.0931048E-4,-1.5300459E-1,5.973796E-1,1.5640748E-1,7.450409E-1,-2.7963492E-1,9.009681E-1,-2.8477672E-1,-1.2839079E0,4.3374702E-2,-4.1956518E-2,-4.4348595E-1,1.5006636E-1,1.5995787E0,1.2458677E-1,6.330961E-1,-2.1757911E-1,-1.0639693E-1,5.105156E0,-2.6161104E-1,-1.6004366E0,1.3723798E0,-5.5148405E-1,1.6608869E0,-5.7526182E-2,1.0038448E-1,-6.1518103E-2,5.415614E-2,-1.2518236E-1,1.9893551E-2,5.57604E-1,-6.027252E-2,-1.8798701E-1,3.70287E-1,-6.4847946E-2,-1.759965E-1,3.656742E-1,-5.18329E-1,7.730134E-2,3.4863076E-3,-2.236674E-2,-4.9219504E-3,-1.9382276E-1,8.4467643E-1,5.784782E-4,1.2324128E-1,6.3764966E-1,-8.694948E-2,2.2178787E-1,-1.7032577E-2,3.4852743E-1,-7.2282875E-1,-2.9781668E-2,-7.6808065E-2,7.381844E-2,1.257969E-1,1.9581977E0,7.313985E-2,-2.1440983E-1,-5.863301E-1,-1.7424975E-1,7.208515E-1,-7.763642E-2,-3.3225644E-1,2.204664E-2,-8.998724E-2,5.004768E-1,4.2708024E-2,-2.4236116E-1,-6.2265897E-1,-1.6046135E-2],"categories":[],"categories_nodes":[],"categories_segments":[],"categories_sizes":[],"default_left":[0,0,0,0,0,0,0,0,0,0,0,0,0,0,0,0,0,0,0,0,0,0,0,0,0,0,0,0,0,0,0,0,0,0,0,0,0,0,0,0,0,0,0,0,0,0,0,0,0,0,0,0,0,0,0,0,0,0,0,0,0,0,0,0,0,0,0,0,0,0,0,0,0,0,0,0,0,0,0,0,0,0,0,0,0,0,0,0,0,0,0,0,0,0,0,0,0,0,0],"id":15,"left_children":[1,3,5,7,9,11,13,15,17,19,21,23,-1,25,27,29,31,33,35,37,-1,39,41,43,45,47,49,51,53,55,57,-1,-1,59,61,63,65,-1,67,69,71,73,75,77,79,81,83,85,87,89,91,-1,93,95,97,-1,-1,-1,-1,-1,-1,-1,-1,-1,-1,-1,-1,-1,-1,-1,-1,-1,-1,-1,-1,-1,-1,-1,-1,-1,-1,-1,-1,-1,-1,-1,-1,-1,-1,-1,-1,-1,-1,-1,-1,-1,-1,-1,-1],"loss_changes":[6.914455E0,1.2123934E1,1.5080326E1,9.130995E0,1.4290726E1,4.8917625E1,6.492897E0,1.830628E1,6.8777733E0,2.356087E1,7.3741555E0,4.1932503E1,0E0,1.27761755E1,1.4373224E1,8.257435E0,1.0131989E0,6.719989E0,6.8701897E0,4.0422827E-2,0E0,6.000907E0,1.6112064E1,3.6925053E1,5.486232E1,7.5050488E0,1.9296402E1,7.741667E1,7.63993E0,9.506375E0,1.1263959E1,0E0,0E0,4.8185186E0,2.1286197E0,7.9779844E0,1.002453E1,0E0,6.106183E-3,2.6715817E0,1.4999452E1,4.753639E0,1.1423072E1,3.2889748E1,3.0359503E1,3.2669E-1,2.3919144E1,2.2352037E0,2.4741707E0,1.4068629E1,5.2940145E0,0E0,6.776159E0,1.8109793E1,1.2213963E1,0E0,0E0,0E0,0E0,0E0,0E0,0E0,0E0,0E0,0E0,0E0,0E0,0E0,0E0,0E0,0E0,0E0,0E0,0E0,0E0,0E0,0E0,0E0,0E0,0E0,0E0,0E0,0E0,0E0,0E0,0E0,0E0,0E0,0E0,0E0,0E0,0E0,0E0,0E0,0E0,0E0,0E0,0E0,0E0],"parents":[2147483647,0,0,1,1,2,2,3,3,4,4,5,5,6,6,7,7,8,8,9,9,10,10,11,11,13,13,14,14,15,15,16,16,17,17,18,18,19,19,21,21,22,22,23,23,24,24,25,25,26,26,27,27,28,28,29,29,30,30,33,33,34,34,35,35,36,36,38,38,39,39,40,40,41,41,42,42,43,43,44,44,45,45,46,46,47,47,48,48,49,49,50,50,52,52,53,53,54,54],"right_children":[2,4,6,8,10,12,14,16,18,20,22,24,-1,26,28,30,32,34,36,38,-1,40,42,44,46,48,50,52,54,56,58,-1,-1,60,62,64,66,-1,68,70,72,74,76,78,80,82,84,86,88,90,92,-1,94,96,98,-1,-1,-1,-1,-1,-1,-1,-1,-1,-1,-1,-1,-1,-1,-1,-1,-1,-1,-1,-1,-1,-1,-1,-1,-1,-1,-1,-1,-1,-1,-1,-1,-1,-1,-1,-1,-1,-1,-1,-1,-1,-1,-1,-1],"split_conditions":[1.2748334E2,1.395475E1,1.8E2,1.5683774E1,1.4033917E1,3.2056175E1,1.8794386E2,5E0,1.07691986E2,8.5879524E1,2.93E0,1.7768913E2,1.5636035E0,2.2E0,1.904646E2,7.23E0,5.0891674E-1,1.535E1,2.35E0,9E0,1.3457022E0,1.5875584E1,2.74E0,7.4901657E0,2.5E0,1.17E0,1.4E0,1.1133333E0,1.8204042E1,1.3255833E0,1.11773506E2,1.5640748E-1,7.450409E-1,4.53E0,3.8734999E0,1.2E0,1.0353333E1,4.3374702E-2,1E-1,8.5E-1,1.5950582E1,2.49E0,1.7595861E1,2.8533335E0,8.046417E0,1.9559633E1,2.7985E0,1.83E0,1.3438085E1,3.15E0,3.75E0,1.6608869E0,2.16E1,1.203E1,1.916018E2,5.415614E-2,-1.2518236E-1,1.9893551E-2,5.57604E-1,-6.027252E-2,-1.8798701E-1,3.70287E-1,-6.4847946E-2,-1.759965E-1,3.656742E-1,-5.18329E-1,7.730134E-2,3.4863076E-3,-2.236674E-2,-4.9219504E-3,-1.9382276E-1,8.4467643E-1,5.784782E-4,1.2324128E-1,6.3764966E-1,-8.694948E-2,2.2178787E-1,-1.7032577E-2,3.4852743E-1,-7.2282875E-1,-2.9781668E-2,-7.6808065E-2,7.381844E-2,1.257969E-1,1.9581977E0,7.313985E-2,-2.1440983E-1,-5.863301E-1,-1.7424975E-1,7.208515E-1,-7.763642E-2,-3.3225644E-1,2.204664E-2,-8.998724E-2,5.004768E-1,4.2708024E-2,-2.4236116E-1,-6.2265897E-1,-1.6046135E-2],"split_indices":[3,0,3,2,0,2,3,1,3,3,5,3,0,5,3,7,0,6,7,2,0,0,4,0,5,5,7,4,2,0,3,0,0,6,0,7,4,0,1,5,0,4,2,4,0,2,0,7,0,5,6,0,7,7,3,0,0,0,0,0,0,0,0,0,0,0,0,0,0,0,0,0,0,0,0,0,0,0,0,0,0,0,0,0,0,0,0,0,0,0,0,0,0,0,0,0,0,0,0],"split_type":[0,0,0,0,0,0,0,0,0,0,0,0,0,0,0,0,0,0,0,0,0,0,0,0,0,0,0,0,0,0,0,0,0,0,0,0,0,0,0,0,0,0,0,0,0,0,0,0,0,0,0,0,0,0,0,0,0,0,0,0,0,0,0,0,0,0,0,0,0,0,0,0,0,0,0,0,0,0,0,0,0,0,0,0,0,0,0,0,0,0,0,0,0,0,0,0,0,0,0],"sum_hessian":[1.959E3,4.59E2,1.5E3,3.37E2,1.22E2,2.14E2,1.286E3,1.25E2,2.12E2,4E0,1.18E2,2.13E2,1E0,3.8E1,1.248E3,1.22E2,3E0,1.84E2,2.8E1,3E0,1E0,6.7E1,5.1E1,2.06E2,7E0,1.7E1,2.1E1,1.6E1,1.232E3,1.06E2,1.6E1,1E0,2E0,1.8E2,4E0,1.5E1,1.3E1,1E0,2E0,3E1,3.7E1,8E0,4.3E1,8.9E1,1.17E2,4E0,3E0,8E0,9E0,7E0,1.4E1,2E0,1.4E1,4.71E2,7.61E2,4.7E1,5.9E1,1.2E1,4E0,1.48E2,3.2E1,3E0,1E0,1.3E1,2E0,1E1,3E0,1E0,1E0,1E1,2E1,1E0,3.6E1,3E0,5E0,2.6E1,1.7E1,3.9E1,5E1,5E0,1.12E2,3E0,1E0,1E0,2E0,4E0,4E0,6E0,3E0,4E0,3E0,7E0,7E0,1.3E1,1E0,4.51E2,2E1,2E0,7.59E2],"tree_param":{"num_deleted":"0","num_feature":"8","num_nodes":"99","size_leaf_vector":"1"}},{"base_weights":[1.0095671E-2,-2.227241E-1,2.3659859E-2,-1.4739326E-1,-9.462271E-1,5.015814E-2,-1.0154393E-1,-2.5123665E-1,7.061936E-1,-4.4951653E-1,-5.866139E-1,3.5428263E-2,6.9723064E-1,-4.9043623E-1,-1.5894041E-4,3.1640527E-1,-3.9960226E-1,1.4036856E0,-1.0899726E-1,1.1638689E-1,-1.9726464E-1,-2.1354925E-2,1.4184237E-1,1.6379166E0,3.8746664E-1,-3.498866E-1,-1.6451637E0,-3.9935163E-1,1.1248533E-1,-7.649085E-2,8.661988E-1,-2.2369869E-1,-8.07768E-1,4.5673767E-1,1.2147296E-1,-1.5372105E-1,2.2080672E-1,-2.2921855E-2,7.5295955E-2,-8.045064E-3,-5.4953206E-1,3.902347E-1,-3.1202469E-2,1.4658532E0,1.425457E-1,-9.6452296E-2,-6.451323E-1,1.3294634E-1,-2.0670757E0,-9.7334087E-1,-2.0764251E-1,1.0385803E0,7.859785E-2,1.1630288E-1,-4.6179347E-2,9.700878E-2,3.3816838E-1,-1.0838363E-2,-1.4079268E-1,-4.2976686E-1,-3.286392E-2,7.712364E-2,1.6798569E-2,-1.056896E-2,7.0585825E-2,-3.7518516E-2,-3.7292606E-1,8.324933E-2,7.3365515E-1,-3.8602687E-2,2.8443742E-1,1.0449466E0,-1.2407592E-1,-2.4452105E-1,1.5016916E-1,-8.2610406E-2,6.4124264E-2,-4.0348646E-1,-1.4173663E-1,-1.5865657E-1,-6.806847E-1,-3.0992502E-1,-2.9503442E-2,5.2830473E-2,-1.440254E-1,6.0504067E-1,8.701762E-3],"categories":[],"categories_nodes":[],"categories_segments":[],"categories_sizes":[],"default_left":[0,0,0,0,0,0,0,0,0,0,0,0,0,0,0,0,0,0,0,0,0,0,0,0,0,0,0,0,0,0,0,0,0,0,0,0,0,0,0,0,0,0,0,0,0,0,0,0,0,0,0,0,0,0,0,0,0,0,0,0,0,0,0,0,0,0,0,0,0,0,0,0,0,0,0,0,0,0,0,0,0,0,0,0,0,0,0],"id":16,"left_children":[1,3,5,7,9,11,13,15,17,19,-1,21,23,25,27,29,31,33,35,37,-1,39,41,-1,43,45,47,49,51,53,55,57,59,-1,-1,-1,61,-1,-1,63,65,67,69,71,73,75,77,-1,79,81,83,-1,85,-1,-1,-1,-1,-1,-1,-1,-1,-1,-1,-1,-1,-1,-1,-1,-1,-1,-1,-1,-1,-1,-1,-1,-1,-1,-1,-1,-1,-1,-1,-1,-1,-1,-1],"loss_changes":[6.194971E0,5.7467585E0,6.152764E0,8.952718E0,4.1335907E0,1.4558184E1,1.2774543E1,7.6218867E0,6.4074774E0,1.0183395E0,0E0,9.048699E0,4.8042976E1,1.0298246E1,1.1646346E1,4.170479E0,4.9169474E0,9.5308304E-2,9.1141206E-1,9.702655E-2,0E0,6.863853E0,2.2406326E1,0E0,8.50699E0,4.5021234E0,7.083641E0,6.070115E0,2.265578E1,4.9101833E-1,7.690649E-1,2.3325803E0,9.00412E0,0E0,0E0,0E0,9.517029E-3,0E0,0E0,6.318912E0,6.9099803E0,4.8906525E1,2.9523098E1,2.4188969E1,1.0007622E1,1.9458463E0,2.7481785E0,0E0,6.632061E-1,6.3024235E-1,4.6846576E0,0E0,1.9261497E1,0E0,0E0,0E0,0E0,0E0,0E0,0E0,0E0,0E0,0E0,0E0,0E0,0E0,0E0,0E0,0E0,0E0,0E0,0E0,0E0,0E0,0E0,0E0,0E0,0E0,0E0,0E0,0E0,0E0,0E0,0E0,0E0,0E0,0E0],"parents":[2147483647,0,0,1,1,2,2,3,3,4,4,5,5,6,6,7,7,8,8,9,9,11,11,12,12,13,13,14,14,15,15,16,16,17,17,18,18,19,19,21,21,22,22,24,24,25,25,26,26,27,27,28,28,29,29,30,30,31,31,32,32,36,36,39,39,40,40,41,41,42,42,43,43,44,44,45,45,46,46,48,48,49,49,50,50,52,52],"right_children":[2,4,6,8,10,12,14,16,18,20,-1,22,24,26,28,30,32,34,36,38,-1,40,42,-1,44,46,48,50,52,54,56,58,60,-1,-1,-1,62,-1,-1,64,66,68,70,72,74,76,78,-1,80,82,84,-1,86,-1,-1,-1,-1,-1,-1,-1,-1,-1,-1,-1,-1,-1,-1,-1,-1,-1,-1,-1,-1,-1,-1,-1,-1,-1,-1,-1,-1,-1,-1,-1,-1,-1,-1],"split_conditions":[1.1183201E1,2.1999998E0,5.5E0,7.43E0,1.0538843E1,7.173333E0,2.6443334E0,1.1693333E0,1.142E1,1.2666667E0,-5.866139E-1,2.27E0,1.468502E2,4.6000004E0,5.4133334E0,2.0433333E0,2E-1,1.0829958E1,1E-1,1.395475E1,-1.9726464E-1,2.2E0,1.7193533E1,1.6379166E0,1.7393163E2,1.2547499E0,1.3441071E1,5.8E0,5.57E0,5.3652462E1,1.2748334E2,1.01887E1,1.395475E1,4.5673767E-1,1.2147296E-1,-1.5372105E-1,2E-1,-2.2921855E-2,7.5295955E-2,2.73E0,2.73E0,1.6904673E1,7.8999996E0,5E-1,2.9E0,8.47E0,1.224E1,1.3294634E-1,3.985E-1,1.5875584E1,4.4866667E0,1.0385803E0,5.46E0,1.1630288E-1,-4.6179347E-2,9.700878E-2,3.3816838E-1,-1.0838363E-2,-1.4079268E-1,-4.2976686E-1,-3.286392E-2,7.712364E-2,1.6798569E-2,-1.056896E-2,7.0585825E-2,-3.7518516E-2,-3.7292606E-1,8.324933E-2,7.3365515E-1,-3.8602687E-2,2.8443742E-1,1.0449466E0,-1.2407592E-1,-2.4452105E-1,1.5016916E-1,-8.2610406E-2,6.4124264E-2,-4.0348646E-1,-1.4173663E-1,-1.5865657E-1,-6.806847E-1,-3.0992502E-1,-2.9503442E-2,5.2830473E-2,-1.440254E-1,6.0504067E-1,8.701762E-3],"split_indices":[2,1,6,6,2,4,0,0,6,4,0,5,3,1,4,4,1,2,1,0,0,5,2,0,3,0,2,6,6,3,3,2,0,0,0,0,1,0,0,6,7,2,1,1,7,7,2,0,0,0,4,0,4,0,0,0,0,0,0,0,0,0,0,0,0,0,0,0,0,0,0,0,0,0,0,0,0,0,0,0,0,0,0,0,0,0,0],"split_type":[0,0,0,0,0,0,0,0,0,0,0,0,0,0,0,0,0,0,0,0,0,0,0,0,0,0,0,0,0,0,0,0,0,0,0,0,0,0,0,0,0,0,0,0,0,0,0,0,0,0,0,0,0,0,0,0,0,0,0,0,0,0,0,0,0,0,0,0,0,0,0,0,0,0,0,0,0,0,0,0,0,0,0,0,0,0,0],"sum_hessian":[1.959E3,1.07E2,1.852E3,9.8E1,9E0,1.529E3,3.23E2,8.8E1,1E1,7E0,2E0,1.496E3,3.3E1,6.6E1,2.57E2,1.8E1,7E1,5E0,5E0,2E0,5E0,9.76E2,5.2E2,1E0,3.2E1,6E1,6E0,5.6E1,2.01E2,1.1E1,7E0,5E1,2E1,4E0,1E0,2E0,3E0,1E0,1E0,9.53E2,2.3E1,2.13E2,3.07E2,5E0,2.7E1,3.3E1,2.7E1,1E0,5E0,1.3E1,4.3E1,1E0,2E2,1E0,1E1,3E0,4E0,2.9E1,2.1E1,1E1,1E1,2E0,1E0,8.58E2,9.5E1,1.5E1,8E0,2.03E2,1E1,2.8E2,2.7E1,2E0,3E0,7E0,2E1,2.1E1,1.2E1,4E0,2.3E1,1E0,4E0,1.2E1,1E0,1.8E1,2.5E1,4E0,1.96E2],"tree_param":{"num_deleted":"0","num_feature":"8","num_nodes":"87","size_leaf_vector":"1"}},{"base_weights":[8.498761E-3,1.478436E-2,-4.78598E-1,1.1461834E-2,1.0816197E0,-6.722026E-1,4.3026096E-1,5.213947E-2,-6.786153E-2,-3.5477787E-1,1.888513E0,-7.4198526E-1,-6.1784587E-3,-3.199972E-2,2.2473042E-1,-1.1413286E-1,1.1020072E-1,-6.855705E-1,-4.5309916E-2,-1.4882892E-1,-1.082113E-2,9.5239896E-1,1.20472595E-1,2.8770948E-2,-7.938625E-1,3.385985E-2,-3.6640156E-2,-3.8688384E-2,2.4288513E-2,2.3079887E-2,-3.0619907E-1,4.1819867E-1,-3.536075E-2,-5.9597578E-2,-1.1625036E0,1.5148379E-1,-1.05674766E-1,-8.6175036E-1,-1.6717331E-1,-1.2630178E-2,3.6798322E-1,-1.6470277E-1,2.4501707E-2,-2.5918685E-2,1.9979171E-1,-9.9461906E-2,7.5003796E-4,-5.8346663E-2,4.2350926E-2,-4.8753738E-1,-2.0106749E-1,2.2374682E-2,8.7615556E-1,-9.46593E-2,3.5097408E-3,-2.6724857E-1,-6.3836575E-2,-1.2774168E-1,5.2513685E-2],"categories":[],"categories_nodes":[],"categories_segments":[],"categories_sizes":[],"default_left":[0,0,0,0,0,0,0,0,0,0,0,0,0,0,0,0,0,0,0,0,0,0,0,0,0,0,0,0,0,0,0,0,0,0,0,0,0,0,0,0,0,0,0,0,0,0,0,0,0,0,0,0,0,0,0,0,0,0,0],"id":17,"left_children":[1,3,5,7,9,11,13,15,17,19,21,23,25,27,-1,29,31,33,35,-1,-1,-1,-1,-1,37,-1,-1,-1,-1,39,41,43,45,47,49,51,53,55,57,-1,-1,-1,-1,-1,-1,-1,-1,-1,-1,-1,-1,-1,-1,-1,-1,-1,-1,-1,-1],"loss_changes":[6.0079985E0,6.849924E0,4.688205E0,6.2342696E0,7.6241198E0,9.714308E-1,7.6090777E-1,1.2340708E1,9.093302E0,1.1722338E-1,6.374833E0,9.0201473E-1,5.519638E-2,4.329967E-2,0E0,8.730219E0,4.24713E1,6.797304E0,7.535682E0,0E0,0E0,0E0,0E0,0E0,6.217394E-1,0E0,0E0,0E0,0E0,1.5270303E1,1.3041555E1,3.8065193E1,7.2223835E0,3.2535535E-1,1.8714008E0,3.1510683E1,1.1950039E1,1.1237335E-1,3.4006193E-1,0E0,0E0,0E0,0E0,0E0,0E0,0E0,0E0,0E0,0E0,0E0,0E0,0E0,0E0,0E0,0E0,0E0,0E0,0E0,0E0],"parents":[2147483647,0,0,1,1,2,2,3,3,4,4,5,5,6,6,7,7,8,8,9,9,10,10,11,11,12,12,13,13,15,15,16,16,17,17,18,18,24,24,29,29,30,30,31,31,32,32,33,33,34,34,35,35,36,36,37,37,38,38],"right_children":[2,4,6,8,10,12,14,16,18,20,22,24,26,28,-1,30,32,34,36,-1,-1,-1,-1,-1,38,-1,-1,-1,-1,40,42,44,46,48,50,52,54,56,58,-1,-1,-1,-1,-1,-1,-1,-1,-1,-1,-1,-1,-1,-1,-1,-1,-1,-1,-1,-1],"split_conditions":[1.5099999E1,1.4400001E1,2.4013174E2,1.1771419E1,2.196384E2,4.0813583E1,1.0171417E1,1.3877402E2,1.2140167E1,6.4964175E0,2.2331288E2,7.2E-1,6.7350006E-1,2.552667E0,2.2473042E-1,2.47E0,2.2106972E2,2.02E0,1.2942024E2,-1.4882892E-1,-1.082113E-2,9.5239896E-1,1.20472595E-1,2.8770948E-2,6.75E0,3.385985E-2,-3.6640156E-2,-3.8688384E-2,2.4288513E-2,1.2942024E2,5E0,1.6808569E1,2.3143109E2,1.8466666E0,1.7248738E2,1.2748334E2,2.1888977E2,2.3871605E2,1.2831833E1,-1.2630178E-2,3.6798322E-1,-1.6470277E-1,2.4501707E-2,-2.5918685E-2,1.9979171E-1,-9.9461906E-2,7.5003796E-4,-5.8346663E-2,4.2350926E-2,-4.8753738E-1,-2.0106749E-1,2.2374682E-2,8.7615556E-1,-9.46593E-2,3.5097408E-3,-2.6724857E-1,-6.3836575E-2,-1.2774168E-1,5.2513685E-2],"split_indices":[1,1,3,0,3,2,0,3,0,0,3,7,0,0,0,5,3,5,3,0,0,0,0,0,6,0,0,0,0,3,7,2,3,4,3,3,3,3,0,0,0,0,0,0,0,0,0,0,0,0,0,0,0,0,0,0,0,0,0],"split_type":[0,0,0,0,0,0,0,0,0,0,0,0,0,0,0,0,0,0,0,0,0,0,0,0,0,0,0,0,0,0,0,0,0,0,0,0,0,0,0,0,0,0,0,0,0,0,0,0,0,0,0,0,0,0,0,0,0,0,0],"sum_hessian":[1.959E3,1.935E3,2.4E1,1.93E3,5E0,2E1,4E0,1.276E3,6.54E2,2E0,3E0,1.8E1,2E0,2E0,2E0,3.3E2,9.46E2,2.2E1,6.32E2,1E0,1E0,1E0,2E0,1E0,1.7E1,1E0,1E0,1E0,1E0,1.93E2,1.37E2,3.03E2,6.43E2,1E1,1.2E1,1.48E2,4.84E2,1.5E1,2E0,1.84E2,9E0,8.4E1,5.3E1,1E2,2.03E2,7.2E1,5.71E2,6E0,4E0,5E0,7E0,1.45E2,3E0,1.73E2,3.11E2,1.4E1,1E0,1E0,1E0],"tree_param":{"num_deleted":"0","num_feature":"8","num_nodes":"59","size_leaf_vector":"1"}},