{"learner":{"attributes":{"scikit_learn":"{\"_estimator_type\": \"regressor\"}"},"feature_names":["pm25_lag_1","pm25_lag_2","pm25_lag_3","temperature_2m_mean","precipitation_sum","wind_speed_10m_max","wind_direction_10m_dominant"],"feature_types":["float","float","float","float","float","float","float"],"gradient_booster":{"model":{"gbtree_model_param":{"num_parallel_tree":"1","num_trees":"100"},"iteration_indptr":[0,1,2,3,4,5,6,7,8,9,10,11,12,13,14,15,16,17,18,19,20,21,22,23,24,25,26,27,28,29,30,31,32,33,34,35,36,37,38,39,40,41,42,43,44,45,46,47,48,49,50,51,52,53,54,55,56,57,58,59,60,61,62,63,64,65,66,67,68,69,70,71,72,73,74,75,76,77,78,79,80,81,82,83,84,85,86,87,88,89,90,91,92,93,94,95,96,97,98,99,100],"tree_info":[0,0,0,0,0,0,0,0,0,0,0,0,0,0,0,0,0,0,0,0,0,0,0,0,0,0,0,0,0,0,0,0,0,0,0,0,0,0,0,0,0,0,0,0,0,0,0,0,0,0,0,0,0,0,0,0,0,0,0,0,0,0,0,0,0,0,0,0,0,0,0,0,0,0,0,0,0,0,0,0,0,0,0,0,0,0,0,0,0,0,0,0,0,0,0,0,0,0,0,0],"trees":[{"base_weights":[5.890627E-8,-1.131077E0,4.4644785E0,-1.8791013E0,2.4009188E-1,6.6889677E0,1.2632895E0,-2.808727E0,-1.3696872E0,1.0960299E0,-1.2224369E0,4.096311E0,1.0439315E1,3.2299552E0,-3.8963512E-1,-3.2346857E0,-2.2851253E0,-8.2379526E-1,-2.1792014E0,-2.8310332E-1,1.7293122E0,-1.332737E0,8.440126E-1,1.2638832E0,5.4246836E0,3.495919E0,1.180132E1,2.051478E0,6.368193E0,1.8517667E0,-7.582068E-1,-4.700069E-1,-9.757765E-1,-2.3964267E0,-1.181728E0,-1.6648152E0,-4.3593448E-1,-1.9550047E0,-2.378952E0,-8.130226E-1,1.67173E0,2.8660326E0,4.4779626E-1,-7.740102E-1,-1.6125971E0,4.2525935E-1,3.1378335E-1,-8.058313E-1,2.5049515E0,6.558476E0,3.551403E0,1.2049725E0,5.922612E0,1.2625799E1,5.5567403E0,4.999813E0,1.0438461E0,9.283973E0,3.1385581E0,3.1763623E0,-2.2298849E-1,1.1899003E-1,-1.4041287E0,-7.717843E-1,-6.353636E-1,2.3721623E0,-6.7319614E-1,-6.350745E-1,-3.8212982E-1,-2.6949853E-1,1.1294717E-1,-5.925466E-1,9.666206E-2,-5.8209E-1,-7.556589E-1,-3.2169282E-1,3.2984015E-1,-1.4108248E-2,8.1183594E-1,1.1691204E0,2.283864E-1,1.5047079E-2,6.94258E-1,2.4617705E-1,-3.0124065E-1,-2.5543863E-1,-5.9897375E-1,2.1620751E-3,1.0910348E-1,1.9603461E-2,-3.4377772E-1,5.5222315E-1,1.2988493E0,1.5022042E0,2.6103537E0,2.0796381E-1,1.407053E0,7.6442075E-1,-4.340069E-1,2.2270596E0,7.697431E-1,5.8901587E0,3.4553673E0,2.4886036E0,5.676035E-1,2.064592E0,7.0659354E-2,6.851276E-1,-7.3054194E-2,-6.833793E-2,3.109844E0,1.4719923E0,1.0659343E-2,1.2538594E0,3.3849314E-1,6.8882756E-2,-1.520069E-1,-1.271008E-1,8.166036E-1,-2.3273604E-1,-5.7648104E-1],"categories":[],"categories_nodes":[],"categories_segments":[],"categories_sizes":[],"default_left":[1,1,0,0,0,0,0,0,0,0,0,0,0,0,0,0,0,0,0,0,0,0,0,0,0,0,0,0,0,0,0,0,0,0,0,0,0,0,0,0,0,0,0,0,0,0,0,0,0,0,0,0,0,0,0,0,0,0,0,0,0,0,0,0,0,0,0,0,0,0,0,0,0,0,0,0,0,0,0,0,0,0,0,0,0,0,0,0,0,0,0,0,0,0,0,0,0,0,0,0,0,0,0,0,0,0,0,0,0,0,0,0,0,0,0,0,0,0,0,0,0],"id":0,"left_children":[1,3,5,7,9,11,13,15,17,19,21,23,25,27,29,31,33,35,37,39,41,43,45,47,49,51,53,55,57,59,61,-1,-1,63,65,67,69,71,73,75,77,79,81,83,85,-1,87,89,91,93,95,97,99,101,103,105,107,109,111,113,115,117,119,-1,-1,-1,-1,-1,-1,-1,-1,-1,-1,-1,-1,-1,-1,-1,-1,-1,-1,-1,-1,-1,-1,-1,-1,-1,-1,-1,-1,-1,-1,-1,-1,-1,-1,-1,-1,-1,-1,-1,-1,-1,-1,-1,-1,-1,-1,-1,-1,-1,-1,-1,-1,-1,-1,-1,-1,-1,-1],"loss_changes":[9.917551E3,1.6076722E3,2.8185903E3,4.7634717E2,6.9485583E2,2.232505E3,5.343815E2,7.24541E1,2.8853796E2,3.0617276E2,4.7850372E1,5.198965E2,8.571533E2,2.6431146E2,7.575456E1,7.272949E-1,1.7308899E1,1.2779654E2,7.171875E0,1.1634449E2,3.4833087E2,2.9243073E1,2.9002614E0,1.2017677E2,1.7847974E2,8.737366E1,3.365752E2,1.6114778E2,1.5919977E2,3.6435036E1,4.4361923E1,0E0,0E0,1.8148804E0,1.8187534E2,1.9225891E1,1.02142166E2,6.601715E0,3.3979492E0,4.4816692E1,4.279603E1,2.7263147E2,8.448934E1,2.5410164E1,3.600183E1,0E0,1.0445523E-1,5.407957E0,2.7174988E1,1.4919946E2,1.2043228E2,3.9300644E1,2.1258911E1,3.095957E2,9.4703766E1,1.2391904E2,6.919333E1,1.05295105E2,6.0176155E1,1.1720528E1,8.8675547E-1,4.9180073E1,1.3141045E1,0E0,0E0,0E0,0E0,0E0,0E0,0E0,0E0,0E0,0E0,0E0,0E0,0E0,0E0,0E0,0E0,0E0,0E0,0E0,0E0,0E0,0E0,0E0,0E0,0E0,0E0,0E0,0E0,0E0,0E0,0E0,0E0,0E0,0E0,0E0,0E0,0E0,0E0,0E0,0E0,0E0,0E0,0E0,0E0,0E0,0E0,0E0,0E0,0E0,0E0,0E0,0E0,0E0,0E0,0E0,0E0,0E0,0E0],"parents":[2147483647,0,0,1,1,2,2,3,3,4,4,5,5,6,6,7,7,8,8,9,9,10,10,11,11,12,12,13,13,14,14,15,15,16,16,17,17,18,18,19,19,20,20,21,21,22,22,23,23,24,24,25,25,26,26,27,27,28,28,29,29,30,30,33,33,34,34,35,35,36,36,37,37,38,38,39,39,40,40,41,41,42,42,43,43,44,44,46,46,47,47,48,48,49,49,50,50,51,51,52,52,53,53,54,54,55,55,56,56,57,57,58,58,59,59,60,60,61,61,62,62],"right_children":[2,4,6,8,10,12,14,16,18,20,22,24,26,28,30,32,34,36,38,40,42,44,46,48,50,52,54,56,58,60,62,-1,-1,64,66,68,70,72,74,76,78,80,82,84,86,-1,88,90,92,94,96,98,100,102,104,106,108,110,112,114,116,118,120,-1,-1,-1,-1,-1,-1,-1,-1,-1,-1,-1,-1,-1,-1,-1,-1,-1,-1,-1,-1,-1,-1,-1,-1,-1,-1,-1,-1,-1,-1,-1,-1,-1,-1,-1,-1,-1,-1,-1,-1,-1,-1,-1,-1,-1,-1,-1,-1,-1,-1,-1,-1,-1,-1,-1,-1,-1,-1],"split_conditions":[4.9E0,2.06E0,2.1596591E2,9E-1,2.32942E2,1.09E1,1.8775301E1,6E-1,2.4387288E2,1.0506104E2,1.8885916E1,9.6962616E1,9.891281E1,1.09E1,2.2117584E2,-1.6849166E0,5.3E0,1.0116793E2,2.887557E2,3.9E0,1.1813003E1,2.549599E2,2.02E0,3.0851723E1,1.7549171E2,1.1813003E1,2.5460936E1,2.3788416E2,3.75E0,3E-1,2.4315327E1,-4.700069E-1,-9.757765E-1,1.59E0,5.2E-1,4.191626E1,9.000001E-1,2.861632E2,1.6323528E1,1.7217165E1,4.9398758E1,2.0968639E2,2.043592E1,1.43E0,1.665754E1,4.2525935E-1,2.52E0,1.4917212E1,8.07E0,1.3982552E2,1.6075521E1,1.961587E1,8.07E0,3E0,1.8205637E2,3.8E0,1.3746156E1,1.1983188E1,2.4194774E2,1.0810916E1,7.03E0,2.2870626E1,2.4332971E2,-7.717843E-1,-6.353636E-1,2.3721623E0,-6.7319614E-1,-6.350745E-1,-3.8212982E-1,-2.6949853E-1,1.1294717E-1,-5.925466E-1,9.666206E-2,-5.8209E-1,-7.556589E-1,-3.2169282E-1,3.2984015E-1,-1.4108248E-2,8.1183594E-1,1.1691204E0,2.283864E-1,1.5047079E-2,6.94258E-1,2.4617705E-1,-3.0124065E-1,-2.5543863E-1,-5.9897375E-1,2.1620751E-3,1.0910348E-1,1.9603461E-2,-3.4377772E-1,5.5222315E-1,1.2988493E0,1.5022042E0,2.6103537E0,2.0796381E-1,1.407053E0,7.6442075E-1,-4.340069E-1,2.2270596E0,7.697431E-1,5.8901587E0,3.4553673E0,2.4886036E0,5.676035E-1,2.064592E0,7.0659354E-2,6.851276E-1,-7.3054194E-2,-6.833793E-2,3.109844E0,1.4719923E0,1.0659343E-2,1.2538594E0,3.3849314E-1,6.8882756E-2,-1.520069E-1,-1.271008E-1,8.166036E-1,-2.3273604E-1,-5.7648104E-1],"split_indices":[0,0,6,0,6,0,5,0,6,6,3,6,6,0,6,3,4,6,6,0,3,6,1,6,6,3,5,6,2,4,5,0,0,2,1,6,4,6,5,3,6,6,3,1,5,0,0,5,0,6,5,5,2,1,6,2,5,5,6,3,0,5,6,0,0,0,0,0,0,0,0,0,0,0,0,0,0,0,0,0,0,0,0,0,0,0,0,0,0,0,0,0,0,0,0,0,0,0,0,0,0,0,0,0,0,0,0,0,0,0,0,0,0,0,0,0,0,0,0,0,0],"split_type":[0,0,0,0,0,0,0,0,0,0,0,0,0,0,0,0,0,0,0,0,0,0,0,0,0,0,0,0,0,0,0,0,0,0,0,0,0,0,0,0,0,0,0,0,0,0,0,0,0,0,0,0,0,0,0,0,0,0,0,0,0,0,0,0,0,0,0,0,0,0,0,0,0,0,0,0,0,0,0,0,0,0,0,0,0,0,0,0,0,0,0,0,0,0,0,0,0,0,0,0,0,0,0,0,0,0,0,0,0,0,0,0,0,0,0,0,0,0,0,0,0],"sum_hessian":[1.962E3,1.566E3,3.96E2,1.013E3,5.53E2,2.33E2,1.63E2,3.57E2,6.56E2,3.49E2,2.04E2,1.39E2,9.4E1,7.4E1,8.9E1,1.94E2,1.63E2,3.93E2,2.63E2,1.1E2,2.39E2,1.94E2,1E1,4.5E1,9.4E1,1.6E1,7.8E1,5.5E1,1.9E1,1.2E1,7.7E1,3E0,1.91E2,1.47E2,1.6E1,1.23E2,2.7E2,1.29E2,1.34E2,8.7E1,2.3E1,1.26E2,1.13E2,6.6E1,1.28E2,4E0,6E0,1.7E1,2.8E1,5.7E1,3.7E1,9E0,7E0,6.8E1,1E1,1.3E1,4.2E1,9E0,1E1,7E0,5E0,3.3E1,4.4E1,8.5E1,6.2E1,1E0,1.5E1,5.5E1,6.8E1,1.72E2,9.8E1,1.28E2,1E0,3.6E1,9.8E1,7.7E1,1E1,9E0,1.4E1,8.4E1,4.2E1,9.4E1,1.9E1,8E0,5.8E1,4.4E1,8.4E1,1E0,5E0,5E0,1.2E1,2.2E1,6E0,3.5E1,2.2E1,1.1E1,2.6E1,6E0,3E0,4E0,3E0,7E0,6.1E1,5E0,5E0,9E0,4E0,2.1E1,2.1E1,1E0,8E0,6E0,4E0,4E0,3E0,2E0,3E0,2.8E1,5E0,2.1E1,2.3E1],"tree_param":{"num_deleted":"0","num_feature":"7","num_nodes":"121","size_leaf_vector":"1"}},{"base_weights":[1.5294359E-2,-6.3003856E-1,4.064104E0,-1.3194748E0,3.9744806E-1,5.843515E0,1.4227475E0,-1.9272997E0,-9.284923E-1,1.1524287E0,-6.062548E-1,1.6944796E0,7.1559567E0,3.3323772E0,-2.2415018E-1,-2.3334634E0,-1.6240101E0,-5.460965E-1,-1.498342E0,-4.0815517E-1,1.5705918E0,-8.553479E-1,2.3695102E-2,-1.0752809E0,2.5332901E0,4.595895E0,8.395051E0,4.4447417E0,8.4619296E-1,7.1130586E-1,-1.3186466E0,-7.054738E-1,-3.0220717E-1,-1.2009625E0,-1.8683234E0,-1.0854614E0,-1.7677133E-1,-1.3056115E0,-1.6307273E0,-7.155577E-1,1.1580114E0,1.38521E0,5.6565166E0,-2.572636E-1,-1.0764822E0,1.1337861E0,-2.7489197E-1,-1.2490001E0,7.322875E-2,4.7872148E0,1.9157194E0,5.2241206E0,-1.0978016E0,9.727583E0,5.932013E0,1.1887798E0,5.887525E0,-1.8425621E-1,1.0068367E0,2.7717588E0,-3.050545E-1,3.7211657E-2,-1.5461735E0,-4.326509E-1,1.5892785E-2,-5.63535E-1,-6.303338E-2,-4.650168E-1,-2.148871E-1,1.2500247E-1,-1.9734325E-1,-4.2622924E-1,-2.3155864E-1,-4.9489085E-2,-4.919664E-1,-1.5617138E-1,-5.142209E-1,-1.03258945E-1,6.0924464E-1,6.2101746E-1,2.6708642E-1,4.385395E0,4.5188352E-1,-1.475122E-1,1.9659041E0,-1.9703573E-1,-4.3839052E-1,7.649558E-1,-2.8650853E-1,2.1823122E-1,-2.060407E-1,-4.553144E-1,-6.1699823E-2,3.3721555E-2,1.7099087E0,2.1432878E-1,7.865622E-1,2.1889496E0,1.1563874E0,-5.6604296E-1,1.7142154E-2,7.809353E-3,3.0369103E0,2.272411E0,8.0995834E-1,1.031927E0,-1.1000344E-1,2.5107872E0,6.5810555E-1,-4.7422436E-1,5.125326E-1,1.0876532E0,3.0664653E-1,2.1883067E-1,-1.8988112E-1,-1.0569709E-1,1.24302916E-1,-4.871697E-1,3.6227204E-2],"categories":[],"categories_nodes":[],"categories_segments":[],"categories_sizes":[],"default_left":[1,1,0,0,0,0,0,0,0,0,0,0,0,0,0,0,0,0,0,0,0,0,0,0,0,0,0,0,0,0,0,0,0,0,0,0,0,0,0,0,0,0,0,0,0,0,0,0,0,0,0,0,0,0,0,0,0,0,0,0,0,0,0,0,0,0,0,0,0,0,0,0,0,0,0,0,0,0,0,0,0,0,0,0,0,0,0,0,0,0,0,0,0,0,0,0,0,0,0,0,0,0,0,0,0,0,0,0,0,0,0,0,0,0,0,0,0,0,0],"id":1,"left_children":[1,3,5,7,9,11,13,15,17,19,21,23,25,27,29,31,33,35,37,39,41,43,45,47,49,51,53,55,57,59,61,-1,-1,63,65,67,69,71,73,75,77,79,81,83,85,87,89,91,-1,93,95,97,99,101,103,105,107,109,-1,111,113,115,117,-1,-1,-1,-1,-1,-1,-1,-1,-1,-1,-1,-1,-1,-1,-1,-1,-1,-1,-1,-1,-1,-1,-1,-1,-1,-1,-1,-1,-1,-1,-1,-1,-1,-1,-1,-1,-1,-1,-1,-1,-1,-1,-1,-1,-1,-1,-1,-1,-1,-1,-1,-1,-1,-1,-1,-1],"loss_changes":[5.1315464E3,1.2005312E3,1.2607017E3,2.3918652E2,5.167443E2,8.645791E2,3.4669305E2,4.499182E1,1.340669E2,2.5449408E2,4.5996704E1,9.5656166E1,3.484204E2,1.3728162E2,6.236916E1,1.6429443E0,2.1528137E1,7.39109E1,4.1985474E0,4.078844E1,2.2470355E2,2.749701E1,2.815421E1,2.5968857E0,3.3979736E1,1.55966E2,2.0814355E2,1.574187E2,4.458641E1,6.995291E1,8.695374E0,0E0,0E0,2.6390312E1,2.023346E0,2.4788452E1,6.3648666E1,5.4184113E0,1.6495361E0,1.2736443E1,1.9054863E1,9.814624E1,4.6148007E2,9.582649E1,2.375087E1,5.567738E1,2.8161882E1,2.2110882E0,0E0,2.495337E1,2.0182564E1,7.9723145E1,4.664107E0,1.9539697E2,1.4414148E2,4.327688E1,2.0165424E2,3.70614E1,0E0,1.2725159E1,8.263084E0,8.805127E-1,3.3056107E0,0E0,0E0,0E0,0E0,0E0,0E0,0E0,0E0,0E0,0E0,0E0,0E0,0E0,0E0,0E0,0E0,0E0,0E0,0E0,0E0,0E0,0E0,0E0,0E0,0E0,0E0,0E0,0E0,0E0,0E0,0E0,0E0,0E0,0E0,0E0,0E0,0E0,0E0,0E0,0E0,0E0,0E0,0E0,0E0,0E0,0E0,0E0,0E0,0E0,0E0,0E0,0E0,0E0,0E0,0E0,0E0],"parents":[2147483647,0,0,1,1,2,2,3,3,4,4,5,5,6,6,7,7,8,8,9,9,10,10,11,11,12,12,13,13,14,14,15,15,16,16,17,17,18,18,19,19,20,20,21,21,22,22,23,23,24,24,25,25,26,26,27,27,28,28,29,29,30,30,33,33,34,34,35,35,36,36,37,37,38,38,39,39,40,40,41,41,42,42,43,43,44,44,45,45,46,46,47,47,49,49,50,50,51,51,52,52,53,53,54,54,55,55,56,56,57,57,59,59,60,60,61,61,62,62],"right_children":[2,4,6,8,10,12,14,16,18,20,22,24,26,28,30,32,34,36,38,40,42,44,46,48,50,52,54,56,58,60,62,-1,-1,64,66,68,70,72,74,76,78,80,82,84,86,88,90,92,-1,94,96,98,100,102,104,106,108,110,-1,112,114,116,118,-1,-1,-1,-1,-1,-1,-1,-1,-1,-1,-1,-1,-1,-1,-1,-1,-1,-1,-1,-1,-1,-1,-1,-1,-1,-1,-1,-1,-1,-1,-1,-1,-1,-1,-1,-1,-1,-1,-1,-1,-1,-1,-1,-1,-1,-1,-1,-1,-1,-1,-1,-1,-1,-1,-1,-1],"split_conditions":[6.75E0,2.06E0,2.1596591E2,9.3E-1,2.2340613E2,9.891281E1,1.8775301E1,5E-1,2.4114339E2,6.5213486E1,4.09E0,2.4843752E1,1.047E1,2.7030246E2,2.4332971E2,1.27E0,2.1984721E2,1.3221764E2,1.913426E1,1.6121332E1,1.364E1,1.5778516E1,1.73E0,3.6000001E0,2.17E0,2.5264202E1,2.060823E1,4.04425E0,3.3428397E2,2E-1,1.9559633E1,-7.054738E-1,-3.0220717E-1,4E0,4.2518116E1,1.39E0,2.1025636E2,1.77E0,1.5E-1,2.1915691E1,1E-1,9.360917E0,4E-1,1.5683776E1,2.549599E2,2.1749483E1,1.4799459E1,3.26E0,7.322875E-2,8.07E0,3.1380005E0,2.38E0,5.29E0,4.0674996E-1,1.8502684E2,2.13E0,1.4529915E1,8.47E0,1.0068367E0,2.6576681E1,2.0150354E1,8.47E0,1.7292168E1,-4.326509E-1,1.5892785E-2,-5.63535E-1,-6.303338E-2,-4.650168E-1,-2.148871E-1,1.2500247E-1,-1.9734325E-1,-4.2622924E-1,-2.3155864E-1,-4.9489085E-2,-4.919664E-1,-1.5617138E-1,-5.142209E-1,-1.03258945E-1,6.0924464E-1,6.2101746E-1,2.6708642E-1,4.385395E0,4.5188352E-1,-1.475122E-1,1.9659041E0,-1.9703573E-1,-4.3839052E-1,7.649558E-1,-2.8650853E-1,2.1823122E-1,-2.060407E-1,-4.553144E-1,-6.1699823E-2,3.3721555E-2,1.7099087E0,2.1432878E-1,7.865622E-1,2.1889496E0,1.1563874E0,-5.6604296E-1,1.7142154E-2,7.809353E-3,3.0369103E0,2.272411E0,8.0995834E-1,1.031927E0,-1.1000344E-1,2.5107872E0,6.5810555E-1,-4.7422436E-1,5.125326E-1,1.0876532E0,3.0664653E-1,2.1883067E-1,-1.8988112E-1,-1.0569709E-1,1.24302916E-1,-4.871697E-1,3.6227204E-2],"split_indices":[0,0,6,0,6,6,5,0,6,6,0,6,0,6,6,1,6,6,5,3,2,5,1,4,2,5,5,3,6,4,5,0,0,4,5,0,6,0,1,5,4,3,4,5,6,5,5,2,0,0,3,2,1,3,6,2,5,1,0,5,5,0,3,0,0,0,0,0,0,0,0,0,0,0,0,0,0,0,0,0,0,0,0,0,0,0,0,0,0,0,0,0,0,0,0,0,0,0,0,0,0,0,0,0,0,0,0,0,0,0,0,0,0,0,0,0,0,0,0],"split_type":[0,0,0,0,0,0,0,0,0,0,0,0,0,0,0,0,0,0,0,0,0,0,0,0,0,0,0,0,0,0,0,0,0,0,0,0,0,0,0,0,0,0,0,0,0,0,0,0,0,0,0,0,0,0,0,0,0,0,0,0,0,0,0,0,0,0,0,0,0,0,0,0,0,0,0,0,0,0,0,0,0,0,0,0,0,0,0,0,0,0,0,0,0,0,0,0,0,0,0,0,0,0,0,0,0,0,0,0,0,0,0,0,0,0,0,0,0,0,0],"sum_hessian":[1.962E3,1.693E3,2.69E2,1.013E3,6.8E2,1.6E2,1.09E2,3.95E2,6.18E2,3.88E2,2.92E2,3.9E1,1.21E2,5E1,5.9E1,1.66E2,2.29E2,3.71E2,2.47E2,8.2E1,3.06E2,2.09E2,8.3E1,9E0,3E1,4.1E1,8E1,3.4E1,1.6E1,3.2E1,2.7E1,1.63E2,3E0,8.6E1,1.43E2,1.5E2,2.21E2,1.05E2,1.42E2,6.9E1,1.3E1,2.94E2,1.2E1,5.7E1,1.52E2,1.7E1,6.6E1,8E0,1E0,5E0,2.5E1,3.7E1,4E0,5E1,3E1,1.1E1,2.3E1,1.2E1,4E0,1E1,2.2E1,4E0,2.3E1,7.2E1,1.4E1,1.42E2,1E0,6.5E1,8.5E1,9.9E1,1.22E2,8.5E1,2E1,1E0,1.41E2,5.9E1,1E1,5E0,8E0,1.22E2,1.72E2,3E0,9E0,5.6E1,1E0,7.4E1,7.8E1,1E1,7E0,1.9E1,4.7E1,6E0,2E0,1E0,4E0,1E1,1.5E1,1.3E1,2.4E1,2E0,2E0,2E0,4.8E1,1.9E1,1.1E1,4E0,7E0,1.3E1,1E1,7E0,5E0,6E0,4E0,5E0,1.7E1,2E0,2E0,2.2E1,1E0],"tree_param":{"num_deleted":"0","num_feature":"7","num_nodes":"119","size_leaf_vector":"1"}},{"base_weights":[2.1191655E-2,-6.690387E-1,2.0153003E0,-1.0945274E0,-2.271878E-1,1.1847197E0,4.1722803E0,-1.5871418E0,-8.935575E-1,8.49928E-2,-7.4127465E-1,2.112495E0,2.9505754E-1,5.406528E0,1.6940026E0,-5.0777656E-1,-1.3460429E0,-4.7643366E-1,-1.2020888E0,-5.6750363E-1,4.1644725E-1,-1.0100466E0,-4.463272E-1,7.5650376E-1,2.936377E0,1.0221022E0,-2.412602E-1,2.1050885E0,6.3402104E0,3.6650097E0,2.7627337E-1,-1.374288E0,-2.5713924E-1,-8.662507E-1,7.583805E-1,-1.3253459E0,-1.0291973E0,-9.094405E-1,-1.3676536E-1,1.2796288E0,-2.4489515E-1,7.649098E-1,-1.0410885E0,1.2009691E0,-5.6323236E-1,2.8215405E-1,2.1908586E0,2.560217E0,6.479573E0,2.491171E0,2.2670557E-1,5.9219545E-1,-5.507903E-1,5.8602875E-1,4.234172E0,7.6382957E0,3.242625E0,5.0331396E-1,4.685354E0,1.8383849E0,-9.3453383E-1,-4.2454502E-1,-1.729188E-1,-7.540012E-3,-1.08172655E-1,-3.218425E-1,-1.3146006E-1,7.067189E-2,1.292908E0,1.5074337E-2,-4.000763E-1,-2.0352717E-1,-3.3800113E-1,-3.1253502E-1,-9.797187E-2,-2.915773E-1,1.02259524E-1,5.96861E-1,-2.287358E-1,1.5043217E0,-9.181445E-2,-2.0289531E-1,5.471048E-1,-2.4010052E-1,-3.7252375E-1,-2.7776358E-1,9.262869E-1,-1.8566024E-1,5.605381E-1,4.3563098E-2,7.5484383E-1,-1.0235097E-1,8.9885646E-1,-3.2997367E-1,8.280668E-1,2.9306197E-1,2.3199418E0,1.1903515E0,-4.549925E-2,-3.7143135E-1,1.543889E-1,-2.4680969E-1,2.940595E-1,6.9718146E-1,-1.9628863E-1,-2.9187068E-1,4.6806055E-1,1.8037459E0,4.8270702E-1,1.8436519E0,4.7791085E0,7.3221195E-1,2.3325536E0,-3.5156104E-1,4.9016204E-1,2.4775429E0,4.156992E-1,9.4619185E-1,-6.6638865E-2,-6.133207E-1,-1.6520286E-1],"categories":[],"categories_nodes":[],"categories_segments":[],"categories_sizes":[],"default_left":[1,1,0,0,0,0,0,0,0,0,0,0,0,0,0,0,0,0,0,0,0,0,0,0,0,0,0,0,0,0,0,0,0,0,1,0,0,0,0,0,0,0,0,0,0,0,0,0,0,0,0,0,0,0,0,0,0,0,0,0,0,0,0,0,0,0,0,0,0,0,0,0,0,0,0,0,0,0,0,0,0,0,0,0,0,0,0,0,0,0,0,0,0,0,0,0,0,0,0,0,0,0,0,0,0,0,0,0,0,0,0,0,0,0,0,0,0,0,0,0,0],"id":2,"left_children":[1,3,5,7,9,11,13,15,17,19,21,23,25,27,29,-1,31,33,35,37,39,41,43,45,47,49,51,53,55,57,59,61,63,65,67,69,71,73,75,77,79,81,83,85,87,89,91,93,95,97,99,101,103,105,107,109,111,113,115,117,119,-1,-1,-1,-1,-1,-1,-1,-1,-1,-1,-1,-1,-1,-1,-1,-1,-1,-1,-1,-1,-1,-1,-1,-1,-1,-1,-1,-1,-1,-1,-1,-1,-1,-1,-1,-1,-1,-1,-1,-1,-1,-1,-1,-1,-1,-1,-1,-1,-1,-1,-1,-1,-1,-1,-1,-1,-1,-1,-1,-1],"loss_changes":[2.7032102E3,2.74047E2,8.997876E2,7.213928E1,1.1513287E2,3.0147552E2,4.190747E2,3.1622314E0,6.763608E1,9.69103E1,2.1032333E1,1.9775323E2,7.3552864E1,2.733252E2,1.3311646E2,0E0,1.7995529E0,1.0992377E2,5.1142273E0,2.21157E1,1.6985837E2,8.565155E0,2.5904078E1,4.632846E1,1.3135272E2,9.291461E1,2.8445955E1,6.867116E1,2.64739E2,6.216217E1,5.6569096E1,1.4013519E0,6.293099E-2,1.4826035E1,1.0110066E2,2.0397034E0,3.7146301E0,6.1394043E0,2.7456314E1,1.8852684E2,5.588878E1,5.8111854E0,5.7211304E0,3.897239E1,1.7796684E1,1.584898E1,3.5687195E1,7.7704834E1,6.142566E1,1.0987425E2,2.2990131E1,1.7275894E1,2.5324457E1,2.277928E1,3.2340805E1,5.210154E2,6.4622025E1,1.3278058E1,1.6540948E2,3.594083E1,6.1167355E0,0E0,0E0,0E0,0E0,0E0,0E0,0E0,0E0,0E0,0E0,0E0,0E0,0E0,0E0,0E0,0E0,0E0,0E0,0E0,0E0,0E0,0E0,0E0,0E0,0E0,0E0,0E0,0E0,0E0,0E0,0E0,0E0,0E0,0E0,0E0,0E0,0E0,0E0,0E0,0E0,0E0,0E0,0E0,0E0,0E0,0E0,0E0,0E0,0E0,0E0,0E0,0E0,0E0,0E0,0E0,0E0,0E0,0E0,0E0,0E0],"parents":[2147483647,0,0,1,1,2,2,3,3,4,4,5,5,6,6,7,7,8,8,9,9,10,10,11,11,12,12,13,13,14,14,16,16,17,17,18,18,19,19,20,20,21,21,22,22,23,23,24,24,25,25,26,26,27,27,28,28,29,29,30,30,31,31,32,32,33,33,34,34,35,35,36,36,37,37,38,38,39,39,40,40,41,41,42,42,43,43,44,44,45,45,46,46,47,47,48,48,49,49,50,50,51,51,52,52,53,53,54,54,55,55,56,56,57,57,58,58,59,59,60,60],"right_children":[2,4,6,8,10,12,14,16,18,20,22,24,26,28,30,-1,32,34,36,38,40,42,44,46,48,50,52,54,56,58,60,62,64,66,68,70,72,74,76,78,80,82,84,86,88,90,92,94,96,98,100,102,104,106,108,110,112,114,116,118,120,-1,-1,-1,-1,-1,-1,-1,-1,-1,-1,-1,-1,-1,-1,-1,-1,-1,-1,-1,-1,-1,-1,-1,-1,-1,-1,-1,-1,-1,-1,-1,-1,-1,-1,-1,-1,-1,-1,-1,-1,-1,-1,-1,-1,-1,-1,-1,-1,-1,-1,-1,-1,-1,-1,-1,-1,-1,-1,-1,-1],"split_conditions":[3.9E0,1.5E0,1.09E1,6.3E-1,2.3728137E2,2.0097603E2,2.1284506E2,3.3E-1,2.2651855E2,1.1036053E2,8.267167E0,9.6962616E1,1.8214718E1,1.14605095E2,4E-1,-5.0777656E-1,1.7292168E1,2.0029147E2,1.1E0,2E-1,9.685916E0,1.0009036E1,9.3E-1,2.5E0,1.173E1,2.3871605E2,1.62E0,1.1813003E1,9.5025835E0,1.20694E1,1.429E1,1.34E0,7.2E-1,1.2976584E2,8.15E0,9.686609E0,1.1E0,3.5E0,3.0851723E1,2.4881702E1,6.3E-1,2.29E0,2.791033E2,1.4892169E1,1.5599999E1,2.1040085E1,2.9392998E1,7.2E-1,1.017E1,3.8E0,1.23E0,1.12E0,1.12E0,6.5213486E1,7.57E0,8.0755E0,1.717E1,5.14E0,1.8556595E1,2.0150354E1,1.8556595E1,-4.2454502E-1,-1.729188E-1,-7.540012E-3,-1.08172655E-1,-3.218425E-1,-1.3146006E-1,7.067189E-2,1.292908E0,1.5074337E-2,-4.000763E-1,-2.0352717E-1,-3.3800113E-1,-3.1253502E-1,-9.797187E-2,-2.915773E-1,1.02259524E-1,5.96861E-1,-2.287358E-1,1.5043217E0,-9.181445E-2,-2.0289531E-1,5.471048E-1,-2.4010052E-1,-3.7252375E-1,-2.7776358E-1,9.262869E-1,-1.8566024E-1,5.605381E-1,4.3563098E-2,7.5484383E-1,-1.0235097E-1,8.9885646E-1,-3.2997367E-1,8.280668E-1,2.9306197E-1,2.3199418E0,1.1903515E0,-4.549925E-2,-3.7143135E-1,1.543889E-1,-2.4680969E-1,2.940595E-1,6.9718146E-1,-1.9628863E-1,-2.9187068E-1,4.6806055E-1,1.8037459E0,4.8270702E-1,1.8436519E0,4.7791085E0,7.3221195E-1,2.3325536E0,-3.5156104E-1,4.9016204E-1,2.4775429E0,4.156992E-1,9.4619185E-1,-6.6638865E-2,-6.133207E-1,-1.6520286E-1],"split_indices":[0,0,0,2,6,6,6,2,6,6,3,6,5,6,4,0,3,6,0,4,3,5,2,4,1,6,2,3,3,5,0,0,0,6,2,5,1,2,6,5,1,0,6,3,4,3,6,2,2,2,2,1,1,6,2,3,1,1,5,5,5,0,0,0,0,0,0,0,0,0,0,0,0,0,0,0,0,0,0,0,0,0,0,0,0,0,0,0,0,0,0,0,0,0,0,0,0,0,0,0,0,0,0,0,0,0,0,0,0,0,0,0,0,0,0,0,0,0,0,0,0],"split_type":[0,0,0,0,0,0,0,0,0,0,0,0,0,0,0,0,0,0,0,0,0,0,0,0,0,0,0,0,0,0,0,0,0,0,0,0,0,0,0,0,0,0,0,0,0,0,0,0,0,0,0,0,0,0,0,0,0,0,0,0,0,0,0,0,0,0,0,0,0,0,0,0,0,0,0,0,0,0,0,0,0,0,0,0,0,0,0,0,0,0,0,0,0,0,0,0,0,0,0,0,0,0,0,0,0,0,0,0,0,0,0,0,0,0,0,0,0,0,0,0,0],"sum_hessian":[1.962E3,1.458E3,5.04E2,7.42E2,7.16E2,3.65E2,1.39E2,2.13E2,5.29E2,4.46E2,2.7E2,1.78E2,1.87E2,9.2E1,4.7E1,1.44E2,6.9E1,2.26E2,3.03E2,1.5E2,2.96E2,1.4E2,1.3E2,6.8E1,1.1E2,7.9E1,1.08E2,2.1E1,7.1E1,1.9E1,2.8E1,6.7E1,2E0,1.72E2,5.4E1,1.73E2,1.3E2,8.3E1,6.7E1,1.28E2,1.68E2,2E0,1.38E2,8E0,1.22E2,5.2E1,1.6E1,1.01E2,9E0,2.7E1,5.2E1,2.9E1,7.9E1,1.3E1,8E0,4.9E1,2.2E1,5E0,1.4E1,1.2E1,1.6E1,6.3E1,4E0,1E0,1E0,1.15E2,5.7E1,4.8E1,6E0,1E0,1.72E2,3E1,1E2,6.7E1,1.6E1,2.4E1,4.3E1,9.5E1,3.3E1,1E0,1.67E2,1E0,1E0,6.5E1,7.3E1,4E0,4E0,1.2E2,2E0,5E1,2E0,4E0,1.2E1,5E0,9.6E1,2E0,7E0,1.7E1,1E1,8E0,4.4E1,6E0,2.3E1,2E0,7.7E1,5E0,8E0,4E0,4E0,4.3E1,6E0,2E1,2E0,2E0,3E0,6E0,8E0,7E0,5E0,3E0,1.3E1],"tree_param":{"num_deleted":"0","num_feature":"7","num_nodes":"121","size_leaf_vector":"1"}},{"base_weights":[2.6124835E-2,-4.0028584E-1,1.709146E0,-6.6699374E-1,8.8598795E-2,2.4879858E0,3.3841762E-1,-1.0856419E0,-5.0973547E-1,5.2339464E-1,-3.0902013E-1,2.1223242E0,5.4701047E0,9.9018407E-1,-4.567299E-1,-1.1685605E0,-8.982896E-1,-3.1613603E-1,-7.7663225E-1,1.1667031E0,-2.6365897E-1,-8.3066523E-1,-1.13175884E-1,1.9521477E0,6.536886E0,9.463042E0,1.6448848E0,5.145442E-1,2.4901571E0,3.0717456E-1,-7.280268E-1,-3.60305E-1,-9.6544284E-1,-8.436778E-1,-4.252507E-1,-3.4334338E-1,3.670822E0,-6.305302E-1,-8.842865E-1,2.2962838E-2,2.8528461E0,1.1976142E0,-3.3296782E-1,-9.6009415E-1,-2.6103312E-1,1.0756273E0,-2.4261178E-1,8.086042E-1,2.3957622E0,6.184824E-1,8.406607E0,-7.806979E-1,1.1893321E1,5.6573176E-1,2.5129542E0,7.297293E-1,-8.3373797E-1,3.860743E0,5.383124E-1,-2.476587E-1,1.7992728E0,1.4898981E-1,-1.0488659E0,5.161107E-4,-2.993217E-1,-2.709847E-1,6.0658324E-1,5.6381468E-2,-1.5240428E-1,1.9070333E0,-2.5516343E-1,-2.35877E-1,-1.450048E-1,-2.2478247E-1,-2.8991297E-1,-9.648247E-2,5.163948E-1,1.3104186E0,-2.9092828E-2,-2.8538307E-2,-4.315076E-1,-3.2634902E-1,-1.12589106E-1,4.65039E-1,-1.4553581E-1,1.2522374E-1,1.1306062E0,-8.572701E-2,5.5699176E-1,-1.4380227E-1,3.7717572E-1,1.0551041E0,5.4853946E-1,3.840219E-1,-1.0570479E-1,6.357725E-1,2.7720695E0,3.8811152E0,2.1840377E-1,-2.8228784E-1,1.3703098E0,9.378471E-2,5.1025075E-1,3.652184E-1,-3.7269115E-1,-7.585713E-2,1.6304852E0,9.049588E-1,-3.6106527E-1,4.4243553E-1,-2.5544626E-1,6.8560433E-1,-2.1754075E-2,-7.004142E-2,4.8875138E-1,-3.5598543E-1,-1.716145E-1],"categories":[],"categories_nodes":[],"categories_segments":[],"categories_sizes":[],"default_left":[1,1,0,0,0,0,0,0,0,0,0,0,0,0,0,0,0,1,0,0,0,1,0,0,0,0,0,0,0,0,0,0,0,0,0,0,0,0,0,0,0,0,0,0,0,0,0,0,0,0,0,0,0,0,0,0,0,0,0,0,0,0,0,0,0,0,0,0,0,0,0,0,0,0,0,0,0,0,0,0,0,0,0,0,0,0,0,0,0,0,0,0,0,0,0,0,0,0,0,0,0,0,0,0,0,0,0,0,0,0,0,0,0,0,0,0,0],"id":3,"left_children":[1,3,5,7,9,11,13,15,17,19,21,23,25,27,29,31,33,35,37,39,41,43,45,47,49,51,53,55,57,59,61,-1,63,65,-1,67,69,71,73,75,77,-1,79,81,83,85,87,89,91,93,95,-1,97,99,-1,101,103,105,107,109,111,113,115,-1,-1,-1,-1,-1,-1,-1,-1,-1,-1,-1,-1,-1,-1,-1,-1,-1,-1,-1,-1,-1,-1,-1,-1,-1,-1,-1,-1,-1,-1,-1,-1,-1,-1,-1,-1,-1,-1,-1,-1,-1,-1,-1,-1,-1,-1,-1,-1,-1,-1,-1,-1,-1,-1],"loss_changes":[1.4094473E3,2.0437927E2,4.2298645E2,6.620419E1,9.593895E1,2.6427368E2,7.5598564E1,3.237915E0,3.7939407E1,1.3448196E2,2.9532738E1,1.577738E2,3.9682867E2,5.579447E1,1.3901796E1,7.98645E-2,1.3276901E0,4.790438E1,4.318268E0,2.814969E2,3.6724197E1,5.573803E0,3.2882206E1,1.09667114E2,8.332675E1,4.1213892E2,1.04228E2,1.8596478E1,4.874996E1,1.5347187E1,1.3943949E1,0E0,9.700203E-1,1.6003101E1,0E0,3.7539745E1,4.18393E1,2.714161E0,1.2265472E0,5.205148E1,2.641311E2,0E0,3.1149021E1,4.3725166E0,7.2457047E0,3.5651756E1,1.7920376E1,3.7006207E1,9.407037E1,2.3779118E0,1.1865509E1,0E0,1.18770874E2,8.8714226E1,0E0,2.134162E1,9.054579E0,7.260651E1,4.2480976E1,1.5816617E1,4.714863E0,8.305932E0,1.685772E0,0E0,0E0,0E0,0E0,0E0,0E0,0E0,0E0,0E0,0E0,0E0,0E0,0E0,0E0,0E0,0E0,0E0,0E0,0E0,0E0,0E0,0E0,0E0,0E0,0E0,0E0,0E0,0E0,0E0,0E0,0E0,0E0,0E0,0E0,0E0,0E0,0E0,0E0,0E0,0E0,0E0,0E0,0E0,0E0,0E0,0E0,0E0,0E0,0E0,0E0,0E0,0E0,0E0,0E0],"parents":[2147483647,0,0,1,1,2,2,3,3,4,4,5,5,6,6,7,7,8,8,9,9,10,10,11,11,12,12,13,13,14,14,15,15,16,16,17,17,18,18,19,19,20,20,21,21,22,22,23,23,24,24,25,25,26,26,27,27,28,28,29,29,30,30,32,32,33,33,35,35,36,36,37,37,38,38,39,39,40,40,42,42,43,43,44,44,45,45,46,46,47,47,48,48,49,49,50,50,52,52,53,53,55,55,56,56,57,57,58,58,59,59,60,60,61,61,62,62],"right_children":[2,4,6,8,10,12,14,16,18,20,22,24,26,28,30,32,34,36,38,40,42,44,46,48,50,52,54,56,58,60,62,-1,64,66,-1,68,70,72,74,76,78,-1,80,82,84,86,88,90,92,94,96,-1,98,100,-1,102,104,106,108,110,112,114,116,-1,-1,-1,-1,-1,-1,-1,-1,-1,-1,-1,-1,-1,-1,-1,-1,-1,-1,-1,-1,-1,-1,-1,-1,-1,-1,-1,-1,-1,-1,-1,-1,-1,-1,-1,-1,-1,-1,-1,-1,-1,-1,-1,-1,-1,-1,-1,-1,-1,-1,-1,-1,-1,-1],"split_conditions":[4.9E0,2.06E0,2.2117584E2,7.2E-1,2.0968639E2,1.977E1,1.9855558E1,6.7E-1,2.4114339E2,2.7E0,4.438E0,1.977E1,4E-1,1.09E1,1E-1,2.7E1,3.8E0,1.977E1,2.791033E2,1.4506062E2,2.13E0,5.5E0,1.3E0,9.891281E1,9.149313E1,2.4859169E0,2.99E1,1.047E1,4E-1,9.25E0,2.32942E2,-3.60305E-1,2.7276978E1,3.57E0,-4.252507E-1,1E0,9.7E-1,1.27E0,1.8057508E1,2.9E0,1.1631749E1,1.1976142E0,2.226477E1,3.2878165E2,1.0009036E1,3.57E0,1.977E1,2.9392998E1,3.83E0,1.047E1,3.329667E0,-7.806979E-1,2.0968639E2,2.0550523E2,2.5129542E0,4.3E0,4.15E0,1.20694E1,5.14E0,1.34E0,1.717E1,5.4E0,1.142E1,5.161107E-4,-2.993217E-1,-2.709847E-1,6.0658324E-1,5.6381468E-2,-1.5240428E-1,1.9070333E0,-2.5516343E-1,-2.35877E-1,-1.450048E-1,-2.2478247E-1,-2.8991297E-1,-9.648247E-2,5.163948E-1,1.3104186E0,-2.9092828E-2,-2.8538307E-2,-4.315076E-1,-3.2634902E-1,-1.12589106E-1,4.65039E-1,-1.4553581E-1,1.2522374E-1,1.1306062E0,-8.572701E-2,5.5699176E-1,-1.4380227E-1,3.7717572E-1,1.0551041E0,5.4853946E-1,3.840219E-1,-1.0570479E-1,6.357725E-1,2.7720695E0,3.8811152E0,2.1840377E-1,-2.8228784E-1,1.3703098E0,9.378471E-2,5.1025075E-1,3.652184E-1,-3.7269115E-1,-7.585713E-2,1.6304852E0,9.049588E-1,-3.6106527E-1,4.4243553E-1,-2.5544626E-1,6.8560433E-1,-2.1754075E-2,-7.004142E-2,4.8875138E-1,-3.5598543E-1,-1.716145E-1],"split_indices":[0,0,6,0,6,0,5,1,6,1,3,2,4,0,4,5,1,2,6,6,0,1,1,6,6,3,2,2,4,1,6,0,5,1,0,2,0,0,5,4,3,0,5,6,5,0,1,6,1,0,3,0,6,6,0,2,1,5,1,1,1,2,0,0,0,0,0,0,0,0,0,0,0,0,0,0,0,0,0,0,0,0,0,0,0,0,0,0,0,0,0,0,0,0,0,0,0,0,0,0,0,0,0,0,0,0,0,0,0,0,0,0,0,0,0,0,0],"split_type":[0,0,0,0,0,0,0,0,0,0,0,0,0,0,0,0,0,0,0,0,0,0,0,0,0,0,0,0,0,0,0,0,0,0,0,0,0,0,0,0,0,0,0,0,0,0,0,0,0,0,0,0,0,0,0,0,0,0,0,0,0,0,0,0,0,0,0,0,0,0,0,0,0,0,0,0,0,0,0,0,0,0,0,0,0,0,0,0,0,0,0,0,0,0,0,0,0,0,0,0,0,0,0,0,0,0,0,0,0,0,0,0,0,0,0,0,0],"sum_hessian":[1.962E3,1.566E3,3.96E2,1.013E3,5.53E2,2.52E2,1.44E2,2.75E2,7.38E2,2.64E2,2.89E2,2.26E2,2.6E1,7.9E1,6.5E1,1.87E2,8.8E1,4.29E2,3.09E2,1.45E2,1.19E2,7.8E1,2.11E2,2.19E2,7E0,1.2E1,1.4E1,6.1E1,1.8E1,1.7E1,4.8E1,1.57E2,3E1,8.2E1,6E0,4.27E2,2E0,1.34E2,1.75E2,8.7E1,5.8E1,1E0,1.18E2,6.3E1,1.5E1,2E1,1.91E2,6.2E1,1.57E2,2E0,5E0,2E0,1E1,1.3E1,1E0,5.3E1,8E0,1E1,8E0,1.3E1,4E0,1.3E1,3.5E1,1E0,2.9E1,8.1E1,1E0,1.01E2,3.26E2,1E0,1E0,6.3E1,7.1E1,7E1,1.05E2,7.3E1,1.4E1,3.8E1,2E1,9.8E1,2E1,5.1E1,1.2E1,1E0,1.4E1,1.7E1,3E0,1.88E2,3E0,1.6E1,4.6E1,5.1E1,1.06E2,1E0,1E0,1E0,4E0,9E0,1E0,1E1,3E0,3.8E1,1.5E1,1E0,7E0,3E0,7E0,3E0,5E0,3E0,1E1,3E0,1E0,1.1E1,2E0,2.6E1,9E0],"tree_param":{"num_deleted":"0","num_feature":"7","num_nodes":"117","size_leaf_vector":"1"}},{"base_weights":[2.839333E-2,-1.5027972E-1,2.356045E0,-3.7519363E-1,4.8564112E-1,3.354366E0,1.1525306E0,-6.7266953E-1,-2.3654555E-1,1.2038269E0,1.8384017E-2,7.2146683E0,2.6601586E0,2.9249518E0,4.367539E-2,-6.988826E-1,3.2737985E0,-1.14218995E-1,-5.16178E-1,7.6445156E-1,4.6615043E0,-1.5164522E0,8.4332585E-2,-4.0499982E-1,9.267928E0,2.1569216E0,5.607669E0,1.8787898E0,6.7338424E0,-2.6155446E0,5.742715E-1,-7.095353E-1,6.023661E-1,-1.4776906E-1,1.6209785E0,-7.2833097E-1,-1.6640486E-2,2.8205281E-1,-5.989972E-1,5.6262857E-1,2.1504204E0,8.638152E0,2.61083E-1,-1.7470163E0,1.529628E-1,2.5540543E-1,-5.1854175E-1,3.0669475E0,2.4391237E-1,3.0321329E0,9.631179E-1,-1.975373E-1,8.543195E0,1.7791359E-1,2.399194E0,1.856432E-1,2.4323695E0,1.5166394E-1,-3.752761E0,2.2080991E0,8.393032E-3,-2.5638536E-1,-1.913423E-1,-3.0499735E-1,8.189157E-1,-1.3496391E-1,-4.4870958E-1,1.0292121E0,-1.436788E-2,-1.2727234E-1,2.626112E-1,-1.8377638E-1,2.226878E-1,4.7726616E-2,3.981079E-1,2.759388E0,2.773413E-1,-1.595242E-1,3.2204974E0,-6.5258306E-1,3.1325814E-1,-7.2827536E-1,-1.3344525E-1,1.7334075E-1,-6.286047E-2,-2.2186613E-1,3.9708957E-1,7.307717E-1,2.4547315E0,5.3414315E-1,-3.2954994E-1,5.4040664E-1,-4.3928602E-1,6.151437E-1,2.8294928E0,-2.6607737E-1,2.7961916E-1,1.1281722E0,1.7032275E-1,-5.9300926E-2,1.2754971E-1,-1.3128432E0,-1.8888417E-1,1.0669583E0,-1.0997052E-1,-9.761647E-2,6.0269475E-1],"categories":[],"categories_nodes":[],"categories_segments":[],"categories_sizes":[],"default_left":[1,1,0,1,0,0,0,1,0,0,0,0,0,0,0,1,0,0,0,0,0,0,0,0,0,0,0,0,0,0,0,0,0,0,0,0,0,0,0,0,0,0,0,0,0,0,0,0,0,0,0,0,0,0,0,0,0,0,0,0,0,0,0,0,0,0,0,0,0,0,0,0,0,0,0,0,0,0,0,0,0,0,0,0,0,0,0,0,0,0,0,0,0,0,0,0,0,0,0,0,0,0,0,0,0,0,0],"id":4,"left_children":[1,3,5,7,9,11,13,15,17,19,21,23,25,27,29,31,33,35,37,39,41,43,45,-1,47,49,51,53,55,57,59,61,63,-1,-1,65,67,69,71,73,75,77,79,81,-1,83,85,-1,-1,87,89,91,93,95,97,-1,-1,99,101,103,105,-1,-1,-1,-1,-1,-1,-1,-1,-1,-1,-1,-1,-1,-1,-1,-1,-1,-1,-1,-1,-1,-1,-1,-1,-1,-1,-1,-1,-1,-1,-1,-1,-1,-1,-1,-1,-1,-1,-1,-1,-1,-1,-1,-1,-1,-1],"loss_changes":[8.167434E2,2.6106427E2,1.6434314E2,5.543843E1,1.6004828E2,1.8447656E2,1.2762056E2,4.656407E1,3.144521E1,2.8204947E2,2.948176E1,2.0595197E2,8.580228E1,8.696646E1,5.935188E1,6.33255E0,2.6722427E1,3.845917E1,1.8679405E1,4.5783134E1,3.6522217E2,6.497143E0,2.8907219E1,0E0,6.437549E1,5.767984E1,1.5505963E2,1.8161156E1,3.699466E1,2.259756E1,3.234064E1,3.856842E0,1.655213E1,0E0,0E0,1.8130478E1,5.995892E1,1.1685903E1,5.084915E0,4.544169E1,1.7293521E2,2.1721417E2,2.3258745E1,8.668755E0,0E0,3.2798264E1,2.6221737E1,0E0,0E0,8.14032E1,4.5767982E1,1.2766085E1,1.527121E1,5.644958E0,3.775779E1,0E0,0E0,3.706725E-1,6.9793015E0,3.2549507E1,1.8683199E1,0E0,0E0,0E0,0E0,0E0,0E0,0E0,0E0,0E0,0E0,0E0,0E0,0E0,0E0,0E0,0E0,0E0,0E0,0E0,0E0,0E0,0E0,0E0,0E0,0E0,0E0,0E0,0E0,0E0,0E0,0E0,0E0,0E0,0E0,0E0,0E0,0E0,0E0,0E0,0E0,0E0,0E0,0E0,0E0,0E0,0E0],"parents":[2147483647,0,0,1,1,2,2,3,3,4,4,5,5,6,6,7,7,8,8,9,9,10,10,11,11,12,12,13,13,14,14,15,15,16,16,17,17,18,18,19,19,20,20,21,21,22,22,24,24,25,25,26,26,27,27,28,28,29,29,30,30,31,31,32,32,35,35,36,36,37,37,38,38,39,39,40,40,41,41,42,42,43,43,45,45,46,46,49,49,50,50,51,51,52,52,53,53,54,54,57,57,58,58,59,59,60,60],"right_children":[2,4,6,8,10,12,14,16,18,20,22,24,26,28,30,32,34,36,38,40,42,44,46,-1,48,50,52,54,56,58,60,62,64,-1,-1,66,68,70,72,74,76,78,80,82,-1,84,86,-1,-1,88,90,92,94,96,98,-1,-1,100,102,104,106,-1,-1,-1,-1,-1,-1,-1,-1,-1,-1,-1,-1,-1,-1,-1,-1,-1,-1,-1,-1,-1,-1,-1,-1,-1,-1,-1,-1,-1,-1,-1,-1,-1,-1,-1,-1,-1,-1,-1,-1,-1,-1,-1,-1,-1,-1],"split_conditions":[1.09E1,3.19E0,1.9496591E2,1E0,1.8026836E2,3.83E0,4E-1,1.977E1,2.5293462E2,1.648604E2,1.8660583E2,1.3785706E2,1.977E1,1.977E1,2.0550523E2,1.429E1,7.2E-1,4.0674996E-1,1.3004921E1,8.63E0,1.1631749E1,5.09E0,2.5264202E1,-4.0499982E-1,1.2598415E1,8.47E0,4.0255E0,1.1983188E1,3.3E0,1.535E1,2.174469E2,3E-1,7.2E-1,-1.4776906E-1,1.6209785E0,2.1E0,5.609168E-1,1.83E0,1.8885916E1,1.4006751E1,1.1252519E1,1E-1,1.9E0,7.3275833E0,1.529628E-1,2.48596E2,7.9000006E0,3.0669475E0,2.4391237E-1,8.07E0,1.579E1,7.03E0,1.8057508E1,5.14E0,2.4387288E2,1.856432E-1,2.4323695E0,1.429E1,2.99E1,2.41388E1,1.8429668E1,-2.5638536E-1,-1.913423E-1,-3.0499735E-1,8.189157E-1,-1.3496391E-1,-4.4870958E-1,1.0292121E0,-1.436788E-2,-1.2727234E-1,2.626112E-1,-1.8377638E-1,2.226878E-1,4.7726616E-2,3.981079E-1,2.759388E0,2.773413E-1,-1.595242E-1,3.2204974E0,-6.5258306E-1,3.1325814E-1,-7.2827536E-1,-1.3344525E-1,1.7334075E-1,-6.286047E-2,-2.2186613E-1,3.9708957E-1,7.307717E-1,2.4547315E0,5.3414315E-1,-3.2954994E-1,5.4040664E-1,-4.3928602E-1,6.151437E-1,2.8294928E0,-2.6607737E-1,2.7961916E-1,1.1281722E0,1.7032275E-1,-5.9300926E-2,1.2754971E-1,-1.3128432E0,-1.8888417E-1,1.0669583E0,-1.0997052E-1,-9.761647E-2,6.0269475E-1],"split_indices":[0,0,6,0,6,1,4,2,6,6,6,6,2,0,6,2,0,3,5,0,3,1,5,0,3,2,3,5,1,0,6,0,0,0,0,0,3,0,3,3,5,4,2,3,0,6,4,0,0,2,1,1,5,1,6,0,0,0,0,5,3,0,0,0,0,0,0,0,0,0,0,0,0,0,0,0,0,0,0,0,0,0,0,0,0,0,0,0,0,0,0,0,0,0,0,0,0,0,0,0,0,0,0,0,0,0,0],"split_type":[0,0,0,0,0,0,0,0,0,0,0,0,0,0,0,0,0,0,0,0,0,0,0,0,0,0,0,0,0,0,0,0,0,0,0,0,0,0,0,0,0,0,0,0,0,0,0,0,0,0,0,0,0,0,0,0,0,0,0,0,0,0,0,0,0,0,0,0,0,0,0,0,0,0,0,0,0,0,0,0,0,0,0,0,0,0,0,0,0,0,0,0,0,0,0,0,0,0,0,0,0,0,0,0,0,0,0],"sum_hessian":[1.962E3,1.823E3,1.39E2,1.347E3,4.76E2,7.5E1,6.4E1,4.27E2,9.2E2,1.87E2,2.89E2,1E1,6.5E1,2.4E1,4E1,4.25E2,2E0,6.41E2,2.79E2,1.67E2,2E1,1.1E1,2.78E2,2E0,8E0,5.7E1,8E0,2E1,4E0,6E0,3.4E1,4.22E2,3E0,1E0,1E0,8.7E1,5.54E2,2.6E1,2.53E2,1.47E2,2E1,1E1,1E1,1E1,1E0,2.17E2,6.1E1,7E0,1E0,3.2E1,2.5E1,3E0,5E0,5E0,1.5E1,1E0,3E0,2E0,4E0,8E0,2.6E1,1.36E2,2.86E2,2E0,1E0,6.5E1,2.2E1,4E0,5.5E2,1.2E1,1.4E1,2.51E2,2E0,9.7E1,5E1,2E0,1.8E1,2E0,8E0,2E0,8E0,6E0,4E0,1.28E2,8.9E1,5.5E1,6E0,3E1,2E0,1.8E1,7E0,1E0,2E0,1E0,4E0,2E0,3E0,8E0,7E0,1E0,1E0,3E0,1E0,5E0,3E0,2.3E1,3E0],"tree_param":{"num_deleted":"0","num_feature":"7","num_nodes":"107","size_leaf_vector":"1"}},{"base_weights":[3.0943243E-2,-1.6442806E-1,1.2566026E0,-3.3633676E-1,9.178316E-2,1.5866041E0,-1.24471165E-1,-4.4868967E-1,-1.5314817E-1,3.9581227E-1,-1.7407684E-1,1.8968053E0,-8.94991E-2,-3.6740136E-1,1.2879364E0,-4.5698938E-1,4.2982355E-1,-1.9268337E-1,2.0205739E0,3.303444E-1,2.1479466E0,-3.392622E-2,-6.132546E-1,8.405992E-1,2.4137807E0,2.0086822E-1,-5.61563E-1,-6.5425754E-1,1.3242624E0,1.1688817E0,-2.3088741E-1,-5.5057627E-1,-3.1590974E-1,-1.07423246E-1,-7.4226016E-1,1.3064055E0,-2.4560417E-1,2.1554437E-1,3.4938416E0,2.3878336E0,-6.915656E-2,-1.3363953E0,-3.6665237E-1,5.22262E-1,3.7247026E0,4.0027723E0,1.8110279E0,-5.195836E-1,1.003989E0,-8.3201313E-1,1.1535466E0,-3.913178E-1,6.2662745E-1,-4.2528415E-1,1.1116444E-1,-1.7644167E-1,-1.0974118E-1,1.394498E-2,-1.400486E-1,3.3502802E-2,-1.3033223E-1,-1.5095419E-1,-3.8475174E-1,-3.2894495E-1,1.03933446E-1,-3.2195288E-1,2.243566E0,1.558094E-2,1.4093288E0,-2.907115E-2,7.4089456E-1,-4.152166E-1,-5.0330617E-2,-1.3310191E-1,4.2730373E-1,6.222171E-2,5.4602367E-1,1.8538153E0,-2.3693228E-1,1.6713476E0,5.247894E-1,-6.6539325E-2,6.7429644E-1,3.2120305E-1,-2.8104916E-1,-2.84079E-1,4.1309136E-1,1.8197781E-1,-2.6664728E-1,1.0674666E-1,5.3200793E-1,-2.589272E-1,8.283416E-2,-1.883585E-1,-6.530231E-2],"categories":[],"categories_nodes":[],"categories_segments":[],"categories_sizes":[],"default_left":[1,1,0,0,0,0,0,0,1,0,0,0,0,0,0,0,0,0,0,0,0,0,0,0,0,0,0,0,0,0,0,0,0,0,0,0,0,0,0,0,0,0,0,0,0,0,0,0,0,0,0,0,0,0,0,0,0,0,0,0,0,0,0,0,0,0,0,0,0,0,0,0,0,0,0,0,0,0,0,0,0,0,0,0,0,0,0,0,0,0,0,0,0,0,0],"id":5,"left_children":[1,3,5,7,9,11,13,15,17,19,21,23,25,27,29,31,-1,33,35,37,-1,39,41,43,45,47,-1,49,51,-1,53,55,57,59,61,-1,-1,63,65,67,69,71,73,75,77,79,81,83,85,87,89,91,-1,93,-1,-1,-1,-1,-1,-1,-1,-1,-1,-1,-1,-1,-1,-1,-1,-1,-1,-1,-1,-1,-1,-1,-1,-1,-1,-1,-1,-1,-1,-1,-1,-1,-1,-1,-1,-1,-1,-1,-1,-1,-1],"loss_changes":[4.70264E2,7.464299E1,1.2325171E2,2.08012E1,5.511357E1,1.1351428E2,1.8658363E1,1.0461197E1,3.364753E1,1.3845317E2,2.2383774E1,9.844092E1,1.8490047E1,2.3188559E1,3.2592415E1,8.091278E0,0E0,1.7772774E1,4.9955044E1,1.1400853E2,0E0,2.3798615E1,1.5202877E1,5.4978E1,1.1055646E2,1.845856E1,0E0,1.3813658E1,9.998244E0,0E0,8.590908E-1,2.387558E0,1.3804073E1,2.3764431E1,5.9419136E0,0E0,0E0,5.2933838E1,2.0820653E2,2.1339037E1,1.9541224E1,9.9312973E-1,9.874181E0,2.2914177E1,7.136994E1,1.0688684E2,8.126886E1,1.2283074E1,1.2218763E1,3.563118E0,1.3467603E0,1.1829395E0,0E0,7.361597E-2,0E0,0E0,0E0,0E0,0E0,0E0,0E0,0E0,0E0,0E0,0E0,0E0,0E0,0E0,0E0,0E0,0E0,0E0,0E0,0E0,0E0,0E0,0E0,0E0,0E0,0E0,0E0,0E0,0E0,0E0,0E0,0E0,0E0,0E0,0E0,0E0,0E0,0E0,0E0,0E0,0E0],"parents":[2147483647,0,0,1,1,2,2,3,3,4,4,5,5,6,6,7,7,8,8,9,9,10,10,11,11,12,12,13,13,14,14,15,15,17,17,18,18,19,19,21,21,22,22,23,23,24,24,25,25,27,27,28,28,30,30,31,31,32,32,33,33,34,34,37,37,38,38,39,39,40,40,41,41,42,42,43,43,44,44,45,45,46,46,47,47,48,48,49,49,50,50,51,51,53,53],"right_children":[2,4,6,8,10,12,14,16,18,20,22,24,26,28,30,32,-1,34,36,38,-1,40,42,44,46,48,-1,50,52,-1,54,56,58,60,62,-1,-1,64,66,68,70,72,74,76,78,80,82,84,86,88,90,92,-1,94,-1,-1,-1,-1,-1,-1,-1,-1,-1,-1,-1,-1,-1,-1,-1,-1,-1,-1,-1,-1,-1,-1,-1,-1,-1,-1,-1,-1,-1,-1,-1,-1,-1,-1,-1,-1,-1,-1,-1,-1,-1],"split_conditions":[6.75E0,2.06E0,2.48596E2,7E-1,2.0462938E2,2.5460936E1,1.613E1,2.305675E1,1.429E1,3.626006E1,2.632496E1,1.3369029E2,1.5810917E1,3.3705106E2,1.4529915E1,1.27E0,4.2982355E-1,3.189608E1,1.23E0,1.364E1,2.1479466E0,2.1E0,2.3243446E2,1.579E1,3.83E0,2.97E0,-5.61563E-1,1.9344252E1,1.73E0,1.1688817E0,2.99E1,2.4458813E1,2.6963336E0,2.4114339E2,1.09000025E1,1.3064055E0,-2.4560417E-1,1.1334285E1,1.7208603E1,4.3E0,2.5944988E1,5.6E0,1.5E1,1.429E1,1.315E1,5E-1,1.224E1,3.854667E0,2.6121714E1,7.771331E0,1.002E1,8.63E0,6.2662745E-1,1.717E1,1.1116444E-1,-1.7644167E-1,-1.0974118E-1,1.394498E-2,-1.400486E-1,3.3502802E-2,-1.3033223E-1,-1.5095419E-1,-3.8475174E-1,-3.2894495E-1,1.03933446E-1,-3.2195288E-1,2.243566E0,1.558094E-2,1.4093288E0,-2.907115E-2,7.4089456E-1,-4.152166E-1,-5.0330617E-2,-1.3310191E-1,4.2730373E-1,6.222171E-2,5.4602367E-1,1.8538153E0,-2.3693228E-1,1.6713476E0,5.247894E-1,-6.6539325E-2,6.7429644E-1,3.2120305E-1,-2.8104916E-1,-2.84079E-1,4.1309136E-1,1.8197781E-1,-2.6664728E-1,1.0674666E-1,5.3200793E-1,-2.589272E-1,8.283416E-2,-1.883585E-1,-6.530231E-2],"split_indices":[0,0,6,4,6,5,0,3,2,5,5,6,3,6,5,0,0,5,0,2,0,0,6,0,1,2,0,3,2,0,0,5,3,6,4,0,0,5,5,1,5,4,4,1,1,4,5,3,5,5,0,0,0,0,0,0,0,0,0,0,0,0,0,0,0,0,0,0,0,0,0,0,0,0,0,0,0,0,0,0,0,0,0,0,0,0,0,0,0,0,0,0,0,0,0],"split_type":[0,0,0,0,0,0,0,0,0,0,0,0,0,0,0,0,0,0,0,0,0,0,0,0,0,0,0,0,0,0,0,0,0,0,0,0,0,0,0,0,0,0,0,0,0,0,0,0,0,0,0,0,0,0,0,0,0,0,0,0,0,0,0,0,0,0,0,0,0,0,0,0,0,0,0,0,0,0,0,0,0,0,0,0,0,0,0,0,0,0,0,0,0,0,0],"sum_hessian":[1.962E3,1.693E3,2.69E2,1.013E3,6.8E2,2.17E2,5.2E1,6.27E2,3.86E2,3.17E2,3.63E2,1.83E2,3.4E1,4.5E1,7E0,6.25E2,2E0,3.8E2,6E0,3.15E2,2E0,2.76E2,8.7E1,6.1E1,1.22E2,3E1,4E0,3.9E1,6E0,2E0,5E0,3.74E2,2.51E2,3.3E2,5E1,3E0,3E0,3.05E2,1E1,3E0,2.73E2,2.1E1,6.6E1,5.6E1,5E0,3.2E1,9E1,1.6E1,1.4E1,3.6E1,3E0,2E0,4E0,4E0,1E0,3.09E2,6.5E1,7.4E1,1.77E2,1.98E2,1.32E2,3.6E1,1.4E1,2.7E1,2.78E2,5E0,5E0,2E0,1E0,2.71E2,2E0,2E1,1E0,6.4E1,2E0,4.6E1,1E1,3E0,2E0,1.8E1,1.4E1,1.6E1,7.4E1,3E0,1.3E1,2E0,1.2E1,1E0,3.5E1,2E0,1E0,1E0,1E0,1E0,3E0],"tree_param":{"num_deleted":"0","num_feature":"7","num_nodes":"95","size_leaf_vector":"1"}},{"base_weights":[2.8243767E-2,-7.013786E-2,1.3098141E0,-1.8868738E-1,2.7375495E-1,1.9117327E0,4.2586485E-1,-2.0230824E-1,1.043412E0,7.7762324E-1,-5.251001E-2,3.1085591E0,9.2887497E-1,-1.290297E0,6.714845E-1,-3.643558E-1,-1.268893E-1,2.9522557E0,-1.0670289E0,4.6196207E-1,3.2057567E0,-1.1733352E0,1.8518016E-2,1.6773595E0,5.621746E0,4.4826508E-1,3.6111794E0,1.6386491E0,1.702315E-1,-3.4754273E-1,-9.670724E-1,-4.541759E-1,-6.790727E-2,-5.250959E-1,-6.465313E-1,-5.658413E-1,6.869409E-1,3.3783927E0,1.7651035E0,-2.1377134E0,-2.8449914E-1,2.2524388E-1,-3.3874097E-1,2.02055E0,-4.538664E-1,8.502522E0,1.9378631E0,2.2582805E-1,3.1905246E0,-8.4373E-2,1.9211811E0,2.2480218E0,2.7286428E-1,3.7675974E-1,-9.940457E-1,-1.3710202E-1,-8.031927E-2,-1.2703972E-1,-3.651629E-1,7.008507E-2,-1.6923214E-1,7.6867414E-1,-2.4413178E-2,-1.9389907E-1,8.490193E-2,-2.994576E-1,-7.8898996E-2,5.8571238E-2,3.6881214E-1,2.986946E-1,2.3422937E0,-1.0560145E0,-3.270781E-1,-2.7727118E-1,3.651246E-2,4.7237642E-2,1.1906165E0,-1.5318719E-1,1.7544477E-1,3.6567155E-1,1.6570914E0,3.0339067E0,8.95255E-1,2.9698707E-2,6.683525E-1,2.5619665E-1,-3.7760976E-1,-1.1236947E-1,1.5481056E0,8.1540376E-1,-5.773517E-1,-1.5289736E-2,9.826371E-1,-2.5789115E-1,6.208236E-1,3.1472233E-1,-7.253533E-2,-3.8494042E-1,-8.317351E-2],"categories":[],"categories_nodes":[],"categories_segments":[],"categories_sizes":[],"default_left":[1,1,0,1,0,0,0,1,0,0,0,0,0,0,0,0,0,0,0,0,0,0,0,0,0,0,0,0,0,0,0,0,0,0,0,0,0,0,0,0,0,0,0,0,0,0,0,0,0,0,0,0,0,0,0,0,0,0,0,0,0,0,0,0,0,0,0,0,0,0,0,0,0,0,0,0,0,0,0,0,0,0,0,0,0,0,0,0,0,0,0,0,0,0,0,0,0,0,0],"id":6,"left_children":[1,3,5,7,9,11,13,15,17,19,21,23,25,-1,27,29,31,-1,33,35,37,39,41,43,45,47,49,51,53,55,57,59,61,63,-1,65,67,-1,69,71,73,75,77,79,-1,81,83,85,87,89,-1,91,93,95,97,-1,-1,-1,-1,-1,-1,-1,-1,-1,-1,-1,-1,-1,-1,-1,-1,-1,-1,-1,-1,-1,-1,-1,-1,-1,-1,-1,-1,-1,-1,-1,-1,-1,-1,-1,-1,-1,-1,-1,-1,-1,-1,-1,-1],"loss_changes":[2.4759276E2,7.4413086E1,7.367502E1,2.2984592E1,7.697748E1,9.474628E1,7.022654E1,1.636718E1,2.8899765E2,1.3954907E2,2.2710577E1,1.2365457E2,5.89709E1,0E0,2.6869522E1,3.9807816E0,1.769026E1,0E0,6.5339966E0,3.8311073E1,2.2383302E2,1.3963783E1,1.9943205E1,3.0428436E1,1.2148508E2,2.428867E1,7.278579E1,1.5199768E1,9.511848E0,3.5120392E0,9.8029137E-1,1.0717176E1,2.7807034E1,1.1626127E0,0E0,3.665532E0,3.576665E1,0E0,8.056613E1,7.745682E0,2.7111502E0,4.276667E1,1.6014244E1,5.7856567E1,0E0,3.203183E1,3.5120792E0,3.744326E1,2.300072E1,2.5857872E1,0E0,3.0873726E1,1.6021091E1,1.397691E1,8.8757277E-1,0E0,0E0,0E0,0E0,0E0,0E0,0E0,0E0,0E0,0E0,0E0,0E0,0E0,0E0,0E0,0E0,0E0,0E0,0E0,0E0,0E0,0E0,0E0,0E0,0E0,0E0,0E0,0E0,0E0,0E0,0E0,0E0,0E0,0E0,0E0,0E0,0E0,0E0,0E0,0E0,0E0,0E0,0E0,0E0],"parents":[2147483647,0,0,1,1,2,2,3,3,4,4,5,5,6,6,7,7,8,8,9,9,10,10,11,11,12,12,14,14,15,15,16,16,18,18,19,19,20,20,21,21,22,22,23,23,24,24,25,25,26,26,27,27,28,28,29,29,30,30,31,31,32,32,33,33,35,35,36,36,38,38,39,39,40,40,41,41,42,42,43,43,45,45,46,46,47,47,48,48,49,49,51,51,52,52,53,53,54,54],"right_children":[2,4,6,8,10,12,14,16,18,20,22,24,26,-1,28,30,32,-1,34,36,38,40,42,44,46,48,50,52,54,56,58,60,62,64,-1,66,68,-1,70,72,74,76,78,80,-1,82,84,86,88,90,-1,92,94,96,98,-1,-1,-1,-1,-1,-1,-1,-1,-1,-1,-1,-1,-1,-1,-1,-1,-1,-1,-1,-1,-1,-1,-1,-1,-1,-1,-1,-1,-1,-1,-1,-1,-1,-1,-1,-1,-1,-1,-1,-1,-1,-1,-1,-1],"split_conditions":[1.09E1,3.23E0,2.0359914E2,1.717E1,1.8026836E2,9.75E0,2.0550523E2,1E0,2E0,1.648604E2,9.4841665E-1,1.6613754E2,2.585E1,-1.290297E0,1.7477621E1,1.09000025E1,4.7966662E-1,2.9522557E0,1.613E1,3.0851723E1,7.692501E-1,2.1E0,1E0,1.7110918E1,1.8502684E2,2.0029147E2,8.0755E0,7E-1,1.717E1,6E-1,9.3E-1,1.2387348E1,5.609168E-1,9.700004E0,-6.465313E-1,1.6633879E1,5.57E0,3.3783927E0,1.7662856E2,1E-1,6.508335E-2,9.000001E-1,7.9000006E0,4.5999994E0,-4.538664E-1,8.138E0,2.43E0,1.560375E2,1.429E1,2.16E1,1.9211811E0,1.1983188E1,1.8429668E1,2.41388E1,1.282E1,-1.3710202E-1,-8.031927E-2,-1.2703972E-1,-3.651629E-1,7.008507E-2,-1.6923214E-1,7.6867414E-1,-2.4413178E-2,-1.9389907E-1,8.490193E-2,-2.994576E-1,-7.8898996E-2,5.8571238E-2,3.6881214E-1,2.986946E-1,2.3422937E0,-1.0560145E0,-3.270781E-1,-2.7727118E-1,3.651246E-2,4.7237642E-2,1.1906165E0,-1.5318719E-1,1.7544477E-1,3.6567155E-1,1.6570914E0,3.0339067E0,8.95255E-1,2.9698707E-2,6.683525E-1,2.5619665E-1,-3.7760976E-1,-1.1236947E-1,1.5481056E0,8.1540376E-1,-5.773517E-1,-1.5289736E-2,9.826371E-1,-2.5789115E-1,6.208236E-1,3.1472233E-1,-7.253533E-2,-3.8494042E-1,-8.317351E-2],"split_indices":[0,0,6,2,6,1,6,0,1,6,3,6,1,0,5,4,3,0,1,6,3,1,4,3,6,6,3,4,1,2,1,5,3,4,0,6,0,0,6,4,3,4,4,4,0,3,2,6,0,0,0,5,3,5,2,0,0,0,0,0,0,0,0,0,0,0,0,0,0,0,0,0,0,0,0,0,0,0,0,0,0,0,0,0,0,0,0,0,0,0,0,0,0,0,0,0,0,0,0],"split_type":[0,0,0,0,0,0,0,0,0,0,0,0,0,0,0,0,0,0,0,0,0,0,0,0,0,0,0,0,0,0,0,0,0,0,0,0,0,0,0,0,0,0,0,0,0,0,0,0,0,0,0,0,0,0,0,0,0,0,0,0,0,0,0,0,0,0,0,0,0,0,0,0,0,0,0,0,0,0,0,0,0,0,0,0,0,0,0,0,0,0,0,0,0,0,0,0,0,0,0],"sum_hessian":[1.962E3,1.823E3,1.39E2,1.356E3,4.67E2,8.2E1,5.7E1,1.342E3,1.4E1,1.83E2,2.84E2,3.6E1,4.6E1,2E0,5.5E1,4.25E2,9.17E2,2E0,1.2E1,1.63E2,2E1,1.6E1,2.68E2,2.4E1,1.2E1,4E1,6E0,1.8E1,3.7E1,4.15E2,1E1,1.39E2,7.78E2,9E0,3E0,2.9E1,1.34E2,2E0,1.8E1,7E0,9E0,1.7E2,9.8E1,2.2E1,2E0,6E0,6E0,3.8E1,2E0,3E0,3E0,1.2E1,6E0,3.2E1,5E0,1.73E2,2.42E2,4E0,6E0,1.9E1,1.2E2,3E0,7.75E2,8E0,1E0,1.1E1,1.8E1,7.1E1,6.3E1,1.7E1,1E0,2E0,5E0,3E0,6E0,1.68E2,2E0,8.3E1,1.5E1,1.9E1,3E0,4E0,2E0,1E0,5E0,2.7E1,1.1E1,1E0,1E0,1E0,2E0,4E0,8E0,4E0,2E0,1.5E1,1.7E1,3E0,2E0],"tree_param":{"num_deleted":"0","num_feature":"7","num_nodes":"99","size_leaf_vector":"1"}},{"base_weights":[2.8594153E-2,-4.7573347E-2,9.562144E-1,-1.3050991E-1,1.9772619E-1,1.41663E0,2.2987491E-1,-1.4166382E-1,8.76837E-1,5.644057E-1,-3.87025E-2,9.8046166E-1,2.740046E0,9.72011E-1,-9.739908E-1,-3.22551E-1,-8.569214E-2,7.872682E0,-8.0503774E-1,3.0280635E-1,2.5306668E0,-1.2714726E-1,6.507178E-1,1.7237382E0,1.8793547E-1,5.003764E0,4.3663388E-1,1.7453625E0,-1.5209803E-1,-3.1900773E0,-4.1909777E-3,-3.568277E-1,1.0459893E0,3.2036382E-1,-1.9678591E-1,7.3903227E-1,2.8036747E0,-3.7846676E-1,-5.010618E-1,1.21990636E-1,1.0822748E0,5.096782E0,-2.65509E-1,-1.6869193E-1,1.5835273E0,2.0372481E0,2.3359083E-1,-7.45522E-1,2.146055E0,8.633304E-1,-1.1785157E0,-4.1075078E-1,5.7779746E0,-2.3190556E0,1.61287E0,9.3666387E-1,3.0435023E0,-3.369102E-1,6.682379E-2,-1.0846891E0,-9.551404E-2,-6.166811E-1,1.5891216E0,1.2009046E-2,-1.3508175E-1,8.991233E-3,8.18809E-1,2.1733944E-1,-1.3804522E-1,-6.209064E-2,1.2015914E0,-1.5793964E-1,4.270561E-2,1.6901062E-3,7.6354647E-1,9.962179E-1,1.1528952E-1,1.427106E-1,2.3008325E0,5.774783E-1,-2.8984606E-1,-1.6700202E-1,3.0411058E-3,1.0466958E0,-7.24345E-2,-5.280178E-1,1.295327E-1,-3.5272777E-1,2.108496E-1,8.825372E-1,2.4539274E-1,3.6887625E-1,-6.330995E-1,-1.2851269E0,-1.5203662E-1,2.0794492E0,2.3277736E-1,-9.5747954E-1,4.4785883E-2,8.9709026E-1,-2.6140466E-2,5.1795936E-1,-1.607677E-1,1.4929576E0,2.66515E-1,1.3277797E-1,-5.733422E-2,-5.460957E-2,-4.6474016E-1,8.7212485E-1,-7.75641E-2],"categories":[],"categories_nodes":[],"categories_segments":[],"categories_sizes":[],"default_left":[1,1,0,1,0,0,0,0,0,0,0,0,0,0,0,0,0,0,0,0,0,0,0,0,0,0,0,0,0,0,0,0,0,0,1,0,0,0,0,0,0,0,0,0,0,0,0,0,0,0,0,0,0,0,0,0,0,0,0,0,0,0,0,0,0,0,0,0,0,0,0,0,0,0,0,0,0,0,0,0,0,0,0,0,0,0,0,0,0,0,0,0,0,0,0,0,0,0,0,0,0,0,0,0,0,0,0,0,0,0,0],"id":7,"left_children":[1,3,5,7,9,11,13,15,17,19,21,23,25,27,29,31,33,35,37,39,41,43,45,47,49,51,53,55,57,59,61,63,65,67,69,-1,-1,71,-1,73,75,77,79,81,83,-1,85,87,89,91,93,-1,95,97,99,101,103,-1,105,-1,-1,107,109,-1,-1,-1,-1,-1,-1,-1,-1,-1,-1,-1,-1,-1,-1,-1,-1,-1,-1,-1,-1,-1,-1,-1,-1,-1,-1,-1,-1,-1,-1,-1,-1,-1,-1,-1,-1,-1,-1,-1,-1,-1,-1,-1,-1,-1,-1,-1,-1],"loss_changes":[1.3874033E2,3.6950714E1,4.9502625E1,1.5371265E1,3.981418E1,4.984163E1,5.3659233E1,1.3569645E1,1.8282982E2,9.182077E1,1.715591E1,4.0910675E1,1.1252927E2,3.2430725E1,4.9417313E1,1.5243401E1,4.6391308E1,8.7953186E-1,4.1656046E0,2.2418398E1,1.5203473E2,1.7963413E1,8.037229E1,3.914109E1,3.331875E1,6.2184906E1,4.2636436E1,2.024495E1,3.47599E0,7.403267E0,1.757008E1,1.1514156E1,1.3600913E1,7.003824E1,3.5359978E1,0E0,0E0,8.457484E-1,0E0,3.6921368E1,4.5595444E1,1.2712479E2,1.8741667E1,1.6934929E1,2.1706898E1,0E0,1.3008397E1,4.565175E0,3.0354492E1,2.873383E1,2.2859526E1,0E0,5.232144E1,9.091396E0,2.1335314E1,1.8372097E1,2.890609E1,0E0,1.441538E0,0E0,0E0,4.986776E0,1.2927398E1,0E0,0E0,0E0,0E0,0E0,0E0,0E0,0E0,0E0,0E0,0E0,0E0,0E0,0E0,0E0,0E0,0E0,0E0,0E0,0E0,0E0,0E0,0E0,0E0,0E0,0E0,0E0,0E0,0E0,0E0,0E0,0E0,0E0,0E0,0E0,0E0,0E0,0E0,0E0,0E0,0E0,0E0,0E0,0E0,0E0,0E0,0E0,0E0],"parents":[2147483647,0,0,1,1,2,2,3,3,4,4,5,5,6,6,7,7,8,8,9,9,10,10,11,11,12,12,13,13,14,14,15,15,16,16,17,17,18,18,19,19,20,20,21,21,22,22,23,23,24,24,25,25,26,26,27,27,28,28,29,29,30,30,31,31,32,32,33,33,34,34,37,37,39,39,40,40,41,41,42,42,43,43,44,44,46,46,47,47,48,48,49,49,50,50,52,52,53,53,54,54,55,55,56,56,58,58,61,61,62,62],"right_children":[2,4,6,8,10,12,14,16,18,20,22,24,26,28,30,32,34,36,38,40,42,44,46,48,50,52,54,56,58,60,62,64,66,68,70,-1,-1,72,-1,74,76,78,80,82,84,-1,86,88,90,92,94,-1,96,98,100,102,104,-1,106,-1,-1,108,110,-1,-1,-1,-1,-1,-1,-1,-1,-1,-1,-1,-1,-1,-1,-1,-1,-1,-1,-1,-1,-1,-1,-1,-1,-1,-1,-1,-1,-1,-1,-1,-1,-1,-1,-1,-1,-1,-1,-1,-1,-1,-1,-1,-1,-1,-1,-1,-1],"split_conditions":[1.047E1,3.23E0,2.060823E1,1.717E1,1.8026836E2,1.977E1,7.57E0,1.2758094E2,2E0,1.648604E2,1.8825499E1,1.315E1,4E-1,2.1284506E2,4.48175E0,1.989425E1,2.1025636E2,9.7E-1,1.613E1,3.1E0,1.1631749E1,2.585E1,1.8885916E1,6.5213486E1,1.364E1,4.0674996E-1,2.18E0,3.83E0,2.2231172E2,2.5264202E1,1.717E1,1.3849476E1,1.43E0,1.2785916E1,2.16E1,7.3903227E-1,2.8036747E0,4.6E0,-5.010618E-1,9.5E0,4.09E0,1.4529915E1,1.3084402E1,2.2034166E2,3.7317502E0,2.0372481E0,1.9325208E2,4.0255E0,9.931749E0,1.7110918E1,1.364E1,-4.1075078E-1,2.0968639E2,2.99E1,1.7251074E2,2.5E0,6.39E0,-3.369102E-1,1.282E1,-1.0846891E0,-9.551404E-2,1.535E1,1E-1,1.2009046E-2,-1.3508175E-1,8.991233E-3,8.18809E-1,2.1733944E-1,-1.3804522E-1,-6.209064E-2,1.2015914E0,-1.5793964E-1,4.270561E-2,1.6901062E-3,7.6354647E-1,9.962179E-1,1.1528952E-1,1.427106E-1,2.3008325E0,5.774783E-1,-2.8984606E-1,-1.6700202E-1,3.0411058E-3,1.0466958E0,-7.24345E-2,-5.280178E-1,1.295327E-1,-3.5272777E-1,2.108496E-1,8.825372E-1,2.4539274E-1,3.6887625E-1,-6.330995E-1,-1.2851269E0,-1.5203662E-1,2.0794492E0,2.3277736E-1,-9.5747954E-1,4.4785883E-2,8.9709026E-1,-2.6140466E-2,5.1795936E-1,-1.607677E-1,1.4929576E0,2.66515E-1,1.3277797E-1,-5.733422E-2,-5.460957E-2,-4.6474016E-1,8.7212485E-1,-7.75641E-2],"split_indices":[0,0,5,2,6,0,2,6,1,6,3,0,4,6,3,3,6,0,1,4,3,1,3,6,1,3,2,2,6,5,0,5,1,3,1,0,0,4,0,0,0,5,5,6,3,0,6,3,3,3,0,0,6,0,6,2,1,0,0,0,0,2,4,0,0,0,0,0,0,0,0,0,0,0,0,0,0,0,0,0,0,0,0,0,0,0,0,0,0,0,0,0,0,0,0,0,0,0,0,0,0,0,0,0,0,0,0,0,0,0,0],"split_type":[0,0,0,0,0,0,0,0,0,0,0,0,0,0,0,0,0,0,0,0,0,0,0,0,0,0,0,0,0,0,0,0,0,0,0,0,0,0,0,0,0,0,0,0,0,0,0,0,0,0,0,0,0,0,0,0,0,0,0,0,0,0,0,0,0,0,0,0,0,0,0,0,0,0,0,0,0,0,0,0,0,0,0,0,0,0,0,0,0,0,0,0,0,0,0,0,0,0,0,0,0,0,0,0,0,0,0,0,0,0,0],"sum_hessian":[1.962E3,1.814E3,1.48E2,1.356E3,4.58E2,9E1,5.8E1,1.342E3,1.4E1,1.79E2,2.79E2,6.9E1,2.1E1,3.6E1,2.2E1,3.16E2,1.026E3,2E0,1.2E1,1.59E2,2E1,2.48E2,3.1E1,3.5E1,3.4E1,1E1,1.1E1,2.1E1,1.5E1,6E0,1.6E1,3.09E2,7E0,2.2E2,8.06E2,1E0,1E0,9E0,3E0,1.3E2,2.9E1,1E1,1E1,2.43E2,5E0,1E0,3E1,5E0,3E1,2.3E1,1.1E1,1E0,9E0,3E0,8E0,1.4E1,7E0,2E0,1.3E1,5E0,1E0,1.2E1,4E0,5.9E1,2.5E2,5E0,2E0,1.45E2,7.5E1,8.05E2,1E0,7E0,2E0,1.25E2,5E0,6E0,2.3E1,4E0,6E0,2E0,8E0,7.6E1,1.67E2,2E0,3E0,2E0,2.8E1,4E0,1E0,1.8E1,1.2E1,2.1E1,2E0,1E0,1E1,7E0,2E0,2E0,1E0,4E0,4E0,9E0,5E0,3E0,4E0,5E0,8E0,9E0,3E0,2E0,2E0],"tree_param":{"num_deleted":"0","num_feature":"7","num_nodes":"111","size_leaf_vector":"1"}},{"base_weights":[2.7148629E-2,-4.976911E-2,5.096357E-1,-6.2103897E-2,7.761854E-1,8.228019E-1,6.724716E-2,-1.5682176E-1,3.7455115E-2,6.6917796E0,-2.9161002E-2,-1.0326896E0,9.551506E-1,1.2711383E0,-2.3777199E-1,-2.7206936E-1,2.431599E-1,3.347288E-1,-1.273908E-1,6.281774E-1,2.3831234E0,-4.712129E-1,1.6564684E0,-1.5748677E0,-6.71021E-2,7.732985E-1,2.640499E0,2.263724E0,-1.7475693E-2,-4.4586495E-1,1.3161646E0,-2.1019864E-1,-9.0399235E-1,1.15329266E-1,1.6420889E0,-3.223512E-2,9.047714E-1,-4.1174728E-1,1.1130966E-2,-1.1486477E0,-2.1398713E-1,-1.0229969E-1,8.589241E-1,-3.2386807E-1,-7.2964513E-1,8.676828E-2,-1.2031932E-1,1.4324142E0,4.1653743E-1,5.8207903E0,7.8630364E-1,-7.9919726E-1,3.26252E0,1.4911853E-1,-1.8704642E-1,-1.0060341E0,2.221022E-3,1.0416614E0,7.3624164E-2,-1.2370873E-1,-3.5129033E-2,-5.506684E-1,-4.9508408E-2,-3.915288E-1,5.444832E-2,8.63597E-1,-1.07706085E-1,1.1878281E-1,-9.804246E-2,1.0293863E0,1.090048E-1,-3.1462187E-1,-7.927844E-2,-4.934227E-2,1.0912057E-1,-7.258144E-2,-3.9445218E-1,-1.5146965E-1,3.1101877E-2,7.081361E-2,-1.16848476E-1,-1.8102492E-1,7.721654E-2,7.0951676E-1,1.7644894E-1,-3.9701343E-2,3.5745192E-1,1.9556147E0,4.5436338E-1,-1.8324773E-3,1.1877017E0,4.5390703E-2,-3.4993938E-1,1.0720356E0,6.962042E-2,-1.5215668E-1,1.7266894E-2,-3.496927E-1,1.6867258E-1,-2.5205886E-1,1.5750724E-1,2.601838E-1,-1.7280746E-1],"categories":[],"categories_nodes":[],"categories_segments":[],"categories_sizes":[],"default_left":[1,1,0,0,0,0,0,0,0,0,0,0,0,0,0,0,0,0,0,0,0,0,0,0,0,0,0,0,0,0,0,0,0,0,0,0,0,0,0,0,0,0,0,0,0,0,0,0,0,0,0,0,0,0,0,0,0,0,0,0,0,0,0,0,0,0,0,0,0,0,0,0,0,0,0,0,0,0,0,0,0,0,0,0,0,0,0,0,0,0,0,0,0,0,0,0,0,0,0,0,0,0,0],"id":8,"left_children":[1,3,5,7,9,11,13,15,17,19,21,23,25,27,29,31,33,35,37,-1,-1,39,41,43,45,47,49,51,53,55,57,59,61,63,65,67,69,71,73,75,77,79,-1,81,-1,-1,-1,83,85,87,89,91,93,-1,95,97,99,-1,101,-1,-1,-1,-1,-1,-1,-1,-1,-1,-1,-1,-1,-1,-1,-1,-1,-1,-1,-1,-1,-1,-1,-1,-1,-1,-1,-1,-1,-1,-1,-1,-1,-1,-1,-1,-1,-1,-1,-1,-1,-1,-1,-1,-1],"loss_changes":[7.2875854E1,1.7306631E1,3.7350784E1,1.5754002E1,1.192977E2,3.9786713E1,4.1796955E1,3.9525127E1,3.998119E1,6.354675E-1,1.791867E1,5.6530504E0,4.331775E1,2.9457935E1,3.0012892E1,2.5809845E1,3.414521E1,6.0902023E1,2.06841E1,0E0,0E0,3.0650244E0,1.0903645E1,6.7195263E0,7.1100223E-1,3.114817E1,7.797944E1,4.237744E1,1.052729E0,2.0333551E1,2.9212997E1,1.1376564E1,4.0312466E1,1.6871792E1,4.0625595E1,2.2580477E1,1.5469518E2,1.58818035E1,2.19792E1,4.3533325E-1,1.4385097E0,3.834517E-1,0E0,8.052696E-1,0E0,0E0,0E0,3.5615997E1,3.801483E1,5.154297E0,2.5165047E1,1.5728385E0,8.593338E0,0E0,7.3396146E-1,9.666527E0,2.0700365E1,0E0,4.624353E0,0E0,0E0,0E0,0E0,0E0,0E0,0E0,0E0,0E0,0E0,0E0,0E0,0E0,0E0,0E0,0E0,0E0,0E0,0E0,0E0,0E0,0E0,0E0,0E0,0E0,0E0,0E0,0E0,0E0,0E0,0E0,0E0,0E0,0E0,0E0,0E0,0E0,0E0,0E0,0E0,0E0,0E0,0E0,0E0],"parents":[2147483647,0,0,1,1,2,2,3,3,4,4,5,5,6,6,7,7,8,8,9,9,10,10,11,11,12,12,13,13,14,14,15,15,16,16,17,17,18,18,21,21,22,22,23,23,24,24,25,25,26,26,27,27,28,28,29,29,30,30,31,31,32,32,33,33,34,34,35,35,36,36,37,37,38,38,39,39,40,40,41,41,43,43,47,47,48,48,49,49,50,50,51,51,52,52,54,54,55,55,56,56,58,58],"right_children":[2,4,6,8,10,12,14,16,18,20,22,24,26,28,30,32,34,36,38,-1,-1,40,42,44,46,48,50,52,54,56,58,60,62,64,66,68,70,72,74,76,78,80,-1,82,-1,-1,-1,84,86,88,90,92,94,-1,96,98,100,-1,102,-1,-1,-1,-1,-1,-1,-1,-1,-1,-1,-1,-1,-1,-1,-1,-1,-1,-1,-1,-1,-1,-1,-1,-1,-1,-1,-1,-1,-1,-1,-1,-1,-1,-1,-1,-1,-1,-1,-1,-1,-1,-1,-1,-1],"split_conditions":[6.75E0,1.717E1,1.99954E1,3E-1,2E0,1.17E0,1.67E0,3.67E0,1.904646E2,9.7E-1,4.9E0,2.0462938E2,2.16E1,2.2117584E2,6E0,3.63E0,5.7E0,1.2758094E2,4.0255E0,6.281774E-1,2.3831234E0,1.9683443E2,4.37E0,2.113377E1,5E-1,5.57E0,1E-1,1.3785706E2,2.4315327E1,5E0,6.1E0,1.6363882E2,1.9175252E2,9.3E-1,7.57E0,1.6831684E1,1.9692498E0,2.2472377E2,2.6000001E0,4E-1,2.23E0,5.14E0,8.589241E-1,1.55E0,-7.2964513E-1,8.676828E-2,-1.2031932E-1,1.4529915E1,1.6704155E1,9.054667E0,2.99E1,1.2E0,1.2598415E1,1.4911853E-1,4.04425E0,1.203E1,4.935917E0,1.0416614E0,6.39E0,-1.2370873E-1,-3.5129033E-2,-5.506684E-1,-4.9508408E-2,-3.915288E-1,5.444832E-2,8.63597E-1,-1.07706085E-1,1.1878281E-1,-9.804246E-2,1.0293863E0,1.090048E-1,-3.1462187E-1,-7.927844E-2,-4.934227E-2,1.0912057E-1,-7.258144E-2,-3.9445218E-1,-1.5146965E-1,3.1101877E-2,7.081361E-2,-1.16848476E-1,-1.8102492E-1,7.721654E-2,7.0951676E-1,1.7644894E-1,-3.9701343E-2,3.5745192E-1,1.9556147E0,4.5436338E-1,-1.8324773E-3,1.1877017E0,4.5390703E-2,-3.4993938E-1,1.0720356E0,6.962042E-2,-1.5215668E-1,1.7266894E-2,-3.496927E-1,1.6867258E-1,-2.5205886E-1,1.5750724E-1,2.601838E-1,-1.7280746E-1],"split_indices":[0,2,5,4,1,2,2,2,6,0,0,6,0,6,4,0,0,6,3,0,0,6,1,6,4,1,4,6,5,2,1,6,6,1,1,5,3,6,4,4,0,0,0,1,0,0,0,5,5,3,2,2,3,0,3,1,3,0,2,0,0,0,0,0,0,0,0,0,0,0,0,0,0,0,0,0,0,0,0,0,0,0,0,0,0,0,0,0,0,0,0,0,0,0,0,0,0,0,0,0,0,0,0],"split_type":[0,0,0,0,0,0,0,0,0,0,0,0,0,0,0,0,0,0,0,0,0,0,0,0,0,0,0,0,0,0,0,0,0,0,0,0,0,0,0,0,0,0,0,0,0,0,0,0,0,0,0,0,0,0,0,0,0,0,0,0,0,0,0,0,0,0,0,0,0,0,0,0,0,0,0,0,0,0,0,0,0,0,0,0,0,0,0,0,0,0,0,0,0,0,0,0,0,0,0,0,0,0,0],"sum_hessian":[1.962E3,1.693E3,2.69E2,1.669E3,2.4E1,1.57E2,1.12E2,8.55E2,8.14E2,2E0,2.2E1,1E1,1.47E2,2.2E1,9E1,6.64E2,1.91E2,2.9E2,5.24E2,1E0,1E0,1.8E1,4E0,6E0,4E0,1.34E2,1.3E1,1.2E1,1E1,8E1,1E1,6.06E2,5.8E1,1.76E2,1.5E1,1.77E2,1.13E2,1.71E2,3.53E2,4E0,1.4E1,2E0,2E0,3E0,3E0,2E0,2E0,4.6E1,8.8E1,4E0,9E0,3E0,9E0,2E0,8E0,3.5E1,4.5E1,3E0,7E0,1.9E2,4.16E2,2.5E1,3.3E1,7E0,1.69E2,9E0,6E0,7.2E1,1.05E2,1.9E1,9.4E1,3.1E1,1.4E2,2.36E2,1.17E2,1E0,3E0,7E0,7E0,1E0,1E0,2E0,1E0,2.1E1,2.5E1,5.2E1,3.6E1,3E0,1E0,8E0,1E0,1E0,2E0,8E0,1E0,3E0,5E0,3.2E1,3E0,1.7E1,2.8E1,3E0,4E0],"tree_param":{"num_deleted":"0","num_feature":"7","num_nodes":"103","size_leaf_vector":"1"}},{"base_weights":[2.3771722E-2,-1.6526163E-2,5.4862577E-1,-1.3635567E-1,6.577499E-2,9.270505E-1,-2.3720542E-3,-1.6130367E-1,3.307402E-1,1.8823411E0,5.389605E-2,2.860608E-1,1.6089629E0,-7.6784575E-1,1.3465855E-1,-4.273499E-1,-1.2994707E-1,3.1731293E-2,1.6503897E0,2.2622664E0,-3.1756443E-1,1.4768407E-1,-1.6043663E-1,8.331728E-1,-5.504995E-1,2.6239438E0,6.5925384E-1,-1.09798566E-1,1.0401511E0,-6.433193E-1,-1.3952969E-1,-6.452634E-2,-2.6820514E-1,-6.84129E-1,2.2324248E-1,8.509607E-1,5.1646486E-2,-1.5240967E-1,1.2674212E-2,7.8269415E-2,6.247252E-1,2.5846274E0,-1.8520582E-1,2.4548118E-1,2.84918E0,-1.7755007E0,3.9045584E-1,3.5874553E0,4.597161E-1,2.2605486E0,-2.3872036E-1,5.588524E-1,-4.6275243E-1,4.723927E-2,2.0251899E0,-2.1524896E-1,7.222136E-2,5.3825844E-2,-5.691287E-2,-5.2782882E-2,1.1341194E-1,-1.290537E-1,-4.29049E-2,-9.2391215E-2,-3.2490498E-1,2.4398966E-1,-4.109443E-2,-6.577111E-2,1.2964456E-1,6.2947996E-2,-7.416281E-2,3.2000744E-1,-1.5836455E-1,1.2639533E0,-1.0087094E-1,-7.919723E-2,2.2020145E-1,-8.510908E-2,5.111717E-1,3.0404705E-1,1.0540959E0,-2.5065848E-1,-6.517136E-1,-3.655838E-1,3.4385496E-1,3.4369296E-1,1.4911149E0,3.371869E-1,-2.4017687E-1,-4.5730892E-1,9.05705E-1,-2.773301E-1,5.6342983E-1,4.5728514E-1,-5.565412E-3,-3.0656332E-1,-9.969395E-3,1.9819374E-1,-9.907576E-2,8.655709E-1,6.1019376E-2],"categories":[],"categories_nodes":[],"categories_segments":[],"categories_sizes":[],"default_left":[1,1,0,1,0,0,0,0,0,0,0,0,0,0,0,0,0,0,0,0,0,0,0,0,0,0,0,0,0,0,0,0,0,0,0,0,0,0,0,0,0,0,1,0,0,0,0,0,0,0,0,0,0,0,0,0,0,0,0,0,0,0,0,0,0,0,0,0,0,0,0,0,0,0,0,0,0,0,0,0,0,0,0,0,0,0,0,0,0,0,0,0,0,0,0,0,0,0,0,0,0],"id":9,"left_children":[1,3,5,7,9,11,13,15,17,19,21,23,25,-1,27,29,31,33,35,-1,37,39,41,43,45,47,49,51,53,55,57,59,61,63,65,-1,67,-1,-1,69,71,73,75,77,79,81,83,85,87,89,91,93,95,97,99,-1,-1,-1,-1,-1,-1,-1,-1,-1,-1,-1,-1,-1,-1,-1,-1,-1,-1,-1,-1,-1,-1,-1,-1,-1,-1,-1,-1,-1,-1,-1,-1,-1,-1,-1,-1,-1,-1,-1,-1,-1,-1,-1,-1,-1,-1],"loss_changes":[4.152752E1,1.7997452E1,2.9193768E1,8.711609E0,2.3246895E1,3.581894E1,2.066802E1,5.834135E0,1.49419365E1,8.9532585E1,2.1653273E1,2.0597118E1,3.6827606E1,0E0,1.2510036E1,4.510105E0,5.708143E0,4.539775E0,1.3127899E1,0E0,4.326583E-1,2.4753223E1,2.2780396E1,3.1289923E1,2.144134E1,3.7970703E1,3.2173912E1,1.0878742E1,1.1641011E1,2.926958E0,5.621969E-1,2.131878E1,4.0547695E0,7.167766E-1,5.637769E0,0E0,5.070299E-1,0E0,0E0,2.809837E1,4.8957348E1,1.5686943E1,2.3802677E1,1.746225E1,3.7575455E0,1.1693497E0,1.477294E1,3.8204742E1,6.7598476E0,2.7567951E1,2.350915E1,8.947377E0,7.1707244E0,1.8390714E0,8.8141E0,0E0,0E0,0E0,0E0,0E0,0E0,0E0,0E0,0E0,0E0,0E0,0E0,0E0,0E0,0E0,0E0,0E0,0E0,0E0,0E0,0E0,0E0,0E0,0E0,0E0,0E0,0E0,0E0,0E0,0E0,0E0,0E0,0E0,0E0,0E0,0E0,0E0,0E0,0E0,0E0,0E0,0E0,0E0,0E0,0E0,0E0],"parents":[2147483647,0,0,1,1,2,2,3,3,4,4,5,5,6,6,7,7,8,8,9,9,10,10,11,11,12,12,14,14,15,15,16,16,17,17,18,18,20,20,21,21,22,22,23,23,24,24,25,25,26,26,27,27,28,28,29,29,30,30,31,31,32,32,33,33,34,34,36,36,39,39,40,40,41,41,42,42,43,43,44,44,45,45,46,46,47,47,48,48,49,49,50,50,51,51,52,52,53,53,54,54],"right_children":[2,4,6,8,10,12,14,16,18,20,22,24,26,-1,28,30,32,34,36,-1,38,40,42,44,46,48,50,52,54,56,58,60,62,64,66,-1,68,-1,-1,70,72,74,76,78,80,82,84,86,88,90,92,94,96,98,100,-1,-1,-1,-1,-1,-1,-1,-1,-1,-1,-1,-1,-1,-1,-1,-1,-1,-1,-1,-1,-1,-1,-1,-1,-1,-1,-1,-1,-1,-1,-1,-1,-1,-1,-1,-1,-1,-1,-1,-1,-1,-1,-1,-1,-1,-1],"split_conditions":[1.09E1,1.5E0,2.0359914E2,7.87E0,5.2E-1,1.5135187E2,2.0550523E2,1.2979984E1,4.6E0,1.63E0,2.2057161E1,1.9855558E1,9.75E0,-7.6784575E-1,1.977E1,2.3619162E2,1.62E0,1.0088334E0,2.1567978E2,2.2622664E0,1.03150835E1,2.0316889E1,6.3E-1,1.3369029E2,4.48175E0,1.2598415E1,1.6809845E2,1.315E1,5.8317504E0,3.5E0,-2.1703331E0,1.12E0,2.2850577E2,1.535E1,2.2340613E2,8.509607E-1,8.3E-1,-1.5240967E-1,1.2674212E-2,4.15E0,1.408175E1,1.63E0,1.173E1,1.579E1,3.5E0,1.282E1,2.167487E1,2.43E0,1.535E1,1.17E0,2.99E1,5E0,2.3520813E2,2.1284506E2,5.1E0,-2.1524896E-1,7.222136E-2,5.3825844E-2,-5.691287E-2,-5.2782882E-2,1.1341194E-1,-1.290537E-1,-4.29049E-2,-9.2391215E-2,-3.2490498E-1,2.4398966E-1,-4.109443E-2,-6.577111E-2,1.2964456E-1,6.2947996E-2,-7.416281E-2,3.2000744E-1,-1.5836455E-1,1.2639533E0,-1.0087094E-1,-7.919723E-2,2.2020145E-1,-8.510908E-2,5.111717E-1,3.0404705E-1,1.0540959E0,-2.5065848E-1,-6.517136E-1,-3.655838E-1,3.4385496E-1,3.4369296E-1,1.4911149E0,3.371869E-1,-2.4017687E-1,-4.5730892E-1,9.05705E-1,-2.773301E-1,5.6342983E-1,4.5728514E-1,-5.565412E-3,-3.0656332E-1,-9.969395E-3,1.9819374E-1,-9.907576E-2,8.655709E-1,6.1019376E-2],"split_indices":[0,0,6,2,2,6,6,5,4,0,5,5,1,0,0,6,2,3,6,0,3,5,1,6,3,3,6,0,3,2,3,0,6,2,6,0,0,0,0,2,3,0,2,0,2,0,5,2,0,2,0,1,6,6,4,0,0,0,0,0,0,0,0,0,0,0,0,0,0,0,0,0,0,0,0,0,0,0,0,0,0,0,0,0,0,0,0,0,0,0,0,0,0,0,0,0,0,0,0,0,0],"split_type":[0,0,0,0,0,0,0,0,0,0,0,0,0,0,0,0,0,0,0,0,0,0,0,0,0,0,0,0,0,0,0,0,0,0,0,0,0,0,0,0,0,0,0,0,0,0,0,0,0,0,0,0,0,0,0,0,0,0,0,0,0,0,0,0,0,0,0,0,0,0,0,0,0,0,0,0,0,0,0,0,0,0,0,0,0,0,0,0,0,0,0,0,0,0,0,0,0,0,0,0,0],"sum_hessian":[1.962E3,1.823E3,1.39E2,7.42E2,1.081E3,8.2E1,5.7E1,7.05E2,3.7E1,6E0,1.075E3,4.3E1,3.9E1,2E0,5.5E1,7.3E1,6.32E2,3.1E1,6E0,1E0,5E0,7.48E2,3.27E2,2.6E1,1.7E1,1.8E1,2.1E1,4.4E1,1.1E1,4.1E1,3.2E1,4.3E2,2.02E2,6E0,2.5E1,3E0,3E0,3E0,2E0,6.54E2,9.4E1,2E0,3.25E2,2.1E1,5E0,7E0,1E1,1.2E1,6E0,7E0,1.4E1,1.5E1,2.9E1,6E0,5E0,3.8E1,3E0,4E0,2.8E1,3.44E2,8.6E1,8.7E1,1.15E2,4E0,2E0,9E0,1.6E1,2E0,1E0,4.66E2,1.88E2,6.8E1,2.6E1,1E0,1E0,3E2,2.5E1,1.6E1,5E0,2E0,3E0,3E0,4E0,3E0,7E0,5E0,7E0,4E0,2E0,1E0,6E0,1.1E1,3E0,5E0,1E1,1.2E1,1.7E1,2E0,4E0,3E0,2E0],"tree_param":{"num_deleted":"0","num_feature":"7","num_nodes":"101","size_leaf_vector":"1"}},{"base_weights":[2.0684764E-2,-2.3661083E-2,2.9883727E-1,-4.033621E-1,-9.337446E-5,4.3641433E-1,-2.726841E-1,-4.8447502E-1,9.3463403E-1,9.1753885E-2,-1.12251654E-1,1.0556171E0,2.692482E-1,-4.0630364E-1,6.6343063E-1,2.0573354E-1,-6.982295E-1,2.078875E-2,4.1590786E-1,-3.8895455E-1,1.5826172E-1,-1.2916757E-1,5.938743E-1,3.4114948E-1,2.8430235E0,3.8759643E-1,-7.7139485E-1,-4.79306E-1,4.4277087E-1,4.5629373E-1,-3.5997543E-1,-1.7215647E-1,4.801707E-1,-1.0943009E0,-2.4825966E-1,5.9924807E-2,-5.056987E-2,-1.4317434E-1,-9.605277E-1,-1.6236469E-1,2.7141106E-1,-9.3635514E-2,-3.6122045E-1,2.9054177E-1,5.737736E-1,1.1467068E0,-7.5567025E-1,1.8269151E0,1.6991049E0,6.5215635E-1,-8.334371E-2,-1.2705405E0,1.2932502E0,-6.346966E-1,4.7711247E-1,-2.2317712E-1,1.5981913E-2,1.02905175E-2,-2.8648505E-1,-2.0269468E-1,-6.181436E-1,-1.9075957E-1,-2.0334853E-2,-1.4393438E-1,2.603458E-2,-3.4994146E-1,-1.751268E-2,-8.932882E-2,7.9945676E-2,4.8909557E-1,6.496839E-2,-3.296665E-2,2.1804999E-1,-1.6860077E-1,-1.264345E-2,1.4206468E-1,-5.105467E-2,-2.6020476E-1,6.215482E-1,-4.395053E-1,7.9290204E-2,-8.604663E-2,6.516873E-1,1.351365E-2,3.926764E-1,1.9338535E-1,-1.6780117E-1,3.1610013E-3,-4.775064E-1,1.616777E-1,5.334336E-1,-2.5023675E-1,-2.9957851E-2,4.7646448E-1,-8.549145E-2,4.0409733E-2,-3.3217873E-2],"categories":[],"categories_nodes":[],"categories_segments":[],"categories_sizes":[],"default_left":[1,0,0,0,0,0,0,0,0,0,0,0,0,0,0,0,0,0,0,0,0,0,0,0,0,0,0,0,0,0,0,0,0,0,0,0,0,0,0,0,0,0,0,0,0,0,0,0,0,0,0,0,0,0,0,0,0,0,0,0,0,0,0,0,0,0,0,0,0,0,0,0,0,0,0,0,0,0,0,0,0,0,0,0,0,0,0,0,0,0,0,0,0,0,0,0,0],"id":10,"left_children":[1,3,5,7,9,11,13,15,17,19,21,23,25,27,29,31,33,35,-1,37,39,41,43,45,47,49,51,53,-1,-1,55,57,-1,59,61,-1,-1,63,65,67,69,71,73,75,-1,77,79,-1,81,83,85,87,89,91,93,-1,95,-1,-1,-1,-1,-1,-1,-1,-1,-1,-1,-1,-1,-1,-1,-1,-1,-1,-1,-1,-1,-1,-1,-1,-1,-1,-1,-1,-1,-1,-1,-1,-1,-1,-1,-1,-1,-1,-1,-1,-1],"loss_changes":[2.4220499E1,1.515903E1,2.1348623E1,1.1197153E1,1.6451384E1,2.22809E1,6.8989654E0,1.4011957E1,2.4480224E0,2.8131989E1,8.664997E0,5.777413E1,2.1605371E1,7.16547E0,6.690857E0,1.2398717E1,1.2560181E1,1.3533223E-1,0E0,1.4893984E1,2.8051197E1,5.762635E0,6.244417E0,3.0907274E1,3.7934326E1,1.9490688E1,2.0193184E1,7.139269E0,0E0,0E0,5.8928204E-1,3.1034257E0,0E0,1.3978542E1,2.405283E0,0E0,0E0,5.924406E0,5.8772697E0,1.18085785E1,4.220686E1,8.227762E0,5.93433E0,1.3453263E0,0E0,3.9061882E1,1.123991E1,0E0,1.0959908E1,3.981395E1,2.011134E1,6.1879883E0,5.0470257E-1,4.183119E0,6.3798685E0,0E0,6.004203E-2,0E0,0E0,0E0,0E0,0E0,0E0,0E0,0E0,0E0,0E0,0E0,0E0,0E0,0E0,0E0,0E0,0E0,0E0,0E0,0E0,0E0,0E0,0E0,0E0,0E0,0E0,0E0,0E0,0E0,0E0,0E0,0E0,0E0,0E0,0E0,0E0,0E0,0E0,0E0,0E0],"parents":[2147483647,0,0,1,1,2,2,3,3,4,4,5,5,6,6,7,7,8,8,9,9,10,10,11,11,12,12,13,13,14,14,15,15,16,16,17,17,19,19,20,20,21,21,22,22,23,23,24,24,25,25,26,26,27,27,30,30,31,31,33,33,34,34,37,37,38,38,39,39,40,40,41,41,42,42,43,43,45,45,46,46,48,48,49,49,50,50,51,51,52,52,53,53,54,54,56,56],"right_children":[2,4,6,8,10,12,14,16,18,20,22,24,26,28,30,32,34,36,-1,38,40,42,44,46,48,50,52,54,-1,-1,56,58,-1,60,62,-1,-1,64,66,68,70,72,74,76,-1,78,80,-1,82,84,86,88,90,92,94,-1,96,-1,-1,-1,-1,-1,-1,-1,-1,-1,-1,-1,-1,-1,-1,-1,-1,-1,-1,-1,-1,-1,-1,-1,-1,-1,-1,-1,-1,-1,-1,-1,-1,-1,-1,-1,-1,-1,-1,-1,-1],"split_conditions":[6.75E0,1.1334285E1,2.48596E2,7.37E0,2.32942E2,1.457889E1,3.4440988E2,1.3067499E0,8.2799126E1,2.6716664E-1,1.9469252E1,1.2783802E1,1.8248419E1,2.1673414E1,1.8775301E1,2.73E0,1.9825655E2,3.83E0,4.1590786E-1,1.2267222E2,8.608422E1,4.3E0,3.3428397E2,1.1334285E1,7.03E0,2.0359914E2,2.2651855E2,1.613E1,4.4277087E-1,4.5629373E-1,8.63E0,2.1E0,4.801707E-1,1.0783487E1,8.138E0,5.9924807E-2,-5.056987E-2,-2.1703331E0,2.83E0,1.4892169E1,8.6925E-1,5.29E0,2.373271E1,4.67E0,5.737736E-1,7.87E0,6.3921666E0,1.8269151E0,8.07E0,1.4506062E2,5E-1,9.6962616E1,9.75E0,2.4881702E1,1.4529915E1,-2.2317712E-1,1.002E1,1.02905175E-2,-2.8648505E-1,-2.0269468E-1,-6.181436E-1,-1.9075957E-1,-2.0334853E-2,-1.4393438E-1,2.603458E-2,-3.4994146E-1,-1.751268E-2,-8.932882E-2,7.9945676E-2,4.8909557E-1,6.496839E-2,-3.296665E-2,2.1804999E-1,-1.6860077E-1,-1.264345E-2,1.4206468E-1,-5.105467E-2,-2.6020476E-1,6.215482E-1,-4.395053E-1,7.9290204E-2,-8.604663E-2,6.516873E-1,1.351365E-2,3.926764E-1,1.9338535E-1,-1.6780117E-1,3.1610013E-3,-4.775064E-1,1.616777E-1,5.334336E-1,-2.5023675E-1,-2.9957851E-2,4.7646448E-1,-8.549145E-2,4.0409733E-2,-3.3217873E-2],"split_indices":[0,5,6,1,6,5,6,3,6,3,3,5,3,3,5,2,6,0,0,6,6,1,6,5,0,6,6,0,0,0,0,0,0,5,3,0,0,3,0,3,3,0,5,0,0,0,3,0,0,6,4,6,0,5,5,0,0,0,0,0,0,0,0,0,0,0,0,0,0,0,0,0,0,0,0,0,0,0,0,0,0,0,0,0,0,0,0,0,0,0,0,0,0,0,0,0,0],"split_type":[0,0,0,0,0,0,0,0,0,0,0,0,0,0,0,0,0,0,0,0,0,0,0,0,0,0,0,0,0,0,0,0,0,0,0,0,0,0,0,0,0,0,0,0,0,0,0,0,0,0,0,0,0,0,0,0,0,0,0,0,0,0,0,0,0,0,0,0,0,0,0,0,0,0,0,0,0,0,0,0,0,0,0,0,0,0,0,0,0,0,0,0,0,0,0,0,0],"sum_hessian":[1.962E3,1.693E3,2.69E2,9.8E1,1.595E3,2.17E2,5.2E1,9.3E1,5E0,8.77E2,7.18E2,4.5E1,1.72E2,4.6E1,6E0,2.2E1,7.1E1,2E0,3E0,1.06E2,7.71E2,7.02E2,1.6E1,3.3E1,1.2E1,1.55E2,1.7E1,4.5E1,1E0,3E0,3E0,1.8E1,4E0,3.7E1,3.4E1,1E0,1E0,7.5E1,3.1E1,2.01E2,5.7E2,6.1E2,9.2E1,1.4E1,2E0,1.9E1,1.4E1,2E0,1E1,9.9E1,5.6E1,1.4E1,3E0,3.9E1,6E0,1E0,2E0,1.5E1,3E0,2.7E1,1E1,1E1,2.4E1,3E1,4.5E1,2.5E1,6E0,1.53E2,4.8E1,2.1E1,5.49E2,5.99E2,1.1E1,5.6E1,3.6E1,1E1,4E0,6E0,1.3E1,8E0,6E0,2E0,8E0,5.2E1,4.7E1,2.2E1,3.4E1,3E0,1.1E1,2E0,1E0,2.8E1,1.1E1,2E0,4E0,1E0,1E0],"tree_param":{"num_deleted":"0","num_feature":"7","num_nodes":"97","size_leaf_vector":"1"}},{"base_weights":[1.6601237E-2,1.3723512E-2,8.494049E-1,5.505897E-2,-1.5573384E-1,-2.1269797E-1,9.120796E-2,-1.7408273E-1,8.5997516E-1,-2.6180404E-1,1.3455204E0,2.4679573E0,6.873592E-2,-1.3737023E-1,-6.2939394E-1,1.233642E0,-4.9461287E-2,8.605305E-2,-4.4350246E-1,4.7519727E0,4.4645125E-1,-2.665788E-1,1.1359012E-1,-1.4841847E-1,6.590613E-1,-1.1780974E-1,-7.94312E-1,6.204147E-1,5.529827E-1,-7.073718E-2,4.8479605E-2,-5.172349E-2,2.6651308E-1,-1.4435884E-1,2.3945482E-1,-9.531273E-2,1.7488352E0,4.741343E-1,-5.8486626E-2,-4.8767194E-2,-2.112796E-1,9.3612325E-1,3.107682E-2,-5.0650742E-2,4.8541103E-2,-4.6233997E-2,2.70265E-1,-8.265604E-2,7.106427E-2,-3.4035158E-1,-1.6295381E-1,2.611798E-1,-1.9520868E-2],"categories":[],"categories_nodes":[],"categories_segments":[],"categories_sizes":[],"default_left":[1,0,0,0,0,0,0,0,0,0,0,0,1,0,0,0,0,0,0,0,0,1,0,0,0,0,1,0,0,0,0,0,0,0,0,0,0,0,0,0,0,0,0,0,0,0,0,0,0,0,0,0,0],"id":11,"left_children":[1,3,-1,5,7,9,11,13,15,17,-1,19,21,23,25,27,29,31,33,35,37,39,41,43,45,47,49,51,-1,-1,-1,-1,-1,-1,-1,-1,-1,-1,-1,-1,-1,-1,-1,-1,-1,-1,-1,-1,-1,-1,-1,-1,-1],"loss_changes":[1.5861587E1,1.3751595E1,0E0,1.5293087E1,7.325001E0,4.45437E1,7.412425E1,6.2487555E0,2.4398012E0,1.1857514E1,0E0,5.790143E1,2.077082E1,3.1951241E0,2.2687674E0,7.2562456E-1,1.5608343E-1,1.3632371E1,6.14093E0,3.4626892E1,6.126939E0,7.306712E0,3.6272392E1,2.2315187E0,1.1220555E0,5.1277256E-1,1.1778679E0,7.426399E-1,0E0,0E0,0E0,0E0,0E0,0E0,0E0,0E0,0E0,0E0,0E0,0E0,0E0,0E0,0E0,0E0,0E0,0E0,0E0,0E0,0E0,0E0,0E0,0E0,0E0],"parents":[2147483647,0,0,1,1,3,3,4,4,5,5,6,6,7,7,8,8,9,9,11,11,12,12,13,13,14,14,15,15,16,16,17,17,18,18,19,19,20,20,21,21,22,22,23,23,24,24,25,25,26,26,27,27],"right_children":[2,4,-1,6,8,10,12,14,16,18,-1,20,22,24,26,28,30,32,34,36,38,40,42,44,46,48,50,52,-1,-1,-1,-1,-1,-1,-1,-1,-1,-1,-1,-1,-1,-1,-1,-1,-1,-1,-1,-1,-1,-1,-1,-1,-1],"split_conditions":[4.437E1,2.791033E2,8.494049E-1,7.005E-1,1.9623419E1,3.626006E1,8.6925E-1,8.15E0,2.0254667E1,1.530741E1,1.3455204E0,2.18E0,6.3E-1,6.75E0,2.35E0,4.05E0,5.14E0,6E-1,1.535E1,1.5E-1,2.6E0,9.7E-1,6.7E-1,3.5555106E2,4.7E-1,1E-1,5.92E0,2.18E0,5.529827E-1,-7.073718E-2,4.8479605E-2,-5.172349E-2,2.6651308E-1,-1.4435884E-1,2.3945482E-1,-9.531273E-2,1.7488352E0,4.741343E-1,-5.8486626E-2,-4.8767194E-2,-2.112796E-1,9.3612325E-1,3.107682E-2,-5.0650742E-2,4.8541103E-2,-4.6233997E-2,2.70265E-1,-8.265604E-2,7.106427E-2,-3.4035158E-1,-1.6295381E-1,2.611798E-1,-1.9520868E-2],"split_indices":[2,6,0,3,3,5,3,1,3,5,0,1,2,1,0,0,0,4,1,0,2,0,2,6,0,4,2,0,0,0,0,0,0,0,0,0,0,0,0,0,0,0,0,0,0,0,0,0,0,0,0,0,0],"split_type":[0,0,0,0,0,0,0,0,0,0,0,0,0,0,0,0,0,0,0,0,0,0,0,0,0,0,0,0,0,0,0,0,0,0,0,0,0,0,0,0,0,0,0,0,0,0,0,0,0,0,0,0,0],"sum_hessian":[1.962E3,1.961E3,1E0,1.577E3,3.84E2,1.87E2,1.39E3,3.78E2,6E0,1.86E2,1E0,1.2E1,1.378E3,3.51E2,2.7E1,4E0,2E0,6.4E1,1.22E2,5E0,7E0,1.62E2,1.216E3,3.47E2,4E0,7E0,2E1,3E0,1E0,1E0,1E0,4.9E1,1.5E1,1.19E2,3E0,1E0,4E0,2E0,5E0,1.32E2,3E1,3E0,1.213E3,3.26E2,2.1E1,1E0,3E0,5E0,2E0,7E0,1.3E1,2E0,1E0],"tree_param":{"num_deleted":"0","num_feature":"7","num_nodes":"53","size_leaf_vector":"1"}},{"base_weights":[1.4555421E-2,1.210958E-2,7.2199404E-1,-1.492853E-2,1.823343E-1,2.796599E-2,-1.6332686E-1,1.4798243E0,1.4202036E-1,1.7824912E-2,1.4975686E0,-2.1193591E-1,2.930201E-1,1.3370923E0,4.178066E-1,3.704564E-1,-4.4858783E-2,-2.4413511E-2,3.2514367E-1,5.4359837E0,-4.0426198E-1,6.574582E-1,-2.4534008E-1,8.232331E-1,-7.491603E-1,9.070438E-1,-1.7588228E-1,1.8886726E-1,2.3127325E0,4.7397073E-2,-8.4756935E-1,-4.4592092E-5,-2.0422353E-1,5.3151865E-3,5.4482245E-1,4.8294556E-1,1.9632472E0,-1.6427791E-1,-9.186864E-3,3.0312654E-1,-3.2810397E-2,8.598945E-2,-8.631691E-2,7.9267345E-2,1.1075917E0,-3.8730815E-1,-3.0081205E-2,4.7797896E-2,3.309523E-1,1.1857789E-1,-1.4940484E-1,1.7668277E-1,-1.5479586E-1,1.467273E0,1.5272942E-1,-4.520315E-3,4.8735705E-1,-5.72236E-1,-1.2709317E-1],"categories":[],"categories_nodes":[],"categories_segments":[],"categories_sizes":[],"default_left":[1,1,0,0,0,1,0,0,0,0,0,0,0,0,0,0,0,0,0,0,0,0,1,0,0,0,0,0,0,0,0,0,0,0,0,0,0,0,0,0,0,0,0,0,0,0,0,0,0,0,0,0,0,0,0,0,0,0,0],"id":12,"left_children":[1,3,-1,5,7,9,11,13,15,17,19,21,23,-1,25,27,29,31,33,35,37,39,41,43,45,47,49,51,53,55,57,-1,-1,-1,-1,-1,-1,-1,-1,-1,-1,-1,-1,-1,-1,-1,-1,-1,-1,-1,-1,-1,-1,-1,-1,-1,-1,-1,-1],"loss_changes":[1.1455726E1,9.032935E0,0E0,1.0787684E1,1.3860402E1,1.9571217E1,8.491486E0,2.3432133E1,1.1201378E1,1.6973661E1,6.960935E1,1.0151541E1,2.1062103E1,0E0,2.1927156E0,4.1181362E1,1.07781105E1,1.831457E1,7.2387375E1,2.185257E0,3.581097E-1,3.6291108E0,7.567917E0,3.911574E1,4.4415007E0,4.1083598E-1,9.327823E-1,3.1041277E1,4.4010937E1,1.2929925E1,5.9315968E0,0E0,0E0,0E0,0E0,0E0,0E0,0E0,0E0,0E0,0E0,0E0,0E0,0E0,0E0,0E0,0E0,0E0,0E0,0E0,0E0,0E0,0E0,0E0,0E0,0E0,0E0,0E0,0E0],"parents":[2147483647,0,0,1,1,3,3,4,4,5,5,6,6,7,7,8,8,9,9,10,10,11,11,12,12,14,14,15,15,16,16,17,17,18,18,19,19,20,20,21,21,22,22,23,23,24,24,25,25,26,26,27,27,28,28,29,29,30,30],"right_children":[2,4,-1,6,8,10,12,14,16,18,20,22,24,-1,26,28,30,32,34,36,38,40,42,44,46,48,50,52,54,56,58,-1,-1,-1,-1,-1,-1,-1,-1,-1,-1,-1,-1,-1,-1,-1,-1,-1,-1,-1,-1,-1,-1,-1,-1,-1,-1,-1,-1],"split_conditions":[4.437E1,6.75E0,7.2199404E-1,3.34E0,6.87E0,1.717E1,1.9183836E1,1.23E0,1.8502684E2,2.57E0,2E0,1.0009036E1,2.073175E1,1.3370923E0,3.37E0,1.7251074E2,1.364E1,2.43E0,4.45E0,9.7E-1,2.2278831E2,2E-1,1.1E0,2.043592E1,1.7428302E2,2.06E0,9E0,7.619251E0,1.8455048E1,2.585E1,2.0462938E2,-4.4592092E-5,-2.0422353E-1,5.3151865E-3,5.4482245E-1,4.8294556E-1,1.9632472E0,-1.6427791E-1,-9.186864E-3,3.0312654E-1,-3.2810397E-2,8.598945E-2,-8.631691E-2,7.9267345E-2,1.1075917E0,-3.8730815E-1,-3.0081205E-2,4.7797896E-2,3.309523E-1,1.1857789E-1,-1.4940484E-1,1.7668277E-1,-1.5479586E-1,1.467273E0,1.5272942E-1,-4.520315E-3,4.8735705E-1,-5.72236E-1,-1.2709317E-1],"split_indices":[2,0,0,1,0,2,3,2,6,1,1,5,3,0,2,6,2,1,2,0,6,4,0,3,6,2,5,3,5,1,6,0,0,0,0,0,0,0,0,0,0,0,0,0,0,0,0,0,0,0,0,0,0,0,0,0,0,0,0],"split_type":[0,0,0,0,0,0,0,0,0,0,0,0,0,0,0,0,0,0,0,0,0,0,0,0,0,0,0,0,0,0,0,0,0,0,0,0,0,0,0,0,0,0,0,0,0,0,0,0,0,0,0,0,0,0,0,0,0,0,0],"sum_hessian":[1.962E3,1.961E3,1E0,1.693E3,2.68E2,1.314E3,3.79E2,7E0,2.61E2,1.306E3,8E0,3.43E2,3.6E1,1E0,6E0,1.17E2,1.44E2,1.149E3,1.57E2,2E0,6E0,1.2E1,3.31E2,2.4E1,1.2E1,3E0,3E0,1.08E2,9E0,1.3E2,1.4E1,1.109E3,4E1,1.31E2,2.6E1,1E0,1E0,4E0,2E0,8E0,4E0,2.4E1,3.07E2,2.1E1,3E0,6E0,6E0,1E0,2E0,1E0,2E0,6.9E1,3.9E1,3E0,6E0,1.26E2,4E0,3E0,1.1E1],"tree_param":{"num_deleted":"0","num_feature":"7","num_nodes":"59","size_leaf_vector":"1"}},{"base_weights":[1.4004628E-2,4.5190225E-3,4.5856112E-1,1.5269908E-2,-3.6786383E-1,-4.5435503E-1,1.349641E0,3.6952063E-3,9.054034E-1,-8.132379E-2,-9.36426E-1,2.9925385E-1,-1.1666589E0,2.3150425E0,4.3266964E-1,-2.5240627E-1,2.1795254E-2,1.4174758E0,-2.9592583E-1,4.94076E-1,-7.161389E-1,-1.0846349E0,-3.7558243E-1,6.174057E-1,-3.202516E-1,-2.2290237E0,9.014896E-2,4.9086985E-1,2.709727E0,-1.1836509E0,1.1029599E0,2.5338635E-1,-2.7772856E-1,1.579959E-1,-3.4037005E-2,1.6761824E0,-3.4854898E-1,-9.3653464E-1,5.7881665E-1,-5.927281E-1,1.1248727E0,-1.6109695E0,-2.4805254E-1,-1.025279E0,2.4365704E-1,4.9088275E-1,-8.076326E-1,-1.9952475E-1,-7.226386E-1,1.7380956E0,-1.1683483E0,2.9971206E-1,-7.8820616E-2,1.1178674E0,1.354584E0,-4.1769454E-1,-8.3648734E-2,6.6645044E-1,4.6601927E-1,-6.2404193E-2,-1.9121058E-1,3.8724605E-2,6.5525424E-1,-2.3081358E-1,-4.4798143E-3,1.2689799E-1,6.280301E-1,-1.3722533E-1,-1.9621719E-2,-3.5467634E-1,-1.1359101E-1,1.5828611E-3,2.3047143E-1,-3.6904725E-1,2.6391208E-1,1.201911E-1,5.709125E-1,-1.9851229E-1,-5.760521E-1,-2.2673066E-1,2.146342E-1,-4.2186856E-2,-3.3947086E-1,-1.749816E-2,2.6012036E-1,2.0609228E-1,-1.4608742E-2,-5.627282E-2,-2.682386E-1,8.637515E-2,6.957679E-1,-4.4220182E-1,-3.7706245E-2,1.2333728E-1,4.4630036E-1,1.8881203E-1,1.1526776E-2],"categories":[],"categories_nodes":[],"categories_segments":[],"categories_sizes":[],"default_left":[1,1,0,1,0,0,0,0,0,0,0,0,0,0,0,0,0,0,0,0,0,0,0,0,0,0,0,0,0,0,0,0,0,0,0,0,0,0,0,0,0,0,0,0,0,0,0,0,0,0,0,0,0,0,0,0,0,0,0,0,0,0,0,0,0,0,0,0,0,0,0,0,0,0,0,0,0,0,0,0,0,0,0,0,0,0,0,0,0,0,0,0,0,0,0,0,0],"id":13,"left_children":[1,3,5,7,9,11,13,15,17,19,21,23,25,27,29,31,33,35,37,39,41,-1,43,-1,45,47,49,51,53,55,57,-1,59,61,63,65,67,69,71,73,75,77,79,81,83,85,87,-1,-1,89,91,-1,-1,-1,93,-1,-1,-1,95,-1,-1,-1,-1,-1,-1,-1,-1,-1,-1,-1,-1,-1,-1,-1,-1,-1,-1,-1,-1,-1,-1,-1,-1,-1,-1,-1,-1,-1,-1,-1,-1,-1,-1,-1,-1,-1,-1],"loss_changes":[8.275679E0,7.7042427E0,3.3965946E1,1.926332E1,8.7213E0,1.1621895E1,1.7588509E1,8.567176E0,1.5183489E1,1.3868909E1,2.568734E1,1.2644295E1,1.4888017E1,5.869606E0,1.4306367E1,3.6236453E0,1.3130553E1,8.351227E0,5.0250235E0,1.4377791E1,7.139841E0,0E0,6.686901E0,0E0,3.9544363E0,8.486748E-2,1.44743185E1,1.4113624E0,5.9725037E0,3.6699772E-1,5.3767376E0,0E0,2.8760767E0,2.9127674E1,1.7197529E1,6.9579124E0,6.255862E-2,2.3778772E-1,4.3051004E-1,8.590765E0,6.564083E0,4.9050045E-1,6.9001117E0,5.931206E-1,1.744916E0,4.566797E-1,1.5407777E-1,0E0,0E0,1.8604841E0,1.0895252E0,0E0,0E0,0E0,1.6180038E-2,0E0,0E0,0E0,4.6476567E-1,0E0,0E0,0E0,0E0,0E0,0E0,0E0,0E0,0E0,0E0,0E0,0E0,0E0,0E0,0E0,0E0,0E0,0E0,0E0,0E0,0E0,0E0,0E0,0E0,0E0,0E0,0E0,0E0,0E0,0E0,0E0,0E0,0E0,0E0,0E0,0E0,0E0,0E0],"parents":[2147483647,0,0,1,1,2,2,3,3,4,4,5,5,6,6,7,7,8,8,9,9,10,10,11,11,12,12,13,13,14,14,15,15,16,16,17,17,18,18,19,19,20,20,22,22,24,24,25,25,26,26,27,27,28,28,29,29,30,30,32,32,33,33,34,34,35,35,36,36,37,37,38,38,39,39,40,40,41,41,42,42,43,43,44,44,45,45,46,46,49,49,50,50,54,54,58,58],"right_children":[2,4,6,8,10,12,14,16,18,20,22,24,26,28,30,32,34,36,38,40,42,-1,44,-1,46,48,50,52,54,56,58,-1,60,62,64,66,68,70,72,74,76,78,80,82,84,86,88,-1,-1,90,92,-1,-1,-1,94,-1,-1,-1,96,-1,-1,-1,-1,-1,-1,-1,-1,-1,-1,-1,-1,-1,-1,-1,-1,-1,-1,-1,-1,-1,-1,-1,-1,-1,-1,-1,-1,-1,-1,-1,-1,-1,-1,-1,-1,-1,-1],"split_conditions":[1.859E1,1.315E1,5.473417E0,1.173E1,1.364E1,1.142E1,1.904646E2,3.0851723E1,1.114E1,8.000001E-1,1.429E1,1.5135187E2,1.8977994E2,1.484318E1,2.0550523E2,1.0308831E1,1.8026836E2,2.4387288E2,1.282E1,2.97E0,1.6E0,-1.0846349E0,5.5171666E0,6.174057E-1,1.32E0,1.9692498E0,3E0,2.16E1,8.796334E0,1.040675E1,2.109824E2,2.5338635E-1,5.5E0,1.7787239E2,1.8660583E2,3.9109163E0,1.203E1,4.0900836E0,1.142E1,3E-1,1.579E1,4.67E0,2.0968639E2,2.4859169E0,1.315E1,2.8505E0,1.977E1,-1.9952475E-1,-7.226386E-1,2.585E1,2.16E1,2.9971206E-1,-7.8820616E-2,1.1178674E0,8.892167E0,-4.1769454E-1,-8.3648734E-2,6.6645044E-1,1.613E1,-6.2404193E-2,-1.9121058E-1,3.8724605E-2,6.5525424E-1,-2.3081358E-1,-4.4798143E-3,1.2689799E-1,6.280301E-1,-1.3722533E-1,-1.9621719E-2,-3.5467634E-1,-1.1359101E-1,1.5828611E-3,2.3047143E-1,-3.6904725E-1,2.6391208E-1,1.201911E-1,5.709125E-1,-1.9851229E-1,-5.760521E-1,-2.2673066E-1,2.146342E-1,-4.2186856E-2,-3.3947086E-1,-1.749816E-2,2.6012036E-1,2.0609228E-1,-1.4608742E-2,-5.627282E-2,-2.682386E-1,8.637515E-2,6.957679E-1,-4.4220182E-1,-3.7706245E-2,1.2333728E-1,4.4630036E-1,1.8881203E-1,1.1526776E-2],"split_indices":[0,0,3,0,1,1,6,6,1,4,0,6,6,5,6,5,6,6,0,2,4,0,3,0,2,3,2,0,3,3,6,0,1,6,6,3,0,3,1,4,0,1,6,3,2,3,0,0,0,0,0,0,0,0,3,0,0,0,1,0,0,0,0,0,0,0,0,0,0,0,0,0,0,0,0,0,0,0,0,0,0,0,0,0,0,0,0,0,0,0,0,0,0,0,0,0,0],"split_type":[0,0,0,0,0,0,0,0,0,0,0,0,0,0,0,0,0,0,0,0,0,0,0,0,0,0,0,0,0,0,0,0,0,0,0,0,0,0,0,0,0,0,0,0,0,0,0,0,0,0,0,0,0,0,0,0,0,0,0,0,0,0,0,0,0,0,0,0,0,0,0,0,0,0,0,0,0,0,0,0,0,0,0,0,0,0,0,0,0,0,0,0,0,0,0,0,0],"sum_hessian":[1.962E3,1.922E3,4E1,1.869E3,5.3E1,2E1,2E1,1.846E3,2.3E1,3.6E1,1.7E1,1E1,1E1,9E0,1.1E1,1.21E2,1.725E3,1.6E1,7E0,1.9E1,1.7E1,2E0,1.5E1,2E0,8E0,5E0,5E0,2E0,7E0,3E0,8E0,2E0,1.19E2,5.01E2,1.224E3,1.4E1,2E0,4E0,3E0,7E0,1.2E1,5E0,1.2E1,7E0,8E0,3E0,5E0,1E0,4E0,2E0,3E0,1E0,1E0,3E0,4E0,2E0,1E0,2E0,6E0,1.01E2,1.8E1,4.95E2,6E0,3E1,1.194E3,4E0,1E1,1E0,1E0,2E0,2E0,1E0,2E0,5E0,2E0,7E0,5E0,2E0,3E0,8E0,4E0,1E0,6E0,6E0,2E0,2E0,1E0,1E0,4E0,1E0,1E0,2E0,1E0,1E0,3E0,4E0,2E0],"tree_param":{"num_deleted":"0","num_feature":"7","num_nodes":"97","size_leaf_vector":"1"}},{"base_weights":[1.0584825E-2,-3.0286454E-2,1.019386E-1,2.0403035E-2,-1.4948842E-1,1.6985067E0,8.048113E-2,7.3908195E-3,1.1340499E0,1.1074208E-1,-2.2525822E-1,-4.2085797E-1,2.9661057E0,2.6586944E-1,-4.9099084E-2,2.6227983E-2,-5.6676114E-1,-3.4440756E-1,1.5574218E0,-1.1779086E-1,9.393502E-1,-3.949074E-1,-2.734062E-2,-2.0559275E-1,1.381006E0,1.9886628E-1,1.694751E0,2.7097103E-1,-1.5281923E-1,5.606199E-2,-3.2344282E-1,-8.4240687E-1,4.5927593E-1,-3.2193486E-2,-7.2662675E-1,-1.4236535E-1,5.030691E-1,1.5892683E0,-2.341856E-1,-5.867038E-1,-4.5715395E-2,3.2996494E-1,-1.5165502E-1,3.4758963E-2,-1.272757E-1,-7.615938E-1,2.7381986E-1,-1.5572689E0,4.2562175E-1,-1.1226375E0,-1.1866083E-1,1.2295103E-2,6.457971E-1,-1.8704946E-1,9.0794116E-2,-3.0011016E-1,-1.2625254E-2,1.7112696E-1,-3.1141145E-2,-6.974001E-2,7.3670596E-2,-6.250327E-2,-2.4898188E-1,-3.0895712E-2,-1.3188209E-1,2.008263E-1,2.55548E-2,2.3406062E-1,9.643852E-1,-1.4249955E-1,2.1772571E-1,-9.272315E-2,-2.2683759E-1,2.1217367E-1,-4.221468E-2,3.9090213E-1,-1.9225815E-2,1.4194539E-1,-9.452716E-2,4.5536482E-1,-3.9560443E-1,1.6562663E-2,1.5881437E-1,-4.762988E-2,-6.25475E-1,5.695014E-2,3.7209997E-1,-3.8243017E-1,1.4159865E-2,1.9174416E-1,-4.737185E-2],"categories":[],"categories_nodes":[],"categories_segments":[],"categories_sizes":[],"default_left":[1,0,0,0,0,0,0,0,0,0,0,0,0,0,0,0,0,0,0,0,0,0,0,0,0,0,0,0,0,1,0,0,0,0,0,0,0,0,0,0,0,0,0,0,0,0,0,0,0,0,0,0,0,0,0,0,0,0,0,0,0,0,0,0,0,0,0,0,0,0,0,0,0,0,0,0,0,0,0,0,0,0,0,0,0,0,0,0,0,0,0],"id":14,"left_children":[1,3,5,7,9,11,13,15,17,19,21,-1,23,25,27,29,31,33,-1,35,37,39,41,43,-1,45,-1,47,49,51,53,55,57,59,61,63,65,67,69,71,73,75,77,-1,-1,79,81,83,85,87,89,-1,-1,-1,-1,-1,-1,-1,-1,-1,-1,-1,-1,-1,-1,-1,-1,-1,-1,-1,-1,-1,-1,-1,-1,-1,-1,-1,-1,-1,-1,-1,-1,-1,-1,-1,-1,-1,-1,-1,-1],"loss_changes":[7.3324294E0,8.202434E0,2.0658102E1,1.3801554E1,8.010578E0,3.5611343E1,1.4426648E1,1.0213781E1,6.777287E1,1.7532156E1,1.0532241E1,0E0,3.210355E1,8.796899E1,1.1793403E1,9.553056E0,8.87158E0,1.0506152E0,0E0,1.1854038E0,1.5626228E1,1.1291744E1,6.5351014E0,2.6002347E-1,0E0,1.7846071E1,0E0,2.5261066E1,8.744942E0,2.6561642E1,1.3714739E1,2.9919624E0,4.973055E-1,3.9085642E-1,4.126787E-2,7.8580105E-1,1.5152544E-1,1.4587147E1,2.1940548E0,4.893215E0,4.4629383E0,1.4653776E1,1.1279679E1,0E0,0E0,2.4859226E1,1.2708796E1,4.834404E0,1.5324572E1,1.66187E0,7.833437E0,0E0,0E0,0E0,0E0,0E0,0E0,0E0,0E0,0E0,0E0,0E0,0E0,0E0,0E0,0E0,0E0,0E0,0E0,0E0,0E0,0E0,0E0,0E0,0E0,0E0,0E0,0E0,0E0,0E0,0E0,0E0,0E0,0E0,0E0,0E0,0E0,0E0,0E0,0E0,0E0],"parents":[2147483647,0,0,1,1,2,2,3,3,4,4,5,5,6,6,7,7,8,8,9,9,10,10,12,12,13,13,14,14,15,15,16,16,17,17,19,19,20,20,21,21,22,22,23,23,25,25,27,27,28,28,29,29,30,30,31,31,32,32,33,33,34,34,35,35,36,36,37,37,38,38,39,39,40,40,41,41,42,42,45,45,46,46,47,47,48,48,49,49,50,50],"right_children":[2,4,6,8,10,12,14,16,18,20,22,-1,24,26,28,30,32,34,-1,36,38,40,42,44,-1,46,-1,48,50,52,54,56,58,60,62,64,66,68,70,72,74,76,78,-1,-1,80,82,84,86,88,90,-1,-1,-1,-1,-1,-1,-1,-1,-1,-1,-1,-1,-1,-1,-1,-1,-1,-1,-1,-1,-1,-1,-1,-1,-1,-1,-1,-1,-1,-1,-1,-1,-1,-1,-1,-1,-1,-1,-1,-1],"split_conditions":[3.23E0,1.2785916E1,3.3E0,1.2535918E1,8.5E-1,1.4506062E2,1.8026836E2,1.0400002E1,2.7E1,6.7E-1,1.6560919E1,-4.2085797E-1,2.43E0,1.7787239E2,1.8E0,5.5E0,6.7692494E0,4E-1,1.5574218E0,1.47E0,1.63E0,2.4114339E2,1.3513193E1,1.43E0,1.381006E0,1.25E0,1.694751E0,9.4841665E-1,1.87E0,1.717E1,5.3963337E0,2.427395E2,2.8531567E2,1.6165964E1,1.5E0,7.2E-1,1.67E0,1.7E0,1.7415083E1,1.3885977E2,1.2387348E1,1.7052584E1,1.468502E2,3.4758963E-2,-1.272757E-1,1.32E0,1.1767799E2,2.6716664E-1,1.55E0,9E0,9.83268E0,1.2295103E-2,6.457971E-1,-1.8704946E-1,9.0794116E-2,-3.0011016E-1,-1.2625254E-2,1.7112696E-1,-3.1141145E-2,-6.974001E-2,7.3670596E-2,-6.250327E-2,-2.4898188E-1,-3.0895712E-2,-1.3188209E-1,2.008263E-1,2.55548E-2,2.3406062E-1,9.643852E-1,-1.4249955E-1,2.1772571E-1,-9.272315E-2,-2.2683759E-1,2.1217367E-1,-4.221468E-2,3.9090213E-1,-1.9225815E-2,1.4194539E-1,-9.452716E-2,4.5536482E-1,-3.9560443E-1,1.6562663E-2,1.5881437E-1,-4.762988E-2,-6.25475E-1,5.695014E-2,3.7209997E-1,-3.8243017E-1,1.4159865E-2,1.9174416E-1,-4.737185E-2],"split_indices":[0,3,0,3,2,6,6,4,5,2,3,0,2,6,2,1,3,4,0,0,0,6,5,1,0,2,0,3,2,2,3,6,6,5,1,1,0,4,3,6,5,3,6,0,0,1,6,3,2,0,5,0,0,0,0,0,0,0,0,0,0,0,0,0,0,0,0,0,0,0,0,0,0,0,0,0,0,0,0,0,0,0,0,0,0,0,0,0,0,0,0],"split_type":[0,0,0,0,0,0,0,0,0,0,0,0,0,0,0,0,0,0,0,0,0,0,0,0,0,0,0,0,0,0,0,0,0,0,0,0,0,0,0,0,0,0,0,0,0,0,0,0,0,0,0,0,0,0,0,0,0,0,0,0,0,0,0,0,0,0,0,0,0,0,0,0,0,0,0,0,0,0,0,0,0,0,0,0,0,0,0,0,0,0,0],"sum_hessian":[1.962E3,1.356E3,6.06E2,9.52E2,4.04E2,7E0,5.99E2,9.42E2,1E1,9.1E1,3.13E2,2E0,5E0,2.46E2,3.53E2,9.13E2,2.9E1,8E0,2E0,7.2E1,1.9E1,1.68E2,1.45E2,2E0,3E0,2.44E2,2E0,8.6E1,2.67E2,8.42E2,7.1E1,2.3E1,6E0,5E0,3E0,7E1,2E0,1.2E1,7E0,1.08E2,6E1,3.7E1,1.08E2,1E0,1E0,1.7E1,2.27E2,6E0,8E1,8E0,2.59E2,8.37E2,5E0,4.8E1,2.3E1,1.9E1,4E0,5E0,1E0,3E0,2E0,1E0,2E0,6.3E1,7E0,1E0,1E0,9E0,3E0,6E0,1E0,4.2E1,6.6E1,6E0,5.4E1,1E1,2.7E1,2.2E1,8.6E1,3E0,1.4E1,1.23E2,1.04E2,2E0,4E0,6.3E1,1.7E1,7E0,1E0,1.2E1,2.47E2],"tree_param":{"num_deleted":"0","num_feature":"7","num_nodes":"91","size_leaf_vector":"1"}},{"base_weights":[1.0249582E-2,-1.5144576E-1,3.5134383E-2,-7.5091854E-2,-9.4159764E-1,1.8288733E0,1.8101213E-2,2.244013E-1,-2.906184E-1,-1.5143772E0,-3.8450745E-1,6.2962025E-1,3.2808242E0,8.126701E-3,5.027995E-1,7.405311E-2,3.8518314E0,-3.9634025E-1,1.2922599E0,-1.7964634E0,-5.7161057E-1,1.5274677E-1,-5.932786E-1,-3.855476E-2,1.3055062E0,1.2921834E0,4.7646046E-1,-1.0424671E-2,2.43248E-1,-1.3949527E-1,1.2340996E0,-2.6102814E-1,5.087158E-1,7.07418E-2,1.4935715E0,-8.451577E-1,-6.478032E-2,1.9379743E0,3.8809347E-1,-2.762275E-1,-6.4132047E-1,-1.9491965E-1,-5.0586894E-2,-6.9172287E-1,5.867465E-2,-7.153048E-2,1.8264452E-2,4.9696234E-1,-1.4794994E-2,-1.6525842E-2,2.3093306E-1,-4.8532464E-2,2.0584096E-1,7.984427E-1,-1.2016542E-1,1.0836486E0,-5.379102E-1,9.575652E-1,7.264245E-1,6.910736E-3,-2.917883E-1,6.69897E-1,8.238331E-2,-1.7986211E-1,-5.74513E-1,5.701125E-2,-1.347082E-1,1.21540375E-1,6.659702E-1,1.6988151E-1,-4.8692897E-2,-6.942533E-2,-2.8800702E-1,-6.2296353E-3,-2.4459105E-2,7.5258138E-3,6.9319014E-4,-3.0233487E-3,-1.0828186E-1,4.5658642E-1,2.4034591E-2,8.566702E-2,8.96766E-1,-5.8267362E-2,7.9292256E-1,4.168482E-1,-2.0959927E-2,-4.8837606E-2,-3.7667647E-1,-1.6809964E-1,3.3848923E-1],"categories":[],"categories_nodes":[],"categories_segments":[],"categories_sizes":[],"default_left":[0,0,0,0,0,0,1,0,0,0,0,0,0,0,0,0,0,0,0,0,0,0,0,0,0,0,0,1,0,0,0,0,0,0,0,0,0,0,0,0,0,0,0,0,0,0,0,0,0,0,0,1,0,0,0,0,0,0,0,0,0,0,0,0,0,0,0,0,0,0,0,0,0,0,0,0,0,0,0,0,0,0,0,0,0,0,0,0,0,0,0],"id":15,"left_children":[1,3,5,7,9,11,13,15,17,19,21,23,25,27,29,31,33,35,37,39,41,-1,43,45,47,-1,49,51,53,55,57,59,61,-1,-1,63,65,67,69,-1,-1,-1,-1,71,-1,73,75,-1,-1,-1,-1,77,79,81,83,85,87,-1,89,-1,-1,-1,-1,-1,-1,-1,-1,-1,-1,-1,-1,-1,-1,-1,-1,-1,-1,-1,-1,-1,-1,-1,-1,-1,-1,-1,-1,-1,-1,-1,-1],"loss_changes":[7.903955E0,1.5736066E1,5.1968204E1,1.5556909E1,6.7567787E0,2.5794434E1,8.151935E0,5.479789E1,2.3940454E1,1.8984795E0,2.7274957E0,4.5664344E0,1.8097595E1,7.2169905E0,1.61423E1,1.4406228E1,1.5123299E1,1.9588156E1,4.5023823E0,4.2248726E-1,1.636827E-2,0E0,9.895358E-1,1.2548394E-2,2.4596462E0,0E0,5.10138E-1,1.2652307E1,2.4509535E1,9.841963E0,1.358403E1,1.1342232E1,1.6744215E1,0E0,0E0,1.3567673E1,7.6246314E0,1.2613811E0,5.8226055E-1,0E0,0E0,0E0,0E0,1.0128341E0,0E0,3.3755973E-4,2.6852672E-4,0E0,0E0,0E0,0E0,1.5673979E1,3.7935997E1,5.308011E1,1.5656943E1,1.8610649E0,3.8338118E0,0E0,7.8717985E0,0E0,0E0,0E0,0E0,0E0,0E0,0E0,0E0,0E0,0E0,0E0,0E0,0E0,0E0,0E0,0E0,0E0,0E0,0E0,0E0,0E0,0E0,0E0,0E0,0E0,0E0,0E0,0E0,0E0,0E0,0E0,0E0],"parents":[2147483647,0,0,1,1,2,2,3,3,4,4,5,5,6,6,7,7,8,8,9,9,10,10,11,11,12,12,13,13,14,14,15,15,16,16,17,17,18,18,19,19,20,20,22,22,23,23,24,24,26,26,27,27,28,28,29,29,30,30,31,31,32,32,35,35,36,36,37,37,38,38,43,43,45,45,46,46,51,51,52,52,53,53,54,54,55,55,56,56,58,58],"right_children":[2,4,6,8,10,12,14,16,18,20,22,24,26,28,30,32,34,36,38,40,42,-1,44,46,48,-1,50,52,54,56,58,60,62,-1,-1,64,66,68,70,-1,-1,-1,-1,72,-1,74,76,-1,-1,-1,-1,78,80,82,84,86,88,-1,90,-1,-1,-1,-1,-1,-1,-1,-1,-1,-1,-1,-1,-1,-1,-1,-1,-1,-1,-1,-1,-1,-1,-1,-1,-1,-1,-1,-1,-1,-1,-1,-1],"split_conditions":[1.2979984E1,2.3E0,1.3084402E1,6.292167E0,1.1752583E1,2.7E0,1.859E1,5.744251E0,7.37E0,1.8350475E2,3E0,1.23E0,3.53E0,7.4E0,8.0755E0,2.43E0,1.5E0,1.4006751E1,1.017E1,9.6962616E1,4.3E0,1.5274677E-1,6.3E0,1.5E-1,2.73E0,1.2921834E0,1.83E0,5.92E0,1.593571E2,1.62E0,8.796334E0,2.2484167E0,1.77E0,7.07418E-2,1.4935715E0,4E-1,2.8E0,3.75E0,1.74755E1,-2.762275E-1,-6.4132047E-1,-1.9491965E-1,-5.0586894E-2,1.34E0,5.867465E-2,1.3004921E1,1.1E0,4.9696234E-1,-1.4794994E-2,-1.6525842E-2,2.3093306E-1,5.39E0,6.47E0,1.3651117E2,4.2518116E1,3.30675E0,1.429E1,9.575652E-1,5E0,6.910736E-3,-2.917883E-1,6.69897E-1,8.238331E-2,-1.7986211E-1,-5.74513E-1,5.701125E-2,-1.347082E-1,1.21540375E-1,6.659702E-1,1.6988151E-1,-4.8692897E-2,-6.942533E-2,-2.8800702E-1,-6.2296353E-3,-2.4459105E-2,7.5258138E-3,6.9319014E-4,-3.0233487E-3,-1.0828186E-1,4.5658642E-1,2.4034591E-2,8.566702E-2,8.96766E-1,-5.8267362E-2,7.9292256E-1,4.168482E-1,-2.0959927E-2,-4.8837606E-2,-3.7667647E-1,-1.6809964E-1,3.3848923E-1],"split_indices":[5,4,5,3,3,1,0,3,1,6,4,0,1,4,3,2,0,3,1,6,2,0,0,0,0,0,0,2,6,2,3,3,1,0,0,4,2,0,3,0,0,0,0,0,0,5,0,0,0,0,0,0,2,6,5,3,1,0,1,0,0,0,0,0,0,0,0,0,0,0,0,0,0,0,0,0,0,0,0,0,0,0,0,0,0,0,0,0,0,0,0],"split_type":[0,0,0,0,0,0,0,0,0,0,0,0,0,0,0,0,0,0,0,0,0,0,0,0,0,0,0,0,0,0,0,0,0,0,0,0,0,0,0,0,0,0,0,0,0,0,0,0,0,0,0,0,0,0,0,0,0,0,0,0,0,0,0,0,0,0,0,0,0,0,0,0,0,0,0,0,0,0,0,0,0,0,0,0,0,0,0,0,0,0,0],"sum_hessian":[1.962E3,2.61E2,1.701E3,2.39E2,2.2E1,1.5E1,1.686E3,1E2,1.39E2,1E1,1.2E1,9E0,6E0,1.653E3,3.3E1,9.7E1,3E0,1.31E2,8E0,7E0,3E0,2E0,1E1,5E0,4E0,4E0,2E0,1.533E3,1.2E2,1.8E1,1.5E1,5.5E1,4.2E1,1E0,2E0,5.5E1,7.6E1,4E0,4E0,3E0,4E0,2E0,1E0,9E0,1E0,3E0,2E0,3E0,1E0,1E0,1E0,1.304E3,2.29E2,4.7E1,7.3E1,4E0,1.4E1,2E0,1.3E1,4E1,1.5E1,4E0,3.8E1,4.6E1,9E0,4.6E1,3E1,1E0,3E0,3E0,1E0,4E0,5E0,1E0,2E0,1E0,1E0,1.162E3,1.42E2,1.9E1,2.1E2,3.9E1,8E0,7.2E1,1E0,3E0,1E0,1E1,4E0,3E0,1E1],"tree_param":{"num_deleted":"0","num_feature":"7","num_nodes":"91","size_leaf_vector":"1"}},{"base_weights":[1.020595E-2,1.349495E-2,-9.107626E-1,4.038046E-2,-9.638661E-2,-3.46617E-1,-1.9946273E-1,-2.2869736E-1,5.6671984E-2,-1.1052699E-1,5.0664765E-1,2.5007987E-2,-1.1476622E-1,-3.550755E-1,5.4716355E-1,-2.1552682E-2,1.2865037E-1,-7.226081E-2,-2.7731922E-1,1.2508039E-1,9.5233667E-1,2.1992622E-1,-5.439731E-1,1.8785254E0,-5.1975334E-1,7.6079704E-2,-1.6639535E-1,-8.5569304E-1,1.5593132E-1,-8.3451495E-2,1.0932758E0,-4.2222527E-1,2.3812778E-1,1.8552032E-1,-9.7263955E-2,5.3829577E-2,3.4504828E-1,-6.3372776E-2,2.0166579E-1,-3.9267838E-2,-2.6652578E-1,1.03309326E-1,6.349454E-1,-3.3250767E-1,1.0378257E-1,-2.6242558E-2,9.543511E-2,-3.810578E-2,-2.6158413E-1,-7.51691E-2,-5.423124E-1,9.79449E-2,-3.4345349E-3,3.7797518E-2,-3.200207E-2,4.9392805E-1,-1.9539357E-3,3.7238824E-1,-1.4280544E-1,-4.766908E-2,2.3138632E-1,1.3735772E-2,-4.334187E-2],"categories":[],"categories_nodes":[],"categories_segments":[],"categories_sizes":[],"default_left":[0,0,0,0,0,0,0,0,1,0,0,0,0,0,0,0,0,0,0,0,0,0,0,0,0,0,1,0,0,0,0,0,0,0,0,0,0,0,0,0,0,0,0,0,0,0,0,0,0,0,0,0,0,0,0,0,0,0,0,0,0,0,0],"id":16,"left_children":[1,3,5,7,9,-1,11,13,15,17,19,-1,-1,21,23,25,27,29,31,33,35,37,39,41,43,45,47,49,51,53,55,57,59,-1,61,-1,-1,-1,-1,-1,-1,-1,-1,-1,-1,-1,-1,-1,-1,-1,-1,-1,-1,-1,-1,-1,-1,-1,-1,-1,-1,-1,-1],"loss_changes":[5.958348E0,5.785304E0,9.8756695E-1,6.908502E0,3.3389442E0,0E0,1.8723682E-1,9.018951E0,8.358414E0,2.3861632E0,1.4114244E0,0E0,0E0,8.591717E0,1.9442253E1,1.008129E1,2.0891443E1,4.108526E0,5.3289413E0,7.182705E-1,4.0522194E-1,4.0422945E0,8.278461E0,1.461565E0,4.4598513E0,1.6891628E1,7.8626404E0,1.1644989E1,2.1499552E1,1.5017331E0,1.8357713E0,5.512577E0,3.5093977E0,0E0,4.038098E-2,0E0,0E0,0E0,0E0,0E0,0E0,0E0,0E0,0E0,0E0,0E0,0E0,0E0,0E0,0E0,0E0,0E0,0E0,0E0,0E0,0E0,0E0,0E0,0E0,0E0,0E0,0E0,0E0],"parents":[2147483647,0,0,1,1,2,2,3,3,4,4,6,6,7,7,8,8,9,9,10,10,13,13,14,14,15,15,16,16,17,17,18,18,19,19,20,20,21,21,22,22,23,23,24,24,25,25,26,26,27,27,28,28,29,29,30,30,31,31,32,32,34,34],"right_children":[2,4,6,8,10,-1,12,14,16,18,20,-1,-1,22,24,26,28,30,32,34,36,38,40,42,44,46,48,50,52,54,56,58,60,-1,62,-1,-1,-1,-1,-1,-1,-1,-1,-1,-1,-1,-1,-1,-1,-1,-1,-1,-1,-1,-1,-1,-1,-1,-1,-1,-1,-1,-1],"split_conditions":[2.2300003E1,2.791033E2,6.75E0,1.1183201E1,1.9469252E1,-3.46617E-1,3.75E0,7.37E0,2.06E0,2.83E0,1E-1,2.5007987E-2,-1.1476622E-1,1.9109163E0,1.142E1,1.7E0,-1.0932502E0,2.8E0,2.6E0,2.18E0,3.63E0,1.9E0,2.06E0,3.75E0,1.593571E2,1.12E0,2E0,9.6962616E1,3.5E0,1.3004921E1,2.02E0,1.03E0,7.3963337E0,1.8552032E-1,3.75E0,5.3829577E-2,3.4504828E-1,-6.3372776E-2,2.0166579E-1,-3.9267838E-2,-2.6652578E-1,1.03309326E-1,6.349454E-1,-3.3250767E-1,1.0378257E-1,-2.6242558E-2,9.543511E-2,-3.810578E-2,-2.6158413E-1,-7.51691E-2,-5.423124E-1,9.79449E-2,-3.4345349E-3,3.7797518E-2,-3.200207E-2,4.9392805E-1,-1.9539357E-3,3.7238824E-1,-1.4280544E-1,-4.766908E-2,2.3138632E-1,1.3735772E-2,-4.334187E-2],"split_indices":[4,6,1,5,3,0,0,1,0,0,4,0,0,3,1,2,3,0,4,0,2,1,0,0,6,0,0,6,1,5,1,1,3,0,1,0,0,0,0,0,0,0,0,0,0,0,0,0,0,0,0,0,0,0,0,0,0,0,0,0,0,0,0],"split_type":[0,0,0,0,0,0,0,0,0,0,0,0,0,0,0,0,0,0,0,0,0,0,0,0,0,0,0,0,0,0,0,0,0,0,0,0,0,0,0,0,0,0,0,0,0,0,0,0,0,0,0,0,0,0,0,0,0,0,0,0,0,0,0],"sum_hessian":[1.962E3,1.956E3,6E0,1.572E3,3.84E2,4E0,2E0,8.9E1,1.483E3,3.76E2,8E0,1E0,1E0,7.7E1,1.2E1,7.11E2,7.72E2,3.07E2,6.9E1,5E0,3E0,1.9E1,5.8E1,5E0,7E0,4.25E2,2.86E2,2E1,7.52E2,3.05E2,2E0,5.4E1,1.5E1,1E0,4E0,1E0,2E0,1E1,9E0,2.7E1,3.1E1,1E0,4E0,4E0,3E0,2.54E2,1.71E2,2.72E2,1.4E1,1.3E1,7E0,3.72E2,3.8E2,3E1,2.75E2,1E0,1E0,1E0,5.3E1,9E0,6E0,1E0,3E0],"tree_param":{"num_deleted":"0","num_feature":"7","num_nodes":"63","size_leaf_vector":"1"}},{"base_weights":[7.459E-3,2.9796099E-3,4.913165E-1,8.287987E-3,-3.8934237E-1,1.1442764E-1,1.7818205E0,4.5738304E-3,1.430638E0,-5.862026E-1,5.547113E-1,9.4477856E-1,-7.302267E-1,6.300304E-1,1.2404681E-1,2.9420134E-2,-9.904289E-2,1.2195724E0,-2.4432316E-1,-8.2816136E-1,-2.6895657E-1,-3.0276338E-2,3.0763197E-1,3.777716E-1,9.321372E-4,-8.757174E-1,4.3231204E-2,-5.1148847E-2,1.322208E-1,-3.329521E-1,-7.902587E-3,-2.2804882E-1,1.8101092E-1,-1.6901049E-1,-3.4098312E-1,3.469608E-2,-3.672759E-1,-1.4402354E-2,1.4821816E-2,-3.6673647E-1,-1.4775941E-1,-3.7404027E-2,1.2381395E-1,6.974932E-2,-4.4922408E-2,-1.136572E-1,6.592923E-1,1.9672489E-1,-1.4119061E-2,9.994692E-2,-1.8492008E-2,-1.2535398E-1,4.0848736E-2,-1.7705098E-2,-1.3407567E-1],"categories":[],"categories_nodes":[],"categories_segments":[],"categories_sizes":[],"default_left":[1,0,0,0,0,0,0,0,0,0,0,0,0,0,0,0,0,0,0,0,0,0,0,0,0,0,0,0,0,0,0,0,0,0,0,0,0,0,0,0,0,0,0,0,0,0,0,0,0,0,0,0,0,0,0],"id":17,"left_children":[1,3,5,7,9,11,13,15,17,19,21,23,25,-1,-1,27,29,-1,31,33,35,-1,-1,-1,37,39,-1,41,43,45,47,-1,49,51,-1,-1,53,-1,-1,-1,-1,-1,-1,-1,-1,-1,-1,-1,-1,-1,-1,-1,-1,-1,-1],"loss_changes":[4.253116E0,4.055953E0,8.550888E0,1.0141774E1,5.1571865E0,1.1210295E1,8.736839E-1,4.9382167E0,2.3057524E1,1.4659905E0,1.6466134E0,2.3732424E0,1.1438503E0,0E0,0E0,1.281986E1,7.9065547E0,0E0,1.0152143E0,2.247674E0,4.584375E-1,0E0,0E0,0E0,9.488816E-3,3.2795763E-1,0E0,2.9657501E1,1.9261333E1,1.2913996E1,6.9959807E0,0E0,1.312905E-1,4.365852E-1,0E0,0E0,1.945802E-1,0E0,0E0,0E0,0E0,0E0,0E0,0E0,0E0,0E0,0E0,0E0,0E0,0E0,0E0,0E0,0E0,0E0,0E0],"parents":[2147483647,0,0,1,1,2,2,3,3,4,4,5,5,6,6,7,7,8,8,9,9,10,10,11,11,12,12,15,15,16,16,18,18,19,19,20,20,24,24,25,25,27,27,28,28,29,29,30,30,32,32,33,33,36,36],"right_children":[2,4,6,8,10,12,14,16,18,20,22,24,26,-1,-1,28,30,-1,32,34,36,-1,-1,-1,38,40,-1,42,44,46,48,-1,50,52,-1,-1,54,-1,-1,-1,-1,-1,-1,-1,-1,-1,-1,-1,-1,-1,-1,-1,-1,-1,-1],"split_conditions":[2.585E1,1.5E1,2.99E1,1.4400001E1,2.4013174E2,9E0,2.99E1,2.5460936E1,7.7E-1,1.6613754E2,2.02E0,2.1567978E2,4.9E0,6.300304E-1,1.2404681E-1,3E-1,2.1673509E2,1.2195724E0,1.5E0,8.508833E0,1.8880824E2,-3.0276338E-2,3.0763197E-1,3.777716E-1,6.75E0,1.282E1,4.3231204E-2,6.39E0,4.23E0,4.2518116E1,2.2117584E2,-2.2804882E-1,1.23E0,1.47E0,-3.4098312E-1,3.469608E-2,1E0,-1.4402354E-2,1.4821816E-2,-3.6673647E-1,-1.4775941E-1,-3.7404027E-2,1.2381395E-1,6.974932E-2,-4.4922408E-2,-1.136572E-1,6.592923E-1,1.9672489E-1,-1.4119061E-2,9.994692E-2,-1.8492008E-2,-1.2535398E-1,4.0848736E-2,-1.7705098E-2,-1.3407567E-1],"split_indices":[1,4,2,4,6,2,1,5,1,6,0,6,4,0,0,4,6,0,2,3,6,0,0,0,0,2,0,2,2,5,6,0,0,2,0,0,0,0,0,0,0,0,0,0,0,0,0,0,0,0,0,0,0,0,0],"split_type":[0,0,0,0,0,0,0,0,0,0,0,0,0,0,0,0,0,0,0,0,0,0,0,0,0,0,0,0,0,0,0,0,0,0,0,0,0,0,0,0,0,0,0,0,0,0,0,0,0,0,0,0,0,0,0],"sum_hessian":[1.962E3,1.945E3,1.7E1,1.92E3,2.5E1,1.4E1,3E0,1.916E3,4E0,2.1E1,4E0,7E0,7E0,2E0,1E0,1.546E3,3.7E2,1E0,3E0,1.1E1,1E1,2E0,2E0,5E0,2E0,6E0,1E0,8.67E2,6.79E2,1.03E2,2.67E2,1E0,2E0,4E0,7E0,2E0,8E0,1E0,1E0,2E0,4E0,7.49E2,1.18E2,5.01E2,1.78E2,1.02E2,1E0,1.4E1,2.53E2,1E0,1E0,2E0,2E0,2E0,6E0],"tree_param":{"num_deleted":"0","num_feature":"7","num_nodes":"55","size_leaf_vector":"1"}},{"base_weights":[6.3971845E-3,-3.3693197E-1,1.2080484E-2,2.3112366E-1,-4.769111E-1,6.1904766E-2,-3.461068E-2,4.7878075E-2,1.3784753E-1,-5.809598E-1,1.543347E-1,4.4868205E-2,2.030408E0,-1.0640448E-1,1.5452866E-1,-3.473635E-2,5.8675386E-2,-2.7362594E-1,-7.809393E-1,1.3284734E-1,-1.3615753E-1,2.4400811E-1,1.1267416E0,-1.152688E-1,2.0624092E0,3.5800892E-1,-3.8297898E-1,-3.6579317E-1,9.408442E-2,-1.7013958E-1,-2.7961615E-1,2.8083715E-1,-4.3549113E-2,-4.967497E-1,-3.0153222E-2,-1.08158775E-1,2.4790135E-1,-1.6040847E-1,2.2948731E-1,8.614386E-1,6.664553E-2,-2.1756917E-1,4.9436408E-1,-7.487172E-1,-9.9971235E-2,-3.1949233E-2,-1.2739913E-1,-5.4453764E-2,9.679175E-2,3.11746E-3,-7.013414E-2,-2.4004927E-2,1.6682963E-1,-7.9321444E-2,3.773492E-3,-2.4997027E-1,-5.496487E-2,-4.110349E-2,1.2425909E-1,-8.427188E-3,-3.7645385E-2,-9.298499E-2,-7.64347E-3,1.4128908E0,-1.6017163E-2,-3.1851094E-2,-1.2267364E-1,7.649681E-1,1.1552485E-1,-4.771692E-1,-1.3826719E-1,-1.6299039E-1,4.4421583E-2],"categories":[],"categories_nodes":[],"categories_segments":[],"categories_sizes":[],"default_left":[0,0,0,0,0,0,0,0,0,0,0,0,0,0,0,0,0,0,0,0,0,0,0,0,0,0,0,0,0,0,0,0,0,0,0,0,0,0,0,0,0,0,0,0,0,0,0,0,0,0,0,0,0,0,0,0,0,0,0,0,0,0,0,0,0,0,0,0,0,0,0,0,0],"id":18,"left_children":[1,3,5,7,9,11,13,15,-1,17,-1,19,21,23,25,-1,-1,27,29,31,33,35,-1,37,39,41,43,45,47,49,-1,51,53,55,57,59,-1,61,63,-1,-1,65,67,69,71,-1,-1,-1,-1,-1,-1,-1,-1,-1,-1,-1,-1,-1,-1,-1,-1,-1,-1,-1,-1,-1,-1,-1,-1,-1,-1,-1,-1],"loss_changes":[3.8343594E0,2.6547353E0,4.4966583E0,2.7093253E-1,2.9807668E0,3.1265549E1,1.3568317E1,1.4351892E-1,0E0,1.2613659E0,0E0,1.4797866E1,2.3741554E1,1.4156668E1,3.021446E1,0E0,0E0,4.0721476E-1,1.1336308E0,1.6327778E1,1.1605215E1,1.114762E0,0E0,1.1272702E1,3.8286972E0,1.5804171E1,7.791662E0,9.215832E-2,2.4753004E-1,4.8385963E-2,0E0,3.3816406E1,3.5485992E0,7.1267815E0,1.1262632E1,2.0240508E-3,0E0,1.2885633E1,1.06707565E2,0E0,0E0,7.8788567E-1,3.5408283E1,7.2630196E0,4.9189076E0,0E0,0E0,0E0,0E0,0E0,0E0,0E0,0E0,0E0,0E0,0E0,0E0,0E0,0E0,0E0,0E0,0E0,0E0,0E0,0E0,0E0,0E0,0E0,0E0,0E0,0E0,0E0,0E0],"parents":[2147483647,0,0,1,1,2,2,3,3,4,4,5,5,6,6,7,7,9,9,11,11,12,12,13,13,14,14,17,17,18,18,19,19,20,20,21,21,23,23,24,24,25,25,26,26,27,27,28,28,29,29,31,31,32,32,33,33,34,34,35,35,37,37,38,38,41,41,42,42,43,43,44,44],"right_children":[2,4,6,8,10,12,14,16,-1,18,-1,20,22,24,26,-1,-1,28,30,32,34,36,-1,38,40,42,44,46,48,50,-1,52,54,56,58,60,-1,62,64,-1,-1,66,68,70,72,-1,-1,-1,-1,-1,-1,-1,-1,-1,-1,-1,-1,-1,-1,-1,-1,-1,-1,-1,-1,-1,-1,-1,-1,-1,-1,-1,-1],"split_conditions":[-3.8411667E0,1.03E0,7.146333E0,1.2E0,2.7E0,7.0546665E0,1.3000002E0,1.34E0,1.3784753E-1,1.43E0,1.543347E-1,1.3000002E0,1.34E0,2.99E1,4.53E0,-3.473635E-2,5.8675386E-2,9.50702E1,5.3652462E1,2.3728137E2,1.03E0,1.12E0,1.1267416E0,6.39E0,4.437E1,7.2E-1,1.3831752E1,1.03E0,9.3E-1,1.12E0,-2.7961615E-1,1.1598429E2,2.5094016E2,2.0849919E2,4.846333E0,4E-1,2.4790135E-1,2.174469E2,6.47E0,8.614386E-1,6.664553E-2,4.5999994E0,6.3E-1,6.75E0,4.75E0,-3.1949233E-2,-1.2739913E-1,-5.4453764E-2,9.679175E-2,3.11746E-3,-7.013414E-2,-2.4004927E-2,1.6682963E-1,-7.9321444E-2,3.773492E-3,-2.4997027E-1,-5.496487E-2,-4.110349E-2,1.2425909E-1,-8.427188E-3,-3.7645385E-2,-9.298499E-2,-7.64347E-3,1.4128908E0,-1.6017163E-2,-3.1851094E-2,-1.2267364E-1,7.649681E-1,1.1552485E-1,-4.771692E-1,-1.3826719E-1,-1.6299039E-1,4.4421583E-2],"split_indices":[3,1,3,2,2,3,4,0,0,1,0,4,0,0,2,0,0,6,6,6,2,0,0,2,0,0,3,0,0,0,0,6,6,6,3,1,0,6,2,0,0,4,1,2,1,0,0,0,0,0,0,0,0,0,0,0,0,0,0,0,0,0,0,0,0,0,0,0,0,0,0,0,0],"split_type":[0,0,0,0,0,0,0,0,0,0,0,0,0,0,0,0,0,0,0,0,0,0,0,0,0,0,0,0,0,0,0,0,0,0,0,0,0,0,0,0,0,0,0,0,0,0,0,0,0,0,0,0,0,0,0,0,0,0,0,0,0,0,0,0,0,0,0,0,0,0,0,0,0],"sum_hessian":[1.962E3,3.1E1,1.931E3,6E0,2.5E1,9.34E2,9.97E2,4E0,2E0,2.3E1,2E0,9.27E2,7E0,7.23E2,2.74E2,2E0,2E0,1E1,1.3E1,6.24E2,3.03E2,4E0,3E0,7.21E2,2E0,1.99E2,7.5E1,8E0,2E0,3E0,1E1,3.39E2,2.85E2,6.8E1,2.35E2,3E0,1E0,6.38E2,8.3E1,1E0,1E0,3.8E1,1.61E2,3.2E1,4.3E1,2E0,6E0,1E0,1E0,1E0,2E0,1.47E2,1.92E2,5.7E1,2.28E2,3.2E1,3.6E1,1.9E2,4.5E1,1E0,2E0,3.02E2,3.36E2,4E0,7.9E1,2.5E1,1.3E1,7E0,1.54E2,7E0,2.5E1,1.5E1,2.8E1],"tree_param":{"num_deleted":"0","num_feature":"7","num_nodes":"73","size_leaf_vector":"1"}},{"base_weights":[6.130015E-3,6.5215886E-2,-3.9052557E-2,3.7854914E-2,7.877365E-1,-2.0043522E-2,-3.5555166E-1,2.8065205E-2,1.3629463E0,2.222702E0,-1.1262962E-1,-2.7762733E-2,1.1351879E0,