{"learner":{"attributes":{"scikit_learn":"{\"_estimator_type\": \"regressor\"}"},"feature_names":["pm25_lag_1","pm25_lag_2","pm25_lag_3","temperature_2m_mean","precipitation_sum","wind_speed_10m_max","wind_direction_10m_dominant"],"feature_types":["float","float","float","float","float","float","float"],"gradient_booster":{"model":{"gbtree_model_param":{"num_parallel_tree":"1","num_trees":"100"},"iteration_indptr":[0,1,2,3,4,5,6,7,8,9,10,11,12,13,14,15,16,17,18,19,20,21,22,23,24,25,26,27,28,29,30,31,32,33,34,35,36,37,38,39,40,41,42,43,44,45,46,47,48,49,50,51,52,53,54,55,56,57,58,59,60,61,62,63,64,65,66,67,68,69,70,71,72,73,74,75,76,77,78,79,80,81,82,83,84,85,86,87,88,89,90,91,92,93,94,95,96,97,98,99,100],"tree_info":[0,0,0,0,0,0,0,0,0,0,0,0,0,0,0,0,0,0,0,0,0,0,0,0,0,0,0,0,0,0,0,0,0,0,0,0,0,0,0,0,0,0,0,0,0,0,0,0,0,0,0,0,0,0,0,0,0,0,0,0,0,0,0,0,0,0,0,0,0,0,0,0,0,0,0,0,0,0,0,0,0,0,0,0,0,0,0,0,0,0,0,0,0,0,0,0,0,0,0,0],"trees":[{"base_weights":[8.240197E-8,-6.8834865E-1,3.1836128E0,-1.4968786E-1,-1.6894826E0,4.0612164E0,-4.1549328E-1,-8.8123286E-1,5.63959E-1,-6.2573665E-1,-1.4128194E0,3.1376014E0,7.9794297E0,1.5785011E0,-1.2332019E0,4.1312156E0,-9.831933E-1,1.949916E-1,1.3219075E0,-8.7235594E-1,-1.6855946E0,4.2132896E-1,3.7613554E0,4.0121523E-1,9.375269E0,1.3996027E-1,1.747243E0,-7.6823694E-1,-5.329497E-1,-3.6775696E-1,1.8976575E0,-1.6984174E0,-7.658109E-1,1.2526967E-1,1.4097431E0,1.5795676E0,-4.2818934E-1,-9.9093956E-1,5.612152E-1,-1.3833784E0,-1.870844E0,-7.559883E-2,8.296575E-1,4.306621E0,4.9480638E-1,-1.5434262E-1,4.7224307E-1,1.0455552E1,1.208858E0,2.1711458E-1,-4.7878477E-1,-9.525417E-1,1.02191366E-1,-5.4650074E-1,-1.1921115E-1,6.537309E-2,-2.798458E-1,1.5020819E-2,1.0026575E0,-9.269967E-2,5.567007E-1,-3.294283E-1,2.0511459E-1,-3.4379733E-1,1.0638886E-1,3.9965743E-1,-2.6275697E-1,-4.299529E-1,-1.1234261E-1,-5.6999236E-1,-7.525696E-2,-2.484711E-1,6.603646E-1,1.7039392E0,1.0370377E0,-3.2342824E-1,5.955718E-1,3.7625434E0,1.675072E0,5.067431E-1,3.7243046E-2,-2.5695562E-4,-1.913426E-1,-3.1645682E-1,-4.7569517E-3,5.974306E-2,-1.3756943E-2],"categories":[],"categories_nodes":[],"categories_segments":[],"categories_sizes":[],"default_left":[1,0,0,1,0,0,0,0,0,0,0,0,0,0,0,0,1,0,0,0,0,0,0,0,0,0,0,0,0,0,0,0,0,0,0,0,0,0,0,0,0,0,0,0,0,0,0,0,0,0,0,0,0,0,0,0,0,0,0,0,0,0,0,0,0,0,0,0,0,0,0,0,0,0,0,0,0,0,0,0,0,0,0,0,0,0,0],"id":0,"left_children":[1,3,5,7,9,11,13,15,17,-1,19,21,23,25,27,29,31,33,35,37,39,41,43,45,47,49,-1,51,-1,-1,-1,53,55,57,-1,59,61,63,65,67,69,71,-1,73,75,-1,-1,77,79,-1,81,83,85,-1,-1,-1,-1,-1,-1,-1,-1,-1,-1,-1,-1,-1,-1,-1,-1,-1,-1,-1,-1,-1,-1,-1,-1,-1,-1,-1,-1,-1,-1,-1,-1,-1,-1],"loss_changes":[1.5778337E3,3.1899585E2,4.059867E2,2.0201399E2,1.9749329E1,3.4771265E2,4.4339767E1,1.0167641E2,5.455527E1,0E0,1.6957687E1,1.424295E2,1.9721997E2,4.804509E1,3.4348965E0,5.4774483E1,2.7929031E1,4.1178417E1,2.9535881E1,8.036045E0,2.0027466E0,2.0012304E1,1.2076752E2,5.1060157E0,1.285133E2,2.8748724E0,0E0,2.022431E0,0E0,0E0,0E0,6.17144E0,2.4189568E1,3.1765223E1,0E0,2.9773788E1,7.4546165E0,8.960331E0,5.5986004E0,1.221756E0,1.7885437E0,2.7527382E1,0E0,4.921692E1,2.7927605E1,0E0,0E0,7.2270874E1,1.3532219E0,0E0,3.0346173E-1,9.416361E-1,5.219269E-2,0E0,0E0,0E0,0E0,0E0,0E0,0E0,0E0,0E0,0E0,0E0,0E0,0E0,0E0,0E0,0E0,0E0,0E0,0E0,0E0,0E0,0E0,0E0,0E0,0E0,0E0,0E0,0E0,0E0,0E0,0E0,0E0,0E0,0E0],"parents":[2147483647,0,0,1,1,2,2,3,3,4,4,5,5,6,6,7,7,8,8,10,10,11,11,12,12,13,13,14,14,15,15,16,16,17,17,18,18,19,19,20,20,21,21,22,22,23,23,24,24,25,25,27,27,31,31,32,32,33,33,35,35,36,36,37,37,38,38,39,39,40,40,41,41,43,43,44,44,47,47,48,48,50,50,51,51,52,52],"right_children":[2,4,6,8,10,12,14,16,18,-1,20,22,24,26,28,30,32,34,36,38,40,42,44,46,48,50,-1,52,-1,-1,-1,54,56,58,-1,60,62,64,66,68,70,72,-1,74,76,-1,-1,78,80,-1,82,84,86,-1,-1,-1,-1,-1,-1,-1,-1,-1,-1,-1,-1,-1,-1,-1,-1,-1,-1,-1,-1,-1,-1,-1,-1,-1,-1,-1,-1,-1,-1,-1,-1,-1,-1],"split_conditions":[4.53E0,2.4677956E2,2.4557808E2,1.44E0,9E-1,1.118E1,1.4587776E1,2.2E-1,3.01E0,-6.2573665E-1,1.6263872E1,7.281971E1,1.1480557E1,1.215E1,2.19718E1,2.8E-1,5.5E-1,1.44E1,2.2809413E2,1.6055355E1,2.7090683E2,1.005E1,2.631942E1,1.343E1,2.5533363E1,1.1841756E1,1.747243E0,1.118E1,-5.329497E-1,-3.6775696E-1,1.8976575E0,4.5E0,6E-1,2.4592447E2,1.4097431E0,3.7375893E1,3.2999997E0,1.8767498E1,1.63E0,5.13E0,1.8529997E1,1.5405002E1,8.296575E-1,3.1E0,3.67E0,-1.5434262E-1,4.7224307E-1,3.67E0,1.163E1,2.1711458E-1,5.2E0,1.8529997E1,1.215E1,-5.4650074E-1,-1.1921115E-1,6.537309E-2,-2.798458E-1,1.5020819E-2,1.0026575E0,-9.269967E-2,5.567007E-1,-3.294283E-1,2.0511459E-1,-3.4379733E-1,1.0638886E-1,3.9965743E-1,-2.6275697E-1,-4.299529E-1,-1.1234261E-1,-5.6999236E-1,-7.525696E-2,-2.484711E-1,6.603646E-1,1.7039392E0,1.0370377E0,-3.2342824E-1,5.955718E-1,3.7625434E0,1.675072E0,5.067431E-1,3.7243046E-2,-2.5695562E-4,-1.913426E-1,-3.1645682E-1,-4.7569517E-3,5.974306E-2,-1.3756943E-2],"split_indices":[0,6,6,0,0,0,5,2,0,0,5,6,5,0,5,0,0,2,6,5,6,1,5,1,5,5,0,0,0,0,0,4,2,6,0,6,4,3,0,2,3,3,0,1,1,0,0,2,0,0,0,3,0,0,0,0,0,0,0,0,0,0,0,0,0,0,0,0,0,0,0,0,0,0,0,0,0,0,0,0,0,0,0,0,0,0,0],"split_type":[0,0,0,0,0,0,0,0,0,0,0,0,0,0,0,0,0,0,0,0,0,0,0,0,0,0,0,0,0,0,0,0,0,0,0,0,0,0,0,0,0,0,0,0,0,0,0,0,0,0,0,0,0,0,0,0,0,0,0,0,0,0,0,0,0,0,0,0,0,0,0,0,0,0,0,0,0,0,0,0,0,0,0,0,0,0,0],"sum_hessian":[7.18E2,5.91E2,1.27E2,3.85E2,2.06E2,1.02E2,2.5E1,1.9E2,1.95E2,8.2E1,1.24E2,8.4E1,1.8E1,7E0,1.8E1,3E0,1.87E2,1.32E2,6.3E1,4.3E1,8.1E1,1.6E1,6.8E1,3E0,1.5E1,6E0,1E0,1.1E1,7E0,1E0,2E0,4.2E1,1.45E2,1.31E2,1E0,5.5E1,8E0,4E1,3E0,3.4E1,4.7E1,1.4E1,2E0,5.8E1,1E1,2E0,1E0,1.3E1,2E0,3E0,3E0,9E0,2E0,3.8E1,4E0,2.1E1,1.24E2,1.29E2,2E0,7E0,4.8E1,5E0,3E0,3.6E1,4E0,2E0,1E0,3.2E1,2E0,4.6E1,1E0,1.1E1,3E0,2E1,3.8E1,5E0,5E0,8E0,5E0,1E0,1E0,1E0,2E0,8E0,1E0,1E0,1E0],"tree_param":{"num_deleted":"0","num_feature":"7","num_nodes":"87","size_leaf_vector":"1"}},{"base_weights":[1.8110994E-2,-4.196983E-1,2.7011392E0,-7.3342973E-1,5.490255E-1,3.406293E0,-3.2504877E-1,-4.042682E-1,-1.2626108E0,1.2559899E0,-2.7520138E-1,2.1137197E0,4.921214E0,-9.120764E-1,2.251081E0,-9.7728586E-1,-5.886608E-2,-9.5075846E-1,-1.389725E0,3.6607334E-1,1.9444883E0,-6.515979E-1,1.5357123E-1,1.2980244E0,3.4288454E0,5.608362E0,1.1750995E0,-1.0936677E0,8.997162E-2,1.4851565E0,-2.9890645E-1,-1.217402E0,7.390314E-1,1.467313E0,-1.6914971E-1,-1.0298572E0,7.6357126E-1,-1.406594E0,-7.045579E-2,-2.820261E-1,1.4509529E0,3.3102047E0,1.176877E0,4.5553505E-1,-8.143353E-1,6.066534E-1,-3.3519644E-1,6.064917E-1,3.4835615E0,5.0988364E0,1.7499683E0,7.387253E0,3.708849E0,-6.5353745E-1,2.0372617E0,-1.2791717E0,7.473874E-2,-1.22814514E-1,-1.1693395E-2,-4.8976415E-1,-3.1196496E-1,-1.4147015E-1,6.05099E-1,1.0883091E-1,-1.6687009E-1,-3.2019845E-1,1.3779445E-1,1.8126727E-3,3.417944E-1,-3.241037E-1,-4.424316E-1,1.5505357E-1,-1.7310905E-1,5.2437925E-1,8.1457615E-2,1.1262879E0,4.0317275E-2,6.82356E-1,1.3783419E-1,-2.702877E-1,1.3165322E-1,4.1064748E-1,-4.1989878E-2,-2.0335044E-1,1.8681075E-1,6.1285675E-1,-1.6962028E-1,1.1633505E0,1.6768838E-1,1.7236277E0,8.5907295E-2,7.716106E-2,9.573878E-1,1.7486736E-1,2.5167723E0,1.2964883E0,5.5954504E-1,-2.479863E-1,-4.6105564E-2,2.7218446E-1,7.464465E-1,-1.9869569E-1,-4.193987E-1,3.7675846E-2,-4.0434124E-3],"categories":[],"categories_nodes":[],"categories_segments":[],"categories_sizes":[],"default_left":[1,1,0,0,0,0,0,0,0,0,0,0,0,0,0,0,0,0,0,0,0,0,0,0,0,0,0,0,0,0,0,1,0,0,0,0,0,0,0,0,0,0,0,0,0,0,0,0,0,0,0,0,0,0,0,0,0,0,0,0,0,0,0,0,0,0,0,0,0,0,0,0,0,0,0,0,0,0,0,0,0,0,0,0,0,0,0,0,0,0,0,0,0,0,0,0,0,0,0,0,0,0,0,0,0],"id":1,"left_children":[1,3,5,7,9,11,13,15,17,19,21,23,25,27,29,31,33,35,37,39,41,43,45,47,49,51,53,55,-1,-1,57,59,61,-1,63,65,67,69,-1,71,73,75,77,-1,79,81,83,85,87,89,91,93,95,97,99,101,103,-1,-1,-1,-1,-1,-1,-1,-1,-1,-1,-1,-1,-1,-1,-1,-1,-1,-1,-1,-1,-1,-1,-1,-1,-1,-1,-1,-1,-1,-1,-1,-1,-1,-1,-1,-1,-1,-1,-1,-1,-1,-1,-1,-1,-1,-1,-1,-1],"loss_changes":[8.457104E2,1.8852863E2,2.1663397E2,8.100865E1,8.891591E1,1.501659E2,3.2298347E1,5.7339706E1,5.7743835E0,4.9530075E1,1.1558651E1,4.48954E1,8.865265E1,4.0694475E0,2.9013903E1,4.5820305E1,1.0018003E2,8.244438E0,2.1048584E0,2.6424269E1,4.4327896E1,1.4656151E1,7.732713E0,4.3228363E1,3.874025E1,7.735162E1,1.2367499E1,3.3467617E0,0E0,0E0,7.019007E-2,5.3771667E0,2.2610592E1,0E0,3.705742E1,3.44767E0,8.470255E-1,1.1426239E0,0E0,5.9543223E0,4.4290886E0,2.2060928E1,2.3366913E1,0E0,4.303358E0,1.043453E1,6.0017085E0,4.155338E1,5.9040833E0,2.3248306E1,2.0694769E1,9.7378235E1,1.1145782E1,1.3250923E-1,2.9004478E-1,2.69413E-2,1.5149439E-2,0E0,0E0,0E0,0E0,0E0,0E0,0E0,0E0,0E0,0E0,0E0,0E0,0E0,0E0,0E0,0E0,0E0,0E0,0E0,0E0,0E0,0E0,0E0,0E0,0E0,0E0,0E0,0E0,0E0,0E0,0E0,0E0,0E0,0E0,0E0,0E0,0E0,0E0,0E0,0E0,0E0,0E0,0E0,0E0,0E0,0E0,0E0,0E0],"parents":[2147483647,0,0,1,1,2,2,3,3,4,4,5,5,6,6,7,7,8,8,9,9,10,10,11,11,12,12,13,13,14,14,15,15,16,16,17,17,18,18,19,19,20,20,21,21,22,22,23,23,24,24,25,25,26,26,27,27,30,30,31,31,32,32,34,34,35,35,36,36,37,37,39,39,40,40,41,41,42,42,44,44,45,45,46,46,47,47,48,48,49,49,50,50,51,51,52,52,53,53,54,54,55,55,56,56],"right_children":[2,4,6,8,10,12,14,16,18,20,22,24,26,28,30,32,34,36,38,40,42,44,46,48,50,52,54,56,-1,-1,58,60,62,-1,64,66,68,70,-1,72,74,76,78,-1,80,82,84,86,88,90,92,94,96,98,100,102,104,-1,-1,-1,-1,-1,-1,-1,-1,-1,-1,-1,-1,-1,-1,-1,-1,-1,-1,-1,-1,-1,-1,-1,-1,-1,-1,-1,-1,-1,-1,-1,-1,-1,-1,-1,-1,-1,-1,-1,-1,-1,-1,-1,-1,-1,-1,-1,-1],"split_conditions":[5.45E0,2.42E0,2.4557808E2,2.4677956E2,2.0628514E2,8.44E0,1.215E1,1.18087776E2,2.697781E2,1.09587906E2,3.49E0,5.45E0,9.3E0,1.163E1,1.73E0,1.6496668E1,2.5E-1,5.9E0,1.9025835E1,1.5700832E1,1.55E0,2.5E0,2.4422435E2,2.5E0,6.09E0,7.7737503E0,5.99E0,1.8529997E1,8.997162E-2,1.4851565E0,1.44E1,7E-1,1.433234E1,1.467313E0,1.007375E1,3.9999998E0,1.02E0,1.4410121E1,-7.045579E-2,3.05E0,2.45E0,2.538702E1,1.5479102E2,4.5553505E-1,8.5E0,8.246666E0,1.7313334E1,5.7758336E0,1.603625E1,4.1E0,6.99E0,1.1480557E1,2.2159746E1,8.88E0,2.6779168E0,5.9E0,6.15E0,-1.22814514E-1,-1.1693395E-2,-4.8976415E-1,-3.1196496E-1,-1.4147015E-1,6.05099E-1,1.0883091E-1,-1.6687009E-1,-3.2019845E-1,1.3779445E-1,1.8126727E-3,3.417944E-1,-3.241037E-1,-4.424316E-1,1.5505357E-1,-1.7310905E-1,5.2437925E-1,8.1457615E-2,1.1262879E0,4.0317275E-2,6.82356E-1,1.3783419E-1,-2.702877E-1,1.3165322E-1,4.1064748E-1,-4.1989878E-2,-2.0335044E-1,1.8681075E-1,6.1285675E-1,-1.6962028E-1,1.1633505E0,1.6768838E-1,1.7236277E0,8.5907295E-2,7.716106E-2,9.573878E-1,1.7486736E-1,2.5167723E0,1.2964883E0,5.5954504E-1,-2.479863E-1,-4.6105564E-2,2.7218446E-1,7.464465E-1,-1.9869569E-1,-4.193987E-1,3.7675846E-2,-4.0434124E-3],"split_indices":[0,0,6,6,6,0,0,6,6,6,0,2,2,0,1,3,2,2,3,3,1,0,6,4,0,3,1,3,0,0,0,0,5,0,3,4,0,5,0,0,2,5,6,0,4,3,3,3,3,4,0,5,5,0,3,0,0,0,0,0,0,0,0,0,0,0,0,0,0,0,0,0,0,0,0,0,0,0,0,0,0,0,0,0,0,0,0,0,0,0,0,0,0,0,0,0,0,0,0,0,0,0,0,0,0],"split_type":[0,0,0,0,0,0,0,0,0,0,0,0,0,0,0,0,0,0,0,0,0,0,0,0,0,0,0,0,0,0,0,0,0,0,0,0,0,0,0,0,0,0,0,0,0,0,0,0,0,0,0,0,0,0,0,0,0,0,0,0,0,0,0,0,0,0,0,0,0,0,0,0,0,0,0,0,0,0,0,0,0,0,0,0,0,0,0,0,0,0,0,0,0,0,0,0,0,0,0,0,0,0,0,0,0],"sum_hessian":[7.18E2,6.18E2,1E2,4.67E2,1.51E2,8.1E1,1.9E1,2.89E2,1.78E2,8.1E1,7E1,4.5E1,3.6E1,1.6E1,3E0,1.08E2,1.81E2,5.4E1,1.24E2,3.6E1,4.5E1,3.7E1,3.3E1,2.9E1,1.6E1,3E1,6E0,1.4E1,2E0,1E0,2E0,9.5E1,1.3E1,3E0,1.78E2,5.2E1,2E0,1.22E2,2E0,2.3E1,1.3E1,1.5E1,3E1,2E0,3.5E1,1.7E1,1.6E1,2.3E1,6E0,7E0,9E0,1.4E1,1.6E1,2E0,4E0,1.2E1,2E0,1E0,1E0,2.6E1,6.9E1,7E0,6E0,7.5E1,1.03E2,5.1E1,1E0,1E0,1E0,2.4E1,9.8E1,6E0,1.7E1,1E1,3E0,1.3E1,2E0,1.1E1,1.9E1,3.3E1,2E0,8E0,9E0,1.2E1,4E0,1E1,1.3E1,5E0,1E0,6E0,1E0,5E0,4E0,2E0,1.2E1,1.1E1,5E0,1E0,1E0,2E0,2E0,3E0,9E0,1E0,1E0],"tree_param":{"num_deleted":"0","num_feature":"7","num_nodes":"105","size_leaf_vector":"1"}},{"base_weights":[3.2685645E-2,-2.8790998E-1,1.9972006E0,-6.851779E-1,1.564399E-1,2.7219083E0,3.4949008E-1,-2.78611E-1,-9.289481E-1,4.4613832E-1,-4.1575843E-1,2.145694E0,6.919358E0,3.266468E0,-9.3395644E-1,-7.286913E-1,4.4919717E-1,-9.5801544E-1,2.5950236E-2,-4.595429E-1,6.6113675E-1,1.647358E-1,-7.500843E-1,2.9233152E-1,2.5760472E0,2.8635533E0,1.907244E0,4.888058E0,-3.879314E-1,-1.1476197E0,3.6784908E-1,-8.7749183E-1,8.8467014E-1,2.680911E0,2.78479E-3,-9.9767065E-1,-4.7711748E-1,-1.3250124E-1,2.3900057E-1,-6.25054E-1,1.1035652E0,-1.6665111E-1,8.3302164E-1,-9.6432626E-2,1.43502E0,-8.198064E-1,-7.519203E-2,-1.9307348E-1,4.2982835E-1,2.8986826E0,7.483397E-1,6.6279453E-1,1.5015458E-1,1.1301519E0,1.8495572E0,3.202447E-2,-1.7652223E-1,-1.4050169E0,-3.1285694E-1,3.1963044E-1,-2.1982443E-1,-2.9091927E-1,3.1310838E-2,8.846722E-1,1.4743805E-2,9.211374E-1,-6.8875556E-3,-2.160301E-1,1.9794796E-1,-9.967754E-2,-3.067166E-1,-5.6010474E-2,-2.5959772E-1,-2.7823758E-1,1.5344808E-1,1.2970544E-1,4.6758103E-1,3.5279003E-1,-1.3182582E-1,3.154177E-1,-4.0477794E-2,-9.548836E-2,1.8135573E-1,2.7914919E-2,-2.564079E-1,-1.0366068E-1,1.20133385E-1,-1.8196513E-1,2.9216683E-1,2.6807213E-1,1.0209496E0,4.8988023E-1,-8.577676E-2,7.068011E-2,4.3788823E-1,-1.6556999E-1,-4.7169137E-1,-5.9216204E-3,-1.7981867E-1,-9.5484085E-2,-3.4369112E-3],"categories":[],"categories_nodes":[],"categories_segments":[],"categories_sizes":[],"default_left":[1,1,0,0,0,0,0,0,0,0,0,0,0,0,0,0,0,0,0,0,0,0,0,0,0,0,0,0,0,0,0,1,0,0,0,0,0,0,0,0,0,0,0,0,0,0,0,0,0,0,0,0,0,0,0,0,0,0,0,0,0,0,0,0,0,0,0,0,0,0,0,0,0,0,0,0,0,0,0,0,0,0,0,0,0,0,0,0,0,0,0,0,0,0,0,0,0,0,0,0,0],"id":2,"left_children":[1,3,5,7,9,11,13,15,17,19,21,23,25,27,29,31,33,35,37,39,41,43,45,47,49,-1,51,53,55,57,59,61,63,65,67,69,71,-1,-1,73,75,77,79,81,-1,83,85,87,-1,89,91,-1,-1,93,-1,-1,-1,95,97,-1,99,-1,-1,-1,-1,-1,-1,-1,-1,-1,-1,-1,-1,-1,-1,-1,-1,-1,-1,-1,-1,-1,-1,-1,-1,-1,-1,-1,-1,-1,-1,-1,-1,-1,-1,-1,-1,-1,-1,-1,-1],"loss_changes":[4.534119E2,1.09376755E2,1.1965369E2,3.2149796E1,4.875462E1,1.5445734E2,1.2285187E2,4.0946266E1,5.687149E0,3.827422E1,1.9336914E1,4.9495758E1,8.7082306E1,6.115561E1,6.8195553E0,1.9261608E1,4.7813236E1,3.2998962E0,2.8746936E0,1.0520837E1,2.2619728E1,4.5092495E1,2.902813E0,7.4730406E0,2.7904663E1,0E0,5.9393215E-1,2.6627792E1,4.5949686E-1,3.8577404E0,1.8740193E0,6.531391E0,1.1928112E1,8.496765E0,1.9948732E1,2.6537476E0,1.7550538E0,0E0,0E0,1.2503789E1,5.478473E-1,1.0771001E1,2.783152E1,5.7909365E0,0E0,1.8947754E0,1.038465E0,5.415835E0,0E0,4.0455353E1,8.701015E0,0E0,0E0,5.403092E-1,0E0,0E0,0E0,1.2729836E0,4.921068E-1,0E0,5.789882E-2,0E0,0E0,0E0,0E0,0E0,0E0,0E0,0E0,0E0,0E0,0E0,0E0,0E0,0E0,0E0,0E0,0E0,0E0,0E0,0E0,0E0,0E0,0E0,0E0,0E0,0E0,0E0,0E0,0E0,0E0,0E0,0E0,0E0,0E0,0E0,0E0,0E0,0E0,0E0,0E0],"parents":[2147483647,0,0,1,1,2,2,3,3,4,4,5,5,6,6,7,7,8,8,9,9,10,10,11,11,12,12,13,13,14,14,15,15,16,16,17,17,18,18,19,19,20,20,21,21,22,22,23,23,24,24,26,26,27,27,28,28,29,29,30,30,31,31,32,32,33,33,34,34,35,35,36,36,39,39,40,40,41,41,42,42,43,43,45,45,46,46,47,47,49,49,50,50,53,53,57,57,58,58,60,60],"right_children":[2,4,6,8,10,12,14,16,18,20,22,24,26,28,30,32,34,36,38,40,42,44,46,48,50,-1,52,54,56,58,60,62,64,66,68,70,72,-1,-1,74,76,78,80,82,-1,84,86,88,-1,90,92,-1,-1,94,-1,-1,-1,96,98,-1,100,-1,-1,-1,-1,-1,-1,-1,-1,-1,-1,-1,-1,-1,-1,-1,-1,-1,-1,-1,-1,-1,-1,-1,-1,-1,-1,-1,-1,-1,-1,-1,-1,-1,-1,-1,-1,-1,-1,-1,-1],"split_conditions":[5.45E0,1.44E0,2.2673567E2,1.9986923E2,2.3708743E2,1.215E1,2.04E0,1.18087776E2,1.8723747E1,6.0807743E1,1.6120806E1,7.6518326E1,1.343E1,1.0215416E1,1.717375E1,1.6496668E1,2.3654168E0,4.5E0,3E-1,1.8244585E1,1.2218805E1,1.61017E1,4.53E0,9.69E0,2.631942E1,2.8635533E0,2.542E1,1.4028457E1,6.15E0,1.163E1,5.57E0,1.35E0,6E-1,6.3999996E0,1E-1,3E-1,2.5076416E2,-1.3250124E-1,2.3900057E-1,5.55E0,3.01E0,9.352483E1,2.538702E1,4.34E0,1.43502E0,1.51E0,4.57E0,1.5405002E1,4.2982835E-1,1.288981E1,1.3940413E1,6.6279453E-1,1.5015458E-1,1.215E1,1.8495572E0,3.202447E-2,-1.7652223E-1,6.09E0,1.148E1,3.1963044E-1,5.9E0,-2.9091927E-1,3.1310838E-2,8.846722E-1,1.4743805E-2,9.211374E-1,-6.8875556E-3,-2.160301E-1,1.9794796E-1,-9.967754E-2,-3.067166E-1,-5.6010474E-2,-2.5959772E-1,-2.7823758E-1,1.5344808E-1,1.2970544E-1,4.6758103E-1,3.5279003E-1,-1.3182582E-1,3.154177E-1,-4.0477794E-2,-9.548836E-2,1.8135573E-1,2.7914919E-2,-2.564079E-1,-1.0366068E-1,1.20133385E-1,-1.8196513E-1,2.9216683E-1,2.6807213E-1,1.0209496E0,4.8988023E-1,-8.577676E-2,7.068011E-2,4.3788823E-1,-1.6556999E-1,-4.7169137E-1,-5.9216204E-3,-1.7981867E-1,-9.5484085E-2,-3.4369112E-3],"split_indices":[0,0,6,6,6,0,1,6,3,6,5,6,1,3,3,3,3,4,4,3,5,5,0,1,5,0,0,5,0,0,0,0,0,4,4,2,6,0,0,2,0,6,5,2,0,0,1,3,0,5,3,0,0,0,0,0,0,0,1,0,0,0,0,0,0,0,0,0,0,0,0,0,0,0,0,0,0,0,0,0,0,0,0,0,0,0,0,0,0,0,0,0,0,0,0,0,0,0,0,0,0],"split_type":[0,0,0,0,0,0,0,0,0,0,0,0,0,0,0,0,0,0,0,0,0,0,0,0,0,0,0,0,0,0,0,0,0,0,0,0,0,0,0,0,0,0,0,0,0,0,0,0,0,0,0,0,0,0,0,0,0,0,0,0,0,0,0,0,0,0,0,0,0,0,0,0,0,0,0,0,0,0,0,0,0,0,0,0,0,0,0,0,0,0,0,0,0,0,0,0,0,0,0,0,0],"sum_hessian":[7.18E2,6.18E2,1E2,3.26E2,2.92E2,6.9E1,3.1E1,1.23E2,2.03E2,1.94E2,9.8E1,6.2E1,7E0,9E0,2.2E1,7.6E1,4.7E1,1.97E2,6E0,3.7E1,1.57E2,3.6E1,6.2E1,1.2E1,5E1,4E0,3E0,6E0,3E0,1.9E1,3E0,7E1,6E0,7E0,4E1,1.81E2,1.6E1,4E0,2E0,3.4E1,3E0,2.7E1,1.3E2,3.5E1,1E0,5.6E1,6E0,9E0,3E0,4.2E1,8E0,2E0,1E0,2E0,4E0,1E0,2E0,1.4E1,5E0,1E0,2E0,6.4E1,6E0,1E0,5E0,6E0,1E0,1.9E1,2.1E1,7E0,1.74E2,1E1,6E0,2.7E1,7E0,2E0,1E0,4E0,2.3E1,1.06E2,2.4E1,2.7E1,8E0,2E0,5.4E1,4E0,2E0,7E0,2E0,9E0,3.3E1,4E0,4E0,1E0,1E0,3E0,1.1E1,3E0,2E0,1E0,1E0],"tree_param":{"num_deleted":"0","num_feature":"7","num_nodes":"101","size_leaf_vector":"1"}},{"base_weights":[3.7787784E-2,-2.3563778E-1,1.3020859E0,-7.0278925E-1,-7.266095E-2,8.93508E-1,2.9496863E0,-9.2398304E-1,-5.2890766E-1,2.3043315E-1,-3.713319E-1,1.1715449E0,-3.3282447E-1,4.1713347E0,7.000804E-1,-9.717162E-1,-3.828436E-1,4.5229176E-1,-5.696454E-1,-2.4160498E-1,6.0081744E-1,-4.072397E-1,1.1346443E0,-4.2792848E-1,1.3432815E0,5.071073E-1,-4.5432284E-1,4.9490986E0,6.007682E-1,2.362054E0,-3.4963042E-1,-2.962177E-1,-7.024223E-3,2.3062946E-1,-7.0290583E-1,-6.3228345E-1,4.3470904E-2,-4.3750188E-1,9.510339E-1,1.3061638E0,8.305593E-2,-4.5649478E-1,9.6123886E-1,-8.840987E-1,2.3373348E-1,1.5386331E0,3.1296078E-2,2.009775E-1,2.722081E-2,-1.0380653E-1,-5.8115166E-1,2.3142745E0,2.0630727E0,1.765728E-3,3.5966635E-1,6.007809E-2,9.0476966E-1,-4.5031783E-1,3.8174093E-2,-2.6292676E-1,2.4701644E-2,-2.0373589E-1,5.9014797E-2,7.5197136E-1,-1.733214E-1,-2.0483263E-1,1.5364782E-2,4.510788E-1,5.510173E-2,6.3905185E-1,9.930813E-2,-1.6923547E-2,4.8798096E-1,2.7425805E-1,-1.4608695E-1,5.399437E-1,1.14523716E-1,-8.012006E-2,-2.8272787E-1,6.8341714E-1,3.3795404E-1,-1.7645422E-1,3.787277E-1,2.7642943E-2,-6.744515E-2,-1.8838741E-1,-2.9213906E-3,2.7035636E-1,9.446378E-1,4.020324E-2,-3.940866E-2,-1.5849397E-1,-9.051133E-3],"categories":[],"categories_nodes":[],"categories_segments":[],"categories_sizes":[],"default_left":[1,1,0,0,0,0,0,0,0,0,0,0,0,0,0,0,0,0,0,0,0,0,0,0,0,0,0,0,0,0,0,0,0,0,0,1,0,0,0,0,0,0,0,0,0,0,0,0,0,0,0,0,0,0,0,0,0,0,0,0,0,0,0,0,0,0,0,0,0,0,0,0,0,0,0,0,0,0,0,0,0,0,0,0,0,0,0,0,0,0,0,0,0],"id":3,"left_children":[1,3,5,7,9,11,13,15,17,19,21,23,25,27,29,31,33,-1,35,37,39,41,-1,43,45,47,49,51,53,55,57,-1,-1,-1,59,61,63,65,67,69,71,73,75,77,-1,79,81,-1,-1,83,85,87,-1,89,-1,-1,-1,91,-1,-1,-1,-1,-1,-1,-1,-1,-1,-1,-1,-1,-1,-1,-1,-1,-1,-1,-1,-1,-1,-1,-1,-1,-1,-1,-1,-1,-1,-1,-1,-1,-1,-1,-1],"loss_changes":[2.4885895E2,4.502078E1,8.3530594E1,5.3959045E0,3.9916744E1,3.585035E1,6.57854E1,1.3327866E0,8.159687E0,3.843413E1,3.4649845E1,2.3923317E1,2.2713974E0,4.1459656E1,1.8271765E1,8.688202E-1,3.120474E0,0E0,3.3686657E0,2.3078602E1,4.481126E1,1.5335201E1,0E0,5.644353E0,1.9686829E1,1.4259142E-1,7.398734E-1,5.0117645E1,1.4309837E0,5.049942E0,3.9341044E-1,0E0,0E0,0E0,8.8968205E-1,3.2009373E0,1.5219038E1,1.010401E1,5.660039E0,4.1077972E1,1.5591563E1,9.380409E0,3.2005105E0,2.3841858E-4,0E0,1.7850723E1,9.131753E0,0E0,0E0,1.629873E-1,3.415799E-1,5.4170723E0,0E0,7.042049E-2,0E0,0E0,0E0,1.8067789E-1,0E0,0E0,0E0,0E0,0E0,0E0,0E0,0E0,0E0,0E0,0E0,0E0,0E0,0E0,0E0,0E0,0E0,0E0,0E0,0E0,0E0,0E0,0E0,0E0,0E0,0E0,0E0,0E0,0E0,0E0,0E0,0E0,0E0,0E0,0E0],"parents":[2147483647,0,0,1,1,2,2,3,3,4,4,5,5,6,6,7,7,8,8,9,9,10,10,11,11,12,12,13,13,14,14,15,15,16,16,18,18,19,19,20,20,21,21,23,23,24,24,25,25,26,26,27,27,28,28,29,29,30,30,34,34,35,35,36,36,37,37,38,38,39,39,40,40,41,41,42,42,43,43,45,45,46,46,49,49,50,50,51,51,53,53,57,57],"right_children":[2,4,6,8,10,12,14,16,18,20,22,24,26,28,30,32,34,-1,36,38,40,42,-1,44,46,48,50,52,54,56,58,-1,-1,-1,60,62,64,66,68,70,72,74,76,78,-1,80,82,-1,-1,84,86,88,-1,90,-1,-1,-1,92,-1,-1,-1,-1,-1,-1,-1,-1,-1,-1,-1,-1,-1,-1,-1,-1,-1,-1,-1,-1,-1,-1,-1,-1,-1,-1,-1,-1,-1,-1,-1,-1,-1,-1,-1],"split_conditions":[4.53E0,8E-1,1.118E1,5E-1,2.124712E2,2.4557808E2,2.2673567E2,2.6000001E0,2.5E-1,1.05306206E2,1.44E1,3.6184856E1,1.0829958E1,2.5323128E1,1.83E0,3.5647274E1,2.2E-1,4.5229176E-1,1.633833E1,1.7775833E1,1.1713333E1,1.9382082E1,1.1346443E0,1.5405002E1,2.631942E1,5.45E0,5.28E0,1E-1,5.85E0,1.215E1,1.4982082E1,-2.962177E-1,-7.024223E-3,2.3062946E-1,7.6999993E0,5.99E0,4.2438236E1,6E-1,2.1E0,7E-1,1.9434166E1,4E-1,1.85E0,-1.1783333E0,2.3373348E-1,3.1E0,1.8000003E0,2.009775E-1,2.722081E-2,2.5E0,1.8529997E1,4.575834E0,2.0630727E0,1.148E1,3.5966635E-1,6.007809E-2,9.0476966E-1,1.825E1,3.8174093E-2,-2.6292676E-1,2.4701644E-2,-2.0373589E-1,5.9014797E-2,7.5197136E-1,-1.733214E-1,-2.0483263E-1,1.5364782E-2,4.510788E-1,5.510173E-2,6.3905185E-1,9.930813E-2,-1.6923547E-2,4.8798096E-1,2.7425805E-1,-1.4608695E-1,5.399437E-1,1.14523716E-1,-8.012006E-2,-2.8272787E-1,6.8341714E-1,3.3795404E-1,-1.7645422E-1,3.787277E-1,2.7642943E-2,-6.744515E-2,-1.8838741E-1,-2.9213906E-3,2.7035636E-1,9.446378E-1,4.020324E-2,-3.940866E-2,-1.5849397E-1,-9.051133E-3],"split_indices":[0,0,0,0,6,6,6,4,2,6,2,6,5,5,1,5,1,0,3,3,3,3,0,3,5,0,0,4,1,0,3,0,0,0,4,2,6,4,2,4,3,1,0,3,0,1,4,0,0,2,3,3,0,0,0,0,0,0,0,0,0,0,0,0,0,0,0,0,0,0,0,0,0,0,0,0,0,0,0,0,0,0,0,0,0,0,0,0,0,0,0,0,0],"split_type":[0,0,0,0,0,0,0,0,0,0,0,0,0,0,0,0,0,0,0,0,0,0,0,0,0,0,0,0,0,0,0,0,0,0,0,0,0,0,0,0,0,0,0,0,0,0,0,0,0,0,0,0,0,0,0,0,0,0,0,0,0,0,0,0,0,0,0,0,0,0,0,0,0,0,0,0,0,0,0,0,0,0,0,0,0,0,0,0,0,0,0,0,0],"sum_hessian":[7.18E2,5.91E2,1.27E2,1.52E2,4.39E2,1.03E2,2.4E1,6.5E1,8.7E1,2.18E2,2.21E2,8.4E1,1.9E1,1.5E1,9E0,5.9E1,6E0,1E0,8.6E1,9.6E1,1.22E2,2.2E2,1E0,8E0,7.6E1,2E0,1.7E1,1.2E1,3E0,3E0,6E0,5.8E1,1E0,1E0,5E0,7.8E1,8E0,8.3E1,1.3E1,5.1E1,7.1E1,2.13E2,7E0,6E0,2E0,6.6E1,1E1,1E0,1E0,5E0,1.2E1,6E0,6E0,2E0,1E0,1E0,2E0,5E0,1E0,4E0,1E0,7.4E1,4E0,1E0,7E0,5.5E1,2.8E1,7E0,6E0,2.7E1,2.4E1,6.6E1,5E0,4E0,2.09E2,2E0,5E0,1E0,5E0,2.2E1,4.4E1,7E0,3E0,2E0,3E0,1.1E1,1E0,3E0,3E0,1E0,1E0,4E0,1E0],"tree_param":{"num_deleted":"0","num_feature":"7","num_nodes":"93","size_leaf_vector":"1"}},{"base_weights":[3.9781637E-2,-2.1502566E-1,7.9835266E-1,-1.0075749E-1,-4.9241218E-1,6.23379E-1,2.841011E0,2.1647358E0,-1.2433964E-1,-5.530237E-1,-1.9341551E-1,9.5042586E-1,7.707747E-2,2.041469E0,1.6132886E0,-1.5105823E-1,9.665999E-1,-1.5827714E-1,1.1471759E0,-5.8860946E-1,-3.1414822E-1,2.5900334E-1,-3.2857534E-1,2.510194E-1,1.3433576E0,4.442307E-1,-5.9672743E-1,2.0608026E-1,2.5889974E0,-1.745316E-1,1.8937798E0,-2.6995766E-1,2.1369245E0,-3.940212E-1,-6.4285684E-1,-4.2243457E-1,-6.8166666E-2,-1.6681859E-1,2.6471165E-1,-4.4882968E-2,-4.579729E-1,8.048382E-1,-3.1535035E-1,1.5465054E-1,1.7132529E0,1.6461428E-1,1.2073119E0,-1.7583379E-1,-1.0398992E0,-2.2801605E-1,2.1485458E-1,1.0142413E0,4.0631998E-1,-8.91376E-2,2.761678E-2,-1.1224668E-1,9.6444756E-1,9.570322E-2,-1.4908575E-1,7.3969126E-1,7.400405E-2,-1.9044189E-1,-9.313276E-2,-5.189142E-2,-1.9910061E-1,-1.5350035E-1,1.3669641E-2,8.343142E-3,-9.660443E-2,1.7579377E-2,-1.0098868E-1,4.5708857E-2,-8.4065855E-2,-1.5136659E-1,-3.1037498E-2,-7.633409E-2,3.830977E-1,-1.568815E-1,3.1058827E-1,-1.7434785E-1,3.8664916E-1,2.9565334E-1,6.452919E-1,5.2076393E-1,-3.2834638E-2,1.814377E-1,-1.1182408E-1,-7.077708E-2,-3.5770404E-1,-1.48139E-2,-1.1458878E-1,2.3648944E-1,-5.364545E-2],"categories":[],"categories_nodes":[],"categories_segments":[],"categories_sizes":[],"default_left":[1,0,0,0,0,0,0,0,0,0,0,0,0,0,0,0,0,1,0,0,0,0,0,0,0,0,0,0,0,1,0,0,0,0,0,0,0,0,0,0,0,0,0,0,0,0,0,0,0,0,0,0,0,0,0,0,0,0,0,0,0,0,0,0,0,0,0,0,0,0,0,0,0,0,0,0,0,0,0,0,0,0,0,0,0,0,0,0,0,0,0,0,0],"id":4,"left_children":[1,3,5,7,9,11,13,15,17,19,21,23,25,-1,27,-1,-1,29,31,33,35,37,39,41,43,45,47,49,51,53,55,57,59,61,63,65,67,69,-1,71,73,75,77,79,81,83,-1,85,87,89,-1,-1,91,-1,-1,-1,-1,-1,-1,-1,-1,-1,-1,-1,-1,-1,-1,-1,-1,-1,-1,-1,-1,-1,-1,-1,-1,-1,-1,-1,-1,-1,-1,-1,-1,-1,-1,-1,-1,-1,-1,-1,-1],"loss_changes":[1.3914676E2,1.7034771E1,6.2920433E1,2.0731012E1,2.7382927E0,2.9942665E1,5.7153465E1,1.2906595E1,1.6579357E1,9.201622E-1,1.7972698E0,2.8518784E1,1.609802E1,0E0,1.5942766E1,0E0,0E0,1.2705253E1,1.460294E1,9.289589E-1,4.772966E-1,2.0053048E0,7.870455E-1,1.2486789E1,2.9194763E1,4.1382324E1,4.107299E0,1.4919004E0,1.0724125E1,1.2086996E1,1.0190983E1,8.269969E-1,3.1198616E0,3.4629107E-1,7.2621536E-1,5.662093E-1,1.7950067E-1,2.1111602E-1,0E0,4.140482E-1,1.9551158E-1,1.0327843E1,6.1489463E0,1.4936213E1,1.4126099E1,1.7415024E1,0E0,2.2237365E0,1.0669031E0,9.114061E-2,0E0,0E0,8.1149197E-1,0E0,0E0,0E0,0E0,0E0,0E0,0E0,0E0,0E0,0E0,0E0,0E0,0E0,0E0,0E0,0E0,0E0,0E0,0E0,0E0,0E0,0E0,0E0,0E0,0E0,0E0,0E0,0E0,0E0,0E0,0E0,0E0,0E0,0E0,0E0,0E0,0E0,0E0,0E0,0E0],"parents":[2147483647,0,0,1,1,2,2,3,3,4,4,5,5,6,6,7,7,8,8,9,9,10,10,11,11,12,12,14,14,17,17,18,18,19,19,20,20,21,21,22,22,23,23,24,24,25,25,26,26,27,27,28,28,29,29,30,30,31,31,32,32,33,33,34,34,35,35,36,36,37,37,39,39,40,40,41,41,42,42,43,43,44,44,45,45,47,47,48,48,49,49,52,52],"right_children":[2,4,6,8,10,12,14,16,18,20,22,24,26,-1,28,-1,-1,30,32,34,36,38,40,42,44,46,48,50,52,54,56,58,60,62,64,66,68,70,-1,72,74,76,78,80,82,84,-1,86,88,90,-1,-1,92,-1,-1,-1,-1,-1,-1,-1,-1,-1,-1,-1,-1,-1,-1,-1,-1,-1,-1,-1,-1,-1,-1,-1,-1,-1,-1,-1,-1,-1,-1,-1,-1,-1,-1,-1,-1,-1,-1,-1,-1],"split_conditions":[3.47E0,2.6008124E2,1.215E1,2.2E-1,1.26466675E1,2.1463374E2,1.1E0,2.8E-1,1.9434166E1,3.466003E2,1.12E0,1.0136199E2,2.1531641E1,2.041469E0,5.513333E0,-1.5105823E-1,9.665999E-1,1.825E1,1.5E0,2.7538248E2,1E0,9.5E-1,2.7393365E2,1.5124284E1,1.3698934E1,2.0924952E1,5.99E0,1.343E1,6.9154162E0,1.7E0,2.2E-1,1.9638334E1,1.25E0,2.6551703E2,1.0661107E1,9.000001E-1,4.34E0,3.0256863E2,2.6471165E-1,1.868622E1,1.9025835E1,2.5E0,1.073E1,5.45E0,1.79E0,2.2809413E2,1.2073119E0,4.575834E0,1.02E0,8.77E0,2.1485458E-1,1.0142413E0,1.343E1,-8.91376E-2,2.761678E-2,-1.1224668E-1,9.6444756E-1,9.570322E-2,-1.4908575E-1,7.3969126E-1,7.400405E-2,-1.9044189E-1,-9.313276E-2,-5.189142E-2,-1.9910061E-1,-1.5350035E-1,1.3669641E-2,8.343142E-3,-9.660443E-2,1.7579377E-2,-1.0098868E-1,4.5708857E-2,-8.4065855E-2,-1.5136659E-1,-3.1037498E-2,-7.633409E-2,3.830977E-1,-1.568815E-1,3.1058827E-1,-1.7434785E-1,3.8664916E-1,2.9565334E-1,6.452919E-1,5.2076393E-1,-3.2834638E-2,1.814377E-1,-1.1182408E-1,-7.077708E-2,-3.5770404E-1,-1.48139E-2,-1.1458878E-1,2.3648944E-1,-5.364545E-2],"split_indices":[0,6,0,2,3,6,2,0,3,6,1,6,5,0,3,0,0,2,0,6,0,1,6,5,5,5,0,1,3,0,0,3,2,6,5,4,1,6,0,5,3,1,1,2,2,6,0,3,2,1,0,0,0,0,0,0,0,0,0,0,0,0,0,0,0,0,0,0,0,0,0,0,0,0,0,0,0,0,0,0,0,0,0,0,0,0,0,0,0,0,0,0,0],"split_type":[0,0,0,0,0,0,0,0,0,0,0,0,0,0,0,0,0,0,0,0,0,0,0,0,0,0,0,0,0,0,0,0,0,0,0,0,0,0,0,0,0,0,0,0,0,0,0,0,0,0,0,0,0,0,0,0,0,0,0,0,0,0,0,0,0,0,0,0,0,0,0,0,0,0,0,0,0,0,0,0,0,0,0,0,0,0,0,0,0,0,0,0,0],"sum_hessian":[7.18E2,5.38E2,1.8E2,3.82E2,1.56E2,1.67E2,1.3E1,3E0,3.79E2,1.29E2,2.7E1,1.04E2,6.3E1,2E0,1.1E1,1E0,2E0,3.7E2,9E0,1.11E2,1.8E1,6E0,2.1E1,3.8E1,6.6E1,4.1E1,2.2E1,5E0,6E0,3.68E2,2E0,4E0,5E0,2.6E1,8.5E1,1.2E1,6E0,4E0,2E0,7E0,1.4E1,1.9E1,1.9E1,1.6E1,5E1,3.9E1,2E0,1.2E1,1E1,3E0,2E0,4E0,2E0,2.52E2,1.16E2,1E0,1E0,1E0,3E0,4E0,1E0,5E0,2.1E1,4E0,8.1E1,1E1,2E0,5E0,1E0,2E0,2E0,4E0,3E0,1.2E1,2E0,6E0,1.3E1,1.7E1,2E0,1E1,6E0,2E1,3E1,5E0,3.4E1,2E0,1E1,2E0,8E0,2E0,1E0,1E0,1E0],"tree_param":{"num_deleted":"0","num_feature":"7","num_nodes":"93","size_leaf_vector":"1"}},{"base_weights":[3.87491E-2,-5.1918387E-2,1.3362058E0,-1.9377343E-1,2.7060625E-1,2.6007957E0,7.761922E-1,-1.7059848E-1,-1.1410786E0,5.39238E-1,-1.0303069E-1,8.591292E-1,3.2115495E0,1.3703403E0,-4.272744E-1,-4.619899E-1,-9.6090265E-2,-1.282589E0,4.1103818E-2,9.4742125E-1,4.680877E-1,8.92409E-1,-1.617556E-1,5.5991545E-2,2.9417768E-1,3.7985077E0,5.758117E-1,5.9508634E-1,2.5101702E0,-8.9659053E-1,-1.7121454E-1,-5.276317E-1,-2.2616279E-1,8.110069E-1,-1.5365562E-1,-1.2870091E-1,-4.3270802E-1,3.7010792E-1,2.2353592E0,-1.4333934E-1,4.8920634E-1,-7.851722E-2,-1.444571E0,4.1271634E0,2.2468744E-1,-2.3427902E-1,4.933943E-1,-2.3408212E-1,1.0330788E0,5.600025E-1,3.3919206E0,-1.2422805E-1,-3.5161227E-1,7.1539804E-2,-1.13917805E-1,-1.9682305E-1,-1.3223092E-1,-1.2739928E-1,2.3197792E-1,7.770529E-1,4.060755E-2,-5.0996855E-2,8.1978047E-1,8.531764E-2,7.904296E-1,8.2023785E-2,9.443938E-1,-2.4510026E-3,-6.2051702E-2,1.328322E-2,-1.8161783E-1,-4.92753E-1,-9.792225E-2,3.6248088E-1,1.3236804E0,-1.0764792E-1,3.081274E-3,9.905077E-2,4.3399712E-1,-3.119309E-2,3.8279116E-1,1.3698981E0,4.989408E-1,4.7621027E-2,-1.1851121E-2],"categories":[],"categories_nodes":[],"categories_segments":[],"categories_sizes":[],"default_left":[1,1,0,1,0,0,0,1,0,0,0,0,0,0,0,0,0,0,0,0,0,0,0,0,0,0,0,0,0,0,0,0,0,0,1,0,0,0,0,0,0,0,0,0,0,0,0,0,0,0,0,0,0,0,0,0,0,0,0,0,0,0,0,0,0,0,0,0,0,0,0,0,0,0,0,0,0,0,0,0,0,0,0,0,0],"id":5,"left_children":[1,3,5,7,9,11,13,15,17,19,21,23,25,27,29,31,33,35,-1,-1,37,39,41,-1,-1,43,45,47,49,51,53,55,57,59,61,-1,-1,63,65,67,-1,69,71,73,-1,-1,-1,75,77,79,81,-1,-1,83,-1,-1,-1,-1,-1,-1,-1,-1,-1,-1,-1,-1,-1,-1,-1,-1,-1,-1,-1,-1,-1,-1,-1,-1,-1,-1,-1,-1,-1,-1,-1],"loss_changes":[8.465048E1,3.0843363E1,3.1266098E1,1.0079691E1,2.0731932E1,1.2133072E1,2.4896786E1,9.899271E0,2.165225E0,2.0881435E1,5.230121E0,2.2539759E-1,1.3283447E1,1.883036E1,1.2885668E0,1.3203182E0,1.9236174E1,7.4500847E-1,0E0,0E0,1.9605186E1,4.057096E0,8.749273E0,0E0,0E0,4.926956E0,5.634757E0,5.689368E0,1.3576561E1,4.6281338E-2,4.82719E-1,5.141239E-1,4.6928854E0,2.6095444E1,1.6729128E1,0E0,0E0,2.1185902E1,9.882376E0,2.4059746E-2,0E0,5.137906E0,5.705128E-1,4.9410248E-1,0E0,0E0,0E0,1.865753E-1,2.4294395E0,2.0342236E0,4.587349E0,0E0,0E0,5.4683976E-2,0E0,0E0,0E0,0E0,0E0,0E0,0E0,0E0,0E0,0E0,0E0,0E0,0E0,0E0,0E0,0E0,0E0,0E0,0E0,0E0,0E0,0E0,0E0,0E0,0E0,0E0,0E0,0E0,0E0,0E0,0E0],"parents":[2147483647,0,0,1,1,2,2,3,3,4,4,5,5,6,6,7,7,8,8,9,9,10,10,11,11,12,12,13,13,14,14,15,15,16,16,17,17,20,20,21,21,22,22,25,25,26,26,27,27,28,28,29,29,30,30,31,31,32,32,33,33,34,34,37,37,38,38,39,39,41,41,42,42,43,43,47,47,48,48,49,49,50,50,53,53],"right_children":[2,4,6,8,10,12,14,16,18,20,22,24,26,28,30,32,34,36,-1,-1,38,40,42,-1,-1,44,46,48,50,52,54,56,58,60,62,-1,-1,64,66,68,-1,70,72,74,-1,-1,-1,76,78,80,82,-1,-1,84,-1,-1,-1,-1,-1,-1,-1,-1,-1,-1,-1,-1,-1,-1,-1,-1,-1,-1,-1,-1,-1,-1,-1,-1,-1,-1,-1,-1,-1,-1,-1],"split_conditions":[8.44E0,2.42E0,4.2E0,2.34E0,2.1377782E2,1.4028457E1,2.2673567E2,5.6E-1,1.749875E1,2.54E0,4.7E-1,4E-1,2.378453E1,1.9986923E2,1.88E0,7E-1,4.7E-1,8.5083324E-1,4.1103818E-2,9.4742125E-1,1.073E1,3.8E-1,6.99E0,5.5991545E-2,2.9417768E-1,8.000001E-1,8.88E0,9.352483E1,7.55E0,1.52E0,2.0447239E1,2.2485512E2,1.99E0,3.8E-1,1.825E1,-1.2870091E-1,-4.3270802E-1,1.9434166E1,5.13E0,5.28E0,4.8920634E-1,5.75E0,1.838557E1,1.4480773E1,2.2468744E-1,-2.3427902E-1,4.933943E-1,9.3E0,5.513333E0,1.5809167E1,2.106299E2,-1.2422805E-1,-3.5161227E-1,1.215E1,-1.13917805E-1,-1.9682305E-1,-1.3223092E-1,-1.2739928E-1,2.3197792E-1,7.770529E-1,4.060755E-2,-5.0996855E-2,8.1978047E-1,8.531764E-2,7.904296E-1,8.2023785E-2,9.443938E-1,-2.4510026E-3,-6.2051702E-2,1.328322E-2,-1.8161783E-1,-4.92753E-1,-9.792225E-2,3.6248088E-1,1.3236804E0,-1.0764792E-1,3.081274E-3,9.905077E-2,4.3399712E-1,-3.119309E-2,3.8279116E-1,1.3698981E0,4.989408E-1,4.7621027E-2,-1.1851121E-2],"split_indices":[0,0,1,0,6,5,6,0,3,0,2,2,5,6,2,4,1,3,0,0,2,2,0,0,0,4,0,6,1,2,5,6,2,2,2,0,0,3,0,0,0,2,5,5,0,0,0,1,3,3,6,0,0,0,0,0,0,0,0,0,0,0,0,0,0,0,0,0,0,0,0,0,0,0,0,0,0,0,0,0,0,0,0,0,0],"split_type":[0,0,0,0,0,0,0,0,0,0,0,0,0,0,0,0,0,0,0,0,0,0,0,0,0,0,0,0,0,0,0,0,0,0,0,0,0,0,0,0,0,0,0,0,0,0,0,0,0,0,0,0,0,0,0,0,0,0,0,0,0,0,0,0,0,0,0,0,0,0,0,0,0,0,0,0,0,0,0,0,0,0,0,0,0],"sum_hessian":[7.18E2,6.72E2,4.6E1,4.67E2,2.05E2,1.3E1,3.3E1,4.57E2,1E1,1.19E2,8.6E1,4E0,9E0,2.2E1,1.1E1,9.2E1,3.65E2,9E0,1E0,2E0,1.17E2,4E0,8.2E1,1E0,3E0,7E0,2E0,1.4E1,8E0,3E0,8E0,7.1E1,2.1E1,2.1E1,3.44E2,2E0,7E0,1.12E2,5E0,2E0,2E0,7.8E1,4E0,6E0,1E0,1E0,1E0,5E0,9E0,3E0,5E0,2E0,1E0,4E0,4E0,2.6E1,4.5E1,1.8E1,3E0,5E0,1.6E1,3.43E2,1E0,1.09E2,3E0,2E0,3E0,1E0,1E0,6.4E1,1.4E1,3E0,1E0,1E0,5E0,3E0,2E0,4E0,5E0,2E0,1E0,2E0,3E0,2E0,2E0],"tree_param":{"num_deleted":"0","num_feature":"7","num_nodes":"85","size_leaf_vector":"1"}},{"base_weights":[3.8212E-2,-3.1354837E-2,1.0335369E0,-4.5264207E-2,2.306303E0,2.3380704E0,7.059897E-1,-1.8279569E-1,1.4230604E-1,-6.588622E-2,9.6644545E-1,1.3202615E0,1.1800804E0,1.2479298E0,-1.5104479E-1,-1.5874902E-2,-2.8274462E-1,9.686501E-2,1.1642306E0,4.7592796E-2,4.4622725E-1,6.763258E-1,2.539493E0,-3.0572438E-1,3.2537243E-1,-1.611832E-1,4.0134823E-1,-2.9743165E-1,9.8646516E-1,1.650046E-1,-3.8696927E-1,2.0160282E0,2.6779968E-1,-4.5927916E-2,1.04128E0,-1.9229867E-2,8.9523256E-1,-5.827852E-1,9.417157E-2,4.1396397E-1,-6.534478E-2,-9.2420876E-2,2.3477049E-1,-1.4848482E-2,-1.0060134E-1,8.8997275E-2,3.5491204E-1,3.2138294E-1,3.8740885E-2,-1.6740514E-1,7.1606554E-2,7.0552975E-2,6.97549E-1,1.4154649E-1,-9.516478E-4,1.1493245E-1,-5.4385584E-2,3.7186894E-1,9.972859E-3,-2.588325E-1,-5.5871516E-2,-1.7347656E-2,1.5092312E-1],"categories":[],"categories_nodes":[],"categories_segments":[],"categories_sizes":[],"default_left":[1,1,0,1,0,0,0,0,0,0,0,0,0,0,0,1,0,0,0,0,0,0,0,0,0,0,0,0,0,0,0,0,0,0,0,0,0,0,0,0,0,0,0,0,0,0,0,0,0,0,0,0,0,0,0,0,0,0,0,0,0,0,0],"id":6,"left_children":[1,3,5,7,9,11,13,15,17,-1,-1,19,-1,21,23,25,27,29,31,-1,-1,33,35,37,-1,39,41,43,45,47,49,51,53,55,57,-1,-1,59,61,-1,-1,-1,-1,-1,-1,-1,-1,-1,-1,-1,-1,-1,-1,-1,-1,-1,-1,-1,-1,-1,-1,-1,-1],"loss_changes":[4.9817123E1,2.198722E1,1.843227E1,1.730988E1,9.95422E0,9.422131E0,1.830249E1,6.4520483E0,1.3075419E1,0E0,0E0,1.1232862E0,0E0,1.6000782E1,3.3895833E0,8.916083E0,4.8045044E0,9.064189E0,8.623039E0,0E0,0E0,4.7924356E0,8.29446E0,1.7168142E0,0E0,9.813491E0,1.0517968E1,2.2389984E0,5.5838823E-2,7.6632085E0,3.7717848E0,2.7563171E0,3.884861E-1,4.759642E-1,2.357314E0,0E0,0E0,8.3858013E-1,4.6415776E-1,0E0,0E0,0E0,0E0,0E0,0E0,0E0,0E0,0E0,0E0,0E0,0E0,0E0,0E0,0E0,0E0,0E0,0E0,0E0,0E0,0E0,0E0,0E0,0E0],"parents":[2147483647,0,0,1,1,2,2,3,3,4,4,5,5,6,6,7,7,8,8,11,11,13,13,14,14,15,15,16,16,17,17,18,18,21,21,22,22,23,23,25,25,26,26,27,27,28,28,29,29,30,30,31,31,32,32,33,33,34,34,37,37,38,38],"right_children":[2,4,6,8,10,12,14,16,18,-1,-1,20,-1,22,24,26,28,30,32,-1,-1,34,36,38,-1,40,42,44,46,48,50,52,54,56,58,-1,-1,60,62,-1,-1,-1,-1,-1,-1,-1,-1,-1,-1,-1,-1,-1,-1,-1,-1,-1,-1,-1,-1,-1,-1,-1,-1],"split_conditions":[8.44E0,1.825E1,2.04E0,1.7E0,2.2E-1,1.9576189E1,2.1463374E2,1.9713249E2,1.9434166E1,-6.588622E-2,9.6644545E-1,4E-1,1.1800804E0,1.9986923E2,1.6015417E1,1.65E0,1.9382082E1,2.667889E1,1.8361292E2,4.7592796E-2,4.4622725E-1,9.352483E1,1.005E1,5.85E0,3.2537243E-1,2.2E-1,6.205608E1,5E-1,1.42E0,1.73E0,5.13E0,2.22E0,2.8E0,3.05E0,1.852502E2,-1.9229867E-2,8.9523256E-1,4E-1,1.44E1,4.1396397E-1,-6.534478E-2,-9.2420876E-2,2.3477049E-1,-1.4848482E-2,-1.0060134E-1,8.8997275E-2,3.5491204E-1,3.2138294E-1,3.8740885E-2,-1.6740514E-1,7.1606554E-2,7.0552975E-2,6.97549E-1,1.4154649E-1,-9.516478E-4,1.1493245E-1,-5.4385584E-2,3.7186894E-1,9.972859E-3,-2.588325E-1,-5.5871516E-2,-1.7347656E-2,1.5092312E-1],"split_indices":[0,2,1,0,0,5,6,6,3,0,0,2,0,6,3,1,3,5,6,0,0,6,0,2,0,2,6,2,0,0,1,0,2,1,6,0,0,4,0,0,0,0,0,0,0,0,0,0,0,0,0,0,0,0,0,0,0,0,0,0,0,0,0],"split_type":[0,0,0,0,0,0,0,0,0,0,0,0,0,0,0,0,0,0,0,0,0,0,0,0,0,0,0,0,0,0,0,0,0,0,0,0,0,0,0,0,0,0,0,0,0,0,0,0,0,0,0,0,0,0,0,0,0,0,0,0,0,0,0],"sum_hessian":[7.18E2,6.72E2,4.6E1,6.69E2,3E0,8E0,3.8E1,3.86E2,2.83E2,1E0,2E0,6E0,2E0,2.3E1,1.5E1,1.45E2,2.41E2,2.72E2,1.1E1,1E0,5E0,1.7E1,6E0,1.4E1,1E0,1.08E2,3.7E1,2.39E2,2E0,2.39E2,3.3E1,5E0,6E0,6E0,1.1E1,1E0,5E0,8E0,6E0,3E0,1.05E2,1.3E1,2.4E1,3.2E1,2.07E2,1E0,1E0,8E0,2.31E2,2.6E1,7E0,1E0,4E0,3E0,3E0,1E0,5E0,9E0,2E0,4E0,4E0,5E0,1E0],"tree_param":{"num_deleted":"0","num_feature":"7","num_nodes":"63","size_leaf_vector":"1"}},{"base_weights":[3.513439E-2,-3.5874916E-3,1.1101973E0,-1.4236292E-2,1.8395518E0,2.5403502E0,7.168182E-1,-1.05199076E-1,1.7256059E-1,-5.600329E-2,7.731563E-1,1.1562859E0,1.1388922E-1,-1.1597407E-1,1.1414982E0,-8.624726E-2,-8.8127446E-1,5.4504985E-1,1.4242823E-1,4.0453866E-2,-1.7106928E-1,1.4211112E0,8.7187976E-2,-3.2365468E-1,-4.2355612E-2,-9.8881996E-1,2.912711E-2,3.1092978E-1,-1.02714516E-1,-2.0478861E-1,4.6869996E-3,1.5413343E0,3.2832135E-2,8.804269E-2,-2.3819936E-2,-1.6445115E-1,-6.1396196E-2,-3.4064386E-2,6.1086614E-2,-1.2982813E-1,-3.4959248E-1,4.2119734E-2,1.9580276E-1,-2.279241E-1,-6.6949357E-3,-7.05537E-2,-7.925499E-3,8.9955285E-2,4.9378803E-1],"categories":[],"categories_nodes":[],"categories_segments":[],"categories_sizes":[],"default_left":[1,1,0,1,0,0,0,1,0,0,0,0,0,0,0,0,0,0,0,0,0,0,0,0,0,0,0,0,0,0,0,0,0,0,0,0,0,0,0,0,0,0,0,0,0,0,0,0,0],"id":7,"left_children":[1,3,5,7,9,11,13,15,17,-1,-1,-1,-1,19,21,23,25,-1,27,-1,29,31,33,35,37,39,-1,41,43,45,-1,47,-1,-1,-1,-1,-1,-1,-1,-1,-1,-1,-1,-1,-1,-1,-1,-1,-1],"loss_changes":[2.9934845E1,1.3667109E1,1.2243837E1,1.1776316E1,6.4595804E0,1.2732025E1,7.559458E0,6.777938E0,1.0988129E1,0E0,0E0,0E0,0E0,1.3362002E-1,4.0032806E0,4.7379045E0,1.2534103E0,0E0,9.284689E0,0E0,4.7265515E-2,1.565939E0,1.607619E-1,1.78476E0,6.7826457E0,4.7708225E-1,0E0,7.6593647E0,4.842866E0,2.6311398E-2,0E0,8.0537033E-1,0E0,0E0,0E0,0E0,0E0,0E0,0E0,0E0,0E0,0E0,0E0,0E0,0E0,0E0,0E0,0E0,0E0],"parents":[2147483647,0,0,1,1,2,2,3,3,4,4,5,5,6,6,7,7,8,8,13,13,14,14,15,15,16,16,18,18,20,20,21,21,22,22,23,23,24,24,25,25,27,27,28,28,29,29,31,31],"right_children":[2,4,6,8,10,12,14,16,18,-1,-1,-1,-1,20,22,24,26,-1,28,-1,30,32,34,36,38,40,-1,42,44,46,-1,48,-1,-1,-1,-1,-1,-1,-1,-1,-1,-1,-1,-1,-1,-1,-1,-1,-1],"split_conditions":[1.118E1,1.825E1,3.4758337E0,2.42E0,2.2E-1,1.343E1,5.513333E0,2.34E0,2.5E0,-5.600329E-2,7.731563E-1,1.1562859E0,1.1388922E-1,8.2E-1,2.5323128E1,7.508331E-1,1.749875E1,5.4504985E-1,2.1377782E2,4.0453866E-2,1.825E1,2.72385E2,1.163E1,2.393348E2,1.6000001E0,4.1680206E1,2.912711E-2,1.5809167E1,2.2098428E2,4.2E0,4.6869996E-3,1.4028457E1,3.2832135E-2,8.804269E-2,-2.3819936E-2,-1.6445115E-1,-6.1396196E-2,-3.4064386E-2,6.1086614E-2,-1.2982813E-1,-3.4959248E-1,4.2119734E-2,1.9580276E-1,-2.279241E-1,-6.6949357E-3,-7.05537E-2,-7.925499E-3,8.9955285E-2,4.9378803E-1],"split_indices":[0,2,3,0,0,1,3,0,0,0,0,0,0,1,5,3,3,0,6,0,0,6,0,6,4,6,0,3,6,2,0,5,0,0,0,0,0,0,0,0,0,0,0,0,0,0,0,0,0],"split_type":[0,0,0,0,0,0,0,0,0,0,0,0,0,0,0,0,0,0,0,0,0,0,0,0,0,0,0,0,0,0,0,0,0,0,0,0,0,0,0,0,0,0,0,0,0,0,0,0,0],"sum_hessian":[7.18E2,6.94E2,2.4E1,6.91E2,3E0,4E0,2E1,4.65E2,2.26E2,1E0,2E0,2E0,2E0,7E0,1.3E1,4.55E2,1E1,3E0,2.23E2,1E0,6E0,1E1,3E0,7E1,3.85E2,9E0,1E0,1.32E2,9.1E1,5E0,1E0,9E0,1E0,1E0,2E0,2.3E1,4.7E1,2.99E2,8.6E1,3E0,6E0,8.9E1,4.3E1,9E0,8.2E1,4E0,1E0,1E0,8E0],"tree_param":{"num_deleted":"0","num_feature":"7","num_nodes":"49","size_leaf_vector":"1"}},{"base_weights":[2.8118458E-2,-1.41685745E-2,6.3303447E-1,-2.8130516E-2,1.1499342E0,1.3334917E0,3.2599226E-1,-4.6473254E-2,6.748642E-1,-6.1488267E-2,1.635726E0,1.8347863E0,5.7008487E-1,9.117407E-2,1.0777546E0,-5.2191484E-1,-2.820041E-2,-1.2922072E-1,9.32215E-1,1.3876824E-1,5.3335404E-1,3.4385778E-2,2.0641503E0,8.052364E-1,-1.261237E-1,-3.7074792E-1,3.847016E-1,8.999188E-1,3.7465408E-1,-2.1649699E-1,-6.907324E-1,9.82908E-2,-1.3526297E-1,6.648467E-2,-8.170011E-2,1.3799587E0,1.7985411E-1,7.3543733E-1,2.191763E-1,1.1631665E-1,3.2805303E-1,-1.0827235E-1,-5.052665E-1,2.01774E-1,9.287728E-1,5.583483E-1,-5.6387585E-2,-1.2461524E-1,-4.4024647E-3,4.9183525E-2,-2.2904737E-1,-8.9673474E-2,5.9926353E-2,4.5832694E-2,-5.096261E-2,4.5861244E-1,5.0807014E-2,-1.6792346E-2,9.352861E-2,-6.037099E-2,6.234813E-3,-1.9436575E-1,-2.9743643E-2,1.3358672E-3,1.3923801E-1,3.216183E-1,7.4836284E-2,2.2875462E-1,5.0419524E-2,-2.9358352E-2,3.983939E-3],"categories":[],"categories_nodes":[],"categories_segments":[],"categories_sizes":[],"default_left":[1,1,0,0,0,0,0,0,0,0,0,0,0,0,0,1,0,0,0,0,0,0,0,0,0,0,0,0,0,0,0,0,0,0,0,0,0,0,0,0,0,0,0,0,0,0,0,0,0,0,0,0,0,0,0,0,0,0,0,0,0,0,0,0,0,0,0,0,0,0,0],"id":8,"left_children":[1,3,5,7,9,11,13,15,17,-1,19,21,23,25,27,29,31,33,35,-1,-1,-1,37,39,-1,41,43,-1,45,47,49,51,53,-1,-1,55,57,-1,-1,-1,-1,59,61,63,65,67,69,-1,-1,-1,-1,-1,-1,-1,-1,-1,-1,-1,-1,-1,-1,-1,-1,-1,-1,-1,-1,-1,-1,-1,-1],"loss_changes":[1.8401062E1,1.0970707E1,9.673582E0,8.61933E0,5.600835E0,4.311699E0,5.9036713E0,5.632267E0,3.6383038E0,0E0,1.780262E-1,2.9197636E0,1.9689503E0,3.8034718E0,9.686869E0,1.0878963E0,8.504426E0,3.1139946E-1,4.131052E0,0E0,0E0,0E0,1.8244877E0,2.98172E-1,0E0,3.336799E-1,1.5045338E0,0E0,5.8574283E-1,3.9530247E-1,1.05795E0,1.1666575E1,3.4156518E0,0E0,0E0,1.181714E0,2.0409666E-1,0E0,0E0,0E0,0E0,6.4169794E-2,3.4121E-1,7.226813E-1,1.2192297E-1,2.7026272E-1,9.967646E-3,0E0,0E0,0E0,0E0,0E0,0E0,0E0,0E0,0E0,0E0,0E0,0E0,0E0,0E0,0E0,0E0,0E0,0E0,0E0,0E0,0E0,0E0,0E0,0E0],"parents":[2147483647,0,0,1,1,2,2,3,3,4,4,5,5,6,6,7,7,8,8,10,10,11,11,12,12,13,13,14,14,15,15,16,16,17,17,18,18,22,22,23,23,25,25,26,26,28,28,29,29,30,30,31,31,32,32,35,35,36,36,41,41,42,42,43,43,44,44,45,45,46,46],"right_children":[2,4,6,8,10,12,14,16,18,-1,20,22,24,26,28,30,32,34,36,-1,-1,-1,38,40,-1,42,44,-1,46,48,50,52,54,-1,-1,56,58,-1,-1,-1,-1,60,62,64,66,68,70,-1,-1,-1,-1,-1,-1,-1,-1,-1,-1,-1,-1,-1,-1,-1,-1,-1,-1,-1,-1,-1,-1,-1,-1],"split_conditions":[8.44E0,1.343E1,4.2E0,1.9434166E1,1.02E0,6.496668E0,1.44E1,2.5935747E1,1.5E0,-6.1488267E-2,2.3654168E0,8.2E-1,2.7E0,5.513333E0,1.1E0,8.5E-1,2.1331937E2,1.9638334E1,2.31538E2,1.3876824E-1,5.3335404E-1,3.4385778E-2,8.000001E-1,1.44E0,-1.261237E-1,1E-1,1.9888334E1,8.999188E-1,2.2673567E2,4.3E-1,7.5019197E0,1.2841963E1,5E-1,6.648467E-2,-8.170011E-2,1.6000003E0,2.75E0,7.3543733E-1,2.191763E-1,1.1631665E-1,3.2805303E-1,4.2E0,1.118E1,1E0,1.148E1,1.825E1,1.825E1,-1.2461524E-1,-4.4024647E-3,4.9183525E-2,-2.2904737E-1,-8.9673474E-2,5.9926353E-2,4.5832694E-2,-5.096261E-2,4.5861244E-1,5.0807014E-2,-1.6792346E-2,9.352861E-2,-6.037099E-2,6.234813E-3,-1.9436575E-1,-2.9743643E-2,1.3358672E-3,1.3923801E-1,3.216183E-1,7.4836284E-2,2.2875462E-1,5.0419524E-2,-2.9358352E-2,3.983939E-3],"split_indices":[0,2,1,3,0,3,0,6,0,0,3,1,2,3,2,1,6,3,6,0,0,0,4,2,0,4,3,0,6,0,5,5,2,0,0,4,0,0,0,0,0,2,0,4,0,0,0,0,0,0,0,0,0,0,0,0,0,0,0,0,0,0,0,0,0,0,0,0,0,0,0],"split_type":[0,0,0,0,0,0,0,0,0,0,0,0,0,0,0,0,0,0,0,0,0,0,0,0,0,0,0,0,0,0,0,0,0,0,0,0,0,0,0,0,0,0,0,0,0,0,0,0,0,0,0,0,0,0,0,0,0,0,0,0,0,0,0,0,0,0,0,0,0,0,0],"sum_hessian":[7.18E2,6.72E2,4.6E1,6.65E2,7E0,1.3E1,3.3E1,6.49E2,1.6E1,2E0,5E0,7E0,6E0,2.6E1,7E0,2.3E1,6.26E2,4E0,1.2E1,1E0,4E0,1E0,6E0,5E0,1E0,1E1,1.6E1,1E0,6E0,9E0,1.4E1,2.87E2,3.39E2,1E0,3E0,7E0,5E0,4E0,2E0,3E0,2E0,4E0,6E0,1.3E1,3E0,4E0,2E0,4E0,5E0,1E0,1.3E1,5.8E1,2.29E2,3.6E1,3.03E2,6E0,1E0,2E0,3E0,2E0,2E0,4E0,2E0,8E0,5E0,2E0,1E0,2E0,2E0,1E0,1E0],"tree_param":{"num_deleted":"0","num_feature":"7","num_nodes":"71","size_leaf_vector":"1"}},{"base_weights":[2.4630846E-2,-3.8911466E-2,2.9005137E-1,6.426876E-2,-1.4195797E-1,2.3303215E-1,1.0022959E0,-9.238009E-3,5.257547E-1,-3.5352457E-1,-2.0624544E-2,4.8592934E-1,4.6948258E-2,7.6493084E-1,5.4704666E-1,-1.9014353E-1,1.440049E-1,1.8750985E-1,2.0935504E0,-4.1581374E-1,5.8682424E-1,5.050072E-1,-1.0161324E-1,6.926551E-1,-3.1255916E-1,-3.9268333E-1,2.8341034E-1,3.5740986E-1,1.9276021E-1,-2.833675E-1,3.694179E-1,-3.122997E-1,2.29304E-1,-1.4787185E-1,9.0220535E-1,1.1731898E0,-7.407574E-2,-2.0215225E-1,-5.670487E-1,5.6070827E-2,3.8274154E-1,-3.9556086E-1,9.520722E-1,-4.9161464E-2,-7.5316364E-1,9.25427E-2,1.0670761E0,1.5770131E-1,-1.002464E0,-1.3935997E-1,-9.769063E-1,-5.0026375E-1,3.5725734E-1,3.5298824E-1,-4.1561976E-2,-1.8782765E-2,-1.2360763E-1,-2.3467243E-2,7.4534667E-1,1.1125895E-1,-1.31906E-1,3.2058096E-1,4.2013105E-2,-1.1545845E-1,1.4479642E-1,5.162934E-1,-2.00804E-2,-1.632779E-1,-5.468821E-3,-1.8171214E-1,2.4547155E-1,-4.1950896E-2,4.2002007E-2,-1.8521519E-1,-5.4525603E-2,-1.3544016E-1,4.2559764E-1,1.7092143E-1,-3.0557655E-2,-3.859169E-1,-9.772559E-2,-9.651601E-2,3.7019095E-1,6.631069E-1,1.1179155E-1,9.997914E-2,-7.3797226E-2,-7.6333836E-2,-4.2489824E-1,1.23796314E-1,-1.2162386E-1,-4.6331856E-1,-6.9956486E-3,-1.2523925E-1,1.5558138E-1,1.2544566E-1,1.3849855E-2],"categories":[],"categories_nodes":[],"categories_segments":[],"categories_sizes":[],"default_left":[1,0,0,0,0,0,0,1,0,0,0,0,0,0,0,0,0,0,0,0,0,0,0,0,0,0,0,0,0,0,0,0,0,0,0,0,0,0,0,0,0,0,0,0,0,0,0,0,0,0,0,0,0,0,0,0,0,0,0,0,0,0,0,0,0,0,0,0,0,0,0,0,0,0,0,0,0,0,0,0,0,0,0,0,0,0,0,0,0,0,0,0,0,0,0,0,0],"id":9,"left_children":[1,3,5,7,9,11,13,15,17,19,21,23,25,-1,27,29,31,33,35,37,39,41,43,45,47,49,51,-1,53,55,57,59,61,63,65,-1,-1,67,69,71,-1,73,75,77,79,81,83,85,87,89,91,-1,93,95,-1,-1,-1,-1,-1,-1,-1,-1,-1,-1,-1,-1,-1,-1,-1,-1,-1,-1,-1,-1,-1,-1,-1,-1,-1,-1,-1,-1,-1,-1,-1,-1,-1,-1,-1,-1,-1,-1,-1,-1,-1,-1,-1],"loss_changes":[1.2137532E1,6.1865253E0,5.4114466E0,9.876258E0,7.4627075E0,6.094998E0,5.6500187E0,7.013448E0,2.0819393E1,6.4528055E0,7.969378E0,9.295244E0,8.011962E0,0E0,1.824815E0,6.1557693E0,5.4039764E0,8.283068E0,3.0735388E1,3.1166801E0,2.488217E0,1.0441914E1,5.499319E0,9.787815E0,4.0513096E0,3.859786E0,7.7993546E0,0E0,4.204879E-1,2.814433E0,1.6289856E1,2.077636E0,8.540618E0,3.7720337E0,8.843752E0,0E0,0E0,2.6956966E0,3.6016808E0,1.01796195E-1,0E0,3.1463885E-1,1.1773313E1,4.9828053E0,2.3158402E0,8.908305E0,2.0612625E1,6.489653E-1,1.1875076E0,3.1045957E0,4.293188E0,0E0,6.3414574E0,8.066422E-2,0E0,0E0,0E0,0E0,0E0,0E0,0E0,0E0,0E0,0E0,0E0,0E0,0E0,0E0,0E0,0E0,0E0,0E0,0E0,0E0,0E0,0E0,0E0,0E0,0E0,0E0,0E0,0E0,0E0,0E0,0E0,0E0,0E0,0E0,0E0,0E0,0E0,0E0,0E0,0E0,0E0,0E0,0E0],"parents":[2147483647,0,0,1,1,2,2,3,3,4,4,5,5,6,6,7,7,8,8,9,9,10,10,11,11,12,12,14,14,15,15,16,16,17,17,18,18,19,19,20,20,21,21,22,22,23,23,24,24,25,25,26,26,28,28,29,29,30,30,31,31,32,32,33,33,34,34,37,37,38,38,39,39,41,41,42,42,43,43,44,44,45,45,46,46,47,47,48,48,49,49,50,50,52,52,53,53],"right_children":[2,4,6,8,10,12,14,16,18,20,22,24,26,-1,28,30,32,34,36,38,40,42,44,46,48,50,52,-1,54,56,58,60,62,64,66,-1,-1,68,70,72,-1,74,76,78,80,82,84,86,88,90,92,-1,94,96,-1,-1,-1,-1,-1,-1,-1,-1,-1,-1,-1,-1,-1,-1,-1,-1,-1,-1,-1,-1,-1,-1,-1,-1,-1,-1,-1,-1,-1,-1,-1,-1,-1,-1,-1,-1,-1,-1,-1,-1,-1,-1,-1],"split_conditions":[4.3E0,1.8783066E1,1.188E1,1.7430283E1,2.19718E1,3.69E0,1.1E0,1.3E0,1.73E0,1.86425E1,2.3175304E1,1.7027918E1,5.55E0,7.6493084E-1,5.99E0,1.6757082E1,1.1E0,6E-1,1.7884428E1,9.2E-1,3E-1,1.02E0,3.3E0,5.432083E0,1.3902014E1,3.69E0,1.0144082E1,3.5740986E-1,2.2673567E2,4.1966662E0,1.6800856E1,1.42E0,1.27E0,2.9E0,9.2E-1,1.1731898E0,-7.407574E-2,1.4801274E2,4.05E0,7E-1,3.8274154E-1,1.7726004E2,1E-1,4E-1,7.646667E0,2.1068459E1,8.246666E0,2.8E0,6.89E0,1E-1,7.0737495E0,-5.0026375E-1,2.04E0,2.542E1,-4.1561976E-2,-1.8782765E-2,-1.2360763E-1,-2.3467243E-2,7.4534667E-1,1.1125895E-1,-1.31906E-1,3.2058096E-1,4.2013105E-2,-1.1545845E-1,1.4479642E-1,5.162934E-1,-2.00804E-2,-1.632779E-1,-5.468821E-3,-1.8171214E-1,2.4547155E-1,-4.1950896E-2,4.2002007E-2,-1.8521519E-1,-5.4525603E-2,-1.3544016E-1,4.2559764E-1,1.7092143E-1,-3.0557655E-2,-3.859169E-1,-9.772559E-2,-9.651601E-2,3.7019095E-1,6.631069E-1,1.1179155E-1,9.997914E-2,-7.3797226E-2,-7.6333836E-2,-4.2489824E-1,1.23796314E-1,-1.2162386E-1,-4.6331856E-1,-6.9956486E-3,-1.2523925E-1,1.5558138E-1,1.2544566E-1,1.3849855E-2],"split_indices":[0,5,1,5,5,1,2,2,0,3,5,3,1,0,0,3,1,4,5,1,4,1,0,3,5,2,5,0,6,3,5,2,1,2,2,0,0,6,0,0,0,6,4,2,3,5,3,2,0,4,3,0,2,0,0,0,0,0,0,0,0,0,0,0,0,0,0,0,0,0,0,0,0,0,0,0,0,0,0,0,0,0,0,0,0,0,0,0,0,0,0,0,0,0,0,0,0],"split_type":[0,0,0,0,0,0,0,0,0,0,0,0,0,0,0,0,0,0,0,0,0,0,0,0,0,0,0,0,0,0,0,0,0,0,0,0,0,0,0,0,0,0,0,0,0,0,0,0,0,0,0,0,0,0,0,0,0,0,0,0,0,0,0,0,0,0,0,0,0,0,0,0,0,0,0,0,0,0,0,0,0,0,0,0,0,0,0,0,0,0,0,0,0,0,0,0,0],"sum_hessian":[7.18E2,5.8E2,1.38E2,2.9E2,2.9E2,1.29E2,9E0,2.51E2,3.9E1,1.05E2,1.85E2,5.4E1,7.5E1,1E0,8E0,1.15E2,1.36E2,3.3E1,6E0,9.9E1,6E0,2.4E1,1.61E2,4.3E1,1.1E1,2.6E1,4.9E1,2E0,6E0,9.9E1,1.6E1,2.1E1,1.15E2,2.3E1,1E1,3E0,3E0,4.2E1,5.7E1,4E0,2E0,8E0,1.6E1,1.5E2,1.1E1,1.7E1,2.6E1,7E0,4E0,1.9E1,7E0,1E0,4.8E1,4E0,2E0,3.7E1,6.2E1,1.4E1,2E0,3E0,1.8E1,1E1,1.05E2,1.7E1,6E0,5E0,5E0,1.4E1,2.8E1,5.6E1,1E0,1E0,3E0,3E0,5E0,4E0,1.2E1,1.1E1,1.39E2,4E0,7E0,1.3E1,4E0,9E0,1.7E1,5E0,2E0,2E0,2E0,6E0,1.3E1,4E0,3E0,8E0,4E1,3E0,1E0],"tree_param":{"num_deleted":"0","num_feature":"7","num_nodes":"97","size_leaf_vector":"1"}},{"base_weights":[2.1951709E-2,-7.9704905E-3,3.448497E-1,-1.5198312E-2,1.1793848E0,5.944745E-1,-1.4048111E-2,-4.273602E-2,1.9869694E-1,-1.1122737E-2,4.791691E-1,5.758975E-1,4.158318E-1,9.9379957E-1,-3.6609238E-1,3.8530913E-1,-4.7230795E-2,1.4432158E-1,6.333711E-1,-1.1877861E-2,8.7101567E-1,2.4458721E-1,5.733661E-1,-3.418146E-1,-1.6260704E-1,3.4787424E-2,-1.279681E-1,9.914344E-2,7.4795127E-1,-6.827305E-1,2.2856079E-1,1.4070107E0,2.9779613E-1,-5.0272584E-2,1.168565E-1,-4.079061E-1,4.9892884E-2,-6.067189E-2,4.6120428E-2,-4.267948E-2,2.8216317E-1,7.983628E-2,-3.2237574E-2,2.7155587E-1,1.7851748E-2,-2.3525703E-1,-4.1533828E-2,1.6632749E-1,-2.5542142E-2,6.1548364E-1,1.8297821E-1,1.1205644E-1,-4.6200946E-2,-2.0386678E-1,-3.270151E-2,1.3091841E-1,-1.2462019E-2],"categories":[],"categories_nodes":[],"categories_segments":[],"categories_sizes":[],"default_left":[1,1,0,0,0,0,0,0,0,0,0,0,0,0,0,0,0,0,0,0,0,0,0,0,0,0,0,0,0,0,0,0,0,0,0,0,0,0,0,0,0,0,0,0,0,0,0,0,0,0,0,0,0,0,0,0,0],"id":10,"left_children":[1,3,5,7,9,11,13,15,17,-1,-1,-1,19,21,23,-1,25,27,-1,29,31,33,-1,-1,35,37,39,41,43,45,47,49,51,-1,-1,53,55,-1,-1,-1,-1,-1,-1,-1,-1,-1,-1,-1,-1,-1,-1,-1,-1,-1,-1,-1,-1],"loss_changes":[6.9495955E0,5.673457E0,5.4733286E0,3.872453E0,2.0923886E0,7.724185E0,9.588804E0,3.532299E0,7.494933E0,0E0,0E0,0E0,6.435002E0,4.3439407E0,2.9617903E0,0E0,3.8517938E0,1.94389E0,0E0,3.0594258E0,4.4968815E0,3.6395693E-1,0E0,0E0,9.064941E-1,8.179081E0,4.6097717E0,2.4434483E0,4.873743E-1,1.6754627E-1,1.4783401E0,2.8590746E0,3.6543727E-1,0E0,0E0,5.754962E-1,3.7151787E-1,0E0,0E0,0E0,0E0,0E0,0E0,0E0,0E0,0E0,0E0,0E0,0E0,0E0,0E0,0E0,0E0,0E0,0E0,0E0,0E0],"parents":[2147483647,0,0,1,1,2,2,3,3,4,4,5,5,6,6,7,7,8,8,12,12,13,13,14,14,16,16,17,17,19,19,20,20,21,21,24,24,25,25,26,26,27,27,28,28,29,29,30,30,31,31,32,32,35,35,36,36],"right_children":[2,4,6,8,10,12,14,16,18,-1,-1,-1,20,22,24,-1,26,28,-1,30,32,34,-1,-1,36,38,40,42,44,46,48,50,52,-1,-1,54,56,-1,-1,-1,-1,-1,-1,-1,-1,-1,-1,-1,-1,-1,-1,-1,-1,-1,-1,-1,-1],"split_conditions":[7.5E0,1.825E1,2.1463374E2,1.7917498E1,2.2E-1,7.79E0,2.04E0,2E-1,3.005515E1,-1.1122737E-2,4.791691E-1,5.758975E-1,1.5411055E2,7.0000005E-1,3.53E0,3.8530913E-1,1.8783066E1,5.45E0,6.333711E-1,8.88E0,8E-1,7.55E0,5.733661E-1,-3.418146E-1,1.118E1,1.3499999E1,6.35E0,2.21E0,6.09E0,5.99E0,7.55E0,1.52E0,6.99E0,-5.0272584E-2,1.168565E-1,2.4255711E2,1.148E1,-6.067189E-2,4.6120428E-2,-4.267948E-2,2.8216317E-1,7.983628E-2,-3.2237574E-2,2.7155587E-1,1.7851748E-2,-2.3525703E-1,-4.1533828E-2,1.6632749E-1,-2.5542142E-2,6.1548364E-1,1.8297821E-1,1.1205644E-1,-4.6200946E-2,-2.0386678E-1,-3.270151E-2,1.3091841E-1,-1.2462019E-2],"split_indices":[0,2,6,3,0,0,1,2,5,0,0,0,6,4,1,0,5,2,0,0,4,0,0,0,0,5,0,2,0,1,1,2,2,0,0,6,0,0,0,0,0,0,0,0,0,0,0,0,0,0,0,0,0,0,0,0,0],"split_type":[0,0,0,0,0,0,0,0,0,0,0,0,0,0,0,0,0,0,0,0,0,0,0,0,0,0,0,0,0,0,0,0,0,0,0,0,0,0,0,0,0,0,0,0,0,0,0,0,0,0,0,0,0,0,0,0,0],"sum_hessian":[7.18E2,6.58E2,6E1,6.55E2,3E0,3.5E1,2.5E1,5.81E2,7.4E1,1E0,2E0,3E0,3.2E1,6E0,1.9E1,1E0,5.8E2,7.3E1,1E0,1.7E1,1.5E1,4E0,2E0,3E0,1.6E1,2.88E2,2.92E2,6.9E1,4E0,4E0,1.3E1,7E0,8E0,1E0,3E0,7E0,9E0,9.6E1,1.92E2,2.89E2,3E0,3.8E1,3.1E1,3E0,1E0,3E0,1E0,6E0,7E0,3E0,4E0,7E0,1E0,3E0,4E0,1E0,8E0],"tree_param":{"num_deleted":"0","num_feature":"7","num_nodes":"57","size_leaf_vector":"1"}},{"base_weights":[2.02798E-2,-1.3204333E-1,6.841805E-2,-1.5208614E-1,1.7695859E-1,7.464734E-1,5.0513193E-2,-4.0146884E-1,-1.2221137E-1,5.473981E-1,-1.7027761E-1,1.4717034E0,-1.89E-1,-1.8703851E-1,8.211329E-2,-1.706111E-1,-2.120678E-1,5.010466E-1,-1.4314897E-1,1.0132459E-1,-3.3950275E-1,-2.555327E-1,2.0900376E0,1.649551E-1,-1.4871153E-1,1.1418504E0,-2.725138E-1,2.0088914E-1,-1.9750435E-2,-9.931157E-2,-3.164708E-2,-7.607822E-2,3.266015E-1,-1.1852352E-1,-4.9662536E-1,-1.3461907E-1,-1.18092686E-1,-1.24802776E-1,9.813059E-3,1.472171E-1,2.3117557E0,-1.6683792E-1,1.7405012E-1,5.5992836E-1,8.345459E-2,-3.7169075E-1,1.1464062E-1,-7.1776467E-3,3.8730702E-1,8.188591E-2,-1.5024939E-1,-3.200691E-2,3.1191893E-2,-2.899075E-2,-1.242642E-1,-1.8122676E-1,-2.4100393E-2,-1.5481282E-2,-4.7633693E-2,1.9109814E-1,7.7135926E-1,-8.738351E-3,-6.633871E-2,-1.4461228E-1,4.801603E-2,3.3320266E-1,-5.0228138E-2,2.9342955E-1,-3.3244614E-2,2.8810105E-1,5.7553586E-2,7.5252324E-2,-4.5634825E-2,-7.268657E-2,5.9196882E-2],"categories":[],"categories_nodes":[],"categories_segments":[],"categories_sizes":[],"default_left":[0,0,0,0,0,0,0,0,0,0,0,0,0,0,0,0,0,0,0,0,0,0,0,0,0,0,0,0,0,0,0,0,0,0,0,0,0,0,0,0,0,0,0,0,0,0,0,0,0,0,0,0,0,0,0,0,0,0,0,0,0,0,0,0,0,0,0,0,0,0,0,0,0,0,0],"id":11,"left_children":[1,3,5,7,9,11,13,15,17,-1,19,21,23,25,27,29,-1,31,33,-1,35,37,39,41,-1,43,45,47,49,-1,51,-1,-1,53,55,-1,57,-1,-1,-1,59,61,-1,-1,-1,63,65,67,69,71,73,-1,-1,-1,-1,-1,-1,-1,-1,-1,-1,-1,-1,-1,-1,-1,-1,-1,-1,-1,-1,-1,-1,-1,-1],"loss_changes":[5.281151E0,1.0983481E0,6.603137E0,1.1653271E0,6.6042576E0,9.776218E0,4.023913E0,1.0780566E0,1.9900057E0,0E0,9.7437453E-1,9.078146E0,8.416879E-1,7.46716E0,5.714672E0,2.3475361E-1,0E0,2.4933095E0,1.1858845E0,0E0,1.4048076E-1,1.5237643E-1,9.931469E-1,6.478516E-1,0E0,1.9839721E0,2.3464184E0,8.458426E0,3.3944798E0,0E0,8.2333826E-2,0E0,0E0,8.336898E-1,3.540964E-1,0E0,2.6269965E-3,0E0,0E0,0E0,5.346794E-1,1.598829E-2,0E0,0E0,0E0,2.8937001E0,3.8382983E0,1.0728012E1,1.2696384E1,5.7313185E0,3.6307192E0,0E0,0E0,0E0,0E0,0E0,0E0,0E0,0E0,0E0,0E0,0E0,0E0,0E0,0E0,0E0,0E0,0E0,0E0,0E0,0E0,0E0,0E0,0E0,0E0],"parents":[2147483647,0,0,1,1,2,2,3,3,4,4,5,5,6,6,7,7,8,8,10,10,11,11,12,12,13,13,14,14,15,15,17,17,18,18,20,20,21,21,22,22,23,23,25,25,26,26,27,27,28,28,30,30,33,33,34,34,36,36,40,40,41,41,45,45,46,46,47,47,48,48,49,49,50,50],"right_children":[2,4,6,8,10,12,14,16,18,-1,20,22,24,26,28,30,-1,32,34,-1,36,38,40,42,-1,44,46,48,50,-1,52,-1,-1,54,56,-1,58,-1,-1,-1,60,62,-1,-1,-1,64,66,68,70,72,74,-1,-1,-1,-1,-1,-1,-1,-1,-1,-1,-1,-1,-1,-1,-1,-1,-1,-1,-1,-1,-1,-1,-1,-1],"split_conditions":[9E-1,1.633833E1,4.7E-1,4.7036304E1,4.2438236E1,5.2E-1,6.3347942E1,5.6E-1,5.8729042E1,5.473981E-1,1.678625E1,1.7555305E1,9.8E-1,8E-1,2.1331937E2,4.3E-1,-2.120678E-1,9.5E-1,8.2E-1,1.0132459E-1,1.7917498E1,1.1E0,9.5E-1,1.12E0,-1.4871153E-1,1.02E0,5.6E0,1.7E0,1.0907083E1,-9.931157E-2,2E-1,-7.607822E-2,3.266015E-1,3.47E0,2.1906683E2,-1.3461907E-1,6.3E-1,-1.24802776E-1,9.813059E-3,1.472171E-1,1E-1,9.5E-1,1.7405012E-1,5.5992836E-1,8.345459E-2,1.749875E1,6.35E0,1E0,1.79E0,2.72385E2,1.8529997E1,-3.200691E-2,3.1191893E-2,-2.899075E-2,-1.242642E-1,-1.8122676E-1,-2.4100393E-2,-1.5481282E-2,-4.7633693E-2,1.9109814E-1,7.7135926E-1,-8.738351E-3,-6.633871E-2,-1.4461228E-1,4.801603E-2,3.3320266E-1,-5.0228138E-2,2.9342955E-1,-3.3244614E-2,2.8810105E-1,5.7553586E-2,7.5252324E-2,-4.5634825E-2,-7.268657E-2,5.9196882E-2],"split_indices":[0,3,1,6,6,2,6,0,6,0,3,5,2,1,6,2,0,1,0,0,3,0,0,0,0,0,2,2,3,0,4,0,0,1,6,0,0,0,0,0,4,0,0,0,0,3,2,0,1,6,3,0,0,0,0,0,0,0,0,0,0,0,0,0,0,0,0,0,0,0,0,0,0,0,0],"split_type":[0,0,0,0,0,0,0,0,0,0,0,0,0,0,0,0,0,0,0,0,0,0,0,0,0,0,0,0,0,0,0,0,0,0,0,0,0,0,0,0,0,0,0,0,0,0,0,0,0,0,0,0,0,0,0,0,0,0,0,0,0,0,0,0,0,0,0,0,0,0,0,0,0,0,0],"sum_hessian":[7.18E2,1.72E2,5.46E2,1.62E2,1E1,1.3E1,5.33E2,1.6E1,1.46E2,1E0,9E0,7E0,6E0,6.2E1,4.71E2,1E1,6E0,4E0,1.42E2,2E0,7E0,2E0,5E0,3E0,3E0,3E0,5.9E1,2.17E2,2.54E2,4E0,6E0,2E0,2E0,1.34E2,8E0,4E0,3E0,1E0,1E0,1E0,4E0,2E0,1E0,1E0,2E0,4.7E1,1.2E1,1.03E2,1.14E2,1.43E2,1.11E2,4E0,2E0,1.26E2,8E0,6E0,2E0,2E0,1E0,1E0,3E0,1E0,1E0,3.9E1,8E0,2E0,1E1,9E0,9.4E1,2.8E1,8.6E1,8.3E1,6E1,8.8E1,2.3E1],"tree_param":{"num_deleted":"0","num_feature":"7","num_nodes":"75","size_leaf_vector":"1"}},{"base_weights":[1.7571954E-2,-4.6459015E-2,9.2769764E-2,-3.0619727E-2,-6.4370614E-1,-1.4074272E-1,1.514587E-1,8.970682E-2,-7.450033E-2,-6.131949E-2,-9.0251166E-1,6.3061905E-1,-2.8713283E-1,3.6031985E-1,2.4726318E-2,-1.6384254E-1,2.6992208E-1,-1.7530406E-1,1.5680873E-3,-3.3707935E-1,-9.206789E-2,7.870352E-2,1.277177E0,-5.943165E-1,-4.571694E-2,1.0029802E0,2.653284E-1,3.3176294E-1,-7.5378664E-2,-3.0094403E-1,4.329531E-2,7.58977E-1,2.4775255E-2,-2.6411206E-1,-1.01336315E-2,-1.977473E-1,1.2637602E-1,-2.1079914E-1,2.3666441E-1,4.7216576E-1,1.6642272E-1,-1.2196503E0,-3.7700057E-1,3.066838E-1,-2.1226874E-1,1.5084206E-1,2.9180472E0,1.7209977E-3,1.0424901E0,-4.5012048E-1,1.720883E-2,-1.4055634E-1,-6.817346E-2,-3.16826E-2,4.429595E-2,-5.7398494E-2,3.5397512E-1,-3.9386235E-2,2.0548345E-1,-9.467604E-2,4.967781E-2,1.0370102E-1,-3.0400943E-2,-1.2967898E-1,-2.0125914E-2,1.2112818E-1,-2.326635E-5,-8.713106E-2,-7.728553E-3,8.341098E-3,8.457861E-2,5.7466544E-2,-4.620607E-1,-1.839311E-1,4.4718836E-2,-5.1475085E-2,2.201512E-1,-1.5613941E-2,-1.7131677E-1,1.3306819E-1,-3.990216E-2,1.014321E0,2.2934698E-1,-6.2412735E-2,4.094259E-1,4.6384257E-1,5.9161823E-2,-1.8643239E-1,-2.295033E-2,-7.5695276E-2,4.8531648E-2],"categories":[],"categories_nodes":[],"categories_segments":[],"categories_sizes":[],"default_left":[1,1,0,0,0,0,0,0,1,0,0,0,0,0,0,0,0,0,0,0,0,0,0,0,0,0,0,0,0,0,0,0,0,0,0,0,0,0,0,0,0,0,0,0,0,0,0,0,0,0,0,0,0,0,0,0,0,0,0,0,0,0,0,0,0,0,0,0,0,0,0,0,0,0,0,0,0,0,0,0,0,0,0,0,0,0,0,0,0,0,0],"id":12,"left_children":[1,3,5,7,9,11,13,15,17,-1,19,21,23,25,27,29,31,33,35,-1,-1,37,39,41,43,-1,45,47,49,51,53,55,57,59,61,63,65,67,69,-1,-1,71,73,75,77,79,81,83,85,87,89,-1,-1,-1,-1,-1,-1,-1,-1,-1,-1,-1,-1,-1,-1,-1,-1,-1,-1,-1,-1,-1,-1,-1,-1,-1,-1,-1,-1,-1,-1,-1,-1,-1,-1,-1,-1,-1,-1,-1,-1],"loss_changes":[3.466287E0,3.6602185E0,4.5575385E0,2.0130837E0,9.524808E-1,7.7466936E0,7.005501E0,4.7049584E0,2.1396413E0,0E0,4.4527388E-1,3.8247805E0,4.199895E0,2.7448383E1,5.1271663E0,1.2341826E0,7.174612E0,1.7575378E0,4.005173E0,0E0,0E0,3.6999935E-1,1.9866276E-1,2.9375648E0,2.001968E0,0E0,2.9322449E1,9.615567E0,4.379493E0,2.1463847E-1,2.9530084E-1,8.226183E0,4.314066E0,1.7775359E0,1.430392E0,1.8708096E0,3.4725819E0,3.672567E-2,3.9431006E-2,0E0,0E0,3.009224E0,2.5754948E0,2.373144E0,1.2924496E0,7.9523506E0,1.4037857E0,8.575441E0,5.2295647E0,1.5526791E0,4.015108E0,0E0,0E0,0E0,0E0,0E0,0E0,0E0,0E0,0E0,0E0,0E0,0E0,0E0,0E0,0E0,0E0,0E0,0E0,0E0,0E0,0E0,0E0,0E0,0E0,0E0,0E0,0E0,0E0,0E0,0E0,0E0,0E0,0E0,0E0,0E0,0E0,0E0,0E0,0E0,0E0],"parents":[2147483647,0,0,1,1,2,2,3,3,4,4,5,5,6,6,7,7,8,8,10,10,11,11,12,12,13,13,14,14,15,15,16,16,17,17,18,18,21,21,22,22,23,23,24,24,26,26,27,27,28,28,29,29,30,30,31,31,32,32,33,33,34,34,35,35,36,36,37,37,38,38,41,41,42,42,43,43,44,44,45,45,46,46,47,47,48,48,49,49,50,50],"right_children":[2,4,6,8,10,12,14,16,18,-1,20,22,24,26,28,30,32,34,36,-1,-1,38,40,42,44,-1,46,48,50,52,54,56,58,60,62,64,66,68,70,-1,-1,72,74,76,78,80,82,84,86,88,90,-1,-1,-1,-1,-1,-1,-1,-1,-1,-1,-1,-1,-1,-1,-1,-1,-1,-1,-1,-1,-1,-1,-1,-1,-1,-1,-1,-1,-1,-1,-1,-1,-1,-1,-1,-1,-1,-1,-1,-1],"split_conditions":[1.7E0,1.63E0,1.3104198E1,7.3E-1,1.63E0,2.6320832E0,1.7884428E1,5.6E-1,1.17E0,-6.131949E-2,2.393348E2,2.38E0,1.5700832E1,1.73E0,1.19E0,4.7E-1,5.2E-1,2.554342E2,1.63E0,-3.3707935E-1,-9.206789E-2,2.22E0,1.63E0,1.0144082E1,1.0495713E1,1.0029802E0,1.7430283E1,4.65E0,2.0070604E1,2.8E-1,3.2258332E0,1.477755E1,6.5E-1,5.9999995E0,2.6704236E2,1.6516901E1,1.7656647E2,1.73E0,3.8E-1,4.7216576E-1,1.6642272E-1,2.29E0,6.09E0,2.85E0,3.21E0,1.5484185E1,2.04E0,1.12E0,6E-1,2.398587E2,2.25E0,-1.4055634E-1,-6.817346E-2,-3.16826E-2,4.429595E-2,-5.7398494E-2,3.5397512E-1,-3.9386235E-2,2.0548345E-1,-9.467604E-2,4.967781E-2,1.0370102E-1,-3.0400943E-2,-1.2967898E-1,-2.0125914E-2,1.2112818E-1,-2.326635E-5,-8.713106E-2,-7.728553E-3,8.341098E-3,8.457861E-2,5.7466544E-2,-4.620607E-1,-1.839311E-1,4.4718836E-2,-5.1475085E-2,2.201512E-1,-1.5613941E-2,-1.7131677E-1,1.3306819E-1,-3.990216E-2,1.014321E0,2.2934698E-1,-6.2412735E-2,4.094259E-1,4.6384257E-1,5.9161823E-2,-1.8643239E-1,-2.295033E-2,-7.5695276E-2,4.8531648E-2],"split_indices":[0,0,5,2,1,3,5,0,1,0,6,2,3,0,2,1,1,6,2,0,0,0,1,5,5,0,5,0,5,2,3,5,2,4,6,5,6,0,1,0,0,0,0,0,1,5,0,2,4,6,2,0,0,0,0,0,0,0,0,0,0,0,0,0,0,0,0,0,0,0,0,0,0,0,0,0,0,0,0,0,0,0,0,0,0,0,0,0,0,0,0],"split_type":[0,0,0,0,0,0,0,0,0,0,0,0,0,0,0,0,0,0,0,0,0,0,0,0,0,0,0,0,0,0,0,0,0,0,0,0,0,0,0,0,0,0,0,0,0,0,0,0,0,0,0,0,0,0,0,0,0,0,0,0,0,0,0,0,0,0,0,0,0,0,0,0,0,0,0,0,0,0,0,0,0,0,0,0,0,0,0,0,0,0,0],"sum_hessian":[7.18E2,3.88E2,3.3E2,3.79E2,9E0,6.6E1,2.64E2,1.01E2,2.78E2,4E0,5E0,1E1,5.6E1,9.9E1,1.65E2,4.2E1,5.9E1,1.19E2,1.59E2,3E0,2E0,6E0,4E0,2.4E1,3.2E1,2E0,9.7E1,4E1,1.25E2,2.5E1,1.7E1,1.9E1,4E1,7.7E1,4.2E1,6.1E1,9.8E1,2E0,4E0,2E0,2E0,5E0,1.9E1,1E1,2.2E1,9.4E1,3E0,2.8E1,1.2E1,2.4E1,1.01E2,6E0,1.9E1,7E0,1E1,6E0,1.3E1,3.3E1,7E0,6.9E1,8E0,8E0,3.4E1,2.1E1,4E1,3E1,6.8E1,1E0,1E0,1E0,3E0,1E0,4E0,1.3E1,6E0,5E0,5E0,1.6E1,6E0,4.6E1,4.8E1,2E0,1E0,2.5E1,3E0,7E0,5E0,1.6E1,8E0,3.5E1,6.6E1],"tree_param":{"num_deleted":"0","num_feature":"7","num_nodes":"91","size_leaf_vector":"1"}},{"base_weights":[1.6227448E-2,-9.092231E-2,5.2711952E-2,1.4992069E-1,-1.9026539E-1,1.8859288E0,3.888128E-2,2.1684967E-1,-4.216528E-1,-3.9083254E-1,-1.0317425E-1,-2.6455836E-2,7.720087E-1,-1.2549737E-1,7.248393E-2,-1.2267088E-2,5.496823E-1,-2.50091E-1,-7.2517246E-3,-2.680632E-1,-7.2005737E-1,4.1135457E-1,-1.438548E-1,-8.25292E-2,-6.2932557E-1,2.180878E-1,-4.0567457E-3,-7.921951E-2,1.8175453E-1,2.0780842E-1,9.444384E-1,8.891195E-2,-4.4361413E-2,1.2934554E-1,-4.184548E-1,-2.4334793E-1,1.4979602E-2,-3.1214583E-1,1.0320163E0,5.294762E-1,-1.7457129E-1,-1.2734903E-1,4.3508455E-1,-1.0178151E-1,-3.5544735E-1,-1.0022192E-2,5.189301E-1,-1.912683E-2,3.2573134E-1,2.0356165E-2,-6.590739E-2,-7.938117E-3,7.667088E-2,9.337583E-3,2.1824484E-1,3.31155E-1,-4.9628127E-2,3.1954918E-2,8.055461E-3,-9.8880924E-2,1.6872752E-1,-1.4741527E-1,9.772079E-3,9.430275E-2,-1.8772684E-1,-3.5201635E-2,4.362743E-1,-7.755314E-2,2.6349258E-1,-1.1216298E-1,-2.1540394E-2,3.4884118E-2,-5.8807846E-2,2.2272953E-1,-6.66567E-2,-3.73595E-2,1.3266325E-1,5.307591E-1,9.4792835E-2,-1.4598814E-1,8.096194E-3],"categories":[],"categories_nodes":[],"categories_segments":[],"categories_sizes":[],"default_left":[0,0,0,0,0,0,0,0,0,0,0,0,0,0,0,0,1,0,0,0,0,0,0,0,0,0,0,0,0,0,0,0,0,0,0,0,0,0,0,0,0,0,0,0,0,0,0,0,0,0,0,0,0,0,0,0,0,0,0,0,0,0,0,0,0,0,0,0,0,0,0,0,0,0,0,0,0,0,0,0,0],"id":13,"left_children":[1,3,5,7,9,11,13,15,17,19,21,-1,-1,23,25,27,29,-1,31,33,35,37,39,41,43,45,47,49,51,53,55,57,-1,59,61,-1,-1,63,65,67,69,71,73,-1,-1,75,77,79,-1,-1,-1,-1,-1,-1,-1,-1,-1,-1,-1,-1,-1,-1,-1,-1,-1,-1,-1,-1,-1,-1,-1,-1,-1,-1,-1,-1,-1,-1,-1,-1,-1],"loss_changes":[2.8155835E0,4.406998E0,1.3542104E1,2.157196E0,2.2304668E0,5.6552267E0,2.9586768E0,3.7433624E0,1.018314E0,1.3833094E0,1.9848565E0,0E0,0E0,1.9180827E0,4.949095E0,4.0410504E-1,2.5028744E0,0E0,6.723754E-2,1.8471336E0,7.41981E-1,3.4654827E0,1.8711153E0,2.0273538E0,7.2589517E-1,1.0504848E1,4.8165164E0,4.9007916E-1,1.2971762E-1,1.0791693E0,1.7749348E0,4.174877E-4,0E0,1.974228E0,7.3965716E-1,0E0,0E0,9.825944E-1,2.1118145E0,1.3265531E0,1.6732109E0,1.3446035E0,1.5790387E0,0E0,0E0,4.6121454E0,1.6188253E1,6.2435026E0,0E0,0E0,0E0,0E0,0E0,0E0,0E0,0E0,0E0,0E0,0E0,0E0,0E0,0E0,0E0,0E0,0E0,0E0,0E0,0E0,0E0,0E0,0E0,0E0,0E0,0E0,0E0,0E0,0E0,0E0,0E0,0E0,0E0],"parents":[2147483647,0,0,1,1,2,2,3,3,4,4,5,5,6,6,7,7,8,8,9,9,10,10,13,13,14,14,15,15,16,16,18,18,19,19,20,20,21,21,22,22,23,23,24,24,25,25,26,26,27,27,28,28,29,29,30,30,31,31,33,33,34,34,37,37,38,38,39,39,40,40,41,41,42,42,45,45,46,46,47,47],"right_children":[2,4,6,8,10,12,14,16,18,20,22,-1,-1,24,26,28,30,-1,32,34,36,38,40,42,44,46,48,50,52,54,56,58,-1,60,62,-1,-1,64,66,68,70,72,74,-1,-1,76,78,80,-1,-1,-1,-1,-1,-1,-1,-1,-1,-1,-1,-1,-1,-1,-1,-1,-1,-1,-1,-1,-1,-1,-1,-1,-1,-1,-1,-1,-1,-1,-1,-1,-1],"split_conditions":[3.4279165E0,1.5905319E1,3.4758337E0,3.1050003E0,1.05306206E2,4.2E-1,1.3044722E1,9.924999E-1,9.9571085E0,2.1466668E0,1.411835E2,-2.6455836E-2,7.720087E-1,8.19E0,1.8762299E2,3.403718E2,2.29E0,-2.50091E-1,1.49E0,9.5E-1,5.13E0,2.1E0,2.2E-1,6.15E0,1.3000002E0,1.18087776E2,1.343E1,1.3902014E1,6.3E-1,1.5158522E1,2.6320832E0,4.7E-1,-4.4361413E-2,6.3E-1,5.99E0,-2.4334793E-1,1.4979602E-2,7.5E-1,9.2E-1,3.8E-1,2.4422435E2,1.02E0,7.9E0,-1.0178151E-1,-3.5544735E-1,1.6496668E1,5.1216674E0,2.0336292E2,3.2573134E-1,2.0356165E-2,-6.590739E-2,-7.938117E-3,7.667088E-2,9.337583E-3,2.1824484E-1,3.31155E-1,-4.9628127E-2,3.1954918E-2,8.055461E-3,-9.8880924E-2,1.6872752E-1,-1.4741527E-1,9.772079E-3,9.430275E-2,-1.8772684E-1,-3.5201635E-2,4.362743E-1,-7.755314E-2,2.6349258E-1,-1.1216298E-1,-2.1540394E-2,3.4884118E-2,-5.8807846E-2,2.2272953E-1,-6.66567E-2,-3.73595E-2,1.3266325E-1,5.307591E-1,9.4792835E-2,-1.4598814E-1,8.096194E-3],"split_indices":[3,5,3,3,6,0,5,3,5,3,6,0,0,2,6,6,2,0,1,2,0,4,2,2,4,6,2,5,1,5,3,0,0,2,1,0,0,1,0,0,6,0,2,0,0,3,3,6,0,0,0,0,0,0,0,0,0,0,0,0,0,0,0,0,0,0,0,0,0,0,0,0,0,0,0,0,0,0,0,0,0],"split_type":[0,0,0,0,0,0,0,0,0,0,0,0,0,0,0,0,0,0,0,0,0,0,0,0,0,0,0,0,0,0,0,0,0,0,0,0,0,0,0,0,0,0,0,0,0,0,0,0,0,0,0,0,0,0,0,0,0,0,0,0,0,0,0,0,0,0,0,0,0,0,0,0,0,0,0,0,0,0,0,0,0],"sum_hessian":[7.18E2,1.82E2,5.36E2,5.3E1,1.29E2,3E0,5.33E2,4.8E1,5E0,3.8E1,9.1E1,1E0,2E0,9E1,4.43E2,2.9E1,1.9E1,2E0,3E0,2.9E1,9E0,6E0,8.5E1,8.4E1,6E0,1.52E2,2.91E2,2.2E1,7E0,1.1E1,8E0,2E0,1E0,8E0,2.1E1,8E0,1E0,3E0,3E0,3E0,8.2E1,7.8E1,6E0,5E0,1E0,8.7E1,6.5E1,2.88E2,3E0,1.1E1,1.1E1,2E0,5E0,9E0,2E0,7E0,1E0,1E0,1E0,4E0,4E0,1.8E1,3E0,1E0,2E0,1E0,2E0,1E0,2E0,2.7E1,5.5E1,1.7E1,6.1E1,4E0,2E0,7E1,1.7E1,8E0,5.7E1,2.5E1,2.63E2],"tree_param":{"num_deleted":"0","num_feature":"7","num_nodes":"81","size_leaf_vector":"1"}},{"base_weights":[1.3682912E-2,-5.0947998E-2,5.981527E-2,3.9530016E-2,-1.0661479E-1,8.842781E-1,5.176331E-2,2.4043962E-1,-1.0286985E-1,-2.1446548E-1,-3.5043407E-2,3.499184E-1,5.6892876E-3,-1.3446982E-1,7.8081235E-2,-8.190734E-2,7.367538E-1,-4.4039074E-2,-2.7677166E-1,-3.3331665E-1,3.1815466E-2,-4.9096253E-2,1.4897789E-1,-2.109009E-1,1.3787551E-1,1.7288922E-1,-5.032272E-3,5.8314305E-2,-3.6818206E-1,6.12792E-1,4.6296486E-1,1.2280262E-1,-1.5215272E-1,-3.484368E-1,4.324927E-2,-3.949793E-1,3.006431E-1,1.2799408E-1,-2.1484773E-1,-2.116277E-1,-6.5420982E-3,-3.0188668E-1,3.4138605E-2,2.731711E-1,-1.0772048E-1,1.1660067E-1,9.810318E-1,1.11744836E-1,-1.2536916E-1,-9.206018E-2,6.745342E-2,5.643046E-3,-1.2398137E-1,5.139804E-2,4.1038707E-1,1.11016646E-1,-2.804249E-2,-6.882933E-2,-1.2708508E-3,-1.4883402E-1,-5.269956E-2,-9.916409E-3,2.391065E-2,-8.351852E-2,-2.530012E-1,2.5228086E-1,-1.339927E-2,-8.981055E-3,1.2835701E-1,-3.277565E-2,-1.07621826E-1,8.174236E-3,-4.240106E-2,5.6795564E-2,-1.03120245E-1,-3.847345E-2,5.053424E-2,-1.7506318E-1,5.3870182E-2,2.5237294E-2,2.4571884E-1,8.743371E-1,1.4887308E-1,-4.380049E-3,2.064383E-1,-1.6716379E-1,-2.0798173E-2],"categories":[],"categories_nodes":[],"categories_segments":[],"categories_sizes":[],"default_left":[0,0,0,0,0,0,0,0,0,1,0,0,0,0,0,0,0,0,0,1,0,0,0,0,0,0,0,0,0,0,0,0,0,0,0,1,0,0,0,0,0,0,0,0,0,0,0,0,0,0,0,0,0,0,0,0,0,0,0,0,0,0,0,0,0,0,0,0,0,0,0,0,0,0,0,0,0,0,0,0,0,0,0,0,0,0,0],"id":14,"left_children":[1,3,5,7,9,11,13,15,17,19,21,-1,-1,23,25,27,29,31,33,35,37,39,-1,41,43,45,47,49,51,-1,53,55,57,59,61,63,65,67,-1,69,71,73,75,-1,77,79,81,83,85,-1,-1,-1,-1,-1,-1,-1,-1,-1,-1,-1,-1,-1,-1,-1,-1,-1,-1,-1,-1,-1,-1,-1,-1,-1,-1,-1,-1,-1,-1,-1,-1,-1,-1,-1,-1,-1,-1],"loss_changes":[2.1468008E0,1.5152006E0,2.742414E0,3.3148267E0,1.4282229E0,9.543569E-1,2.0543287E0,7.739642E0,6.835042E-1,2.1766422E0,8.686043E-1,0E0,0E0,1.1114917E0,2.8848855E0,1.2257277E0,5.847536E0,9.5665365E-1,4.049536E-1,2.0733304E0,1.890143E0,7.6633465E-1,0E0,9.2440534E-1,2.375336E0,7.6642604E0,2.7683177E0,1.3460882E0,1.8226516E-1,0E0,4.2524443E0,1.1575711E0,3.6481196E-1,2.7005064E-1,1.3760529E-2,2.1697073E0,9.7039557E-1,1.1020329E0,0E0,3.0720162E-1,4.092153E-1,6.8174624E-1,2.833169E-1,0E0,1.4717677E0,3.6040556E0,8.864038E0,7.2923546E0,2.3088994E0,0E0,0E0,0E0,0E0,0E0,0E0,0E0,0E0,0E0,0E0,0E0,0E0,0E0,0E0,0E0,0E0,0E0,0E0,0E0,0E0,0E0,0E0,0E0,0E0,0E0,0E0,0E0,0E0,0E0,0E0,0E0,0E0,0E0,0E0,0E0,0E0,0E0,0E0],"parents":[2147483647,0,0,1,1,2,2,3,3,4,4,5,5,6,6,7,7,8,8,9,9,10,10,13,13,14,14,15,15,16,16,17,17,18,18,19,19,20,20,21,21,23,23,24,24,25,25,26,26,27,27,28,28,30,30,31,31,32,32,33,33,34,34,35,35,36,36,37,37,39,39,40,40,41,41,42,42,44,44,45,45,46,46,47,47,48,48],"right_children":[2,4,6,8,10,12,14,16,18,20,22,-1,-1,24,26,28,30,32,34,36,38,40,-1,42,44,46,48,50,52,-1,54,56,58,60,62,64,66,68,-1,70,72,74,76,-1,78,80,82,84,86,-1,-1,-1,-1,-1,-1,-1,-1,-1,-1,-1,-1,-1,-1,-1,-1,-1,-1,-1,-1,-1,-1,-1,-1,-1,-1,-1,-1,-1,-1,-1,-1,-1,-1,-1,-1,-1,-1],"split_conditions":[1.34E0,9.2E-1,4E-1,1.9657861E2,2.0628514E2,1.51E0,6.486334E1,6E-1,8.000001E-1,2.9E0,9.3E0,3.499184E-1,5.6892876E-3,5.55E0,2.1331937E2,7.3E-1,7.0000005E-1,2.697781E2,1.33E0,4.2E0,2.631942E1,7.7E-1,1.4897789E-1,7E-1,6.35E0,2.0762468E2,1.0215416E1,1.2475961E1,4.2E-1,6.12792E-1,1.24E0,6.57375E0,2E-1,2.303379E2,4.2E-1,1.83E0,4.3E0,7.0000005E-1,-2.1484773E-1,6.5E-1,2.58E0,9.178235E0,2.5935747E1,2.731711E-1,9.69E0,3.1060303E1,1.44E0,7.2008324E0,2.1672418E2,-9.206018E-2,6.745342E-2,5.643046E-3,-1.2398137E-1,5.139804E-2,4.1038707E-1,1.11016646E-1,-2.804249E-2,-6.882933E-2,-1.2708508E-3,-1.4883402E-1,-5.269956E-2,-9.916409E-3,2.391065E-2,-8.351852E-2,-2.530012E-1,2.5228086E-1,-1.339927E-2,-8.981055E-3,1.2835701E-1,-3.277565E-2,-1.07621826E-1,8.174236E-3,-4.240106E-2,5.6795564E-2,-1.03120245E-1,-3.847345E-2,5.053424E-2,-1.7506318E-1,5.3870182E-2,2.5237294E-2,2.4571884E-1,8.743371E-1,1.4887308E-1,-4.380049E-3,2.064383E-1,-1.6716379E-1,-2.0798173E-2],"split_indices":[0,2,1,6,6,0,6,4,4,2,4,0,0,2,6,1,4,6,1,1,5,1,0,4,2,6,3,5,2,0,1,3,4,6,0,1,1,4,0,0,1,5,6,0,2,5,1,3,6,0,0,0,0,0,0,0,0,0,0,0,0,0,0,0,0,0,0,0,0,0,0,0,0,0,0,0,0,0,0,0,0,0,0,0,0,0,0],"split_type":[0,0,0,0,0,0,0,0,0,0,0,0,0,0,0,0,0,0,0,0,0,0,0,0,0,0,0,0,0,0,0,0,0,0,0,0,0,0,0,0,0,0,0,0,0,0,0,0,0,0,0,0,0,0,0,0,0,0,0,0,0,0,0,0,0,0,0,0,0,0,0,0,0,0,0,0,0,0,0,0,0,0,0,0,0,0,0],"sum_hessian":[7.18E2,2.99E2,4.19E2,1.14E2,1.85E2,3E0,4.16E2,4.7E1,6.7E1,7.3E1,1.12E2,2E0,1E0,5.1E1,3.65E2,2.9E1,1.8E1,5.1E1,1.6E1,4.9E1,2.4E1,1.1E2,2E0,4E1,1.1E1,1.7E2,1.95E2,2E1,9E0,2E0,1.6E1,2E1,3.1E1,1.3E1,3E0,4.5E1,4E0,2.2E1,2E0,2.2E1,8.8E1,2.9E1,1.1E1,2E0,9E0,1.6E2,1E1,9.9E1,9.6E1,6E0,1.4E1,1E0,8E0,1.3E1,3E0,9E0,1.1E1,2E1,1.1E1,6E0,7E0,1E0,2E0,3.7E1,8E0,1E0,3E0,1.5E1,7E0,1.4E1,8E0,7.1E1,1.7E1,2E0,2.7E1,5E0,6E0,3E0,6E0,1.54E2,6E0,1E0,9E0,8.2E1,1.7E1,1E1,8.6E1],"tree_param":{"num_deleted":"0","num_feature":"7","num_nodes":"87","size_leaf_vector":"1"}},{"base_weights":[1.2804485E-2,3.6210094E-2,-1.00902446E-1,-6.754238E-3,1.5359864E-1,-1.370686E-1,5.1800364E-1,5.465623E-2,-1.0204401E-1,3.340498E-1,9.536063E-3,-3.2983184E-1,-5.4131467E-2,4.202237E-1,1.3742237E-1,-3.4691628E-2,3.3285558E-1,-1.5397105E-2,-2.0149548E-1,1.06511325E-1,7.2376984E-1,-3.1003928E-1,2.3848562E-1,-4.4460267E-1,1.13095045E-1,-9.077368E-2,6.922456E-1,1.586054E-1,-4.656701E-2,-9.606735E-2,4.2707178E-1,1.6705632E0,1.9353725E-1,-2.0047718E-1,1.3438675E-1,-3.1792486E-1,6.7366146E-2,7.338538E-1,-8.813532E-2,8.3845246E-1,-4.3494812E-1,-6.2628794E-1,1.1746131E-1,5.921737E-2,5.8377296E-1,-1.3709988E-1,-7.888674E-1,4.879778E-1,-2.0943017E-1,2.2070204E-1,-1.1054736E-1,2.6877275E-1,1.2188245E-2,5.2255513E-3,-6.6918015E-2,-1.6431425E-2,-1.1267269E-1,4.0257606E-1,5.3101834E-2,-1.2699075E-1,6.521991E-1,1.2490271E-1,-4.3283794E-3,-7.725516E-2,5.5404726E-2,2.8995597E-1,1.3471949E-2,-2.601796E-2,-1.4293052E-1,-8.736438E-4,8.711983E-2,3.283667E-1,-5.1303983E-2,3.5562727E-1,-5.93748E-2,2.8954014E-1,-1.11008435E-1,-1.6336632E-1,-3.2360353E-2,-1.159591E-1,-3.60366E-1,2.4016257E-1,-4.6289243E-2,-4.4855956E-2,1.6416386E-1,9.336912E-2,3.2309592E-1,-1.0174638E-2,-1.7187817E-1,8.058179E-3,-2.5772497E-1,2.8723706E-2,1.7604199E-1,-1.4347495E-2,-1.2837765E-1,4.726006E-3,-8.093265E-2,2.0363869E-3,-2.8124798E-2],"categories":[],"categories_nodes":[],"categories_segments":[],"categories_sizes":[],"default_left":[0,0,0,0,0,0,0,0,0,0,0,0,0,0,0,0,0,0,0,0,0,0,0,0,0,0,0,0,0,0,0,0,0,0,0,0,0,0,0,0,0,0,0,1,0,0,0,0,0,0,0,0,0,0,0,0,0,0,0,0,0,0,0,0,0,0,0,0,0,0,0,0,0,0,0,0,0,0,0,0,0,0,0,0,0,0,0,0,0,0,0,0,0,0,0,0,0,0,0],"id":15,"left_children":[1,3,5,7,9,11,13,15,17,19,21,23,25,-1,27,29,31,33,35,37,39,41,43,45,47,49,51,-1,53,55,57,59,61,63,65,67,69,71,73,75,77,79,81,83,85,87,89,91,93,-1,95,-1,-1,-1,97,-1,-1,-1,-1,-1,-1,-1,-1,-1,-1,-1,-1,-1,-1,-1,-1,-1,-1,-1,-1,-1,-1,-1,-1,-1,-1,-1,-1,-1,-1,-1,-1,-1,-1,-1,-1,-1,-1,-1,-1,-1,-1,-1,-1],"loss_changes":[1.9171859E0,3.012019E0,2.8241668E0,2.5686612E0,4.1562166E0,1.8526518E0,2.1591916E0,6.648237E0,1.4790496E0,6.218928E0,6.6589365E0,1.8295102E0,2.3327968E0,0E0,4.5654786E-1,5.794264E0,1.1790553E1,2.605088E0,2.5256884E0,5.6817436E0,3.8196878E0,5.211031E0,3.2460802E0,2.8559928E0,1.0694704E0,1.3886787E0,4.9444497E-1,0E0,7.676458E-3,2.0570889E0,5.2530036E0,7.244993E0,2.786149E0,9.702784E-1,3.8284898E0,2.0109286E0,3.9270562E-1,3.777443E0,5.267854E0,4.031334E0,4.8810244E-2,2.5682669E0,3.2792852E0,3.7488809E0,2.0843987E0,7.000984E-1,7.676754E-1,9.887117E-2,1.5608434E-1,0E0,1.5929892E0,0E0,0E0,0E0,8.546878E-3,0E0,0E0,0E0,0E0,0E0,0E0,0E0,0E0,0E0,0E0,0E0,0E0,0E0,0E0,0E0,0E0,0E0,0E0,0E0,0E0,0E0,0E0,0E0,0E0,0E0,0E0,0E0,0E0,0E0,0E0,0E0,0E0,0E0,0E0,0E0,0E0,0E0,0E0,0E0,0E0,0E0,0E0,0E0,0E0],"parents":[2147483647,0,0,1,1,2,2,3,3,4,4,5,5,6,6,7,7,8,8,9,9,10,10,11,11,12,12,14,14,15,15,16,16,17,17,18,18,19,19,20,20,21,21,22,22,23,23,24,24,25,25,26,26,28,28,29,29,30,30,31,31,32,32,33,33,34,34,35,35,36,36,37,37,38,38,39,39,40,40,41,41,42,42,43,43,44,44,45,45,46,46,47,47,48,48,50,50,54,54],"right_children":[2,4,6,8,10,12,14,16,18,20,22,24,26,-1,28,30,32,34,36,38,40,42,44,46,48,50,52,-1,54,56,58,60,62,64,66,68,70,72,74,76,78,80,82,84,86,88,90,92,94,-1,96,-1,-1,-1,98,-1,-1,-1,-1,-1,-1,-1,-1,-1,-1,-1,-1,-1,-1,-1,-1,-1,-1,-1,-1,-1,-1,-1,-1,-1,-1,-1,-1,-1,-1,-1,-1,-1,-1,-1,-1,-1,-1,-1,-1,-1,-1,-1,-1],"split_conditions":[2.6478973E1,3.47E0,1.8023748E1,1.2317501E1,3.69E0,2.106299E2,6.793209E1,7.2008324E0,1.67E0,1.685669E1,5.75E0,3.97E0,1.1299999E1,4.202237E-1,2.6649727E1,1.8000003E0,7.461249E0,1.5517629E1,2.3650429E2,3.75E0,6.35E0,2.0682631E2,1.0015416E1,9.5E-1,1.6505057E2,2.124712E2,1.24E0,1.586054E-1,1.8084166E1,3.54E0,2.5999997E0,1.02E0,1.7629896E1,2.5595093E2,1.6199999E1,1.4448006E2,5.9E0,2.1E0,9.904906E0,1.7027918E1,3.85E0,1.7915503E2,2.303379E2,1.148E1,6.04E0,3.47E0,9.3E-1,1.24E0,7.9E0,2.2070204E-1,1.51E0,2.6877275E-1,1.2188245E-2,5.2255513E-3,6.3E-1,-1.6431425E-2,-1.1267269E-1,4.0257606E-1,5.3101834E-2,-1.2699075E-1,6.521991E-1,1.2490271E-1,-4.3283794E-3,-7.725516E-2,5.5404726E-2,2.8995597E-1,1.3471949E-2,-2.601796E-2,-1.4293052E-1,-8.736438E-4,8.711983E-2,3.283667E-1,-5.1303983E-2,3.5562727E-1,-5.93748E-2,2.8954014E-1,-1.11008435E-1,-1.6336632E-1,-3.2360353E-2,-1.159591E-1,-3.60366E-1,2.4016257E-1,-4.6289243E-2,-4.4855956E-2,1.6416386E-1,9.336912E-2,3.2309592E-1,-1.0174638E-2,-1.7187817E-1,8.058179E-3,-2.5772497E-1,2.8723706E-2,1.7604199E-1,-1.4347495E-2,-1.2837765E-1,4.726006E-3,-8.093265E-2,2.0363869E-3,-2.8124798E-2],"split_indices":[5,0,3,3,1,6,6,3,2,5,1,1,4,0,5,4,3,5,6,0,2,6,3,1,6,6,1,0,3,1,4,0,5,6,5,6,2,2,5,3,0,6,6,1,2,2,0,0,1,0,0,0,0,0,0,0,0,0,0,0,0,0,0,0,0,0,0,0,0,0,0,0,0,0,0,0,0,0,0,0,0,0,0,0,0,0,0,0,0,0,0,0,0,0,0,0,0,0,0],"split_type":[0,0,0,0,0,0,0,0,0,0,0,0,0,0,0,0,0,0,0,0,0,0,0,0,0,0,0,0,0,0,0,0,0,0,0,0,0,0,0,0,0,0,0,0,0,0,0,0,0,0,0,0,0,0,0,0,0,0,0,0,0,0,0,0,0,0,0,0,0,0,0,0,0,0,0,0,0,0,0,0,0,0,0,0,0,0,0,0,0,0,0,0,0,0,0,0,0,0,0],"sum_hessian":[7.18E2,5.96E2,1.22E2,4.37E2,1.59E2,1.16E2,6E0,2.66E2,1.71E2,7E1,8.9E1,3.4E1,8.2E1,1E0,5E0,2.02E2,6.4E1,9.2E1,7.9E1,4.5E1,2.5E1,3.7E1,5.2E1,2.7E1,7E0,7.9E1,3E0,1E0,4E0,1.79E2,2.3E1,5E0,5.9E1,4.1E1,5.1E1,5.5E1,2.4E1,1E1,3.5E1,2.3E1,2E0,2.1E1,1.6E1,3.5E1,1.7E1,1.5E1,1.2E1,3E0,4E0,1E0,7.8E1,2E0,1E0,1E0,3E0,1.57E2,2.2E1,4E0,1.9E1,1E0,4E0,2.8E1,3.1E1,3.6E1,5E0,4E0,4.7E1,2.3E1,3.2E1,1.9E1,5E0,7E0,3E0,2E0,3.3E1,2.1E1,2E0,1E0,1E0,1.6E1,5E0,4E0,1.2E1,2.5E1,1E1,1.2E1,5E0,1.3E1,2E0,1E0,1.1E1,1E0,2E0,3E0,1E0,4.4E1,3.4E1,1E0,2E0],"tree_param":{"num_deleted":"0","num_feature":"7","num_nodes":"99","size_leaf_vector":"1"}},{"base_weights":[1.2571508E-2,5.4400302E-3,2.382624E-1,4.5000102E-2,-2.8754378E-2,-6.895274E-3,3.53129E-1,1.7895088E-2,4.5610154E-1,1.0187795E-1,-6.6812776E-2,1.4716716E-1,-5.932485E-2,-1.6862135E-1,4.4636914E-1,-9.329125E-2,9.4582364E-2,1.3289869E-1,1.3991303E0,3.5905186E-2,8.318738E-1,-2.7770334E-1,-9.673519E-3,8.386856E-2,4.417801E-2,-6.0938414E-2,-1.4941192E-2,2.4411307E-1,2.5479582E-1,4.515815E-2,-2.1381699E-1,1.5375195E-1,-2.4859795E-1,-8.712286E-2,2.4442323E-1,6.5676665E-1,1.4266181E-1,1.0341447E-1,-2.849175E-1,3.7838787E-1,-1.6111599E-1,-3.078695E-1,2.3667286E-1,-1.832214E-2,1.9525386E-1,-1.28167635E-2,4.573195E-2,3.3865562E-1,-1.6128683E-2,-1.0235382E-2,1.3110685E-1,6.754045E-3,-9.235005E-2,2.5321145E-2,2.7142635E-1,-2.7708486E-2,-2.0453788E-1,-9.2485644E-2,2.689184E-2,1.4651392E-1,-8.23161E-2,-3.363003E-2,1.0973059E-1,-1.0644456E-1,9.356282E-2,1.48577215E-2,-8.735992E-2,-9.995546E-2,8.272383E-2,-6.0402635E-3,9.8695986E-2,7.988297E-3,-5.6231588E-2,4.331231E-3,1.1487301E-1],"categories":[],"categories_nodes":[],"categories_segments":[],"categories_sizes":[],"default_left":[0,0,0,0,0,0,0,1,0,0,0,0,0,0,0,1,0,0,0,0,0,0,0,0,0,0,0,0,0,0,0,0,0,0,0,0,0,0,0,0,0,0,0,0,0,0,0,0,0,0,0,0,0,0,0,0,0,0,0,0,0,0,0,0,0,0,0,0,0,0,0,0,0,0,0],"id":16,"left_children":[1,3,5,7,9,11,13,15,17,19,21,23,-1,25,27,29,31,33,35,37,39,41,43,-1,45,-1,-1,-1,47,49,51,53,55,57,-1,-1,59,61,63,-1,65,67,69,71,-1,-1,-1,73,-1,-1,-1,-1,-1,-1,-1,-1,-1,-1,-1,-1,-1,-1,-1,-1,-1,-1,-1,-1,-1,-1,-1,-1,-1,-1,-1],"loss_changes":[1.1559411E0,9.455016E-1,6.2196434E-1,3.6021411E0,1.8711782E0,2.6432994E-1,8.0498886E-1,2.60943E0,5.9098496E0,4.063718E0,3.5039015E0,5.5825606E-2,0E0,2.1834075E-3,7.075157E-1,2.095495E0,3.713579E0,2.4713135E0,4.651309E0,1.7404867E0,3.1880755E0,1.0349026E0,1.3258191E0,0E0,4.4144668E-2,0E0,0E0,0E0,2.769631E-1,1.8477746E0,1.4956012E0,7.9961333E0,1.76441E0,5.3584635E-1,0E0,0E0,5.665488E-1,3.7727177E0,6.94661E-1,0E0,9.662505E-2,9.6356726E-1,1.0145119E-1,1.7381903E0,0E0,0E0,0E0,1.0925645E-1,0E0,0E0,0E0,0E0,0E0,0E0,0E0,0E0,0E0,0E0,0E0,0E0,0E0,0E0,0E0,0E0,0E0,0E0,0E0,0E0,0E0,0E0,0E0,0E0,0E0,0E0,0E0],"parents":[2147483647,0,0,1,1,2,2,3,3,4,4,5,5,6,6,7,7,8,8,9,9,10,10,11,11,13,13,14,14,15,15,16,16,17,17,18,18,19,19,20,20,21,21,22,22,24,24,28,28,29,29,30,30,31,31,32,32,33,33,36,36,37,37,38,38,40,40,41,41,42,42,43,43,47,47],"right_children":[2,4,6,8,10,12,14,16,18,20,22,24,-1,26,28,30,32,34,36,38,40,42,44,-1,46,-1,-1,-1,48,50,52,54,56,58,-1,-1,60,62,64,-1,66,68,70,72,-1,-1,-1,74,-1,-1,-1,-1,-1,-1,-1,-1,-1,-1,-1,-1,-1,-1,-1,-1,-1,-1,-1,-1,-1,-1,-1,-1,-1,-1,-1],"split_conditions":[1.9434166E1,1.8E1,1.3902014E1,1.7430283E1,8.2E-1,2.85E0,1.17E0,1.33E0,1.63E0,4.65E0,2.0070604E1,1.42E0,-5.932485E-2,7E-1,2.0090416E1,8.8E-1,1.638E1,9.000001E-1,2.04E0,2.15E0,2.3650429E2,1.118E1,1.825E1,8.386856E-2,1.89E0,-6.0938414E-2,-1.4941192E-2,2.4411307E-1,2.2159746E1,1.6595179E1,3.6216667E0,1.61017E1,9.0000004E-1,7.5E-1,2.4442323E-1,6.5676665E-1,3.58E0,8.5E-1,5.25E0,3.7838787E-1,7.5E0,1.16E1,2.2E-1,4.4E0,1.9525386E-1,-1.28167635E-2,4.573195E-2,2.22E0,-1.6128683E-2,-1.0235382E-2,1.3110685E-1,6.754045E-3,-9.235005E-2,2.5321145E-2,2.7142635E-1,-2.7708486E-2,-2.0453788E-1,-9.2485644E-2,2.689184E-2,1.4651392E-1,-8.23161E-2,-3.363003E-2,1.0973059E-1,-1.0644456E-1,9.356282E-2,1.48577215E-2,-8.735992E-2,-9.995546E-2,8.272383E-2,-6.0402635E-3,9.8695986E-2,7.988297E-3,-5.6231588E-2,4.331231E-3,1.1487301E-1],"split_indices":[3,5,5,5,2,1,0,2,0,0,5,0,0,0,3,1,5,4,0,0,6,2,2,0,0,0,0,0,5,5,3,5,4,1,0,0,0,0,1,0,0,4,0,2,0,0,0,0,0,0,0,0,0,0,0,0,0,0,0,0,0,0,0,0,0,0,0,0,0,0,0,0,0,0,0],"split_type":[0,0,0,0,0,0,0,0,0,0,0,0,0,0,0,0,0,0,0,0,0,0,0,0,0,0,0,0,0,0,0,0,0,0,0,0,0,0,0,0,0,0,0,0,0,0,0,0,0,0,0,0,0,0,0,0,0,0,0,0,0,0,0,0,0,0,0,0,0,0,0,0,0,0,0],"sum_hessian":[7.18E2,6.97E2,2.1E1,3.23E2,3.74E2,7E0,1.4E1,3.04E2,1.9E1,8.4E1,2.9E2,4E0,3E0,2E0,1.2E1,1.24E2,1.8E2,1.5E1,4E0,7.8E1,6E0,6.1E1,2.29E2,1E0,3E0,1E0,1E0,3E0,9E0,5.8E1,6.6E1,1.54E2,2.6E1,1.2E1,3E0,2E0,2E0,6.5E1,1.3E1,4E0,2E0,5.8E1,3E0,2.27E2,2E0,2E0,1E0,7E0,2E0,4.9E1,9E0,1.9E1,4.7E1,1.42E2,1.2E1,2E1,6E0,5E0,7E0,1E0,1E0,3.6E1,2.9E1,1.2E1,1E0,1E0,1E0,5.6E1,2E0,1E0,2E0,1.8E2,4.7E1,1E0,6E0],"tree_param":{"num_deleted":"0","num_feature":"7","num_nodes":"75","size_leaf_vector":"1"}},{"base_weights":[1.1470264E-2,-5.2824296E-2,3.335934E-2,1.0587233E-1,-1.1833809E-1,1.3863337E0,2.316223E-2,1.6489235E-1,-3.937698E-1,-3.1865433E-2,-2.606324E-1,-8.163044E-3,5.5997556E-1,-3.1694776E-1,3.2257006E-2,3.9614734E-1,1.78363E-2,-1.6437295E-1,-2.3111312E-1,-9.329968E-2,1.767481E-1,-4.6999136E-1,-4.0848102E-2,-1.5978403E-2,-7.155772E-1,1.1443048E-1,-8.922423E-3,1.6039701E-1,3.7203357E-1,-4.007649E-2,1.6385385E-1,2.3451993E-2,-7.336586E-2,4.461829E-3,-3.085981E-1,-1.1421314E-1,5.9109646E-1,-6.157755E-1,2.3630027E-1,5.0965562E-2,-3.4008563E-1,-1.5565002E-1,9.457445E-2,-2.9813595E-2,-2.4568236E-1,5.9057273E-2,1.4270402E0,-1.5308851E-1,4.6605486E-2,-1.3148018E-2,8.619417E-2,-2.549822E-2,5.835915E-2,-1.7278416E-2,5.962028E-2,-5.6396138E-2,8.346716E-3,-5.0721984E-2,-1.3810275E-1,-1.2234191E-1,4.6126302E-2,2.90438E-1,-8.389633E-3,-3.2580636E-2,-2.082813E-1,1.37946E-1,-1.9795848E-2,1.1518343E-1,-2.5687145E-2,-1.1451278E-1,-1.9795133E-2,1.9581897E-2,-6.1004806E-2,-1.0020872E-2,5.5753972E-2,-1.3042782E-2,7.622389E-1,-2.2009316E-1,-2.3377597E-2,7.4595714E-1,5.142014E-3],"categories":[],"categories_nodes":[],"categories_segments":[],"categories_sizes":[],"default_left":[0,0,0,0,0,0,0,0,0,0,0,0,0,0,0,0,0,0,0,0,0,0,0,0,0,0,0,1,0,0,0,0,0,0,0,0,0,0,0,0,0,0,0,0,0,0,0,0,0,0,0,0,0,0,0,0,0,0,0,0,0,0,0,0,0,0,0,0,0,0,0,0,0,0,0,0,0,0,0,0,0],"id":17,"left_children":[1,3,5,7,9,11,13,15,17,19,21,-1,-1,23,25,27,29,31,-1,33,35,37,39,41,43,45,47,49,-1,51,53,-1,-1,55,57,59,61,63,65,67,69,71,-1,-1,-1,73,75,77,79,-1,-1,-1,-1,-1,-1,-1,-1,-1,-1,-1,-1,-1,-1,-1,-1,-1,-1,-1,-1,-1,-1,-1,-1,-1,-1,-1,-1,-1,-1,-1,-1],"loss_changes":[1.0136459E0,1.9151465E0,7.376572E0,1.6573293E0,1.5912886E0,2.7662163E0,1.6620053E0,1.6592991E0,3.9172596E-1,1.0674038E0,2.2354789E0,0E0,0E0,1.6682194E0,1.7640104E0,3.581423E0,2.6871148E-1,1.1635417E-1,0E0,1.3484424E0,2.3581376E0,2.7196603E0,7.0418507E-1,4.6543494E-1,3.0077124E-1,1.2562635E1,2.792959E0,4.2730317E-1,0E0,2.5890738E-1,8.0964E-2,0E0,0E0,2.0753741E-1,3.4561038E-1,1.0067831E0,1.8943145E0,7.6062775E-1,3.6817658E-1,9.425032E-1,4.3268025E-2,8.703838E-2,0E0,0E0,0E0,1.9756653E0,1.1575037E1,4.17556E0,1.8074482E1,0E0,0E0,0E0,0E0,0E0,0E0,0E0,0E0,0E0,0E0,0E0,0E0,0E0,0E0,0E0,0E0,0E0,0E0,0E0,0E0,0E0,0E0,0E0,0E0,0E0,0E0,0E0,0E0,0E0,0E0,0E0,0E0],"parents":[2147483647,0,0,1,1,2,2,3,3,4,4,5,5,6,6,7,7,8,8,9,9,10,10,13,13,14,14,15,15,16,16,17,17,19,19,20,20,21,21,22,22,23,23,24,24,25,25,26,26,27,27,29,29,30,30,33,33,34,34,35,35,36,36,37,37,38,38,39,39,40,40,41,41,45,45,46,46,47,47,48,48],"right_children":[2,4,6,8,10,12,14,16,18,20,22,-1,-1,24,26,28,30,32,-1,34,36,38,40,42,44,46,48,50,-1,52,54,-1,-1,56,58,60,62,64,66,68,70,72,-1,-1,-1,74,76,78,80,-1,-1,-1,-1,-1,-1,-1,-1,-1,-1,-1,-1,-1,-1,-1,-1,-1,-1,-1,-1,-1,-1,-1,-1,-1,-1,-1,-1,-1,-1,-1,-1],"split_conditions":[3.4279165E0,1.5905319E1,3.4758337E0,3.1050003E0,1.6550001E0,4.2E-1,1.0144082E1,2.1672418E2,3.67E0,1.0279167E0,1.9347897E2,-8.163044E-3,5.5997556E-1,9.585739E0,1.7271654E2,1.2785351E2,3.447448E2,4.7E-1,-2.3111312E-1,1.4E0,2.5E0,7.5E0,3E0,2.85E0,9.2E-1,1.6338026E2,1.6055355E1,1.23E0,3.7203357E-1,2.24E0,5.2E-1,2.3451993E-2,-7.336586E-2,3.8E-1,1.27E0,2.2473343E1,6.3999996E0,2.1924131E1,3.97E0,2.2257825E2,1.51E0,1.51E0,9.457445E-2,-2.9813595E-2,-2.4568236E-1,2.29E0,3.67E0,1.9008696E2,1.6120806E1,-1.3148018E-2,8.619417E-2,-2.549822E-2,5.835915E-2,-1.7278416E-2,5.962028E-2,-5.6396138E-2,8.346716E-3,-5.0721984E-2,-1.3810275E-1,-1.2234191E-1,4.6126302E-2,2.90438E-1,-8.389633E-3,-3.2580636E-2,-2.082813E-1,1.37946E-1,-1.9795848E-2,1.1518343E-1,-2.5687145E-2,-1.1451278E-1,-1.9795133E-2,1.9581897E-2,-6.1004806E-2,-1.0020872E-2,5.5753972E-2,-1.3042782E-2,7.622389E-1,-2.2009316E-1,-2.3377597E-2,7.4595714E-1,5.142014E-3],"split_indices":[3,5,3,3,3,0,5,6,0,3,6,0,0,5,6,6,6,0,0,4,4,0,4,0,0,6,5,1,0,0,0,0,0,2,0,5,4,6,2,6,0,0,0,0,0,1,2,6,5,0,0,0,0,0,0,0,0,0,0,0,0,0,0,0,0,0,0,0,0,0,0,0,0,0,0,0,0,0,0,0,0],"split_type":[0,0,0,0,0,0,0,0,0,0,0,0,0,0,0,0,0,0,0,0,0,0,0,0,0,0,0,0,0,0,0,0,0,0,0,0,0,0,0,0,0,0,0,0,0,0,0,0,0,0,0,0,0,0,0,0,0,0,0,0,0,0,0,0,0,0,0,0,0,0,0,0,0,0,0,0,0,0,0,0,0],"sum_hessian":[7.18E2,1.82E2,5.36E2,5.3E1,1.29E2,3E0,5.33E2,4.8E1,5E0,8.1E1,4.8E1,1E0,2E0,1.3E1,5.2E2,1.8E1,3E1,4E0,1E0,6.3E1,1.8E1,2.4E1,2.4E1,8E0,5E0,1.73E2,3.47E2,1.5E1,3E0,2.2E1,8E0,1E0,3E0,4.4E1,1.9E1,1.1E1,7E0,2E1,4E0,1.9E1,5E0,6E0,2E0,1E0,4E0,1.67E2,6E0,9.6E1,2.51E2,6E0,9E0,1.9E1,3E0,1E0,7E0,4E0,4E1,1.1E1,8E0,5E0,6E0,4E0,3E0,3E0,1.7E1,2E0,2E0,5E0,1.4E1,4E0,1E0,1E0,5E0,9.7E1,7E1,3E0,3E0,1E1,8.6E1,2E0,2.49E2],"tree_param":{"num_deleted":"0","num_feature":"7","num_nodes":"81","size_leaf_vector":"1"}},{"base_weights":[1.0355632E-2,2.8958734E-2,-4.852444E-2,2.0126201E-2,9.8238015E-1,-1.7634572E-1,2.0905845E-2,2.9160499E-4,1.7978983E-1,1.0848244E-2,4.879356E-1,-3.814608E-1,9.250745E-3,-3.6982317E-2,2.1603094E-1,2.1818098E-2,-2.1019614E-1,1.2004036E0,4.4158615E-2,2.4724567E-2,-1.9842857E-2,2.6866883E-2,-7.149062E-1,3.1011346E-1,-9.942987E-2,1.6885777E-1,-1.16810754E-1,4.475551E-1,1.6409548E-2,7.904282E-3,7.7217615E-1,4.1691992E-2,-4.3233544E-1,2.6915455E-1,7.057052E-1,1.7536482E-1,-1.8766017E-1,-7.6799825E-2,2.0618013E-1,-1.0337757E0,-4.20207E-1,1.947317E-1,-9.0901375E-2,-2.0566107E-1,1.5201908E-1,4.1572812E-1,-9.100166E-2,-4.2852682E-1,-7.101181E-2,1.5237987E-2,6.618089E-1,3.7944865E-1,-1.0597095E-1,-5.1984824E-3,4.170019E-2,3.9971223E-1,-3.6334626E-2,1.11642815E-1,-3.1645782E-2,-1.5233739E-1,2.1567483E-2,1.5295604E-1,-1.8378759E-2,-1.386579E-1,7.487382E-2,-1.013336E-1,9.907532E-2,3.9609622E-2,-6.7147136E-2,3.3037665E-3,-3.6292273E-1,-3.8252056E-3,-1.7790288E-1,-4.8607137E-2,2.903824E-2,-1.148174E-1,-2.5570666E-2,1.1646419E-1,2.5755407E-3,5.6012765E-2,2.6530302E-1,-1.0891128E-1,3.732015E-2,-2.6613328E-1,-7.088541E-2,2.2156377E-1,-2.9596956E-2,-3.3830196E-2,4.1449193E-2,1.04701646E-1,2.3390698E-1,4.676342E-3,1.4866191E-1,4.065374E-2,-1.1101193E-1],"categories":[],"categories_nodes":[],"categories_segments":[],"categories_sizes":[],"default_left":[0,0,0,1,0,0,0,1,0,0,0,0,0,1,0,1,0,0,0,0,0,0,0,0,0,0,0,0,0,0,0,0,0,0,0,0,0,0,0,0,0,0,0,0,0,1,0,0,0,0,0,0,0,0,0,0,0,0,0,0,0,0,0,0,0,0,0,0,0,0,0,0,0,0,0,0,0,0,0,0,0,0,0,0,0,0,0,0,0,0,0,0,0,0,0],"id":18,"left_children":[1,3,5,7,9,11,13,15,17,19,-1,21,23,25,27,29,31,33,35,-1,-1,37,39,41,43,45,47,49,51,53,55,57,59,61,-1,63,65,67,-1,69,71,-1,73,75,77,79,81,83,85,87,89,91,93,-1,-1,-1,-1,-1,-1,-1,-1,-1,-1,-1,-1,-1,-1,-1,-1,-1,-1,-1,-1,-1,-1,-1,-1,-1,-1,-1,-1,-1,-1,-1,-1,-1,-1,-1,-1,-1,-1,-1,-1,-1,-1],"loss_changes":[7.8896326E-1,4.5865846E0,1.5390042E0,1.7195544E0,3.1110377E0,2.325715E0,1.2843734E0,2.1976204E0,8.252618E0,2.198124E-2,0E0,3.9677033E0,1.1098666E0,1.4657308E0,1.1943022E0,4.5876474E0,2.535966E0,6.8761015E0,1.6753763E0,0E0,0E0,1.0112432E0,1.069129E0,1.2824726E0,6.990575E-1,1.6416218E0,8.832505E-1,1.1014225E0,7.066441E-1,1.4347277E0,4.1647325E0,1.109227E0,9.496312E-1,4.2889E-1,0E0,1.7714165E0,1.6665128E0,4.2869467E-1,0E0,1.3002582E0,6.965339E-1,0E0,8.242972E-2,3.5119188E-1,2.6769406E-1,1.2300677E0,8.0692464E-1,4.956627E-1,1.3485215E0,9.425627E-2,2.2872686E-2,1.612395E-1,8.1536376E-1,0E0,0E0,0E0,0E0,0E0,0E0,0E0,0E0,0E0,0E0,0E0,0E0,0E0,0E0,0E0,0E0,0E0,0E0,0E0,0E0,0E0,0E0,0E0,0E0,0E0,0E0,0E0,0E0,0E0,0E0,0E0,0E0,0E0,0E0,0E0,0E0,0E0,0E0,0E0,0E0,0E0,0E0],"parents":[2147483647,0,0,1,1,2,2,3,3,4,4,5,5,6,6,7,7,8,8,9,9,11,11,12,12,13,13,14,14,15,15,16,16,17,17,18,18,21,21,22,22,23,23,24,24,25,25,26,26,27,27,28,28,29,29,30,30,31,31,32,32,33,33,35,35,36,36,37,37,39,39,40,40,42,42,43,43,44,44,45,45,46,46,47,47,48,48,49,49,50,50,51,51,52,52],"right_children":[2,4,6,8,10,12,14,16,18,20,-1,22,24,26,28,30,32,34,36,-1,-1,38,40,42,44,46,48,50,52,54,56,58,60,62,-1,64,66,68,-1,70,72,-1,74,76,78,80,82,84,86,88,90,92,94,-1,-1,-1,-1,-1,-1,-1,-1,-1,-1,-1,-1,-1,-1,-1,-1,-1,-1,-1,-1,-1,-1,-1,-1,-1,-1,-1,-1,-1,-1,-1,-1,-1,-1,-1,-1,-1,-1,-1,-1,-1,-1],"split_conditions":[3.54E0,3.53E0,5.13E0,3.91E0,4.575834E0,2.0682631E2,2.6999998E0,2.72E0,4.3E0,2.58E0,4.879356E-1,1.4448006E2,2.303379E2,5.99E0,4.4999995E0,2.65E0,1.48E0,1.42E0,7.0000005E-1,2.4724567E-2,-1.9842857E-2,1.411835E2,4E-1,1.0000001E0,1.6259167E1,1.6299694E1,1.1480557E1,1.9296135E1,1.5256526E1,2.15E0,2.398587E2,1.717173E2,1.8934164E1,1E-1,7.057052E-1,4.53E0,2.4090894E2,6.486334E1,2.0618013E-1,1.5479102E2,1.9255793E1,1.947317E-1,1.163E1,2.564641E2,2.21E0,5.75E0,1.9853262E2,6.68E0,1.1631956E1,4.05E0,2.54E0,6.35E0,2.5E0,-5.1984824E-3,4.170019E-2,3.9971223E-1,-3.6334626E-2,1.11642815E-1,-3.1645782E-2,-1.5233739E-1,2.1567483E-2,1.5295604E-1,-1.8378759E-2,-1.386579E-1,7.487382E-2,-1.013336E-1,9.907532E-2,3.9609622E-2,-6.7147136E-2,3.3037665E-3,-3.6292273E-1,-3.8252056E-3,-1.7790288E-1,-4.8607137E-2,2.903824E-2,-1.148174E-1,-2.5570666E-2,1.1646419E-1,2.5755407E-3,5.6012765E-2,2.6530302E-1,-1.0891128E-1,3.732015E-2,-2.6613328E-1,-7.088541E-2,2.2156377E-1,-2.9596956E-2,-3.3830196E-2,4.1449193E-2,1.04701646E-1,2.3390698E-1,4.676342E-3,1.4866191E-1,4.065374E-2,-1.1101193E-1],"split_indices":[1,1,1,2,3,6,4,2,2,0,0,6,6,1,4,2,0,0,4,0,0,6,4,4,3,5,5,5,5,1,6,6,3,4,0,2,6,6,0,6,5,0,0,6,2,1,6,1,5,0,2,1,2,0,0,0,0,0,0,0,0,0,0,0,0,0,0,0,0,0,0,0,0,0,0,0,0,0,0,0,0,0,0,0,0,0,0,0,0,0,0,0,0,0,0],"split_type":[0,0,0,0,0,0,0,0,0,0,0,0,0,0,0,0,0,0,0,0,0,0,0,0,0,0,0,0,0,0,0,0,0,0,0,0,0,0,0,0,0,0,0,0,0,0,0,0,0,0,0,0,0,0,0,0,0,0,0,0,0,0,0,0,0,0,0,0,0,0,0,0,0,0,0,0,0,0,0,0,0,0,0,0,0,0,0,0,0,0,0,0,0,0,0],"sum_hessian":[7.18E2,5.46E2,1.72E2,5.42E2,4E0,6E1,1.12E2,4.83E2,5.9E1,2E0,2E0,2.8E1,3.2E1,8.7E1,2.5E1,4.39E2,4.4E1,6E0,5.3E1,1E0,1E0,1.3E1,1.5E1,8E0,2.4E1,2.4E1,6.3E1,1.1E1,1.4E1,4.32E2,7E0,2.1E1,2.3E1,4E0,2E0,3.4E1,1.9E1,1.2E1,1E0,6E0,9E0,4E0,4E0,1.7E1,7E0,1.2E1,1.2E1,7E0,5.6E1,4E0,7E0,3E0,1.1E1,3.63E2,6.9E1,4E0,3E0,6E0,1.5E1,2E1,3E0,2E0,2E0,3E0,3.1E1,1.5E1,4E0,5E0,7E0,1E0,5E0,3E0,6E0,3E0,1E0,6E0,1.1E1,2E0,5E0,9E0,3E0,5E0,7E0,1E0,6E0,1E0,5.5E1,2E0,2E0,3E0,4E0,1E0,2E0,6E0,5E0],"tree_param":{"num_deleted":"0","num_feature":"7","num_nodes":"95","size_leaf_vector":"1"}},{"base_weights":[9.948734E-3,5.084982E-3,1.6381009E-1,1.8389927E-2,-6.857494E-2,-1.3824928E-1,2.1877997E-1,5.6220614E-3,7.609175E-1,-4.651303E-2,-2.4536513E-1,1.9495726E-3,-5.6599427E-2,-1.4329048E-1,2.6980534E-1,2.2223186E-2,-1.05417326E-1,1.2133193E0,6.5851785E-2,-1.0694426E-1,1.4121819E-1,-5.1789183E-2,-1.2691534E-2,4.670639E-1,1.4869227E-1,9.948739E-3,2.6934335E-1,-1.6909961E-1,2.1620452E-1,1.4970514E0,-3.0801112E-2,-4.648501E-3,2.701867E-2,-2.5454304E-1,-4.6569847E-2,3.5827476E-1,5.1326986E-2,-5.1620724E-3,1.7020784E-1,-1.7723877E-2,2.2451395E-1,1.0913456E-2,-3.241686E-2,3.9747785E-5,1.7624688E-1,-4.0299315E-2,-1.9711365E-1,-3.3950903E-2,1.12550244E-1,5.471087E-1,2.8571106E-2,-1.0656111E-1,-2.6449138E-2,-2.6838606E-2,6.98067E-2,-2.8233651E-2,6.5018624E-2,8.0816016E-2,-2.0170212E-2],"categories":[],"categories_nodes":[],"categories_segments":[],"categories_sizes":[],"default_left":[0,0,0,0,0,0,0,0,0,0,0,0,0,0,0,0,0,0,0,0,0,0,0,0,0,0,0,0,0,0,0,0,0,0,0,0,0,0,0,0,0,0,0,0,0,0,0,0,0,0,0,0,0,0,0,0,0,0,0],"id":19,"left_children":[1,3,5,7,9,11,13,15,17,19,-1,-1,-1,21,23,25,27,29,31,33,35,-1,-1,37,39,41,43,45,47,49,-1,-1,-1,51,53,-1,55,-1,-1,-1,57,-1,-1,-1,-1,-1,-1,-1,-1,-1,-1,-1,-1,-1,-1,-1,-1,-1,-1],"loss_changes":[5.37226E-1,6.8532985E-1,3.955378E-1,5.6081734E0,1.7307949E0,3.0416183E-2,3.8968128E-1,1.0770324E0,3.0645914E0,1.2063096E0,0E0,0E0,0E0,1.5856177E-3,3.3669126E-1,1.5382183E0,1.593163E0,2.3940334E0,1.1242725E-2,7.010411E-1,2.3998165E0,0E0,0E0,3.011837E-1,2.0230752E-1,1.5165516E0,2.0554843E0,9.9750984E-1,7.2311527E-1,2.1157894E0,0E0,0E0,0E0,3.5388422E-1,7.1554196E-1,0E0,6.2179416E-1,0E0,0E0,0E0,1.3593578E-1,0E0,0E0,0E0,0E0,0E0,0E0,0E0,0E0,0E0,0E0,0E0,0E0,0E0,0E0,0E0,0E0,0E0,0E0],"parents":[2147483647,0,0,1,1,2,2,3,3,4,4,5,5,6,6,7,7,8,8,9,9,13,13,14,14,15,15,16,16,17,17,18,18,19,19,20,20,23,23,24,24,25,25,26,26,27,27,28,28,29,29,33,33,34,34,36,36,40,40],"right_children":[2,4,6,8,10,12,14,16,18,20,-1,-1,-1,22,24,26,28,30,32,34,36,-1,-1,38,40,42,44,46,48,50,-1,-1,-1,52,54,-1,56,-1,-1,-1,58,-1,-1,-1,-1,-1,-1,-1,-1,-1,-1,-1,-1,-1,-1,-1,-1,-1,-1],"split_conditions":[1.9434166E1,1.6875834E1,8.969381E1,1.6757082E1,6.99E0,2.22E0,1.17E0,1.4575833E1,1.55E0,1.8000003E0,-2.4536513E-1,1.9495726E-3,-5.6599427E-2,7E-1,1.5E0,1.3569584E1,4.53E0,1.6838331E1,6.5E-1,1.749875E1,2.4999998E0,-5.1789183E-2,-1.2691534E-2,1.1440978E1,2.75E0,2.6478973E1,2.051506E2,3.53E0,1.27E0,2E-1,-3.0801112E-2,-4.648501E-3,2.701867E-2,2.1561269E2,4.43E0,3.5827476E-1,3.08E0,-5.1620724E-3,1.7020784E-1,-1.7723877E-2,1.148E1,1.0913456E-2,-3.241686E-2,3.9747785E-5,1.7624688E-1,-4.0299315E-2,-1.9711365E-1,-3.3950903E-2,1.12550244E-1,5.471087E-1,2.8571106E-2,-1.0656111E-1,-2.6449138E-2,-2.6838606E-2,6.98067E-2,-2.8233651E-2,6.5018624E-2,8.0816016E-2,-2.0170212E-2],"split_indices":[3,3,6,3,0,0,0,3,1,4,0,0,0,0,1,3,0,3,0,3,4,0,0,5,0,5,6,0,2,4,0,0,0,6,1,0,0,0,0,0,0,0,0,0,0,0,0,0,0,0,0,0,0,0,0,0,0,0,0],"split_type":[0,0,0,0,0,0,0,0,0,0,0,0,0,0,0,0,0,0,0,0,0,0,0,0,0,0,0,0,0,0,0,0,0,0,0,0,0,0,0,0,0,0,0,0,0,0,0,0,0,0,0,0,0,0,0,0,0,0,0],"sum_hessian":[7.18E2,6.97E2,2.1E1,5.91E2,1.06E2,3E0,1.8E1,5.82E2,9E0,1.04E2,2E0,1E0,2E0,2E0,1.6E1,5.07E2,7.5E1,5E0,4E0,7.9E1,2.5E1,1E0,1E0,5E0,1.1E1,4.84E2,2.3E1,6.3E1,1.2E1,4E0,1E0,1E0,3E0,2.2E1,5.7E1,1E0,2.4E1,1E0,4E0,3E0,8E0,3.96E2,8.8E1,1.3E1,1E1,6E1,3E0,4E0,8E0,3E0,1E0,1.3E1,9E0,5E1,7E0,1.3E1,1.1E1,7E0,1E0],"tree_param":{"num_deleted":"0","num_feature":"7","num_nodes":"59","size_leaf_vector":"1"}},{"base_weights":[7.953972E-3,-1.7173967E-1,1.2288023E-2,-2.8615978E-1,-7.24707E-3,2.8193668E-2,-3.7361078E-2,-3.1530073E-1,-3.5837041E-3,7.450248E-2,-3.2286674E-2,2.1058092E-2,7.7749884E-1,-3.5351175E-1,-2.1711284E-2,-1.0203712E-1,-1.7507521E-2,-3.135403E-4,3.73453E-2,1.490118E-2,2.8507662E-1,1.9453367E-3,3.8816583E-1,-2.0148784E-1,-2.8317928E-2,-6.7368043E-3,-2.7885658E-1,2.9877976E-3,-3.1288909E-3,2.159948E-2,-4.1481543E-1,2.92035E-1,5.0056934E-2,1.9378854E-2,-1.8503452E-2,5.486648E-2,-1.2684155E-1,-4.9573768E-2,1.748309E-1,-4.478871E-1,6.2550046E-2,1.888835E-2,-6.652354E-3,9.936061E-3,-2.0706026E-1,6.837547E-2,-1.3227764E-1,-4.72044E-2,-5.2983286E-3,-5.2973293E-3,-8.0966234E-2,-6.733915E-2,6.8253145E-2,-1.7832962E-1,-1.6304923E-2],"categories":[],"categories_nodes":[],"categories_segments":[],"categories_sizes":[],"default_left":[0,0,0,0,0,0,0,0,0,0,0,0,0,0,0,0,0,0,0,0,0,0,0,0,0,0,0,0,0,0,0,0,0,0,0,0,0,0,0,0,0,0,0,0,0,0,0,0,0,0,0,0,0,0,0],"id":20,"left_children":[1,3,5,7,9,11,13,15,-1,17,-1,19,21,23,25,-1,-1,27,-1,29,31,33,-1,-1,35,37,39,-1,-1,41,43,-1,45,-1,-1,-1,47,49,51,53,-1,-1,-1,-1,-1,-1,-1,-1,-1,-1,-1,-1,-1,-1,-1],"loss_changes":[5.6206864E-1,3.178876E-1,5.562131E-1,7.614201E-2,7.366312E-2,2.8334308E0,8.3838034E-1,3.7553668E-2,0E0,1.8736254E-2,0E0,8.556621E-1,1.9999127E0,8.0857146E-1,6.296226E-1,0E0,0E0,4.1563602E-4,0E0,1.499956E0,1.8926475E0,1.5942372E-2,0E0,0E0,1.2724182E-1,1.2220052E0,8.3478785E-1,0E0,0E0,9.2659557E-1,1.0096991E0,0E0,9.737624E-1,0E0,0E0,0E0,1.054389E-2,8.882389E-1,6.82108E-1,3.7138927E-1,0E0,0E0,0E0,0E0,0E0,0E0,0E0,0E0,0E0,0E0,0E0,0E0,0E0,0E0,0E0],"parents":[2147483647,0,0,1,1,2,2,3,3,4,4,5,5,6,6,7,7,9,9,11,11,12,12,13,13,14,14,17,17,19,19,20,20,21,21,24,24,25,25,26,26,29,29,30,30,32,32,36,36,37,37,38,38,39,39],"right_children":[2,4,6,8,10,12,14,16,-1,18,-1,20,22,24,26,-1,-1,28,-1,30,32,34,-1,-1,36,38,40,-1,-1,42,44,-1,46,-1,-1,-1,48,50,52,54,-1,-1,-1,-1,-1,-1,-1,-1,-1,-1,-1,-1,-1,-1,-1],"split_conditions":[3E-1,2.7737225E2,3.54E0,1.163E1,1.1E0,3.53E0,3.67E0,4E-1,-3.5837041E-3,3.184683E2,-3.2286674E-2,8.44E0,4.575834E0,1.5596767E1,9.600001E0,-1.0203712E-1,-1.7507521E-2,2.2E-1,3.73453E-2,6.99E0,8.77E0,2.58E0,3.8816583E-1,-2.0148784E-1,3.7445831E0,2.6999998E0,3.061482E1,2.9877976E-3,-3.1288909E-3,1.8783066E1,4.7E-1,2.92035E-1,2.34E0,1.9378854E-2,-1.8503452E-2,5.486648E-2,8.19E0,1.3000002E0,1.0279167E0,1.5450832E1,6.2550046E-2,1.888835E-2,-6.652354E-3,9.936061E-3,-2.0706026E-1,6.837547E-2,-1.3227764E-1,-4.72044E-2,-5.2983286E-3,-5.2973293E-3,-8.0966234E-2,-6.733915E-2,6.8253145E-2,-1.7832962E-1,-1.6304923E-2],"split_indices":[0,6,1,2,1,1,1,4,0,6,0,0,3,5,4,0,0,0,0,0,0,0,0,0,3,4,5,0,0,5,2,0,2,0,0,0,0,4,3,3,0,0,0,0,0,0,0,0,0,0,0,0,0,0,0],"split_type":[0,0,0,0,0,0,0,0,0,0,0,0,0,0,0,0,0,0,0,0,0,0,0,0,0,0,0,0,0,0,0,0,0,0,0,0,0,0,0,0,0,0,0,0,0,0,0,0,0,0,0,0,0,0,0],"sum_hessian":[7.18E2,1.6E1,7.02E2,9E0,7E0,5.32E2,1.7E2,8E0,1E0,4E0,3E0,5.28E2,4E0,7E0,1.63E2,7E0,1E0,2E0,2E0,5.17E2,1.1E1,2E0,2E0,3E0,4E0,1.55E2,8E0,1E0,1E0,5.1E2,7E0,2E0,9E0,1E0,1E0,1E0,3E0,1.26E2,2.9E1,6E0,2E0,2.62E2,2.48E2,3E0,4E0,7E0,2E0,2E0,1E0,1.11E2,1.5E1,3E0,2.6E1,4E0,2E0],"tree_param":{"num_deleted":"0","num_feature":"7","num_nodes":"55","size_leaf_vector":"1"}},{"base_weights":[5.4252455E-3,1.5860101E-2,-5.5069346E-2,-5.6790244E-2,3.454739E-2,2.3617167E-2,-1.312789E-1,-5.540538E-3,-2.2060461E-1,1.10208E0,2.5690027E-2,-4.5839947E-2,1.5032147E-1,-2.252277E-1,5.3638767E-2,1.8905377E-1,-7.9463154E-2,-3.152035E-1,3.1543046E-1,-1.0629085E-2,4.4791806E-1,8.421868E-2,-1.5186003E-2,-1.1353973E-1,1.7146178E-2,-9.02843E-3,2.2456208E-1,-1.694799E-1,-4.3197143E-1,1.6844346E-1,-6.6529796E-2,-6.2029056E-2,3.6555004E-1,1.1279234E-1,-1.5706909E-1,-2.2951119E-1,-2.6870227E-1,1.41344555E-2,1.112192E-1,4.5361545E-2,9.038133E-1,-5.668012E-2,1.1425547E-1,-4.9017508E-2,-1.9871184E-1,-6.649312E-2,1.1746685E-1,2.9583162E-2,-2.1111483E-2,7.971947E-2,2.600429E-1,-2.0055851E-1,-1.1739033E-2,-1.7178884E-1,-5.4996166E-2,-3.2767646E-2,2.1143173E-1,-4.5002818E-2,1.412483E-2,-3.8932618E-2,5.5340532E-2,1.3829039E-1,1.903111E-2,5.149931E-2,-8.929835E-2,8.916727E-3,-7.2992615E-2,-1.517186E-1,-3.9061524E-2,3.5970688E-2,-4.571832E-2,4.3948445E-1,4.8574764E-2,1.2593534E-2,-2.75609E-2,2.492836E-1,1.3902514E-2,-4.8000675E-2,3.780615E-3,6.4379903E-3,-8.7321766E-2,6.7305076E-3,-3.6154263E-2,-7.962281E-3,1.24298826E-1,2.2797838E-3,9.953794E-3,3.240772E-2,-7.7989703E-4,7.583374E-3,8.499578E-2,2.5181536E-2,-6.4773E-2,-2.3463791E-2,1.2315278E-2,3.641138E-2,1.0532868E-1,3.500978E-2,-1.990116E-2],"categories":[],"categories_nodes":[],"categories_segments":[],"categories_sizes":[],"default_left":[0,0,0,0,0,0,0,0,0,0,0,0,0,0,0,0,0,0,0,0,0,0,0,0,0,0,0,0,0,0,0,0,0,0,0,0,0,0,0,0,0,0,0,0,0,0,0,0,0,0,0,0,0,0,0,0,0,0,0,0,0,0,0,0,0,0,0,0,0,0,0,0,0,0,0,0,0,0,0,0,0,0,0,0,0,0,0,0,0,0,0,0,0,0,0,0,0,0,0],"id":21,"left_children":[1,3,5,7,9,11,13,15,17,19,21,23,25,27,29,31,33,35,37,-1,-1,39,41,43,45,47,49,51,53,55,57,59,61,63,65,67,-1,-1,-1,69,71,73,75,77,79,81,83,85,-1,87,89,91,93,-1,-1,-1,95,-1,97,-1,-1,-1,-1,-1,-1,-1,-1,-1,-1,-1,-1,-1,-1,-1,-1,-1,-1,-1,-1,-1,-1,-1,-1,-1,-1,-1,-1,-1,-1,-1,-1,-1,-1,-1,-1,-1,-1,-1,-1],"loss_changes":[4.547438E-1,8.355516E-1,6.3874686E-1,1.056603E0,4.5954375E0,4.73318E-1,9.502116E-1,1.4103602E0,1.6206744E0,1.8318753E0,1.1639947E0,1.5119193E-1,2.2680187E-1,3.4170794E-1,2.733289E-1,1.2191846E0,1.0770481E0,1.0877211E0,5.672258E-2,0E0,0E0,6.328421E0,1.5479702E0,8.368304E-2,1.67235E-1,1.8661719E-2,4.6078324E-2,1.4471668E-1,1.3984847E-1,1.424588E-1,6.9449015E-2,2.2433108E-1,4.3198943E-1,5.5854654E-1,8.2878184E-1,5.924735E-1,0E0,0E0,0E0,2.8485203E0,3.5095415E0,7.6069814E-1,3.3686101E0,7.724349E-2,1.4859298E-1,5.5547684E-2,3.9575142E-1,1.43148E-4,0E0,9.601412E-3,4.7482908E-2,1.2730944E-1,2.4265531E-2,0E0,0E0,0E0,7.059085E-2,0E0,5.726158E-2,0E0,0E0,0E0,0E0,0E0,0E0,0E0,0E0,0E0,0E0,0E0,0E0,0E0,0E0,0E0,0E0,0E0,0E0,0E0,0E0,0E0,0E0,0E0,0E0,0E0,0E0,0E0,0E0,0E0,0E0,0E0,0E0,0E0,0E0,0E0,0E0,0E0,0E0,0E0,0E0],"parents":[2147483647,0,0,1,1,2,2,3,3,4,4,5,5,6,6,7,7,8,8,9,9,10,10,11,11,12,12,13,13,14,14,15,15,16,16,17,17,18,18,21,21,22,22,23,23,24,24,25,25,26,26,27,27,28,28,29,29,30,30,31,31,32,32,33,33,34,34,35,35,39,39,40,40,41,41,42,42,43,43,44,44,45,45,46,46,47,47,49,49,50,50,51,51,52,52,56,56,58,58],"right_children":[2,4,6,8,10,12,14,16,18,20,22,24,26,28,30,32,34,36,38,-1,-1,40,42,44,46,48,50,52,54,56,58,60,62,64,66,68,-1,-1,-1,70,72,74,76,78,80,82,84,86,-1,88,90,92,94,-1,-1,-1,96,-1,98,-1,-1,-1,-1,-1,-1,-1,-1,-1,-1,-1,-1,-1,-1,-1,-1,-1,-1,-1,-1,-1,-1,-1,-1,-1,-1,-1,-1,-1,-1,-1,-1,-1,-1,-1,-1,-1,-1,-1,-1],"split_conditions":[2.899498E2,3.4279165E0,1.5904169E0,2.6945832E0,3.4758337E0,3.4269702E2,1.047375E1,1.6831684E1,5.75E0,4.2E-1,1.007375E1,9.9E-1,-2.6387498E0,8.96125E0,1.89E0,7.508331E-1,